1723 200
</s> 0.002001 0.002210 -0.001915 -0.001639 0.000683 0.001511 0.000470 0.000106 -0.001802 0.001109 -0.002178 0.000625 -0.000376 -0.000479 -0.001658 -0.000941 0.001290 0.001513 0.001485 0.000799 0.000772 -0.001901 -0.002048 0.002485 0.001901 0.001545 -0.000302 0.002008 -0.000247 0.000367 -0.000075 -0.001492 0.000656 -0.000669 -0.001913 0.002377 0.002190 -0.000548 -0.000113 0.000255 -0.001819 -0.002004 0.002277 0.000032 -0.001291 -0.001521 -0.001538 0.000848 0.000101 0.000666 -0.002107 -0.001904 -0.000065 0.000572 0.001275 -0.001585 0.002040 0.000463 0.000560 -0.000304 0.001493 -0.001144 -0.001049 0.001079 -0.000377 0.000515 0.000902 -0.002044 -0.000992 0.001457 0.002116 0.001966 -0.001523 -0.001054 -0.000455 0.001001 -0.001894 0.001499 0.001394 -0.000799 -0.000776 -0.001119 0.002114 0.001956 -0.000590 0.002107 0.002410 0.000908 0.002491 -0.001556 -0.000766 -0.001054 -0.001454 0.001407 0.000790 0.000212 -0.001097 0.000762 0.001530 0.000097 0.001140 -0.002476 0.002157 0.000240 -0.000916 -0.001042 -0.000374 -0.001468 -0.002185 -0.001419 0.002139 -0.000885 -0.001340 0.001159 -0.000852 0.002378 -0.000802 -0.002294 0.001358 -0.000037 -0.001744 0.000488 0.000721 -0.000241 0.000912 -0.001979 0.000441 0.000908 -0.001505 0.000071 -0.000030 -0.001200 -0.001416 -0.002347 0.000011 0.000076 0.000005 -0.001967 -0.002481 -0.002373 -0.002163 -0.000274 0.000696 0.000592 -0.001591 0.002499 -0.001006 -0.000637 -0.000702 0.002366 -0.001882 0.000581 -0.000668 0.001594 0.000020 0.002135 -0.001410 -0.001303 -0.002096 -0.001833 -0.001600 -0.001557 0.001222 -0.000933 0.001340 0.001845 0.000678 0.001475 0.001238 0.001170 -0.001775 -0.001717 -0.001828 -0.000066 0.002065 -0.001368 -0.001530 -0.002098 0.001653 -0.002089 -0.000290 0.001089 -0.002309 -0.002239 0.000721 0.001762 0.002132 0.001073 0.001581 -0.001564 -0.001820 0.001987 -0.001382 0.000877 0.000287 0.000895 -0.000591 0.000099 -0.000843 -0.000563 
for -1.218392 -0.548274 0.323851 0.272002 -0.163316 -0.308582 -0.038610 -0.331444 -0.956131 -0.587443 0.342903 0.145195 -0.762920 -1.198923 0.351608 0.149035 0.097552 0.989238 -0.362482 0.399065 0.778489 0.829225 -0.686621 0.228875 -0.165094 0.570673 0.501584 0.610731 0.400590 0.552767 0.691531 -0.415613 -0.495709 -0.607184 -0.262933 -0.044727 -0.142305 -1.401302 -0.556160 0.044641 -0.299540 1.188343 -0.574030 0.034281 0.193496 -0.072249 -0.760199 0.140242 0.169112 -0.031984 0.299907 -0.731112 -0.507957 0.217854 0.731570 -0.213022 -0.384704 -0.281315 0.492406 0.035527 0.686089 0.114384 -1.342877 0.355032 -0.658937 -0.347670 -0.056864 -0.341462 0.894057 -0.477086 -0.800314 0.421474 0.589259 -0.350297 0.511713 -0.449318 -0.230825 -0.051648 0.449037 0.411421 0.916467 -0.509298 0.004213 -0.131539 0.505700 -0.022987 0.079723 -0.569220 0.303933 0.078226 0.035916 0.041770 0.147608 -0.672900 -0.452857 0.169342 0.498595 0.213269 -0.028361 0.142894 -1.457068 0.961764 0.440517 0.026878 -0.207784 -0.276091 -0.283591 -1.053161 0.819005 0.371291 0.257733 1.113787 0.136873 -0.461844 -0.044437 0.571323 0.295351 -0.190024 0.591951 -0.282600 -0.139133 0.757813 0.422754 0.029089 0.092296 -0.187985 0.291945 0.852223 0.246940 -0.528623 0.268303 -0.057074 -1.079773 1.055316 0.388624 0.011098 -0.028064 0.067967 0.008163 -0.036181 0.451267 0.141256 -0.440822 0.702856 0.770140 0.142043 0.213893 0.130568 0.652918 -0.285067 0.435308 -0.135087 0.363811 -0.628579 -0.217126 0.035789 0.703641 0.270833 -0.403877 -0.312315 -0.100153 0.533646 -0.112384 -0.398261 1.087926 0.778864 -0.407637 0.082801 -0.522790 0.679379 0.372147 0.658488 -0.421775 0.031410 -0.540762 -0.024037 0.048538 -0.913360 0.150638 -0.485857 -0.565790 0.196286 -0.706843 -0.178303 -0.052970 0.989086 -0.131181 -0.691327 -0.481602 0.460459 -0.062546 -0.304947 -0.142056 0.228300 0.724507 0.937888 -0.912857 0.092898 -0.387720 0.088245 
learning 0.004127 0.043437 0.208447 0.187081 0.412131 0.920315 -0.481626 0.376402 -0.987055 0.368284 -0.102956 0.257542 0.574503 0.315866 0.447659 0.899832 0.161599 0.262582 0.544763 0.662837 -0.431985 0.582270 0.852539 -0.374720 0.244315 -0.255903 0.607845 0.262257 0.042258 -0.465300 -0.572136 0.502875 -0.419139 0.019793 -0.445379 -0.337217 0.195101 1.125289 0.516060 0.070341 -1.306815 0.055318 0.276729 -0.232900 0.680111 -1.300904 0.249194 0.698477 0.609714 0.731782 -0.569609 -0.018607 0.218409 0.337006 -0.108726 0.057135 -0.027096 1.071764 0.552121 0.441381 -0.360917 0.078645 -0.076598 0.530268 -0.659988 0.256791 -0.474489 -0.267003 0.859605 1.149371 -0.288237 -0.525767 1.121042 -0.788274 -0.299797 0.285053 -0.394225 -0.087338 -0.120186 0.024573 -0.201609 0.106026 -0.356174 0.365003 -0.068588 -0.090126 0.471590 0.656307 0.686893 0.239745 0.259183 0.604729 0.366566 0.085822 0.103393 -0.656428 0.242313 -0.401391 -0.182603 -0.147656 0.391564 0.343200 0.534979 -0.335186 0.940770 1.230494 -0.179113 1.308692 0.146082 0.047581 -0.017087 -0.261640 -0.520618 -0.234091 -0.090525 -0.567600 -0.162259 0.289441 0.086224 0.693470 0.037449 0.672506 0.090298 -0.827766 0.733572 0.782252 -0.246736 0.155401 0.414409 -0.378560 0.381049 0.653614 -0.241264 -0.098103 -0.129238 0.068421 -0.431254 -0.088229 0.462384 -0.323217 -0.018599 -1.139090 0.526846 0.399696 -0.362183 -0.199939 -0.336972 0.058365 0.013076 0.109814 -0.647123 0.524422 -0.116947 0.515619 0.439693 -0.902160 -0.252489 -0.321092 -0.486997 0.213364 -0.293306 -0.140791 -0.031474 0.761681 0.083082 -0.301138 0.450380 0.251708 -0.185830 0.091014 0.799332 0.063654 0.305202 0.701436 -0.102303 0.157081 -0.743734 0.353590 -0.029907 -0.158868 -0.626585 0.262679 -0.423918 0.268500 -0.020963 0.647673 -0.908719 0.921982 0.198495 0.503214 0.137905 0.296122 0.005650 0.059838 0.378105 -0.023117 -0.395182 -0.427213 0.036564 0.295051 
of -0.457996 0.023892 0.414036 -0.146840 -0.620608 0.272926 -0.651961 0.378890 -0.895168 1.076795 -0.512463 0.688586 -0.696717 -0.284540 0.208431 0.707985 0.690241 -0.330740 0.407075 -0.062674 2.370687 0.209466 0.007574 -0.286466 0.821127 0.059288 -0.386218 0.411779 0.055265 0.313566 0.614624 0.933405 -1.025216 0.242350 0.486569 -0.641139 0.455651 0.415331 -0.351329 -0.481370 0.173962 0.647196 -0.564945 -0.787787 -0.367573 0.134836 -0.066271 0.522737 0.812003 -0.283405 0.777746 0.014631 -0.270093 0.037206 -0.648062 0.472293 0.717954 -0.177835 -0.617208 -0.562629 -0.211839 -0.433140 0.050052 0.296720 -0.558479 0.133756 -0.238079 0.072862 -0.349994 0.499394 -0.614747 0.055004 0.125685 -0.289291 -0.193169 0.625662 -0.791532 0.412937 0.377121 0.407534 -0.405944 -0.446882 0.697492 -0.729799 0.924703 0.210116 0.007690 -0.199066 0.466910 0.020269 0.439257 0.106192 -0.250845 0.112110 -0.202733 -0.411135 -0.772603 0.245496 -0.299016 0.290067 -0.421690 1.089477 0.446629 0.097116 0.163845 0.210222 -0.518855 -0.413241 0.330504 -0.361160 0.633673 -0.100617 -0.203981 0.246483 0.164875 0.174633 0.596937 0.045239 -0.170457 -0.171065 0.327242 0.837093 0.408092 0.488143 0.222522 -0.539426 0.350337 -0.059752 0.703570 0.309496 -0.298324 0.047988 -0.076848 -0.142698 0.280559 0.392363 0.556248 0.217801 0.475010 0.394927 0.554241 0.657999 -0.385424 -0.389887 0.972890 0.698129 0.676412 0.237574 -0.478487 0.469039 0.274211 -0.195027 0.019181 0.096022 0.179529 -0.499069 0.244173 -0.317200 0.450124 -0.260679 -0.213063 0.034036 -0.269299 0.555624 -0.044547 -0.614514 -0.575595 -0.350747 -0.007118 -0.916730 -0.169957 -0.164956 -0.495655 0.336705 -0.999866 -0.062236 0.099143 -0.855647 -0.151241 -0.517204 -0.487566 0.058483 0.544658 0.022563 0.151170 0.726823 0.636227 -0.300119 0.042675 0.164916 -0.652085 0.010137 0.982203 0.941670 0.753630 -0.153717 -1.183031 0.138046 -0.099606 -0.175374 
and 0.046519 -0.180419 0.252932 -0.639025 0.212597 0.015745 -0.460161 -0.417235 0.187826 0.456915 -0.296564 0.198642 0.229026 0.253329 0.080357 0.040178 -0.145396 -0.330815 0.171487 0.924661 -0.566878 0.225254 -0.411941 0.351645 -0.258931 -0.174500 -0.140196 -0.414217 1.220459 0.342453 1.191429 0.076662 0.008494 0.778186 0.895321 -0.260484 0.873555 -0.448148 -0.120638 0.273263 -0.166400 0.761803 -0.769527 -0.964309 0.420121 -0.090083 -0.563866 -0.374080 -0.226392 0.392820 0.462569 -0.394390 -0.094993 0.156936 -0.840742 -0.407346 0.135176 -0.739968 0.173290 0.207341 -0.235714 0.057692 -1.421852 -0.687055 -0.575229 0.137914 -0.307897 -0.423778 1.210294 0.007581 -0.161060 -0.055075 0.799291 0.135319 -0.297151 -0.068074 -0.148677 0.367529 -0.818399 -0.590750 -0.665056 0.468613 0.370968 0.879277 0.290859 -0.146067 -0.730141 0.109283 0.137351 -0.357936 -0.645990 -0.067857 -0.154243 -0.446105 0.138621 -0.703052 -0.076190 0.478397 1.001256 -0.139876 -0.191788 -0.221471 0.287179 0.366880 0.286407 0.462187 -0.791655 0.007187 0.505712 0.279589 0.028496 -0.052293 0.547153 -0.403857 0.263181 0.137945 0.264514 0.103619 -0.974125 -0.428782 -0.620306 0.243743 0.240314 -0.551879 0.355496 0.359549 1.048198 0.519392 0.475514 -0.508761 -0.100899 0.130880 0.083490 0.049356 -0.038792 0.120565 0.404208 -0.081867 -0.020322 -0.506414 -0.357157 -0.098421 0.027937 -0.474062 -0.975379 -0.115223 -0.393205 -0.065972 -1.065301 0.398207 -0.330149 0.239414 -0.277294 -0.399967 0.013419 -1.223557 0.981733 -0.503031 -0.203739 0.319742 0.378870 -0.506745 0.350666 0.550777 0.494132 0.675033 -0.625250 0.192465 -0.507454 0.232917 0.038556 -0.319919 -0.628806 -0.198480 -0.130334 0.177968 0.985718 -0.302301 0.426633 0.903781 -0.227082 0.105920 0.817679 -0.596424 -0.530712 0.956070 -0.429505 -0.564380 1.346750 0.029513 -0.000000 -0.128063 0.402085 0.346965 0.810653 0.515314 0.311776 0.743632 0.119025 -0.381174 
with -1.379623 -0.449073 -0.206157 -0.869525 0.354981 0.712924 -0.057113 0.090303 -0.080841 0.009850 -0.634765 -0.017839 -0.830768 -0.386218 -0.294571 -0.006624 -0.169253 0.833987 -0.524871 0.645991 0.529643 -0.121383 -1.143460 0.466746 -0.506272 -0.091408 0.234523 1.199193 -0.187594 -0.384200 1.468585 -0.413489 -0.810818 -0.079289 0.465510 1.117808 -0.011347 -0.196449 -0.021626 -0.317173 -1.422636 0.787537 0.302324 -0.922038 0.177288 0.797685 -0.285097 0.504137 -0.088078 0.259076 0.067769 -0.526668 0.066602 0.744070 0.286973 -0.000671 -0.793023 0.471622 0.354950 0.096120 0.764080 0.043473 -0.269367 -0.747579 -0.573120 -0.219163 -0.764531 0.330893 1.008768 -0.771483 -0.640444 -0.480372 0.684122 -0.522221 0.725857 1.091570 0.020584 -0.113035 -0.492492 -0.308636 0.280116 0.615447 -0.693830 0.382095 0.046077 0.927123 -0.807496 -0.282501 -0.401203 0.013187 0.648456 -0.084806 0.043292 0.038197 -0.067683 0.417601 -1.158114 -0.177400 1.013588 0.485617 -0.817442 0.089137 0.608247 0.642238 -0.247475 0.241157 0.471758 0.248169 -0.353595 -0.029187 -0.355976 0.451803 0.422096 -1.007121 0.271191 0.155782 -0.138564 0.377594 0.241452 -0.133994 0.208553 -0.731822 0.374472 0.077345 -0.026874 0.309273 0.295811 0.349992 0.810633 0.084709 -0.073971 -0.721848 0.562010 0.060632 0.032230 -0.097621 1.184208 -0.397059 0.039740 0.474166 1.095928 -0.228625 -0.821857 -0.698348 0.124833 0.997776 0.033217 0.052471 -0.678337 -0.490650 0.298204 -0.276954 -0.253747 -1.604921 0.954238 0.037982 1.218849 0.203847 0.064014 -0.643426 0.106698 -0.251613 0.668177 -0.273854 0.303272 0.949417 -0.461512 -1.019435 -0.487904 0.323058 -0.113033 -0.130310 -0.596855 0.357653 -1.436276 -0.147233 -0.200316 0.411354 -0.679110 -0.775163 0.221386 0.286535 -0.271501 -1.250458 -0.716658 0.593126 0.484580 0.057271 0.184628 -0.158910 0.486759 0.282096 0.415234 0.651940 -0.555828 0.923790 -0.521088 0.566724 0.465417 -0.932989 
a -0.482292 0.327691 0.183961 0.946791 -0.598650 0.932650 0.180517 -0.216602 -0.393129 0.906973 0.002669 0.260164 1.183526 -0.281270 0.916311 -0.239030 0.191599 0.117532 0.402588 -0.133109 -0.916116 -0.371514 0.377010 0.565851 0.499439 -1.112807 -0.302574 0.830838 0.751528 0.692517 0.800140 0.407935 0.057425 -0.126744 0.102088 0.735911 -0.267862 -0.213936 1.080634 0.358347 0.240464 0.283420 -0.047487 0.322442 0.538241 0.190932 -0.199942 0.113358 0.863274 -0.268467 0.058505 -0.269214 -0.048702 -0.118956 1.386126 0.676859 -0.130254 0.176728 0.150795 -0.068017 0.175566 -0.470336 0.142006 0.504533 -0.902418 -0.461733 -0.133205 -0.465801 0.765010 0.006365 -0.613876 0.239261 -0.450594 -0.941909 0.575054 -0.044098 0.087540 0.845775 -0.235561 0.370303 1.286600 0.464536 0.764096 -0.121109 -0.670907 -0.820862 -0.141087 0.194438 0.635792 -0.736336 0.003639 0.328664 0.498314 0.129187 0.587651 -1.037046 0.180131 0.552731 0.438874 0.564862 -0.118570 -0.023266 0.670063 -0.937133 0.773726 0.426390 -1.176703 -0.173574 -0.700451 0.271465 0.315999 0.007664 -0.756606 0.613595 -0.188237 -0.847255 0.084647 -0.479758 -0.640224 0.715658 -0.704393 -0.272220 0.665617 -0.983230 -0.403313 -1.071134 0.334623 -0.278984 -0.114922 0.283186 0.228521 -0.095887 -0.934496 0.717804 0.093175 0.886640 0.944577 -0.513834 0.227625 -0.033547 0.853784 -0.594159 0.330957 0.561090 0.149824 -0.649768 -0.496778 0.673692 0.284294 -1.051552 -1.028040 0.998199 -0.359986 -0.482527 -0.152269 0.541650 0.817299 -0.721360 0.365218 -0.448525 0.308993 0.244549 0.676330 -0.145290 0.016336 -0.178940 -0.966488 -0.152212 0.778139 -0.376476 1.042832 -0.350879 0.601004 0.614422 0.291391 -1.097221 0.048663 0.610053 -0.601353 0.383391 -0.493444 0.031744 0.051314 0.832614 -1.022541 -0.218345 0.144307 0.060816 0.341178 -0.952918 -0.118278 0.512428 0.801747 -0.101443 1.052476 0.708988 1.053899 -0.485441 0.164931 -0.250291 
in -0.428562 0.132816 1.054952 0.212062 0.110780 -0.810204 -0.710186 0.099576 0.252714 -0.251976 -0.307012 -0.067997 0.101147 -0.092306 -0.121185 0.167302 -0.819572 0.818799 0.212243 -0.666682 0.502028 0.614366 -0.283477 0.099205 0.528683 0.296128 -0.081985 0.157375 0.574334 0.510462 0.067913 -0.008736 -1.387793 -0.531387 -0.789727 0.127681 0.051972 0.365438 -1.337815 -0.613411 0.826770 0.331254 -0.764724 -0.219345 -0.807674 0.608507 -1.269580 -0.409429 0.854652 -0.744135 -0.958261 -0.130193 -1.482618 0.573534 -0.669452 0.391347 1.055588 -0.655321 -0.513682 0.190109 1.396278 0.807415 -0.338111 -0.141870 -0.688474 -0.466383 -1.281253 -0.329940 0.675382 -0.703168 -0.354584 0.048480 -0.670714 0.674893 -0.351862 0.568389 0.115061 0.452250 -0.721268 0.063168 -0.042312 -0.363867 0.004289 0.255566 0.231083 0.125683 0.387799 -1.073615 0.312229 1.016846 0.551526 -0.864864 -0.148209 0.613935 0.577445 0.761648 0.824308 1.167196 -0.160059 -0.762891 -0.899952 0.420568 0.370982 0.180354 -0.283341 0.087729 -0.408147 -0.208420 0.846561 0.189065 0.852758 0.605378 0.437104 0.569188 0.229437 1.149103 0.253367 0.426707 -0.296109 -0.097476 -0.142822 0.736818 0.132746 0.894960 -0.013761 0.154519 0.800581 1.251176 1.199345 0.650692 0.374370 0.638195 -0.173491 0.207307 0.003067 -0.213263 -0.214562 0.067906 -0.401412 -0.207388 0.834831 0.545649 -0.304040 0.385123 0.763409 -0.758306 -0.248899 0.366896 -0.366614 0.533520 1.133128 0.602491 0.459261 -0.972876 0.001873 -0.422504 0.145432 -0.564550 0.235133 0.313939 0.083592 0.151963 -0.524227 -0.341043 -0.611964 0.705959 0.006360 -0.577241 0.063844 -0.569446 -0.080641 0.178120 0.757956 -0.385552 -0.530313 0.066374 -0.359449 -0.092698 -0.758860 0.388244 0.423643 -0.257843 0.250491 -0.899799 0.368375 0.174512 -0.948874 0.048690 0.740250 0.400001 -0.284037 -1.098755 0.182885 0.210803 -0.109400 0.832683 -1.586903 0.343834 0.149994 0.592333 
the -0.167932 0.486003 -0.541505 0.086484 -0.048913 0.572433 0.924250 0.293767 0.657562 -0.111937 -0.339791 -0.138566 1.198163 -0.493312 -0.739635 -0.180807 -0.233883 0.589157 0.989698 -0.510843 0.898960 -0.728790 -0.281638 0.098492 0.498444 0.190097 0.488070 0.379004 -0.403945 0.262150 0.144639 -0.363896 0.366690 0.169021 0.461101 0.161365 0.877190 0.290841 1.276025 0.187912 0.234342 -0.641094 0.392093 -0.769955 -0.039980 0.318634 1.081618 -0.798589 -0.080944 -0.275036 -0.188946 -0.527624 0.642081 -0.036260 -0.626577 0.656636 0.723999 0.131376 0.531341 0.656968 0.850727 0.065946 -0.472666 0.300882 1.218908 0.350223 -0.146316 -0.139804 -0.053751 0.232156 -0.142243 0.346896 0.282236 0.917743 0.431281 -0.158514 0.351022 1.417980 -0.579445 -0.007262 0.407111 -0.098792 0.486175 0.867551 -0.132117 -0.135326 -0.046627 -0.486460 -0.247417 -0.146113 0.020273 0.022852 -0.050674 -0.413578 0.023762 0.165078 0.198550 -0.528938 -0.737632 -0.071071 1.078302 0.237898 0.898696 0.107509 -1.148961 0.852136 -1.137704 0.494318 -0.361373 1.563575 -0.547298 0.633827 -0.904158 0.085825 1.324548 -0.007769 0.091653 0.228373 -0.835738 0.343293 0.167383 0.725449 0.506218 -0.907131 -0.837599 -0.219741 -0.133581 -0.285704 1.169246 0.186047 -0.482218 0.161881 0.212328 -0.460490 -0.585118 -0.087416 0.470976 -0.731276 -0.680323 -0.157977 1.096704 -0.437068 -0.063999 0.869042 1.043781 -1.013369 0.629342 0.183121 -0.298730 -0.310744 0.593475 -0.353253 0.725753 0.810672 0.096236 -0.668995 0.324431 0.178247 -0.337955 -1.443732 0.878724 0.798711 -0.052286 -0.054964 -0.639369 0.203661 0.319854 -0.305393 0.201685 -0.700730 0.032674 -0.008650 0.143529 0.013711 0.488886 -0.286957 -0.218713 0.857845 0.507190 1.150780 -0.722919 0.330179 0.641346 0.006823 -0.229194 0.101169 0.140228 -0.209916 -0.072600 0.502557 -0.751670 0.752748 -0.872773 1.380799 0.330131 0.447346 -0.088543 -0.300377 -0.196439 -0.440783 
to -0.708730 -0.731578 -0.401539 -0.178196 -0.480406 0.751263 -0.155782 -0.553585 0.185727 -0.171192 0.732839 0.386533 -0.338310 -1.403540 0.636758 0.568621 0.362555 0.778752 -0.650439 -0.272679 1.120122 0.929139 0.634204 -0.031584 0.832628 0.140748 0.539676 0.070881 0.291356 -1.154585 0.586719 -0.102627 0.448261 0.210103 0.511853 0.524655 -0.235774 -1.281678 -0.676257 -0.504123 0.056123 1.092577 0.340069 0.559453 1.199071 -1.556977 1.335738 -0.423542 0.038689 -0.505340 -0.324488 -1.204108 -1.459323 0.608321 -1.000977 -0.427522 0.081582 0.396104 1.665616 0.707821 -0.089817 1.678487 -0.369295 0.840971 -0.926405 0.186332 0.236455 0.243675 -0.433448 -1.654933 0.353716 0.309214 -0.215094 -1.144771 1.708505 1.468343 0.375831 0.939773 0.748539 -0.136228 0.258200 -0.462894 0.184704 -0.959522 -0.010282 -0.214714 0.817790 1.068169 0.561843 -0.426833 1.041206 -0.891920 -0.731753 0.514601 -0.442937 0.974977 1.253242 -0.119627 0.363577 -0.005315 0.150993 0.234068 -1.934958 -0.768888 0.842005 1.567058 -0.854553 -0.125562 1.128592 0.171215 -0.224114 0.331649 -1.169681 -0.290627 -0.725557 0.075058 1.013723 0.210112 -0.434524 -0.064043 -0.291937 0.118096 1.196042 1.120849 -0.338498 -0.363697 -0.011522 0.215965 0.521869 -0.226290 -0.627298 -0.091450 -0.785697 -0.832303 0.358263 0.038012 -0.010690 0.795422 -0.144348 -0.649285 -0.916702 0.974507 1.454161 -0.810371 0.161844 0.743316 0.104697 -0.443278 1.273315 0.212777 -0.446875 -0.602666 1.243233 0.708712 0.178039 -0.653641 0.381415 -0.070985 0.906361 -0.225758 -0.764633 0.324119 -0.744528 -0.504226 0.370219 0.233696 -0.308550 -1.182296 0.296059 0.448811 -0.005666 0.283410 0.114594 -0.316269 -0.293324 -0.561150 0.801236 -0.402899 -0.793988 0.092413 -1.025736 -0.876999 0.312906 -0.408380 -0.481284 0.144990 0.678343 0.624909 -0.388963 -0.056799 -0.941963 -0.073439 0.543063 -0.287504 -0.717280 -0.527773 -1.633092 0.652085 -0.194738 -1.245217 
using -1.777157 -1.118100 0.311376 -2.097046 0.769050 -0.748726 -0.300849 -0.212529 0.282215 0.505084 -0.212742 -0.030522 -1.480500 -0.608997 -1.226374 0.865851 0.564848 0.574037 -0.013173 0.250352 1.307932 0.520563 -0.802751 0.472665 0.570896 0.467317 1.451247 -0.311795 1.407348 -0.833316 0.044790 -0.216139 0.083157 1.054017 -1.156449 1.248895 -0.822527 -0.686001 -1.005199 -1.128888 -1.288565 1.935588 -0.089372 -0.853601 -0.308839 -0.422544 0.312250 1.054469 1.019092 0.196280 -0.880569 -0.507799 1.038565 -0.455584 -0.119131 -0.433206 0.668566 0.586586 -0.061267 -1.273886 0.619986 -1.846655 -0.005193 -0.016727 -0.127630 0.981321 0.190061 0.258145 0.627029 0.447999 0.193092 0.746980 1.607154 -0.012252 -0.287273 -0.229012 -0.112340 -0.851654 -1.078751 0.355047 -0.543361 1.208380 -0.296065 -0.385568 1.314768 -0.133377 -0.025191 -0.772295 -0.152745 0.109335 0.735612 1.410341 0.899093 0.545583 -0.187611 0.526690 -0.476962 0.370330 0.167055 -0.570331 -1.549547 0.240958 -0.239813 -0.561775 1.230368 -0.687745 0.065862 0.734425 -0.130622 0.749421 1.468199 1.528476 0.158519 0.276661 -0.024239 0.305323 0.747165 -0.289850 -0.388135 0.253804 -0.074542 -0.338161 -0.947941 -0.474231 0.959440 0.049140 0.313706 -0.634661 -1.362587 0.252176 1.004452 -0.951294 0.610794 0.593115 -0.295166 0.663696 0.677227 -0.567392 0.148713 0.276863 0.423759 -0.553738 -0.084273 -0.758991 -0.558033 -0.069440 0.176785 0.737752 -1.077200 -0.149727 0.773155 -1.222500 -0.821045 -0.890527 -0.112644 0.631878 -0.241245 -0.146538 -0.879464 -0.496065 -0.881334 -0.373249 -1.313439 0.370444 0.555621 0.694534 0.984861 0.122827 0.491949 0.466103 0.088346 1.831788 0.860245 -0.914351 -1.679877 0.338261 0.833937 -0.375852 -1.049696 0.589896 -1.068509 0.517941 -0.462195 -0.410006 0.183331 0.091005 -1.675027 0.792162 0.032554 -0.015617 -0.894318 1.068336 0.899456 -0.057100 -0.403106 0.275634 -0.104157 -0.184102 0.103206 -0.058870 
on -0.529713 0.094482 0.640738 -0.595789 0.590697 0.159231 0.132841 -1.291026 0.802057 0.081056 0.119796 0.224339 -1.841311 -0.907791 0.457836 0.242985 0.863311 1.496583 -0.120741 0.587238 -0.593983 -0.133033 0.131143 -1.061606 0.944678 -0.707568 -0.776325 0.692772 0.997182 0.204521 0.233167 0.332598 -0.386747 -0.029916 1.231070 -0.743629 -0.632274 -0.117939 0.294293 -0.342816 -0.656191 -0.189263 -0.072676 -0.263896 0.377493 -0.094718 0.477453 -1.068786 0.345215 0.242202 1.405416 -1.527362 0.245700 -0.063691 -0.754445 -0.582665 -0.837201 -0.769503 1.036113 -1.108659 0.479829 0.495579 0.094522 -0.243676 -0.403195 1.622464 -0.092794 0.134301 0.513108 0.401503 -1.024464 0.247965 -0.406840 -1.455809 -0.074531 1.203466 -0.869093 0.536055 -0.358096 -0.281494 -1.346648 1.202710 0.266828 1.417050 1.517780 0.886385 0.019238 -0.028025 -0.665401 0.191487 0.326421 0.312079 -1.179190 -0.765024 -1.054848 0.988761 -0.295026 0.659264 -0.353433 0.217781 -1.057768 -0.403145 -0.302161 -0.009045 -1.305867 0.105889 0.301253 -0.779839 0.891733 0.288521 0.393141 -0.766100 0.194192 -0.339822 1.815683 0.182982 1.126086 -0.043136 0.156711 0.637451 -0.154544 -0.674303 1.457081 0.532919 -0.293110 0.055427 -0.246649 0.789911 0.405609 0.489374 -0.844932 -0.529236 0.245689 -0.154100 0.722597 1.609967 -0.661336 0.403951 0.756843 -0.324637 1.126441 0.417600 -0.654688 -0.113026 -0.148675 -0.658389 -0.668009 -0.240663 -0.556701 0.278888 -0.434453 -0.777372 0.315410 0.210120 -0.363227 0.341537 0.662754 -0.764431 1.141248 1.264382 -0.032663 -1.671929 -1.030482 0.306975 -1.142039 0.603034 0.602513 1.299003 -0.182598 1.695367 -0.490226 0.203516 0.064881 0.694429 0.714407 1.420533 -0.466707 -0.375917 -0.063149 1.927186 0.883139 -0.401823 -0.931174 0.077941 1.486975 1.078520 1.057236 0.103834 -1.272301 -0.218297 -0.037297 1.247780 1.339401 -0.205540 0.172185 0.131613 -0.932865 0.127680 -0.153000 -0.355780 
from -1.301337 -0.237926 -1.029288 -1.243780 0.607848 -0.447260 -0.622879 0.887927 -0.280309 0.711380 0.833110 1.207660 -2.117385 -0.738104 0.998414 -0.682561 0.365364 -0.236904 0.406573 -0.067553 1.614295 0.688361 0.428706 -0.015016 -1.880632 0.404612 -0.023171 -0.089451 0.288703 -1.227105 0.673509 -0.111200 0.336786 -0.300038 0.066211 -0.679759 -0.997572 -1.333924 0.572173 0.043504 -1.184269 -2.005127 0.104013 -0.557165 0.471189 -0.434540 0.469950 -0.604684 -0.550851 -0.557928 -0.353158 -0.799477 -0.824006 0.091621 0.052154 -0.119463 -0.254258 0.247662 0.738954 -0.706974 -1.845625 -0.868976 0.362808 -0.150601 -0.928752 0.243213 0.007060 -0.444023 0.255558 0.067806 0.453571 -0.413244 -0.054076 -0.748418 0.895095 1.825145 -1.029556 0.489930 0.177872 -0.525375 -0.725100 -0.373010 -1.752733 -0.483593 0.506106 0.168365 -0.047180 -0.376081 0.563854 -0.788015 1.134018 -0.015964 -0.416739 -0.299901 0.500499 0.309702 0.591408 1.157317 -0.456748 -0.486594 -0.900466 1.115597 -0.454864 -1.874998 -0.227675 -0.657104 1.443933 0.113134 1.680107 -0.325626 -1.168506 0.983191 0.633467 0.684930 0.023773 2.293175 -0.124951 -0.027934 0.151637 -0.104318 0.874295 0.925428 -0.868292 -0.905162 -2.009052 1.299357 1.182545 -0.305644 -0.787081 0.395853 -0.857794 0.736765 1.406635 -0.260247 0.338003 -0.022560 0.038953 0.421019 0.563995 -1.025206 -0.311315 0.371901 -0.517065 -0.868385 0.144468 0.396532 -0.616403 0.537687 0.468432 -0.733474 0.720315 -0.091172 0.319349 -1.102466 -0.566856 -0.727476 -0.342416 -0.571176 -0.893116 -0.194012 1.392363 0.354719 0.882687 0.300586 -0.338336 -0.106658 0.285751 0.203219 -0.583563 -0.301342 1.019933 0.606495 -0.448699 0.174816 -0.564112 -0.328997 -0.474130 -0.098985 -0.153964 0.583713 0.114782 -1.253504 0.926341 -0.307638 0.468298 -0.835610 0.664908 0.576450 1.563076 0.975499 -0.573181 0.583597 -1.012421 0.793911 -0.196472 0.000193 -0.728023 1.616281 -0.121391 -0.833284 
an -1.349179 1.107009 -0.126528 0.480157 -0.774762 -0.780804 0.330452 -0.138745 0.154914 -0.010567 -0.625927 0.138165 2.546475 0.552850 0.764507 0.351181 0.061442 -0.703453 1.201164 0.659285 -1.326044 -0.181674 -0.717742 -0.370777 1.025538 -0.647680 0.070508 1.720615 0.401537 0.286914 -0.988152 1.182431 0.704989 0.988695 -0.324629 1.288183 0.755279 -1.392055 -0.149384 0.260087 0.021950 -0.787401 1.374097 0.628987 -0.522959 1.228665 -0.428010 -0.631677 1.250806 0.702625 0.311495 0.295157 -0.136496 0.454747 0.246292 -0.749562 0.315447 -0.820290 -0.955429 -1.732902 -0.158802 1.040506 0.206091 0.499339 -0.509068 0.653981 0.311520 -0.995611 -0.209586 -0.976062 0.211616 0.311756 1.778289 -0.590668 -0.072032 -1.393996 -0.157698 -0.710301 0.056510 0.754081 0.935271 0.623171 0.873243 0.546148 -0.116813 -1.289510 0.656914 -0.755004 -1.384942 0.841021 0.262902 0.088586 -0.570037 0.640311 -0.413600 0.500443 0.959732 0.515660 0.445308 0.074211 1.018003 0.117262 -0.304898 0.409480 1.590424 1.301037 -0.078337 -0.793966 1.595306 0.085642 1.163001 -0.406200 -0.387333 -0.551597 1.113765 0.514183 0.239232 0.148354 0.271373 0.803687 -0.697442 1.368208 -0.292994 -0.152216 -1.362344 -0.003202 0.149720 0.201063 1.722756 -0.285009 0.106410 -1.066739 1.565757 -0.775893 -1.334414 -0.191167 0.500374 0.431449 0.032066 -1.401234 0.076608 1.471129 0.275393 -0.154207 -0.467757 0.069452 -0.406797 0.438553 -1.095917 -0.562169 -1.113413 1.089598 -0.448111 -1.271701 -1.487884 0.718250 1.258913 -1.944026 0.253111 -1.376690 -0.238803 1.288880 1.976073 0.306992 -0.512638 -0.851304 -0.642157 -0.940977 0.156718 0.838926 1.483252 0.596042 1.309430 0.339964 -0.269105 -0.592824 -0.533150 2.339137 -0.136088 0.868892 -0.003068 -0.853522 0.249923 0.416308 -1.405420 0.728833 0.728407 -0.192746 -0.288539 0.145781 1.271687 -1.574262 0.509448 -0.658889 1.688177 -0.052220 0.109550 -0.310124 0.609436 -1.138150 
reinforcement_learning 0.856094 1.132117 0.256977 0.812622 0.494757 -0.239871 -0.208522 -2.141311 -0.940295 0.374110 -0.219827 0.596181 2.096910 2.040227 0.560228 0.546767 0.426039 -1.412253 0.089900 -0.065731 -0.288222 0.043300 -0.300966 -0.839095 -0.657392 -0.509745 0.684450 -0.559099 -0.034626 -1.497561 -1.698521 -0.362707 -0.711713 -0.611421 -0.642100 -0.484969 0.387524 0.902810 1.196863 0.742252 -0.103650 -0.284025 1.234962 -0.033567 0.121464 -1.402958 1.167449 0.132439 0.119703 -0.533291 0.032813 -0.508551 1.096379 0.325003 0.394687 -0.369183 1.518340 -0.530971 -0.600180 -0.347895 0.566002 0.740219 -0.448495 0.578763 -0.152430 0.760455 -0.437637 -0.450971 0.086756 1.116049 1.895333 0.052984 -0.063446 -0.712645 -0.650629 -0.110983 -1.570797 1.292882 1.330672 0.752717 0.170029 0.007950 -0.013295 -0.963975 -0.888605 0.743087 1.213630 1.097309 -0.691497 0.359026 -0.909129 0.141236 -1.142223 0.926426 -0.671455 -0.465149 -0.293410 0.520050 -0.216079 0.118749 1.561488 1.332271 0.451803 -0.770263 0.680615 -0.502567 0.000048 0.254923 0.035999 0.370169 1.120705 -1.784298 -0.809634 0.332652 -0.024611 1.011621 0.910842 0.719049 -0.694053 1.296455 -0.342510 -1.483664 0.598379 0.430103 -0.006104 0.963803 -0.080851 0.611697 -0.510919 -0.248058 0.202956 -0.666928 0.679408 -0.912633 -1.265729 0.248142 -1.117062 -0.334887 -0.487596 0.266404 -1.397230 -0.394357 -0.617493 0.071897 0.264639 -0.729286 1.032335 -1.471008 -0.112832 -1.800640 -0.868116 -0.753300 0.340056 0.577582 0.638962 0.841638 -0.692594 -0.353119 0.776978 0.327683 -0.059790 -0.724936 -0.063101 -0.586433 0.186603 0.151246 1.527750 -0.948224 -0.618281 -0.729282 0.929824 0.226305 0.115552 1.088446 -0.335384 -0.314807 -0.199974 0.645129 -0.009278 0.633341 -0.963037 -0.401306 -0.438655 -0.752645 -0.386152 1.396481 -0.299489 0.909511 0.643590 0.343713 0.453689 0.673426 -0.882022 0.530348 -1.071085 -0.948358 0.306612 0.603721 0.505108 -1.034895 
via -1.107054 -0.249454 0.727230 0.029730 0.354891 -0.549690 -0.094291 0.688938 -0.612956 -0.200634 0.528338 -0.072785 -2.513150 -0.355553 -0.712790 1.293375 -0.906214 1.465963 -0.960931 0.294756 0.439552 -0.088309 -0.178487 1.453689 0.194005 0.465649 0.810001 0.677172 1.098920 -0.959010 0.223351 -1.512679 -0.237639 0.942932 -0.420019 -1.731625 -1.638175 -0.681352 1.278549 -0.354257 -0.610248 0.353919 -0.439032 -0.659107 -0.199544 0.178200 -0.901529 1.857848 1.566388 -0.699007 0.326628 -0.996876 0.034792 0.558736 -0.805821 -1.826469 -0.624898 -0.128188 -1.358641 -0.981295 0.862718 0.587125 -1.052180 0.472756 1.003604 -0.391156 0.381194 0.079392 1.102899 0.255368 0.065549 0.910808 -1.234670 -0.331225 -2.256276 -0.859383 0.110022 -1.022314 -0.618595 -0.179167 -0.065245 0.592060 1.338207 0.107091 1.400712 -0.211592 -1.090715 0.075478 0.259618 -1.092389 2.228510 0.813547 0.830296 -0.298949 1.449102 -0.580082 -0.339698 0.128477 0.117733 1.504255 -0.725499 1.284520 1.118424 -0.419433 -0.554839 -1.260094 1.304802 -0.893151 2.087320 1.277213 -0.035277 -0.741097 1.194424 -0.329466 0.009048 -0.344822 0.234645 -0.657572 0.407811 -0.685718 0.420464 0.078664 -1.173954 -0.293629 -0.021506 -1.123695 0.560301 -0.459670 1.272807 0.559654 0.087178 -1.744022 -0.219712 -0.846815 0.660993 0.345052 0.928315 -0.891572 0.582603 -0.360633 0.644673 -1.060328 -0.047753 -0.359858 1.474948 1.223970 0.505330 0.552792 -0.531351 0.894548 -0.582891 -0.451968 -1.640645 -1.480339 1.401872 -2.030855 -0.381406 -1.356050 0.235041 -1.322030 -0.189853 0.203006 0.831352 1.696485 0.393180 1.671399 0.739687 0.595361 0.318419 -0.097506 1.235429 1.009223 1.358037 -0.249425 0.783653 0.135338 0.543583 0.166186 0.707587 -0.235602 -0.604932 -0.399964 -0.887201 0.233674 0.591559 0.670299 -0.751268 -1.290254 0.240729 -1.169472 0.006671 -0.384788 1.407829 1.459541 -0.163427 -0.164281 -1.943329 0.886527 1.875774 -1.854722 
models -0.451268 -0.105483 0.233468 -0.922202 -1.065777 0.348104 0.667839 -0.196301 -0.726772 -0.630978 0.018009 0.788415 1.159644 -1.336103 1.633694 0.573193 -1.012496 0.708328 -0.545018 -0.929304 0.519413 0.480794 1.662268 0.404959 -1.286606 -1.903821 0.131255 -0.214881 0.385053 0.367664 -0.420955 0.170973 -0.005851 0.666226 -0.137416 0.646341 0.233832 -0.087431 -0.743614 0.676556 -0.647148 0.397090 1.534889 0.512561 -0.061819 0.581718 0.046836 0.867093 -0.242461 0.180732 1.100337 -0.728212 -0.320293 -0.286871 0.751159 0.245895 0.199615 -1.796789 -0.323894 -1.169631 -0.342356 0.744553 -0.045971 0.780521 -0.661542 -1.456166 -1.015479 0.041545 -0.664244 -0.535540 -0.400495 0.221339 -0.699696 -0.188073 -2.209038 -1.330427 0.971909 0.274265 -0.994389 -1.097930 -0.334246 0.555601 0.383008 0.100379 0.320588 0.039610 -0.572637 0.345644 1.216395 -0.470049 -0.575484 -0.630466 -0.293306 1.183956 -1.496761 -0.509333 -1.274623 0.790635 0.154118 0.971707 2.055314 -0.416408 0.782244 0.127963 0.019086 1.315927 0.691997 1.331979 1.216260 0.939397 0.896505 0.294322 -1.387799 0.353877 0.281626 0.678971 -0.048019 -0.934813 -0.073120 0.565336 -1.219247 1.070289 -0.458762 0.406742 -0.038961 0.197627 -0.801639 1.052956 0.299487 0.520812 0.218722 0.768101 0.440706 -0.694997 -0.394254 -0.687538 -0.320970 0.348095 -0.472421 -0.012164 -1.211854 -0.834097 -1.264376 0.070204 -0.116868 0.059273 0.190835 -1.124941 0.757332 -2.004544 0.538793 0.446055 0.040135 0.377611 -1.198953 0.207256 -0.273602 0.090785 1.063333 -0.670541 1.577609 0.066052 -0.682316 0.877718 -0.397410 0.015921 0.515110 0.795738 -1.694926 -0.602269 2.110093 0.130665 -0.449266 1.294684 0.338778 -0.856497 -0.499214 0.812206 -0.406195 0.215864 0.634529 1.157489 0.036501 0.936620 -0.837403 -0.604998 -0.292224 0.148919 -0.522213 -1.058371 0.421584 -0.984904 -0.271391 -0.140384 0.899967 0.353184 0.957022 0.859161 1.480610 -0.178419 
data -0.958154 -0.886729 0.328991 -1.144863 0.636102 1.648259 -0.516056 -0.310346 0.423393 -0.186203 1.528454 0.503450 -0.001364 -0.442475 1.233974 2.341946 0.251246 -0.976542 -2.367561 0.844986 -1.692665 -0.806945 -0.242322 -0.074917 1.074601 -1.254045 -0.821560 -1.057392 -0.099264 0.007963 -1.274211 1.030401 0.566228 0.487111 0.199792 -0.169934 -0.824019 1.272788 0.015138 0.942069 0.705705 -0.871410 0.633723 -1.033910 0.072636 0.236254 0.180061 -1.380044 0.360378 -0.894669 0.717629 -0.160506 -0.236626 0.738342 0.395948 -0.516052 1.804749 0.437161 -0.654404 1.132628 -0.535112 0.496595 -0.737135 0.491130 0.716259 -0.410558 -1.311714 0.280625 0.739585 -0.415294 0.910283 0.629501 -1.526233 -0.191773 -0.798479 0.757827 -0.255428 -0.004356 1.054974 0.504916 0.334766 -0.155206 -0.637111 0.512635 -0.625065 0.081925 0.739826 -0.536859 -0.134499 -0.694454 -0.077690 -0.446710 0.120133 0.366572 0.702618 -1.924095 0.058208 0.795108 -2.268671 -1.014433 0.054518 -1.900693 0.150262 -0.018791 0.410369 1.458915 0.024584 -0.874113 0.094834 0.028948 -0.298512 0.464321 -0.239517 1.076925 -1.742124 0.230842 0.416541 -0.639967 -0.430952 -0.414443 -0.219414 -0.037240 -0.961637 -0.471837 0.336844 -0.076906 1.308446 -1.260989 -0.561468 0.205302 -0.429375 -1.312487 0.643469 0.597104 0.411482 -0.874605 -1.052429 -1.598800 1.497050 0.579221 -0.897347 -0.635204 -0.533473 1.377473 0.175027 1.282742 0.313640 -0.631636 -0.581590 -1.486943 -0.192366 -0.220576 0.442603 1.221068 -0.571719 0.070503 -0.405041 0.918100 0.026230 0.685761 -0.379899 1.937432 -1.459681 -0.170543 0.639565 -0.889896 0.868401 0.260124 0.754390 -0.540234 -0.463432 0.279500 1.536412 1.309136 1.424428 0.479985 -0.665881 0.324444 1.112708 0.040871 0.322163 -0.430771 0.934067 -0.244762 -0.810975 0.555721 0.779347 1.006033 0.798528 -0.933625 -1.345570 -0.953449 -1.702005 -0.639862 -0.071297 -0.148501 -0.475196 -0.535489 -1.251987 1.991691 
by -0.591560 -0.960162 0.030444 0.386852 0.064444 -2.514492 -0.765717 -0.504894 -0.344853 -0.799972 0.265858 0.396309 -0.455533 -2.497682 -0.056704 -0.594549 0.890553 0.838341 0.749084 0.703261 1.642058 -0.758393 -1.097010 1.180561 -0.779751 1.099617 -0.000477 1.221802 0.037403 -0.419106 0.626581 -0.094679 0.022136 0.412601 -0.425630 -1.270580 0.500411 -0.166956 0.682185 -0.031393 -0.436331 1.825711 -0.770355 -1.683145 -0.723366 0.679367 -0.087515 -0.140736 0.140494 0.619974 0.084844 -0.646568 -0.061608 -1.077952 0.006645 0.902044 -1.614650 -1.308008 0.689845 0.806511 -0.873820 1.231341 1.091244 1.008740 0.293561 0.640492 0.242509 0.844748 0.228283 -0.291426 -0.194474 -0.295902 -0.129178 -0.090610 -1.154059 -2.176004 0.879851 -0.932332 0.304694 -0.099985 1.224785 1.486878 -0.539027 0.107754 1.466343 0.628884 -1.047422 0.991856 -0.787250 -1.463122 1.317351 0.017718 -1.568965 -0.948754 -1.129552 1.654853 -1.059095 -0.227927 0.125948 0.586657 -0.731449 1.588563 -0.580759 0.622937 0.577564 1.590961 0.196636 -0.837687 0.704894 1.043161 -0.641625 1.858145 -0.511100 -1.828270 -1.716730 1.364653 -1.064259 -1.794789 0.165175 -0.122019 1.891910 1.222525 -1.094212 -0.463506 0.032441 -0.045607 -0.707906 -0.731154 -0.770486 0.844772 0.886116 -1.388555 -1.202650 -0.652262 -0.600935 0.570665 -0.140835 -0.075998 -0.057852 0.397111 0.761381 1.135427 -0.543293 -0.606550 -0.091166 1.193612 1.254389 0.881134 -0.885855 -0.961493 -0.174429 -0.693405 0.632209 -0.616572 -0.355648 0.600966 0.410673 -0.617704 0.521071 0.551108 -0.635742 -0.619379 -0.072799 -0.998658 -0.101821 1.024673 0.692899 0.119709 -0.688727 -0.924078 0.988883 -0.424364 -1.943894 -0.854089 1.288169 0.233671 -0.513602 0.772963 0.421039 -0.973311 -0.387223 -0.081285 0.646450 -0.631754 -0.886028 1.369767 -0.675606 0.144009 -0.775671 -0.481881 0.217485 0.815514 -0.236398 0.289443 0.515617 -0.927264 -0.176430 0.080544 1.403535 -1.076875 
optimization 0.768519 0.621606 -0.462034 0.777358 1.488443 1.126207 -0.085205 -1.258020 -0.976996 0.642110 -0.668090 -0.610589 -1.166511 0.522530 -0.232849 -0.406704 -0.340495 -1.164744 -0.491532 0.892790 -0.920423 0.936405 1.038529 -0.529414 0.023298 -1.828447 -0.594928 0.130084 0.648899 0.923510 -1.581520 -1.318982 -0.559060 1.249266 -0.546437 0.697102 1.258082 -0.380051 0.752940 -0.660245 1.933842 -1.379266 0.163709 2.639444 0.064310 -0.171414 0.697372 -1.055110 0.222510 -0.621218 0.568638 1.074651 0.241679 0.345777 0.303348 0.035575 -0.858863 1.519271 1.666986 -1.738352 0.961548 0.889454 0.385591 0.193845 2.255187 0.111487 -0.429408 0.524443 -0.207129 1.209481 -0.186159 -1.036092 -1.417805 -0.142014 -0.392947 -1.304493 0.210565 0.201809 1.096123 0.738403 -0.019340 -0.429875 -0.165490 0.490472 -1.741882 1.414031 1.034123 -0.605397 0.761922 -1.520227 -1.473002 -1.722105 -0.934304 -1.103245 0.394287 -0.109633 -0.050150 -0.014281 -0.946441 0.638534 0.299703 0.256010 0.622924 -0.409442 0.190560 0.777399 0.816914 0.470538 1.268490 -0.446000 -0.675755 -0.994790 -1.731755 0.589512 0.533406 0.067575 0.130617 1.214033 0.031127 0.404276 0.836806 -0.049867 -0.254091 -0.868708 -0.419214 0.545585 0.668572 -0.201391 0.297229 -0.254771 -0.505383 -1.072332 0.248538 0.716062 0.579053 -0.159932 1.079486 -0.080446 1.575503 0.944111 0.002110 1.256527 0.331685 0.483411 0.062467 0.044581 -0.061076 0.553242 -0.742018 -0.063773 -0.911980 -0.919924 -0.503040 0.598238 0.035385 1.377650 0.769086 -1.665556 -1.061528 0.773983 -0.300095 -0.741717 -2.315382 0.067051 -0.696785 -0.179152 1.511675 -0.544719 0.382332 1.079074 1.147004 -0.173335 0.299045 1.437803 -0.551917 -0.421044 -1.443562 1.216326 -0.139848 -1.030168 0.213174 -0.055748 1.002473 0.833822 0.216964 -0.015573 -0.156845 -0.134762 -0.512160 -0.252767 -0.346808 -1.578806 1.072399 -0.518811 -0.000489 0.122178 0.303392 -1.043160 1.295921 -1.114543 
efficient 0.503603 0.356136 0.131256 -0.829062 0.581212 0.004591 1.184990 -1.883199 -1.554139 -0.175992 1.129979 -0.236567 0.372776 -2.241412 0.031891 0.060281 -0.480425 1.131809 -1.358306 0.266479 -0.688647 1.795531 0.850745 -0.032489 0.642328 0.064814 -0.351222 1.184205 -0.444400 -0.585782 -0.054529 -1.086092 0.465368 0.824490 -0.302572 -0.082674 0.565368 -2.026195 -0.073823 -0.676681 0.605793 0.551030 -1.165990 0.075571 -1.333790 0.242028 0.370311 0.101171 0.706647 0.642227 0.479653 1.464429 0.331030 0.478184 0.116046 -1.373678 0.807675 0.433251 0.489169 0.889537 0.207653 1.519334 0.868497 1.217720 0.557278 0.498082 0.118462 0.319708 1.221439 -0.844177 -1.173331 0.384674 -1.324278 0.763452 0.037401 -0.285282 -1.190763 -0.430504 0.376048 -0.993946 1.093961 -0.642148 -1.025894 0.169059 0.543011 0.608178 0.325634 1.029820 0.019420 -1.475085 0.246677 -0.404245 0.734152 -0.664410 -1.067206 -0.306344 -0.619226 -1.265965 -1.204600 0.055083 0.507010 -0.812493 0.165491 -0.049620 0.364732 -0.905523 -0.658349 -0.529265 1.226541 1.496137 -0.918520 -1.243551 0.457505 0.055383 -0.029942 0.134634 -1.284885 -0.769311 0.326304 0.005661 -0.055672 -1.468499 -0.682644 -0.780627 -1.435814 1.505262 -0.198431 -0.262929 -0.661581 -0.004240 -1.244509 1.655655 -0.838905 1.056234 1.368339 -0.553778 0.603219 0.688222 0.395298 -0.205116 1.010344 -0.043785 0.020452 0.250203 -0.699836 1.028193 0.306914 -0.409497 -0.636698 0.407678 0.580264 1.280293 0.598837 1.664446 0.200711 0.126590 -0.562023 0.604954 0.000324 -0.797688 1.512040 0.699750 -0.135093 0.670713 0.048542 -1.200419 1.297670 -0.012932 -0.124180 0.027844 -0.124633 -1.424394 1.368442 -0.978524 1.232475 0.017122 1.612272 0.483795 0.238039 1.134879 1.475516 -1.084834 -0.236289 -0.797412 -0.132992 -0.719977 -0.694348 -1.203064 0.049897 -1.474850 0.762837 -0.755682 0.968442 0.210719 -0.368133 -0.329257 0.515639 -1.243379 0.796634 1.140993 
deep 0.800691 0.300329 1.106736 -1.032840 -0.127697 1.765242 1.082631 -0.914676 0.799506 -2.046050 -0.440152 0.796541 1.080057 -0.313956 0.603899 -0.848586 0.755332 0.981261 0.520275 0.084400 -1.113610 -0.060330 1.285666 -0.361155 0.608563 1.097551 0.537966 -1.269934 0.409598 -0.904061 0.191974 0.190037 -0.594642 -0.304211 -0.073366 0.075484 0.079824 2.272398 -0.088666 0.086140 0.421570 -1.299198 -0.456932 0.877875 0.784419 -0.307060 -0.654695 -1.146145 0.194413 0.330633 0.771848 -0.223303 0.338930 -0.345370 -0.308234 0.611591 -0.245587 0.768448 -0.626794 -1.300899 -1.197237 -0.276010 0.792189 -1.013348 0.343478 -1.359721 -0.705850 0.807596 0.896642 0.364037 1.525456 -0.972385 -0.001810 -1.691754 1.066994 1.919817 -0.936094 -1.123577 -0.106243 0.490470 -0.234297 -0.648083 -0.230064 0.310597 -0.339028 -0.750691 -0.732602 0.984711 0.533125 1.044231 0.141594 0.137869 0.304171 0.904682 0.004837 -0.551185 1.119932 0.639947 2.009861 -1.458149 0.918916 1.018297 0.874613 -0.045233 0.306430 -0.199129 0.661027 -0.275005 -0.986075 0.960200 -1.147797 0.421715 -0.081470 -0.675799 0.071811 1.199971 -1.100459 -0.970255 1.383996 0.395577 0.295698 -1.336971 2.056844 -0.768333 0.387028 -0.596238 0.228842 -1.116986 1.867172 0.937251 0.965371 -1.660499 -0.579143 -0.543263 -1.272387 -2.343889 0.670197 2.174269 -0.284985 -0.672223 0.659008 1.644939 -0.616301 1.244241 -0.322774 0.549028 0.949139 -0.598801 1.097927 0.497509 0.038116 -0.378956 -0.503434 -0.817671 0.880581 -1.174963 -0.367896 -0.183916 0.086014 -1.059185 -0.782834 1.236069 -1.145943 -1.550788 -0.267223 0.600409 -0.753257 0.390547 0.309720 0.062986 1.464176 0.845940 -0.492041 -0.804103 -0.763739 -0.946944 0.062767 0.162490 -0.372446 0.499027 -0.574924 -0.746752 0.721319 -0.137952 -0.397704 -0.043635 -0.488354 0.014302 -0.281538 -0.329926 0.672560 0.614238 1.100548 -0.030392 -0.996000 -0.660370 -0.363038 -0.234544 1.601261 0.638523 
approach 0.615113 2.412838 -0.645511 0.466550 0.812427 -0.016268 -0.729365 0.594295 -1.174010 -1.020342 -0.929799 0.214679 -1.251418 -0.099808 -0.039524 -0.231410 0.610037 -1.360063 0.035736 -1.621966 -0.937676 -1.091331 1.607254 -0.388968 -0.635526 -0.852192 -1.031627 0.836336 -0.385938 -0.634040 -0.289496 -0.232543 0.232206 1.803400 0.558824 -2.083171 -2.568904 0.742864 0.408249 0.933425 -0.382356 0.503360 0.562369 -0.429612 0.343955 0.235449 -0.100293 -1.182672 0.296938 1.025564 -0.174909 -1.000281 0.474629 0.540823 0.532356 0.859697 -0.575878 0.388484 0.341626 -0.380439 0.027303 -1.601137 -0.056153 0.038361 0.756706 0.315778 -0.386637 2.730290 0.986044 0.016569 -1.125901 -1.812050 0.435145 -0.485170 -1.756682 1.593462 -0.798792 -1.082288 -1.236832 0.089418 -0.128398 1.190482 -1.307624 -0.643218 1.964272 1.502428 0.407030 0.115830 0.188833 -0.661473 0.666713 0.092817 0.510714 0.981635 0.137881 -1.705794 -0.802014 -0.378821 -0.148077 -0.454458 -1.372857 1.615626 0.904960 1.058314 0.137627 -0.698527 0.639244 0.377832 -0.118181 1.379784 0.433218 2.319649 0.183372 -1.674124 0.539182 3.072375 1.938542 -0.566002 -1.229871 -0.879062 -0.723272 -0.415246 -1.336653 -0.016618 -0.537277 -0.553851 1.548202 -0.111051 -0.441076 0.533923 -0.105819 0.108246 1.589370 -1.052433 1.715684 0.067640 0.722618 -0.295497 0.010959 -0.191777 0.320106 -1.363935 0.530040 -1.103556 0.808083 -1.160106 -0.124519 -0.249520 -0.613003 0.579883 -0.347254 -1.077776 -0.603172 -1.136401 1.585446 -0.222907 -0.350316 0.444019 0.483428 -0.853901 2.315186 0.866339 2.641804 1.174665 -0.122959 -0.428553 0.058135 0.554420 -0.459387 -0.959358 -0.477667 -0.201678 0.006377 -0.900240 0.381105 0.835619 1.928315 1.068397 -1.030925 -0.178533 -1.308023 -0.495269 -0.147602 -0.299071 0.803512 -1.627530 0.851418 -1.783753 0.399330 0.887942 1.986876 -1.152690 -0.352875 0.443922 -1.464943 -1.099797 -0.134666 -1.566991 -1.598454 -0.407785 
algorithms -1.679750 -0.799450 0.442197 0.500108 1.434538 2.137057 0.951418 0.239076 1.532684 1.419627 -0.839198 0.813220 -0.192127 -0.966191 0.068220 -0.013739 -0.462590 0.494619 0.054854 -1.636385 -2.109842 1.857031 2.354941 -2.182608 -0.801727 -0.646510 0.159266 0.828550 1.324111 0.567004 -1.212256 -0.268833 0.049387 -0.260020 1.378224 1.549698 0.476828 0.420181 1.625603 -0.037089 -0.345035 0.193392 1.608608 -1.791525 -0.304410 0.825034 -0.572888 -1.012950 -0.848786 0.373145 0.206259 0.708230 0.094499 0.018207 0.117585 0.202466 0.260492 1.282398 -0.609772 0.570147 1.511652 0.340084 0.155481 -0.771216 -0.698663 0.187598 0.418530 -1.247410 0.250362 0.743173 -0.249363 -0.098120 -0.652924 -0.081609 -2.175946 0.356389 0.895463 -1.089106 -0.183395 0.175478 0.073439 0.443337 -0.497281 -1.922980 -0.346600 -1.306782 0.318580 0.140434 0.844133 0.405573 0.461315 -0.389241 -0.061576 0.109264 -0.767226 0.606615 -0.795877 0.460696 -0.076576 -0.767058 0.227909 1.158679 -1.024420 -0.952765 0.008568 0.139855 0.388128 -0.273070 0.394450 -0.109658 1.046492 -1.342951 -0.348121 -0.744738 -1.166099 -0.339289 -1.195109 2.000195 0.317087 -0.523711 -0.429486 0.163990 -1.073028 0.140050 0.416603 0.219160 0.195929 1.234275 0.239562 0.122789 2.247465 -0.015769 -0.545668 -0.419545 -2.020351 0.398134 2.469994 -1.315104 -0.478379 -1.325451 -0.949863 0.203387 -0.804553 0.013879 -0.320587 0.413447 1.566217 -0.731456 -0.561682 0.891948 0.599116 0.125150 0.059300 -1.117808 -0.849591 0.343743 0.227993 -0.507584 -0.697452 1.526943 0.915634 0.306873 0.923140 -0.268465 0.483072 -0.229186 -0.329435 0.616583 0.361907 -0.357501 -0.845924 -0.118764 -0.258861 0.212673 -0.316301 0.121673 0.124240 0.680036 1.708560 0.227993 -1.802250 0.173444 -0.013779 -0.058024 0.873195 -0.766998 1.927716 0.834114 -1.727820 -1.398860 -0.224785 -1.626280 0.640581 -0.393789 -0.775212 -0.498699 1.298562 -1.991522 -0.833881 0.907984 
stochastic 0.525910 -1.229117 0.077328 0.947269 -1.409047 -0.572535 0.176729 -1.991867 -0.812289 -2.044682 0.585821 -0.230390 -0.579905 0.526864 0.426234 -0.552203 -0.268012 -0.812670 1.048558 -0.020093 -0.341768 -0.704644 1.488537 0.036858 -0.519619 -1.476356 -0.286128 0.776333 -0.438454 0.622275 -1.749477 -0.557656 -1.064068 0.374082 -0.306497 -0.054340 1.513209 -1.053083 -1.928998 -1.266698 -0.342881 0.204044 1.472735 0.022462 1.167116 0.860903 -0.509348 -0.191021 -1.074415 0.978087 0.576549 0.131228 -1.503049 -0.649589 1.031063 -0.619753 1.658113 -0.962451 1.314211 -2.641740 -0.037096 -0.602131 0.600716 1.394639 0.730359 -0.085347 0.218255 0.831063 1.111450 -1.040673 -1.683006 -0.513256 0.492793 -1.412556 0.709570 -1.106519 0.484022 1.167238 -1.442782 -0.303260 0.884984 0.187859 1.757000 0.466405 0.503569 0.349921 1.161995 0.951382 -0.065369 -1.690647 -0.280076 0.641910 1.223522 1.411774 -0.467198 0.424183 -0.731231 0.032229 0.989812 0.825648 0.326817 0.483386 0.352280 2.118770 0.790861 -0.258120 -1.932479 -0.110384 -1.143866 -0.344576 0.209520 0.419983 -0.942365 -0.102344 -0.386003 0.079222 0.805378 1.404221 0.466293 -1.217816 0.049411 -1.424036 -0.703823 0.602673 0.273018 -0.403551 -0.180852 1.104931 0.071740 0.036633 0.410813 -1.315124 0.431831 0.771039 0.107353 -0.746261 0.992726 0.408909 0.395967 1.998324 -1.422226 0.195012 0.392388 0.988445 -1.162538 0.284954 1.296434 0.137698 -0.527195 -0.140483 -0.860696 0.466922 -0.209267 -0.355766 1.379866 1.343448 -1.001179 0.907831 -0.786775 0.333785 -0.486505 1.423598 -0.042497 0.566243 -0.926842 -0.841678 0.807259 1.282248 -0.415800 -1.111363 0.526533 0.330630 0.203039 0.325995 0.035996 0.217942 -0.212765 1.135131 0.812192 0.905036 0.791222 2.058504 -0.369225 -0.599600 0.328552 0.586813 1.179432 1.356535 0.330201 0.985869 -0.052085 -0.278952 -0.580251 -0.090932 0.384273 -0.578113 1.223109 -0.486711 0.274206 0.369448 
sparse -1.903189 0.256107 0.958177 -0.595656 0.402099 -0.317381 1.339695 -0.033182 0.267388 -1.593237 -0.059248 -1.105560 -0.049413 0.005014 -1.044655 -0.155614 0.067477 -0.233495 2.536453 0.667813 -0.911150 1.731144 0.847702 -0.323579 -0.462149 1.132053 0.583706 0.831471 0.110785 -0.113901 0.155577 -0.611149 2.299640 0.455357 0.410345 0.350854 -0.406046 1.288231 -0.257465 0.107573 2.245676 -0.264325 -0.358248 0.594206 0.840788 1.151242 -0.947817 -0.037198 -0.295744 1.761093 1.980117 0.101960 -1.085607 1.860925 -0.834089 0.825492 1.062417 0.272148 -0.628847 -0.066953 -0.070256 -0.277341 1.591246 0.309761 0.244445 1.059015 -0.479566 -0.313384 -0.081323 -0.504461 0.162118 2.085291 -0.724992 0.585584 0.382738 -0.845250 0.627273 0.864907 1.155491 -0.509775 0.590195 -1.275101 1.165724 0.239674 -1.692588 -1.931661 -1.740508 -0.528257 -0.894234 -0.947636 1.190926 -1.240705 -0.462458 -0.626015 -1.178583 -0.660749 0.434543 -0.363778 0.018189 -1.136665 -0.184351 -0.443538 -0.301893 -0.142122 -1.034023 0.167083 -0.128278 -0.222141 0.281892 0.050550 -0.878764 -0.569444 -0.064796 -0.563193 -0.222775 -0.298425 0.333966 -0.015838 -1.208700 -0.798742 1.174075 0.245268 -2.187152 0.391461 1.298126 0.747764 0.475877 -0.249571 0.813787 -1.604689 0.184137 0.160124 0.331257 -1.874927 0.446645 -0.857168 0.083882 0.363643 0.621846 -0.628685 0.825879 0.242665 -1.698816 0.389158 -0.757986 -0.394399 0.790952 0.704910 -2.630073 0.131314 -0.850913 0.305641 0.526636 0.422602 0.162736 -0.505641 -0.781352 0.318986 0.723622 0.519544 1.365974 1.205790 -1.370205 0.083298 1.269050 -0.268480 -2.291209 1.940059 -0.335395 0.682424 -0.350361 -0.470390 0.236488 -0.301876 -2.030511 -0.052521 0.414939 0.430536 0.913226 0.181283 0.766828 -0.086722 -1.533959 0.319841 -0.679951 -0.538425 1.390711 0.365691 0.661583 0.780042 0.816622 0.315729 -0.240170 -0.484872 0.448092 0.720988 -0.101286 -0.148766 2.128656 0.747907 
feature 0.573881 -0.290922 -1.072649 -0.431616 -0.114425 -0.363610 0.468591 -1.300497 -0.202985 0.325165 -0.063431 0.695916 1.529205 0.017756 0.400828 -0.441810 -1.433558 0.139430 0.185175 -1.659051 0.298794 -0.148879 0.744800 -1.477734 0.778884 -0.447109 -1.482103 -0.245136 0.441473 -0.030428 0.387278 -0.369125 -0.296906 0.137013 0.051306 -0.464156 -0.814583 -0.903338 -0.315687 -0.262135 0.790385 -0.328411 -1.342201 0.002992 -1.305615 0.265147 0.547220 -0.133007 -1.793350 0.265912 -0.114498 1.784993 -0.249028 -0.692555 1.943508 -0.345776 1.613728 1.277991 0.376389 -0.777194 -0.195698 -1.112185 0.748004 1.583792 -0.868581 -0.019760 -0.140154 1.648728 0.146195 -1.109595 -0.190332 -0.150359 0.879409 -0.377536 0.071050 1.076827 0.374549 0.871503 2.887697 0.084693 -1.104274 -1.679394 1.358181 0.962630 -0.062426 -0.788073 1.022510 0.186760 -0.452453 -2.092720 0.120982 -0.808135 -0.497674 -0.903176 0.653673 -1.422629 -1.269651 0.096424 -0.265535 0.445845 -0.242603 0.170263 -0.144366 1.261034 -0.149099 -0.427148 0.597279 0.440951 -0.165934 0.375198 1.790692 -0.562065 -1.871723 -0.076450 0.086095 -0.236406 -0.233425 -0.134976 0.818807 -0.786140 0.266056 -0.318377 -1.104262 -0.673911 0.077232 1.225451 -0.058733 -1.272626 -0.482066 1.049343 -2.424771 0.255077 0.747960 -0.291945 0.426250 -0.165518 0.510605 -1.863940 0.455250 0.872636 -1.592045 1.144749 0.141465 -0.563856 0.006262 0.125665 -0.892356 0.490619 -1.565521 -0.661973 1.174000 -0.224663 1.684068 0.547349 1.022675 0.500020 -2.046620 0.202553 0.023976 0.636082 -0.645702 0.843441 0.268149 -0.429496 0.771878 0.503880 0.294438 0.115579 1.123531 -0.407908 -1.016670 -1.711654 1.355840 -1.144730 -0.834615 0.706668 0.397389 2.007847 -0.379776 0.682115 0.735651 -1.320136 1.704251 -0.593189 0.280151 1.380040 0.454605 0.034019 -0.953845 -1.575551 1.867870 -0.826164 0.446451 -1.394350 -0.132719 0.502925 -0.556008 1.903165 -0.045303 -1.879768 
selection 0.398858 0.345500 -0.755592 1.366974 0.135707 1.384117 0.360917 -0.747352 1.516839 0.082774 -0.039889 -1.163727 0.448071 0.897403 -0.182979 0.925315 1.292547 -0.501463 0.386002 0.764283 -0.076907 -0.670701 2.070188 -1.494098 1.453711 -0.377792 0.238305 0.430426 -1.130120 0.613728 -0.192897 0.714812 2.558500 -0.403791 0.770749 -2.153578 -0.920874 0.840456 1.309883 -0.521809 1.584052 -1.541450 -0.270711 1.229303 -0.428007 -0.952444 -2.058348 -0.502632 -1.684306 0.922270 0.314072 0.196771 -0.771688 0.356863 0.168526 0.859175 -1.099072 1.885782 -1.356718 1.062869 1.332000 1.651654 -0.447815 1.001242 -1.323711 -0.223352 -1.302728 -0.943825 0.473445 2.501406 0.812595 1.340001 0.754101 -1.216261 -1.361035 0.541768 0.670362 -2.129348 1.297906 0.489245 0.535335 1.942956 -0.814458 -0.270829 -1.203311 -0.330589 -2.402603 1.509799 -0.367195 -0.236594 0.900219 -0.257190 0.662126 -0.206017 0.757660 0.948255 -0.411450 -0.143051 0.300493 -1.873943 0.098255 0.394473 -1.304978 -0.350404 1.633184 0.421270 0.185506 1.312911 0.023841 0.152442 0.148047 0.412434 0.845398 -0.731601 0.032011 -0.048917 -1.366436 -1.029602 0.273963 -0.219953 1.206294 0.783098 -1.529765 -0.052936 0.614381 0.301678 0.587308 -0.491541 1.584737 -0.255290 -0.005360 0.478129 -0.027879 0.164774 -0.792405 -1.887138 -0.314127 1.157731 -1.217827 0.134384 -0.832636 2.056692 -0.623063 -1.813730 -0.418962 -0.189138 0.100405 0.139014 -0.402488 0.772408 -1.867665 0.842429 -0.807852 0.854825 -0.530475 -0.292622 -0.542188 -1.936360 -0.020063 0.019422 0.638119 1.323411 -0.872384 -0.613364 -1.593632 -0.598221 0.374075 -0.127656 1.260676 0.394298 0.010202 -1.373921 0.293013 -0.327462 -0.827581 -1.403131 -0.037667 -0.335421 0.141716 -0.367730 -1.413214 -0.926807 0.352271 -0.644986 -0.285217 -1.024469 0.677554 -0.302129 -2.060965 -0.965215 0.399612 0.909130 0.524661 -1.346525 0.349124 0.946715 0.490883 -0.308455 0.411104 -0.589114 
model 0.203194 -0.290570 -1.055162 0.184035 0.358155 -0.150196 0.217928 1.017201 -1.932449 -1.600637 -0.753535 0.350631 2.449347 -0.382089 0.074347 0.192566 0.524201 -0.924797 -0.751228 0.544215 1.282956 0.771663 1.328277 0.960647 -1.631166 -1.269399 -0.027574 0.039053 -0.107681 0.556118 0.702708 1.888839 -1.118788 -2.375308 0.005826 -1.648778 -1.809385 0.780990 -1.435932 -0.183221 -1.258437 0.571819 0.041918 -0.965453 0.021508 -0.010950 -0.082609 1.966438 -0.423336 0.763104 1.258738 0.263095 -0.092999 0.268019 0.137067 -0.202164 0.454920 -0.571195 0.889968 -1.445778 -1.703727 -0.068681 1.352109 -0.465828 2.018710 -0.818507 0.355812 0.950881 -0.602578 -1.642442 -0.216912 0.027043 -1.007346 -1.361068 -0.477951 0.257356 -0.406603 -0.722993 -0.151560 -1.249284 -1.889086 -0.326774 -0.878652 -0.418187 1.807204 0.095486 -0.392188 0.205376 0.248657 -1.080542 -0.328558 -0.697981 -0.217070 -0.498371 0.309010 0.199283 0.860278 1.166614 -0.593141 0.551086 1.907201 0.653984 -0.489587 0.154133 -0.536722 -0.144932 0.312999 -0.147453 0.186334 0.383356 -0.173737 2.388920 1.081761 1.515327 -0.984446 0.033735 0.601559 0.011062 0.566239 0.640825 -1.434071 0.621046 0.287055 1.277445 0.632183 0.278394 1.207407 -0.306096 -0.676574 0.671745 -0.595222 0.471686 0.563145 -0.418307 0.435706 -1.354376 0.052960 -0.268523 1.641941 0.325292 -1.395167 -0.052203 -0.241067 1.526502 0.221097 -0.004000 0.503266 -0.953794 -1.572705 -0.922536 -1.891642 1.494164 0.429117 0.587852 -0.224276 0.394853 -0.453979 2.033853 1.390160 0.427241 1.394559 1.733382 -0.486227 -0.884351 0.616472 -0.678286 0.228161 -0.350523 -0.363685 -1.803421 0.642129 0.265955 -1.207695 0.730148 0.621601 -0.754206 1.683218 0.006996 -0.082358 1.216712 0.493384 1.230814 1.963061 0.202837 -0.639610 -0.845835 -1.134301 -0.385004 0.259082 -0.325323 0.280343 -1.279700 0.641419 -1.574997 0.397347 -2.118662 -0.770028 -0.234832 0.059743 0.157721 
analysis 0.889850 1.372393 -0.463840 2.065651 -0.052677 -0.218028 -0.247112 0.474204 0.081441 0.580813 -0.035271 0.097902 1.269725 -0.489261 0.280433 -0.321803 -1.489138 -2.093792 0.456256 0.960094 0.977417 0.035962 0.522192 1.103080 -0.916488 -0.375657 1.305290 0.383667 0.190901 -0.299435 -0.271971 -1.792218 1.568054 -0.417938 -0.721776 -0.955539 0.253664 -1.210727 0.446109 -0.181316 0.832878 -0.321205 -0.252294 -0.075947 0.448436 0.031104 1.470591 0.336665 -1.653422 0.746464 0.314377 0.469584 -0.374661 0.688416 0.716159 0.527875 -0.853383 -0.886209 0.566518 -0.030254 0.239131 -1.368904 0.826966 -0.871027 -0.465192 0.620460 1.362036 1.825280 -0.492608 0.217011 1.301835 1.258618 -1.259550 -0.233325 0.212670 0.901377 -0.913111 -0.166783 -2.110138 -2.991851 0.695074 0.944586 -1.448172 -0.499870 2.648807 1.877523 -1.363243 -1.073906 0.787330 -1.414877 -0.512099 0.771933 -0.055917 -0.763719 0.330478 0.369031 0.605857 -0.529259 -0.580661 -0.594674 1.844624 -1.038779 1.401026 0.754510 0.066854 -0.002112 0.969944 1.064835 -0.659650 0.414281 1.779523 0.185164 0.356100 -1.291947 0.301510 -0.726172 0.147632 -1.759458 0.606153 -0.081934 2.122370 -1.214003 -0.819757 0.860186 -1.301035 1.090568 -1.302466 1.107659 -2.262154 -0.842821 -0.476756 -0.087461 -0.948802 0.065145 1.031469 -0.131612 0.567789 1.061881 -0.195325 -0.413664 -0.892009 0.485801 0.510182 -0.860260 1.335853 0.221051 -1.238073 -0.386066 -0.107770 -0.776666 -1.105040 -0.789760 -0.413990 0.931182 -2.035634 -0.817234 -0.599045 -1.017349 0.172593 -0.504712 1.614936 -0.347228 -0.614485 -0.658643 0.544832 0.471691 0.094837 -1.004910 0.470250 -0.475756 -1.364574 0.685679 0.318192 -0.578258 0.151519 0.224584 -2.190197 0.174881 -0.916396 1.478033 -0.793488 0.483285 -2.200869 -1.725052 0.149092 0.228506 -0.287002 -2.202362 0.447445 -1.523710 0.335259 -0.002391 0.154263 0.171054 -1.313805 -1.109079 0.526261 0.142952 -1.098183 1.062367 
bayesian -0.022124 1.146801 0.201450 0.597794 -1.148627 1.334060 1.382776 0.245646 -1.739280 -0.714847 -0.179527 -0.720584 0.905038 0.684928 -0.211189 -1.459946 0.524770 2.038615 0.645509 -1.888124 0.269504 1.027147 1.496376 -2.174795 -0.905615 0.534671 0.298748 0.404852 1.019351 0.220260 -0.410399 -0.029887 -0.481110 -1.655101 -1.455512 -1.050801 0.191517 0.228588 -0.232342 -1.237892 1.376782 -1.404308 -1.629338 0.743859 0.392884 1.561305 -0.141649 0.593204 -0.104342 0.454316 -0.836140 0.326102 -0.690157 -0.878782 -0.095013 -0.232510 0.621956 0.014229 1.315645 -1.134671 -0.438742 1.205672 -1.191451 1.669022 0.202533 1.756472 0.467630 0.997895 -0.724630 0.125474 -0.468507 -0.145838 0.024591 0.035514 -0.498978 -0.213745 0.267335 -0.812778 -1.717124 -0.438703 0.741755 1.170251 0.439778 1.062561 0.335490 -1.385759 -1.327822 -0.366393 0.057449 0.440554 -1.738096 -0.837311 -0.578592 -0.911138 0.541243 0.347094 0.516609 -1.289422 -0.396190 -0.063557 -1.346860 -1.350334 -0.148102 0.454284 0.296302 -1.166357 0.023795 0.563874 0.825397 0.946013 -1.055474 2.068428 0.599550 0.883575 -0.928997 1.811084 0.067607 1.434559 1.040305 -0.336864 0.479919 0.170991 0.842547 0.147583 0.040008 -0.975424 0.517302 0.616066 0.369489 0.191882 -1.537005 0.526480 -0.020480 0.581081 -0.250941 0.746705 -0.257962 0.345049 0.304227 2.008965 -1.125440 0.564406 0.912221 1.237661 -0.512252 -1.222442 -0.019458 0.785259 -1.350633 0.232491 -0.488323 -1.002607 -1.279847 -0.247749 -0.922414 0.695626 -0.224554 -0.489989 1.214743 -1.226290 0.052308 0.490565 1.437580 -0.510352 0.414876 -0.809944 0.451986 1.325913 -0.486165 -0.373889 -0.736603 -1.361667 -0.027122 -0.503541 -0.580285 1.181488 0.384642 1.044542 0.659673 -0.510148 0.877463 -1.299430 -0.222540 -0.289529 -0.198508 -0.960865 -0.851017 0.865974 -0.818015 -1.625328 0.533865 -0.657477 1.097352 0.865122 -1.260399 -1.003692 -0.903223 0.731750 -0.690052 0.928631 
clustering 1.331214 0.634583 -0.560829 1.901676 0.406496 -0.141599 0.772650 -0.022971 -0.232690 0.909394 -0.249996 -0.069516 -0.121275 0.348085 -0.084461 0.422176 -0.849215 0.386039 -0.909460 0.846728 0.146503 0.844642 -0.432556 -1.566845 0.597230 -1.163281 -0.594975 -0.665957 0.588072 0.452673 -0.028360 -0.168832 0.393623 0.426555 0.152767 -0.052986 -0.572158 1.528148 0.681133 -0.789340 1.222439 -1.713206 2.023272 2.302720 -0.156393 -0.531527 1.055532 -1.794247 -1.146235 -0.234501 0.728541 0.153455 -0.213178 -1.630342 1.216372 -0.747792 -1.569185 -0.298117 -0.412591 -0.605695 0.456095 0.322580 -0.156307 -2.204709 -1.087858 -0.393504 0.076012 -0.053193 -0.070811 -1.057331 -1.092785 -0.344833 0.534234 1.280632 -0.511862 0.204905 -0.863355 0.756364 1.316296 -0.991951 0.589559 -0.624374 -1.776580 -0.537158 0.501543 -0.888772 0.601255 0.114153 0.266541 -0.331892 -0.784920 -0.310922 -2.185062 -0.530996 0.604658 -0.674385 -0.593085 -0.897623 -0.173371 -2.398582 0.925087 0.401413 -0.401413 1.001314 0.667377 1.451056 1.561328 0.635907 -0.879172 -1.243113 -0.425507 -2.267383 -0.717801 -0.987478 -0.437847 -0.371344 -0.902731 -0.963112 -0.241305 2.514115 0.007825 -0.709597 -1.153682 -0.934709 -1.274251 1.139461 0.507250 1.776959 0.375329 -0.552797 -0.080047 0.564646 -0.092140 -0.523446 -1.299039 0.218615 0.026545 -0.296909 -0.444695 1.662190 0.026535 -0.464231 2.358426 -0.264190 -0.148626 1.301952 0.657718 1.524642 -0.972204 -0.907464 -1.234619 0.316303 0.160222 1.264058 -1.981429 -1.304067 -0.728571 -2.564227 -0.909363 1.009810 0.014743 -0.207337 -1.006570 -0.739739 -0.334025 0.877628 1.236382 0.077953 1.022240 -0.738582 -0.907498 0.409697 2.644764 2.120311 0.325930 -0.721020 -0.496507 0.729647 -0.800402 0.658008 -1.028588 1.660398 -0.994143 -1.115533 0.431845 0.174581 0.357174 -0.567952 0.065370 0.835412 0.047074 0.472469 0.113951 -0.362504 -0.818407 -0.223750 0.369147 1.103096 -0.248703 -0.339478 
networks 0.730728 1.653857 0.483490 0.028598 -0.215922 1.690918 -2.026461 -0.767677 0.321292 0.116108 -0.823521 0.894027 0.868573 -0.349939 -0.662265 0.337410 0.340285 0.387887 0.500278 -1.071205 -0.124412 0.835659 2.371937 1.044737 -0.335817 -0.921452 -0.076931 -0.354873 0.675958 0.200419 -2.065515 0.946633 -1.014611 -0.703431 0.410925 -0.085071 -0.283409 -0.324952 0.407618 0.760675 0.612920 -0.942275 1.265385 -1.942795 0.642252 1.560369 0.062793 -0.154037 -0.616269 1.032269 1.128082 0.509465 0.110169 0.775554 1.604383 0.271863 0.821073 -1.274756 -0.966106 -1.872042 -0.853641 -1.211433 0.700972 0.543798 -0.568477 -1.108249 0.495246 -1.567245 -0.324834 -1.367687 0.050957 1.404851 -2.469798 0.825273 -0.330346 1.171498 -0.658757 0.647051 -0.436395 0.138260 -0.141363 -1.283661 -0.860889 0.232492 0.183778 -1.060055 0.492569 -0.665124 -1.401732 1.431715 0.373133 1.201594 0.009916 -1.501736 -2.043778 -1.683081 0.760053 0.115767 -0.090913 0.495740 1.194674 -0.463368 0.666543 0.020575 -0.105158 -0.033344 1.793173 1.482537 0.143499 0.657201 0.693748 -0.975796 0.587374 0.306679 1.069238 -1.846643 -1.827836 -0.801967 1.179288 2.123666 2.263110 -0.507147 -0.625184 -2.540648 -0.637154 0.498937 0.644341 -0.487568 -0.847764 -0.736853 0.462495 -0.049007 0.387170 -1.010063 0.249768 -0.274727 -0.037554 -0.955689 0.775232 -1.978113 -0.832740 -0.793474 -0.617844 1.286126 -0.312857 1.804080 0.450000 -0.896019 -0.186166 0.467540 -0.051343 0.640486 0.865317 -0.567419 -0.383503 -0.161517 0.301039 -0.093626 1.925157 0.358890 0.363890 -0.471732 -1.638293 -0.645175 -1.125806 0.357664 -0.281029 -0.447922 -0.181153 -0.972437 1.693109 0.817001 -0.414352 -0.740315 1.387848 -0.221235 1.027915 -0.685541 0.450598 0.569616 -0.814247 1.931684 -0.770347 0.959727 0.956380 0.381636 0.488591 0.354718 1.580093 -0.681080 0.042081 1.488016 -0.982289 -0.884903 -0.742037 -1.182632 0.990953 1.314186 0.711164 -0.876952 
classification -1.010618 0.209635 -0.143054 0.401207 0.031366 0.685283 0.334669 0.670991 -0.028137 1.117316 -0.966320 -0.669443 0.769324 1.255032 -0.710914 0.434507 0.959178 -0.075842 -1.898853 -0.812934 -0.435187 0.101805 2.383434 -1.353262 0.321442 -2.392088 -0.787477 -0.403641 1.014014 0.207658 0.070581 0.782685 1.025799 -0.759804 0.901081 1.108094 -0.637301 -0.347157 -1.224726 0.428095 -1.450680 -1.786369 0.589315 1.556805 0.050581 0.257725 0.743233 0.056630 -0.347867 -0.042021 -0.155992 -0.018534 -2.036629 1.223706 0.058993 -1.451218 -0.901028 0.703655 0.397669 0.382559 1.922867 1.633158 0.521352 0.175470 1.159033 1.782976 0.183110 0.093325 -0.620707 1.240515 0.603562 -0.547241 -0.273317 -2.172473 -1.287856 1.356223 -1.427399 -0.655891 1.902392 -0.859822 -1.010272 -0.504893 0.218875 -1.164927 0.759739 0.190065 -0.597656 1.897100 -0.568735 -1.619911 -0.749804 1.141875 -1.311462 -0.216222 1.151984 -0.057216 -0.064591 -2.280800 0.213469 0.092062 -0.031836 -0.958818 0.024963 -0.523692 -0.853815 2.152926 -1.003799 0.634951 0.277320 1.154443 1.170240 -0.904651 -1.097579 -1.140073 0.879728 -0.052134 -0.428365 -0.192270 -0.255856 -0.078604 1.086962 2.167900 -0.851020 -0.047087 -0.419907 1.368089 -0.496500 -0.234292 0.746365 -0.282917 -1.859275 0.271977 0.644421 0.765892 -0.033716 -0.644083 -0.281509 1.774562 -0.864412 -0.257091 -1.712614 -1.125505 0.392531 1.560783 0.291271 -0.349154 -0.400740 0.402045 0.394410 -0.853408 0.116224 1.115482 0.769561 -0.813858 -0.631329 0.574999 0.479648 -0.329155 -0.609375 -1.176908 0.428018 -1.464995 -0.821419 -0.990998 -0.822029 -0.077715 0.480808 -0.367036 0.158450 1.347037 0.756245 -1.007017 -0.317139 0.251311 0.884353 1.487803 0.271324 -0.072990 -0.518900 -0.186092 -0.967830 0.780562 0.433334 -0.313263 0.971324 -1.134868 -1.545767 1.046638 -0.101625 -0.249438 1.108937 -1.304956 -0.709818 -1.198283 0.005628 0.357146 -0.812932 0.183961 -0.443563 -0.522982 
fast -0.076020 -1.232761 0.330914 -1.189742 -1.188441 0.586724 0.350547 0.627389 0.991478 -0.537561 1.916301 -0.749034 -0.513881 -0.400238 0.722212 0.297936 -0.245553 0.743330 1.157246 1.193526 0.761683 1.130481 1.767495 0.525226 0.529360 0.598197 1.597514 -0.488768 0.357922 -0.511902 -1.237818 -1.007368 -1.696352 0.233948 1.532773 0.051978 -0.339358 0.915977 0.166737 -1.179792 1.166176 -0.059740 -0.086435 -0.983954 1.967799 1.254842 -1.019845 -0.417279 -0.668204 -0.276543 -0.981724 -0.954166 -0.698123 -0.434786 0.168545 -0.923202 1.180462 -0.656980 0.381773 -0.969537 0.708002 -0.411756 -0.126574 -0.451093 -0.673651 0.193473 0.084495 -1.379532 -0.834516 0.643688 -1.232235 -0.376403 -0.818145 -0.465888 -0.023233 -1.633253 0.592581 1.073579 -0.113866 1.112762 0.611578 1.835466 0.571443 0.747017 -0.961716 0.566570 0.687357 0.506485 -1.123124 -0.174323 -0.311625 -0.974869 1.202558 -0.268267 1.173374 -1.605096 -0.599230 -0.060256 0.704243 0.300810 -0.717747 0.254505 -0.682146 0.370557 -0.151491 0.742445 -0.275264 0.983132 -1.388163 -0.828750 0.308459 -1.075941 -1.035791 0.390182 1.332185 -0.015456 2.162107 0.002905 -0.636735 -0.484620 0.511376 -0.241625 0.188680 0.302469 -0.182053 0.352212 -0.138166 0.691754 -0.065212 -0.475575 -0.114241 -0.027480 -0.145780 0.918312 1.043088 -0.618133 -0.991290 -0.795046 0.854404 1.128335 -0.183559 1.101345 -1.106207 0.110023 0.013462 -0.361145 0.920890 -0.799584 0.789442 -1.648650 -1.167149 0.983039 0.129142 0.098431 0.063932 2.115971 -0.766875 1.195210 -1.076564 0.342189 1.216383 1.523919 -0.668694 -0.977621 -1.209045 -1.152009 -0.509489 -0.502445 -0.692115 -0.059420 -0.219829 -0.380737 0.899461 0.262377 1.760553 -0.257287 0.627582 -0.657392 -1.178351 0.469137 0.024037 0.394093 0.872633 -0.297686 -0.246012 -0.854920 -0.707604 -0.751296 -0.800196 -1.162098 0.230171 0.566375 -0.265068 -0.496517 -0.948301 0.036232 -0.857302 -0.674860 0.109920 -0.508136 
gradient -1.893585 0.762981 1.571294 0.230756 -0.731884 0.290274 1.467934 1.416662 1.351752 -1.285021 -0.361167 1.234079 -0.738541 1.860612 1.062795 0.574154 -1.623028 0.574181 0.416389 -0.467862 -0.499628 1.242262 1.319165 0.300767 -0.058654 -0.009332 1.679287 2.173588 2.497875 1.181639 -1.875669 -0.302635 1.203965 0.116858 -1.547378 -0.937352 0.591780 1.237979 -0.942703 -1.218186 0.878680 0.881942 0.710937 -2.386637 0.571402 0.372513 0.176499 -1.010999 -1.751104 1.625040 1.760378 0.909769 0.195466 0.114820 -0.545982 0.057359 0.203114 -0.266037 -0.021473 1.613017 0.329934 -0.811494 2.804889 -1.954693 0.511520 -1.196199 1.038864 -0.633790 0.012452 -0.261569 -0.224362 -0.118159 0.384023 0.460111 -0.060162 -1.445163 2.440258 1.056920 0.414325 1.645323 1.047559 -1.021261 -0.122827 -0.211986 -1.529958 -0.466889 1.515150 -0.054177 1.098180 -0.794153 -0.180188 -1.577455 -0.902963 -0.739011 0.247198 0.642412 0.276227 2.122240 0.842009 0.634457 1.001323 -0.997231 0.508605 0.508706 0.255605 0.939481 1.092217 0.074674 1.357073 -0.213973 -0.782654 -1.401597 -0.053691 2.672274 -0.003245 -1.483419 2.255200 0.186210 -1.470928 0.502195 -0.359021 0.389735 -1.108762 0.606579 -0.357333 -0.531336 -0.446020 0.603580 -1.322964 -1.841163 -1.016253 -1.208223 1.752904 1.738631 2.075630 -0.726263 -0.276637 0.763761 2.376255 1.313427 0.473496 1.565125 0.210680 -0.595470 0.811066 0.569199 -0.329313 -0.095793 0.502500 -0.648680 -3.082056 -0.504037 0.810787 1.731199 -1.074792 0.180935 -1.008427 -0.927791 0.663252 -0.088664 -0.711320 0.071302 -0.528690 -1.088528 -0.890758 1.316195 1.725647 -1.036490 0.498555 0.381754 -1.017612 -1.319268 -0.253420 0.843046 0.321690 -0.295073 -1.407255 -0.275088 0.818230 -0.476860 -0.270006 0.762058 0.217376 0.276334 0.355780 -0.179582 0.762084 0.362124 -1.054474 0.760965 1.795684 1.414535 -1.350096 -0.220315 -1.219583 -0.509829 0.261111 -0.420570 1.273305 0.527905 
algorithm 2.102881 -0.412464 0.338115 -0.779182 0.475881 -0.710036 -1.177492 -1.960876 0.585544 0.493428 -0.428472 1.265566 -1.568402 0.719860 0.865286 0.709739 1.145483 1.187851 -1.604966 -1.113511 -1.069401 0.453553 3.297816 -0.595077 -2.101372 -2.212478 -1.938601 0.102027 0.741608 0.165738 1.212442 0.577139 -0.341104 0.439677 -1.074859 -0.545709 0.250048 0.153910 1.028404 -0.763028 0.067017 0.589775 -0.766692 -0.918923 -2.474679 -0.812246 0.871801 0.337043 -2.043665 -0.733935 -0.914122 0.656447 2.736886 1.061008 -0.231981 0.228535 -0.331176 -2.135881 0.704601 0.155989 -1.783003 -1.433730 -1.130125 1.259952 -0.448700 0.748736 1.996293 0.707907 -1.136361 0.976248 0.027184 -0.938179 -0.916392 1.624637 -0.116863 0.991367 0.782981 -0.211208 -0.144081 0.943910 0.093675 1.159060 0.624773 0.580208 1.800545 -0.292346 1.336712 -0.170833 -1.987548 -0.620646 0.678672 0.529702 0.363454 0.625670 1.760566 1.951956 0.051912 -0.095766 1.678737 0.130098 -0.111763 0.303772 -0.056584 -0.767556 0.639242 -0.562037 -0.618953 -0.442214 0.235628 -1.573798 0.735328 -0.194050 0.220967 -1.010382 -1.809788 -0.180835 -0.737133 0.475395 0.441134 -1.307048 0.670382 -0.685135 -3.877555 0.488380 -0.499372 -1.381997 0.753834 -0.769004 -0.419397 -0.065087 1.514546 0.165614 -0.172567 -0.779631 -0.215521 -0.125620 2.222770 -1.095072 -0.132746 0.834553 -1.945929 -0.023816 -0.116312 -0.161672 0.485532 0.239142 1.909347 0.541130 0.051171 2.064156 1.671209 0.009803 0.658068 0.383476 -1.253555 -0.785870 -0.051190 1.421261 -0.496584 0.416817 -0.019596 -0.232976 2.135705 1.043917 0.623311 -0.514344 1.364528 -1.669375 -0.391743 -0.344981 -0.681310 -1.930495 -0.452532 1.592808 -1.074015 -0.533668 1.087704 -0.636400 -0.587351 -1.795654 -0.741120 -0.500274 0.345321 1.948014 0.179953 -1.835133 1.992815 -0.074239 -1.517790 -1.072912 -1.365033 -2.032616 0.025770 -0.901328 -1.250101 -1.702685 0.859293 -0.938739 -0.224144 1.850053 
estimation 2.311403 1.777685 -0.693916 1.585289 -0.392503 0.533567 0.364891 1.426826 -0.654984 1.333691 2.077057 -1.274228 0.653747 1.336863 -0.714245 0.760975 0.664220 -2.693078 -1.299427 -0.341403 -0.386246 0.479781 0.841688 0.273986 0.013339 -1.298428 0.869933 -1.054178 -1.617057 -1.922568 -1.605431 -0.525853 -0.412393 -1.539931 0.778975 0.446234 0.459336 1.347182 1.120431 -2.644991 -0.712603 -1.254133 0.767522 0.102245 -0.372372 -0.792659 -1.824168 1.151970 -1.656189 -0.308687 -0.872384 0.151450 -0.000148 -0.414276 -0.336880 -0.668839 0.037581 -0.711117 -1.155657 0.934062 0.115983 -0.202105 -0.399966 -0.425649 0.163214 1.673734 0.160833 0.579702 0.293641 -0.460568 1.943208 1.916646 -0.161327 1.419172 0.448896 2.148462 1.667310 -0.995813 0.940358 0.576725 -0.868448 0.429445 0.527106 -0.029821 -0.749267 0.918618 0.241988 0.664799 0.817918 0.300279 0.742820 -0.673393 1.251589 -0.787937 0.578384 0.582597 0.275640 -0.087498 1.681898 0.151150 2.184718 0.366838 -2.118546 -2.275317 2.038212 0.420678 -2.175416 -1.116455 -0.308030 -0.259090 0.106210 0.496836 -1.015833 -0.026649 -0.937836 1.133493 -1.004624 -0.156108 0.133780 0.555827 0.322761 -0.239350 -1.075451 -2.553835 0.877915 2.371190 -0.996395 -0.889312 1.765589 0.376114 0.664299 1.574854 -0.370280 0.517272 -0.306325 -1.700810 0.602978 1.616966 0.253104 0.354116 1.011569 -0.698236 -0.535673 3.068001 1.989792 2.238317 1.425842 -0.225647 0.533147 -0.104402 0.470180 0.080627 -0.487650 -0.457584 -0.931344 0.481269 -0.064521 -1.970906 -0.880396 0.883302 0.956322 2.161354 -1.284916 0.130021 0.286987 0.064428 1.010254 -0.101521 1.833337 -0.122579 0.458518 -0.122400 1.466787 0.677248 -0.364555 0.134803 -0.299045 -1.469806 -0.093232 -0.043032 0.209191 0.621665 0.525320 -1.428234 -1.528947 -0.096503 -0.878962 1.444705 0.902608 -0.306433 -0.298915 0.995147 -1.483218 -0.517959 -0.324383 1.199236 2.414088 0.219774 0.814985 0.985504 
multiple -1.441422 -1.814621 -0.363311 0.484945 0.239888 1.403703 0.469944 -0.278227 -0.641025 0.799160 -0.746735 0.017046 0.584208 -1.494404 -0.782995 0.468156 0.303082 0.746306 0.786611 0.870810 -1.133676 0.332646 -2.023679 -1.119859 -0.809372 0.399887 -0.139893 0.895725 -1.281510 1.693090 -1.476390 1.810639 1.217694 0.201287 -1.233448 -0.995010 -0.692073 1.493242 -0.123215 0.955290 -0.253146 -0.559583 0.605278 0.562928 1.944814 -0.479589 -0.098736 -2.252525 -1.231732 -0.278612 -1.139480 1.484439 -1.102592 0.384332 0.409052 -0.006808 0.589998 -1.614279 -0.875088 -1.068511 -0.754059 0.824171 1.208427 0.382658 0.792444 1.155668 -1.262608 -0.460534 -0.537818 1.160133 1.447195 0.130747 -1.054667 -2.409405 -0.319947 -0.722462 -0.391323 -0.390841 0.551112 1.804006 1.421241 -0.188878 0.041224 0.434130 -0.292475 -0.211159 -1.053367 -1.290755 1.302741 -1.041779 -0.523339 -0.492643 1.122186 2.338509 0.184316 0.676062 -2.218914 0.565614 1.292063 -0.396080 1.721330 0.926591 -2.284334 -0.931373 -0.831900 0.006975 -0.259687 0.286945 -1.494825 0.601926 -0.344299 0.044466 -0.910467 -0.039242 -0.627362 -0.551445 1.765450 -0.722877 1.887710 -1.257218 1.222382 -1.748402 -0.172330 -0.382985 1.516114 1.019746 0.949767 -1.149111 1.092608 0.540899 -2.058000 1.704799 0.290209 0.393348 0.525358 -0.409282 -1.314608 -0.422868 1.168815 2.197308 0.663554 -0.992665 -1.351062 0.150941 -1.027070 0.434797 0.201925 -1.309423 -0.883989 0.157771 -1.653098 -0.288799 1.048005 0.373741 2.197740 1.146020 0.132432 -0.541503 -1.217946 0.701673 0.778591 -0.633824 -1.871258 1.349050 0.208024 -2.141388 0.120983 1.256910 -0.917319 1.045414 -0.118740 1.071078 -1.385544 -0.130543 -0.139703 -0.118907 -0.410033 0.473429 -0.944198 1.329143 0.193015 0.637712 0.814809 -0.117678 1.617057 -0.098805 0.359877 -0.661445 0.756162 -0.429113 -1.908109 -0.600895 -0.496646 -2.575261 -0.083305 1.651510 0.896341 -1.279361 -0.061208 -0.334510 
regression 0.035745 1.155953 0.620991 1.898856 0.135880 -0.274593 -0.052675 -0.415690 -1.452663 2.371057 -0.667248 -0.606605 -0.851845 1.763407 1.314797 -0.897348 0.618277 -0.530725 -0.017781 -0.347657 1.222346 1.775167 2.196767 -1.710886 -0.058452 0.611637 0.103505 -0.722938 0.820745 -0.989427 -1.000092 0.454623 1.361853 -0.236670 1.257650 0.015862 -0.497144 1.176207 0.216006 -1.910538 1.419845 0.381140 -0.234402 -0.691724 0.592002 0.487313 0.112205 0.412269 -1.273686 2.195423 1.206758 -1.330103 1.119397 1.064751 0.094601 -0.944176 -0.055345 0.615407 0.852531 -0.422138 0.102247 1.755446 -2.771548 -0.990317 0.960543 -0.953227 0.526295 -0.958943 -0.299656 0.811759 0.495412 1.729683 -0.473610 -2.005425 -0.566019 1.220236 -1.836847 -0.509464 0.959318 -0.918018 1.220313 0.861588 0.336612 -0.347143 -1.123453 0.927329 0.313099 1.275792 -0.413357 2.072314 -1.452964 0.773841 0.713414 -0.578829 0.304012 0.453355 -1.547409 -0.862901 1.055994 -0.619945 0.050566 1.063155 -0.456969 1.033517 -0.727771 -1.143368 0.253702 1.302619 0.501761 -0.692638 -0.026199 -0.344176 -1.420807 -0.041079 -0.060359 -1.038343 -0.367689 -0.844976 -0.175254 0.365082 1.351769 -0.315361 -0.225076 -1.680386 0.227603 2.186840 -0.168169 -0.285087 -0.491949 -0.757716 0.505853 1.539443 0.561212 -0.248393 0.131060 -0.508002 -2.718810 0.364954 0.657615 0.482246 -0.210781 -1.323211 1.432791 -0.252289 0.501045 0.277284 -0.925987 -0.750143 -0.995420 0.264973 -0.698328 0.229824 -0.673358 0.101686 -0.262040 1.614086 -0.546270 -1.863575 -0.879292 -0.849558 0.306828 -1.272379 -0.368227 0.227668 -0.153221 -0.445709 1.115743 0.076029 -0.087814 0.667534 1.867194 0.073078 0.414413 0.230570 -1.295350 0.436398 -0.745838 -0.753967 -0.352066 0.095735 -0.326401 0.918552 2.558345 -0.487169 0.071122 -2.337381 0.682908 0.110253 -0.438818 -0.620027 1.095520 -0.545381 -0.252157 -1.172548 -0.896159 0.546917 1.732262 0.817374 0.320745 0.194390 
prediction 1.187838 -0.822219 -1.840215 0.129910 -1.193660 0.643255 0.539034 -1.804581 -0.582550 0.025192 0.026547 0.857113 1.305753 1.308252 1.737067 -0.689063 1.001035 0.146708 -0.754451 -1.132216 -1.167689 1.509541 -0.432387 -3.942834 -0.113938 -0.352076 -1.671662 -1.992273 0.318458 -0.133452 -0.730112 -0.498629 -1.051394 2.895469 1.259347 -0.005784 1.108497 1.463197 0.194444 -0.660024 0.012997 -0.946226 0.244026 0.970841 0.222213 -1.499213 0.745697 0.173539 -1.340881 -0.108639 0.925595 0.219513 0.166268 0.357006 -0.039651 -0.270361 -0.104594 -0.441349 -0.030193 -0.378871 -0.086306 1.377021 -1.125513 -0.409583 1.119847 0.943620 0.078619 -0.301810 -0.761108 0.534205 0.218663 -0.876352 -0.120298 1.316078 -0.621229 1.310703 -0.022283 1.482352 1.393929 -0.250136 0.572253 -0.511901 -1.322221 -1.336764 -0.979600 0.781433 -0.204663 -1.415230 0.255520 -0.152079 -1.090831 -1.056732 0.296960 0.769033 -0.757679 1.969057 -1.177094 -1.819171 -0.246716 -0.831572 -1.090946 -0.461946 -1.518358 1.799651 0.977979 -1.166404 -0.924868 0.222199 -0.116340 -0.081958 -0.146341 -0.407588 1.224794 0.580492 -0.350931 2.221131 0.255754 -1.098304 -0.242241 1.543330 -0.224267 1.695264 -1.980362 0.916550 1.823306 1.536041 1.540694 -0.625721 1.302960 0.103693 -1.147493 1.751687 -0.887224 -0.110106 0.699166 -0.419597 0.141691 -0.275306 -1.163266 1.555640 -1.030614 1.311829 2.789837 -1.195887 -1.615167 -1.713482 -1.986577 -0.830479 0.331756 -2.825578 0.492409 -0.221510 -0.598668 -0.276404 0.760135 0.574156 0.014842 -0.656332 -1.230429 0.807138 -0.029058 0.342822 0.264568 -1.110193 -0.877923 -0.327859 -0.179227 -0.771986 -1.331250 0.733464 -0.365515 0.684526 1.222034 -0.308989 0.513654 1.633799 -1.249642 0.635219 -0.553315 -1.642448 -1.012773 0.034711 -1.427002 0.499244 0.122014 -1.178331 0.998722 0.287851 0.103776 -0.896531 -0.325172 -0.746569 -1.574499 0.333691 -0.347945 0.487025 0.660280 -1.665590 0.261540 -1.074882 
linear -1.264805 -1.217647 -0.619516 -0.678593 0.189237 -2.956876 -0.264857 0.587085 0.435342 0.045268 1.027105 -0.773613 0.634964 0.633156 -0.213921 0.933112 -0.399661 0.053596 -0.184569 -0.782376 0.559020 0.650250 0.614746 -0.171935 0.058651 1.258379 -0.567102 0.199457 -1.371942 -1.563122 0.585086 -1.347203 -0.277651 -0.131992 -0.918048 0.049064 -0.039445 1.535182 -0.773731 -1.829404 0.346255 -0.359718 -0.120590 1.408993 0.647318 -0.509970 -0.352477 -0.010651 -0.985651 -1.629228 -0.508237 -1.408492 0.282630 0.378651 -1.129585 -0.489956 -0.252730 0.575178 1.159005 -0.388817 0.164856 -0.250605 -1.210454 -0.823154 -1.976018 1.232211 0.163028 -0.325453 -0.110281 0.269700 1.668446 2.472683 0.180533 1.478713 -1.603160 -1.882231 1.070351 0.437515 -0.516820 0.627792 -0.279615 0.498762 -1.656784 1.275586 0.030626 -0.315472 0.765291 0.448080 0.788810 -1.329702 0.106786 -1.743269 0.439572 0.505392 -0.827777 -0.176298 -1.244111 1.018497 -0.484305 1.225806 -0.167645 0.341121 -0.037149 1.534698 0.718948 0.353260 -0.157123 -1.689153 -1.370223 0.609650 -0.162908 -2.238023 -1.409163 -0.314724 0.243582 0.182930 0.113444 2.436431 -0.291090 -0.124278 -0.680851 -0.652535 0.675998 0.659750 -2.226449 -0.041507 -0.014208 -1.295655 -0.110054 -0.057562 -2.105557 -0.417115 -1.218995 -0.842636 -0.305357 0.131711 -1.044465 1.887152 -1.119879 1.242112 0.269981 2.389078 -1.775465 -0.977568 0.396621 1.170601 0.925811 -0.047662 1.085723 0.281350 -0.773402 0.550855 -0.442618 1.120747 -0.544340 1.698368 -0.587833 -0.565311 0.977532 0.304382 -0.746075 0.453105 -0.396548 -0.478279 -1.833553 -1.011382 -1.441133 1.514361 -0.131563 0.046736 1.169452 -0.061033 -0.606338 0.896244 -0.970922 0.958818 -0.956905 -0.110267 -0.974251 -1.074937 0.326869 1.136788 -1.480982 0.560044 -1.239496 0.263980 0.400049 0.839573 0.500668 -1.384011 -0.287151 -1.203120 -0.359874 0.918890 1.227106 -1.202793 1.368814 1.088848 1.117812 1.060633 
kernel -1.648054 -0.726000 -0.165030 0.158158 0.640248 0.067821 0.493433 0.937131 -1.033116 -1.544751 0.829138 -1.005923 0.222328 -0.125133 0.280152 -0.513966 0.379876 0.607490 0.057287 1.168641 -0.657951 0.609761 2.016183 -0.016322 0.714948 -0.066017 -0.491638 0.059366 0.308201 -0.696534 -0.660583 -1.839208 0.277871 -1.346095 -0.988960 0.492411 -0.152818 -0.135268 -0.231972 -1.447911 1.065420 0.454461 0.114118 1.366035 -1.251758 -1.105249 -0.237613 2.432249 -0.728934 -0.637079 1.713529 0.890824 1.767658 0.871536 0.743109 -2.352778 0.951506 -1.488959 -0.865239 -2.543372 0.729233 -0.845309 -0.838724 0.031677 1.308590 1.900621 0.957441 0.760785 -0.908410 -0.518377 -0.300175 0.599560 0.750119 -0.413844 0.479726 0.677966 -0.581661 0.206317 1.551745 0.289581 -0.222600 -0.242862 0.575575 -0.909160 -0.094969 0.456007 1.596373 -0.829902 -0.460149 0.278874 -0.078546 -1.209261 -1.710641 0.518910 1.258505 -1.122841 -1.161956 -1.205503 -0.147725 1.094913 1.219511 -0.071904 -0.118147 0.368592 -2.140248 -0.049591 -0.924900 -0.682464 0.252554 0.669679 -0.826116 0.039108 -1.780705 0.779437 -0.359942 -0.405157 0.164837 0.733625 0.310206 0.699233 -0.732262 1.603444 -0.622077 0.486837 0.653179 -0.176247 -0.402032 -0.348992 -0.531530 -1.366284 -1.126277 0.177950 1.344769 -1.482698 -1.250888 0.495960 -0.273714 1.380100 0.523915 0.354261 0.692188 1.070626 3.268703 -0.657424 -0.890149 1.229424 0.523620 1.016869 -0.175935 -0.974255 -0.395079 0.530051 -0.018262 0.156275 -0.139371 0.073130 0.472200 -0.211547 0.173549 -1.060369 1.723573 -0.491947 0.577270 0.219795 -0.813682 1.150924 -1.149888 1.379962 2.366016 2.135261 -0.421236 0.126169 -0.213880 0.277055 -0.376990 0.864693 0.857311 1.420161 -0.331959 0.196075 0.551925 0.640953 0.148620 -0.851954 -0.555846 -0.181265 -1.935583 -0.908752 0.632005 -2.426661 0.408292 1.264921 -0.716273 -2.379448 -0.901552 0.588829 1.122193 -0.679868 0.068191 -0.330532 
robust -1.800897 -0.443004 1.860056 0.703540 1.058801 -1.072941 -0.806561 0.154634 0.751782 1.338096 -1.466911 -0.562160 -0.408343 -0.686598 -0.461705 0.379940 0.956983 1.285290 -1.427070 -0.053956 0.381699 -0.290159 0.725919 1.369757 0.345391 1.413859 -0.234324 -0.958792 -0.818388 0.403851 0.176039 -1.987378 1.257596 -0.317787 0.415548 -0.312529 0.882488 1.286301 0.893924 0.221466 1.345069 -1.250279 -0.059980 0.844009 0.317704 1.337945 -0.685123 -0.085053 -0.759514 0.443943 0.294080 0.378366 -0.100337 -1.709475 -0.694703 -0.987739 -0.923350 0.885441 -2.071079 -0.884579 0.538123 -0.554163 -0.137635 -0.550735 0.026459 -1.388715 -1.112988 0.463551 1.261989 0.414755 -1.748386 0.951275 -1.033874 -0.953593 -2.103568 0.674534 -1.451923 -0.328603 0.253565 0.970527 1.576834 0.643910 0.372622 -0.123703 -0.140715 -1.299072 0.312009 0.895838 -0.861839 0.027233 0.988920 1.337612 0.305846 0.567278 -0.177227 -1.599287 -0.054469 0.283291 -0.274715 -1.234249 0.125390 1.127569 -1.111427 -0.601523 -1.245431 -0.582206 0.802627 -0.764757 0.052454 -0.553285 -0.597486 -1.047543 -0.803254 0.555125 0.662317 1.356383 -0.154081 -1.690233 -0.064912 -1.382885 0.189510 -0.325148 0.039489 0.043848 -0.661673 1.233339 0.802561 -0.710083 0.787936 -0.070202 -1.116701 0.846916 -0.609854 0.625723 0.330799 -0.124301 -0.292788 0.433960 0.071908 1.501953 -0.142191 -0.630411 0.151369 -0.872106 -0.210344 -1.484083 0.161842 1.990010 0.918980 0.838492 -0.834695 0.110869 -0.856993 0.832330 -2.210406 -1.306660 0.425827 -0.486532 -1.795490 0.068796 0.637438 0.368130 1.319095 -1.191377 1.243829 1.219003 1.419648 -0.446504 0.371399 -0.111472 -1.136655 -0.105024 0.846960 -0.152551 -0.222002 -0.121590 0.728039 0.851334 -0.701283 0.959710 1.845285 0.340113 -0.216638 -1.359472 -2.672942 -1.638448 -0.775783 0.405294 0.406298 0.489423 0.058193 0.001647 -1.710963 0.621462 0.993197 -1.437209 0.348560 -0.566067 -0.519454 1.791596 
neural_networks 1.681655 1.394147 -0.403617 1.709405 -0.630902 1.161559 0.700619 0.014466 1.873245 0.484176 -1.484420 -0.367607 3.527180 0.365442 -0.488026 -1.391379 -0.869110 -1.432535 0.079151 0.523859 -0.992796 -1.402139 0.472229 0.551612 -0.877995 -1.557359 -0.830708 0.037232 0.754947 -0.401135 -1.668894 -0.876847 -0.266537 0.925346 0.832987 -0.467176 1.559056 0.241663 0.747993 -0.332276 -0.712816 -0.700766 0.486244 -0.973854 2.142437 -0.689544 -0.221412 -0.807359 -3.284310 0.476701 0.236528 2.184231 0.142516 -1.130667 0.883099 0.443552 -0.047073 1.664410 0.252162 -0.591636 1.029567 -0.494231 0.218675 1.520741 1.142932 -1.239376 -1.929491 -1.179139 -0.681955 -0.938113 -0.855163 1.582912 -1.279821 0.478461 -1.666313 0.169672 -1.214390 -0.448520 0.509380 -0.337450 0.002402 0.688767 2.183137 -1.474216 -2.634776 2.118490 1.433025 0.578321 1.136938 1.306444 -1.404818 -1.262350 -1.794088 -0.070916 -0.530630 -2.135936 0.195509 1.244225 -2.186490 0.941947 1.965883 -0.969587 -1.885566 1.010001 0.448605 0.026388 2.145221 1.607889 1.859840 -0.370880 1.528423 0.195668 -2.220233 0.522496 0.163200 0.139175 0.614347 -1.121252 0.738853 1.975151 0.595200 0.502356 -1.201667 0.546782 0.668558 0.144185 -1.571175 -0.765805 0.000686 0.015349 -1.675861 -0.659348 -1.308891 -0.063843 -0.013418 -0.369350 1.680111 0.766821 1.501466 -0.763550 -1.541474 0.257243 -1.108275 -1.037371 -0.441793 -0.573347 1.557806 0.256799 0.173949 -0.282946 -0.756875 1.881878 0.438292 -0.127303 0.972225 1.945436 0.819535 0.636437 -1.092584 1.374812 -0.255860 -1.872936 -0.559409 -1.104897 -1.420710 0.253336 -1.948498 -0.340367 0.416491 0.045204 1.423270 -0.592974 -0.577215 -1.965961 -0.727957 1.093946 -0.151959 0.048866 0.508805 0.064156 -0.891859 1.039412 -1.010402 0.231527 0.410798 0.687437 2.463088 1.224058 0.085868 -0.318563 -0.391450 -0.318899 -0.813381 -0.287225 0.809194 -1.045921 0.033698 0.620629 1.310447 -0.339717 
based 0.503685 -1.168167 -1.328140 -0.999930 0.690702 1.663299 2.373715 0.292232 0.963767 0.918795 1.725972 -0.154668 2.414797 0.172008 -0.516320 -1.922222 0.466585 -4.110728 0.979142 2.721530 -0.357983 -0.298107 -1.034230 -0.749617 -0.638891 0.728326 -1.604193 -1.161993 0.988065 0.084528 0.731317 -0.548545 0.616244 1.307176 -2.053713 0.217145 0.272538 -0.436316 -0.156438 -1.102695 -1.422016 1.599110 -0.460186 0.162969 1.597426 1.175462 1.897174 -0.777840 -1.653072 -0.959212 0.902393 -2.343223 2.137591 -1.040468 -0.581678 0.655918 0.079782 1.351927 1.454799 -0.930963 1.478547 -1.456908 0.120451 0.206912 0.149222 0.959597 -0.639655 1.391425 0.000742 -0.183512 -0.785132 -2.070944 -0.747324 -0.744532 1.106362 0.411398 1.285981 -0.156722 1.376727 1.113180 0.460946 -0.511005 -1.369681 2.904218 3.147863 -2.371392 1.689996 0.402958 -2.276095 -0.156095 0.799282 0.251739 0.959399 -1.186236 1.013743 -0.968208 1.180015 -0.866183 0.243119 -1.118953 0.726665 1.357180 0.931259 -0.541451 0.502274 -0.511772 0.333115 -1.466780 1.126693 1.482269 -1.073377 1.537535 -0.386876 -0.780118 -1.257614 0.075401 -0.557463 2.883889 0.604413 0.380367 -0.205704 0.781766 -0.242029 1.150347 0.432206 -0.523804 0.826066 0.056771 1.064744 -0.370965 -0.606422 -0.749672 -0.695476 0.603767 0.871602 -0.369825 -1.078265 -1.344267 0.511814 0.360580 1.049100 2.992066 -0.117933 1.639241 -0.443859 -1.246914 1.183565 1.243705 -1.946062 -0.216288 1.158577 -0.836856 0.996156 0.095459 3.056767 0.392173 -0.039230 0.573523 1.336549 0.646460 -0.276216 -0.461231 0.080714 0.981129 -1.370318 -1.964077 0.370038 -0.519608 1.335759 0.879946 -1.015036 -0.889444 2.677418 -1.225887 -0.075377 -0.763280 -0.371777 -0.128548 -2.877915 -2.622734 -1.098647 1.769238 0.927247 -1.391264 0.422915 2.250896 -0.286983 0.085560 0.258096 -0.708739 0.383462 -0.807676 -0.432804 1.051403 -0.895659 0.673961 1.416564 -1.074822 0.932613 -0.739525 
structured -0.472805 1.824937 -0.275175 0.358065 -0.111973 1.330783 0.834794 0.412760 1.377179 1.629572 0.147316 -0.161020 1.433190 0.178840 -1.646307 -2.161973 0.216596 -0.148229 -0.936244 0.262178 -0.656981 1.292247 2.235401 -0.766279 -0.383165 0.422501 1.327947 -0.390410 -0.763428 -0.541670 -0.513086 -1.144876 0.334112 -0.641727 1.978773 1.278257 0.795248 0.452322 -0.024949 -0.271271 0.850831 1.190519 -2.212205 0.894494 1.322500 -0.194990 -0.414804 -0.995108 -0.788408 0.062255 -0.914336 -0.506494 1.232230 0.322339 1.191268 -1.548807 -1.466372 0.147006 -0.633441 -0.508753 0.475702 -1.006995 -0.888618 1.391950 -1.619185 0.470638 -0.331983 -0.036853 -0.834347 -1.971134 -0.739726 1.803406 0.513371 -1.095822 -0.933209 -2.161730 -1.203637 -1.464781 -1.170630 0.470445 1.466560 1.416722 0.690908 -0.312236 -0.833101 -0.429337 0.097427 1.078351 -0.749117 0.740303 -0.844995 -0.267679 -0.962448 1.512318 -0.249771 -0.224014 0.896681 0.085640 -0.768331 -0.134120 -0.617908 -0.610153 -0.544631 -0.760250 -0.854680 1.609415 1.144185 -2.325547 0.049867 1.469892 -1.047875 0.055006 -0.111204 -0.309608 0.473203 0.484114 0.588672 0.290491 0.184186 -1.491905 -0.769966 0.978541 -1.613949 -1.842858 -0.842239 -1.161870 0.388794 0.299106 0.305380 1.520950 -2.784176 -0.010296 -2.512598 -0.028064 -0.824382 -0.703265 -1.654162 1.245929 0.596608 -0.002815 2.016403 -1.263209 -0.259751 0.871310 -0.139662 1.317087 1.489573 -0.218477 1.461300 -0.069325 0.221929 -1.009739 -0.899301 -0.051202 1.859713 0.293397 -0.107993 0.669135 0.304111 -0.606608 0.179036 -0.371738 0.180316 -0.579956 -2.708575 -0.403621 -1.946104 -0.729643 -0.848566 -0.368800 -1.006153 -0.648205 -0.733075 -2.057108 1.632676 -1.050573 1.476674 -0.746600 0.627914 0.079128 0.746774 -1.112748 -0.968133 -0.432325 0.710731 -0.512285 0.611244 2.638879 0.475760 -0.605560 -0.353147 -0.769561 0.080024 -0.878211 1.099954 -0.825875 -0.300322 -0.915272 0.997275 1.162445 
inference -0.284146 0.830851 -1.967125 -0.255077 -0.426901 0.062517 -1.006194 0.237798 -0.792031 0.339311 0.420798 0.871458 -0.864487 1.360292 1.402939 0.677667 -2.621809 0.783905 -1.625299 -0.455846 -2.463149 0.488245 0.546087 -1.839887 0.347259 -0.968794 -0.342840 -0.383679 -0.414684 0.071296 0.098245 -1.545000 -0.950748 -0.309555 -0.000552 0.335600 2.204909 2.168966 -0.272826 -0.235993 1.194423 -0.947174 -0.163762 2.257522 -0.016717 -1.152092 1.828450 0.695945 -0.314913 0.363293 1.937517 -0.250507 2.460672 -0.233331 -1.679243 1.916257 0.884706 0.515339 -1.613036 0.483745 -1.921070 -0.697507 1.563694 -1.593154 -0.122871 0.675688 -1.499770 -0.023369 0.171374 1.216688 1.380646 -3.278867 -0.622365 -1.213877 -0.636782 1.308776 0.016264 -0.184837 2.105025 -0.201562 1.648353 -0.790434 0.211674 0.521969 -0.141694 0.010297 -1.416802 -0.927032 -0.950009 -0.220714 -1.331540 0.309873 2.390526 0.028809 1.909521 1.401753 2.068810 0.122741 0.254433 0.428968 0.975445 0.802918 -1.789426 0.131544 0.834758 0.482911 -1.809687 1.633343 -1.222454 -0.755522 -1.621593 -0.413009 -1.310159 -0.782035 0.682849 0.537804 -1.050102 0.153906 1.381043 2.615087 -0.758834 0.639435 0.375556 -0.436331 0.036015 0.591629 0.643049 1.332714 -1.456991 1.116363 0.841971 -0.594956 1.048431 -0.881347 1.123811 -2.263586 -0.042835 -0.436733 -0.127893 0.299919 -0.075632 -0.629574 1.008400 1.299800 1.549553 1.564983 -0.226334 -1.217874 0.621361 0.215399 1.556354 -0.842823 -0.511628 0.978104 0.421282 0.441329 -1.333775 -1.676718 -1.676925 0.239907 0.506843 1.446928 -1.795818 0.474198 -1.120496 -1.569104 1.363581 0.804703 -0.091783 0.230231 0.127052 1.575382 0.423885 2.585560 0.320407 0.421277 0.495744 1.171954 0.758985 -0.232518 -0.462919 0.809393 0.676632 0.675275 -2.223816 -0.130179 0.311958 -2.273849 0.637882 -0.169852 1.954681 0.758365 0.822486 -0.286763 -0.430932 0.145947 2.260707 -0.311483 -1.408517 0.519084 
search -0.444046 1.577034 0.573263 1.496264 -1.663054 2.902203 0.326348 0.528593 -0.489713 0.927623 0.314625 0.984715 1.797561 0.639919 0.300364 -0.426035 -0.555406 -0.843264 -0.378584 -0.982863 -2.654100 0.506876 1.912942 -1.278576 -0.136202 -0.419152 -1.082955 0.575554 0.629762 0.515314 -2.873609 -1.972150 0.998450 -0.570463 -0.448919 -0.533143 0.437203 0.144641 0.614681 0.771421 0.504367 0.235188 0.970954 -2.528127 0.583696 -0.552373 0.534704 -0.945276 -2.382750 -1.619929 -0.298831 -1.073931 -0.170183 -1.423379 0.613172 0.557734 -1.480918 -1.227006 0.405584 -1.472987 -0.362122 1.291636 1.346281 -0.742407 0.336191 -1.492777 0.622288 -0.457867 -0.183885 0.176088 0.671329 -0.716454 0.242606 -0.103443 -0.126042 -0.367797 0.131741 -0.341503 1.588703 0.959417 -1.316654 -1.022392 -1.624527 0.525345 1.821198 -0.788413 1.504872 1.298144 1.960488 0.363592 0.320790 1.577407 -1.065691 -1.164142 -0.026230 0.859665 0.266927 0.846637 0.232088 -0.061771 1.163958 0.225722 0.131732 -0.100330 1.191505 0.439699 -0.727431 0.858463 -1.056743 -0.136034 -0.311102 -0.920730 -0.764838 0.308206 0.015333 -0.385373 0.748276 0.532819 -0.170120 -0.764650 -0.031265 0.561887 -0.067356 -1.242045 -1.027532 0.225699 -0.737818 0.953685 0.228065 0.673477 0.794230 1.212086 2.617745 1.397346 0.731341 -1.799611 0.470002 0.024173 0.722376 0.226213 -1.306991 0.816002 -0.058472 0.945114 1.012660 -0.428750 0.259444 1.298630 -0.408808 -0.060785 0.142689 -1.503283 1.625966 0.342346 -1.247446 1.253577 -0.019080 -0.735344 2.320444 -1.160720 -1.537543 1.159142 0.475713 -0.012173 -1.268220 -0.085200 0.742963 -1.804425 1.080964 -1.435691 -1.579212 -0.730443 -1.223531 -0.237733 0.919570 2.123931 1.321911 2.247415 -1.176930 -1.592980 -1.599180 0.144943 0.482066 -0.077723 1.275779 0.316108 0.021552 -0.555688 -0.482128 1.726671 1.572164 0.324314 -1.454915 -1.769517 -1.501803 0.459654 0.913621 -1.561208 2.560844 -0.028401 
online -1.626832 0.279077 1.042536 -1.323573 -0.538302 1.085323 -0.431448 0.109258 1.016945 0.186667 -1.394020 -1.040413 -0.157692 0.230829 0.157622 1.071430 0.486973 0.251820 -0.063937 -2.626038 -1.147381 0.982866 1.451466 -0.074457 -0.451416 1.057704 -0.012999 0.775032 0.702938 -0.714495 -0.184202 -0.883619 1.644902 0.339514 -0.646903 0.090084 0.097139 -0.847297 0.461177 0.568006 1.354706 -0.126222 -0.432135 0.063943 2.510938 -0.256391 0.395734 -0.159492 -1.105572 0.951289 0.055279 0.231404 -1.190024 0.465282 -0.392911 0.076700 0.778419 -0.730697 0.136210 -0.411411 0.597681 1.099696 0.190091 -0.182733 1.193848 -2.260812 -0.328000 0.113409 0.894075 0.007318 1.190244 1.342578 -0.568408 -1.753960 -1.193590 -0.889198 -1.208998 0.469090 1.097962 0.085117 0.977586 0.191223 -0.867997 0.593626 0.544964 -0.504819 -1.429643 0.393037 2.278471 -0.947252 -0.317461 1.149369 -0.530777 0.637802 0.583359 0.591951 -0.169260 0.859973 -1.027560 0.130423 1.449024 0.159669 1.876768 1.814692 -0.025814 -1.095776 -0.028445 -1.653100 -2.808404 -0.749620 -0.231545 -0.497826 0.894026 -0.284682 0.167959 -0.628711 -1.139222 0.435335 0.080706 -1.468981 1.340978 -2.093910 -0.786970 0.387279 -0.573428 -0.557929 0.577154 0.094311 -0.088194 1.095892 0.349242 -0.384382 -1.892673 -1.537723 0.305306 -1.199242 -0.103050 0.855340 -0.921845 0.956358 -1.298328 -1.038906 -2.384644 0.562845 1.106965 0.207869 0.203425 -0.829073 -0.772571 0.527753 -1.972428 -0.624570 -1.205033 1.747065 0.246362 -1.155454 -0.058990 -0.303609 -0.822534 0.736125 0.413580 0.894677 -0.870716 1.683013 -0.368902 -1.126425 1.856673 0.759217 0.587226 0.341777 0.468903 0.558949 -0.847451 0.039268 -0.311284 -0.525387 0.011934 0.507073 -0.313022 1.767916 -0.442931 0.337918 -0.747394 0.235718 0.492147 -0.160563 1.088407 -1.213421 -0.647945 0.555143 -0.770943 -0.896979 0.474024 -0.018623 -0.289009 0.978177 -0.401283 -0.952215 0.284451 -1.094658 
adaptive 0.288667 -0.064993 1.110911 -0.581335 0.918188 1.456594 1.658354 -1.592215 0.761812 -0.119421 1.030529 0.013456 -1.245052 1.185839 -0.768631 1.643876 0.160987 -1.573168 -1.375724 -0.599997 -0.419908 0.121977 0.981915 -1.000963 1.876082 1.061910 -0.039189 0.640386 -0.139828 1.232448 -0.272966 -1.808887 -1.309413 0.839748 1.028426 -2.132776 0.477851 -1.171801 0.545620 0.338471 1.438516 0.577511 -0.545946 1.682967 1.361549 0.988013 0.502844 -0.520491 0.458681 -2.401828 -0.251434 0.708066 -0.238821 -0.365169 0.729179 -0.606310 -1.116693 -0.565402 1.681371 -0.871487 0.842950 -0.356791 0.389576 0.759032 -0.577383 0.671981 0.351182 -0.783905 -0.233950 -0.260027 -0.317436 1.208571 0.166360 1.155282 0.424040 -0.452791 -0.228200 0.525381 0.786153 -0.270561 0.028233 -0.356707 -0.414149 1.914253 2.043025 0.219619 0.528373 0.329621 0.591335 0.420066 0.533601 0.766076 -0.743470 -0.665081 0.916155 1.108843 1.067069 0.316633 0.504985 -0.989081 0.093654 -0.769178 0.122719 0.282068 1.017094 1.864730 0.527351 -0.405792 -0.295291 0.879836 1.251574 -0.957654 1.451562 0.316129 -0.535287 0.379004 0.123903 1.849017 -0.089204 -1.249919 1.259067 -1.862702 -1.383759 0.107602 -1.584277 0.767977 -0.383420 -0.304444 -1.439844 0.083546 0.182864 1.317518 0.033772 0.824743 -0.009483 -0.375276 0.465232 0.248892 -0.759794 1.192786 -1.299367 -0.157391 -0.085423 -0.806339 -0.348324 -1.331593 -0.267389 -0.664464 -0.002927 -2.133152 -2.360251 0.094398 -0.599525 0.153704 1.039417 -1.073392 0.256275 -0.527799 0.564357 1.764275 -0.330413 2.878958 -0.066843 0.029928 1.486443 -0.026484 0.628334 1.105182 -0.259130 -1.072466 -1.674225 -1.207645 0.129379 -0.850125 -0.962127 -1.441016 0.660087 -0.929659 -0.929659 0.683724 0.631062 -1.823425 -0.641970 0.031702 -0.143028 -0.540968 -0.301072 0.238268 0.710170 0.492295 0.711655 -0.590016 -0.089383 -0.131655 -1.839713 -0.837324 -0.303633 -0.452699 -0.356344 -1.591315 
active -0.289360 -1.288407 0.365112 0.183291 -1.784358 0.263272 -0.579209 1.563803 -0.646743 -0.326875 0.594692 0.529227 1.613335 -0.483302 -1.068703 -0.315866 -2.301649 2.038135 2.063944 -0.261982 -1.212391 0.346774 0.134313 0.651162 0.614878 1.163059 1.052321 -2.227896 -1.399366 0.329376 0.000115 -0.652032 -0.011003 0.566036 0.230289 0.502868 -0.326111 -0.920655 1.693103 -0.641278 0.417337 -1.071657 -0.362453 2.797956 0.098329 -0.710923 -0.155774 -0.653634 -2.242453 -1.062134 -0.471810 0.861056 0.449758 0.162218 -1.153567 -1.303643 0.570305 -0.573520 0.195709 -1.048842 1.509502 0.011375 0.991067 0.995641 1.951316 0.979492 0.277665 0.643428 -0.755320 -1.272319 -1.328249 0.951128 -2.180694 -2.029221 -0.469043 -1.199135 -1.002413 1.636475 0.529402 -1.615060 0.628438 -1.472709 -1.312088 0.063770 0.454471 -0.033087 2.354193 -1.404828 -0.222967 -0.419660 -0.154262 -0.860512 -0.337732 0.145770 -0.835508 0.997401 -0.312228 -0.269215 0.884354 1.026954 0.618770 0.128375 -1.024702 -1.145811 -0.615789 0.486310 1.768022 0.237755 1.200418 -0.663811 -0.137654 0.100392 -1.016097 0.203846 0.423112 -0.424729 -0.963805 -0.131594 0.338673 0.631341 0.255615 -0.716327 -1.803953 0.712361 -0.522890 0.084171 -0.256737 -0.037191 -0.263094 0.064489 -1.328170 0.500047 0.717477 -1.728970 -0.883467 -0.392669 -0.292573 -1.101676 0.380049 1.548810 -1.156056 -0.528144 -0.843632 -1.448167 -0.762161 0.499574 0.647659 -0.199619 0.684351 -2.307658 0.526279 0.780921 0.259614 -0.023060 -0.435065 -1.956307 -0.000721 -0.143331 -1.033448 -0.321824 -1.809009 -0.336611 1.408782 -1.345667 -0.977104 0.330930 0.102833 -0.320078 0.307395 0.640233 -0.908925 -0.930343 -0.442785 -1.420129 -0.294188 0.481236 -0.476016 0.400872 0.034456 0.490881 0.000927 -0.427552 -0.665088 -0.012032 -0.573007 0.419540 0.208424 0.090152 0.374673 -0.561023 0.172433 -1.776270 -1.053996 -0.817599 -1.893846 -0.236214 1.439505 0.012200 1.576438 -1.512431 
