1557 200
</s> 0.002001 0.002210 -0.001915 -0.001639 0.000683 0.001511 0.000470 0.000106 -0.001802 0.001109 -0.002178 0.000625 -0.000376 -0.000479 -0.001658 -0.000941 0.001290 0.001513 0.001485 0.000799 0.000772 -0.001901 -0.002048 0.002485 0.001901 0.001545 -0.000302 0.002008 -0.000247 0.000367 -0.000075 -0.001492 0.000656 -0.000669 -0.001913 0.002377 0.002190 -0.000548 -0.000113 0.000255 -0.001819 -0.002004 0.002277 0.000032 -0.001291 -0.001521 -0.001538 0.000848 0.000101 0.000666 -0.002107 -0.001904 -0.000065 0.000572 0.001275 -0.001585 0.002040 0.000463 0.000560 -0.000304 0.001493 -0.001144 -0.001049 0.001079 -0.000377 0.000515 0.000902 -0.002044 -0.000992 0.001457 0.002116 0.001966 -0.001523 -0.001054 -0.000455 0.001001 -0.001894 0.001499 0.001394 -0.000799 -0.000776 -0.001119 0.002114 0.001956 -0.000590 0.002107 0.002410 0.000908 0.002491 -0.001556 -0.000766 -0.001054 -0.001454 0.001407 0.000790 0.000212 -0.001097 0.000762 0.001530 0.000097 0.001140 -0.002476 0.002157 0.000240 -0.000916 -0.001042 -0.000374 -0.001468 -0.002185 -0.001419 0.002139 -0.000885 -0.001340 0.001159 -0.000852 0.002378 -0.000802 -0.002294 0.001358 -0.000037 -0.001744 0.000488 0.000721 -0.000241 0.000912 -0.001979 0.000441 0.000908 -0.001505 0.000071 -0.000030 -0.001200 -0.001416 -0.002347 0.000011 0.000076 0.000005 -0.001967 -0.002481 -0.002373 -0.002163 -0.000274 0.000696 0.000592 -0.001591 0.002499 -0.001006 -0.000637 -0.000702 0.002366 -0.001882 0.000581 -0.000668 0.001594 0.000020 0.002135 -0.001410 -0.001303 -0.002096 -0.001833 -0.001600 -0.001557 0.001222 -0.000933 0.001340 0.001845 0.000678 0.001475 0.001238 0.001170 -0.001775 -0.001717 -0.001828 -0.000066 0.002065 -0.001368 -0.001530 -0.002098 0.001653 -0.002089 -0.000290 0.001089 -0.002309 -0.002239 0.000721 0.001762 0.002132 0.001073 0.001581 -0.001564 -0.001820 0.001987 -0.001382 0.000877 0.000287 0.000895 -0.000591 0.000099 -0.000843 -0.000563 
for -0.699709 1.064268 0.315811 0.427554 -0.221769 0.028984 0.077060 0.209027 -1.199702 -0.180911 -0.319144 -0.114799 0.067784 -0.118935 0.017555 -0.480139 1.012506 0.160607 0.478485 0.955891 0.139957 -0.087077 0.798589 0.344840 0.018075 0.564399 1.300931 -0.165994 -0.324049 0.124084 -0.274301 0.418401 -0.019635 0.488229 0.709107 0.118965 -0.754730 0.346716 0.154931 0.902603 -0.322415 0.287185 -0.392482 -0.471421 -0.094210 0.412136 0.493585 0.654585 0.273150 -0.590640 -0.237015 -1.066578 0.051063 0.574566 0.631569 0.195392 -0.752190 0.462898 0.430440 -0.302003 0.390539 0.552013 -0.732973 0.514057 -0.296009 0.410475 0.900563 0.381987 0.156045 -0.418699 -0.252917 -0.250867 0.408227 0.206024 0.142262 0.437283 -0.771985 -0.190457 -0.074992 -0.404435 0.476931 -0.161166 0.114016 0.666981 0.948650 0.048357 0.437111 -0.773195 0.379242 -0.175681 -0.019911 -0.892554 0.421620 -0.475664 0.991958 -0.589513 -0.256540 -0.337226 0.256962 1.093890 -0.190411 0.244800 -0.243907 0.941843 0.870845 -0.211750 0.621258 -0.307956 0.442004 -0.278473 -0.149443 -0.249825 0.159487 -0.326966 -0.083173 1.116084 0.498520 -0.216910 0.272294 -0.192539 -0.785776 0.177882 0.106207 -0.242607 -0.160969 -0.372707 -0.252871 0.552000 0.567961 -0.788325 -0.458672 0.439036 -1.007505 -0.266529 0.690964 0.064281 -1.320178 0.300073 -0.060384 -0.177465 0.257879 0.215039 -0.634428 0.352694 0.944183 0.227613 0.822020 0.375196 -0.103289 -1.634938 0.631397 -0.347651 -0.497286 0.179836 0.223097 0.564601 0.300435 0.213731 0.299877 -0.557118 -0.252972 -0.296617 0.488191 -0.829527 -0.153820 0.631597 0.268050 -0.027932 0.110735 0.000152 -0.191229 0.461626 -0.380589 0.024436 -0.471887 0.504967 0.462402 -0.276188 -0.590798 -0.424295 0.669210 0.336894 0.072820 -0.793389 0.145992 -0.123880 0.257422 -0.762299 -0.249004 0.178928 0.085608 -0.028873 0.204073 0.429604 0.962915 0.140751 1.228093 -0.103370 -0.327360 0.411147 
learning -0.444147 0.074018 0.253948 -0.143667 0.544605 0.432637 -0.487295 0.301134 0.248484 0.879638 0.306390 -0.059671 0.078474 -0.136635 0.021778 0.575078 0.236589 0.518286 0.793475 0.062469 -0.520219 0.190795 1.149772 0.080032 0.310720 -0.177909 -0.756594 -0.221872 0.011465 -0.332876 -0.054607 -0.091317 -0.007064 1.172496 -0.005804 0.387303 -0.525615 -0.154005 0.569836 0.068015 -0.650184 -0.182369 0.297547 0.179416 0.044012 -1.228112 0.466628 -0.263312 -0.145104 -0.207029 -0.402892 0.522486 0.567925 0.135961 -0.398063 0.040191 0.694452 0.544378 0.381790 -0.665068 -0.457425 -0.065242 0.557632 0.206076 0.056455 -0.157143 0.600066 0.319672 0.125740 1.179668 0.638766 0.184554 0.020881 -0.351068 0.004354 0.572206 -0.941370 -0.089315 0.009112 0.648653 0.254793 0.719833 -0.274903 -0.316466 -0.294487 0.625205 -0.310340 0.343693 0.592074 0.451162 -0.073284 -0.473350 0.055322 0.355307 0.592149 -0.418008 0.188638 -0.126067 -0.747377 -0.772660 -0.295428 -0.051566 0.115603 0.195217 0.118438 0.696749 -0.205107 0.031607 -0.973095 -0.271346 0.268582 0.198121 -0.559518 -0.022284 0.470089 0.563423 0.165944 0.769808 -0.285383 -0.812295 0.565260 -0.132583 0.468814 -0.027579 0.719763 0.460325 -0.178283 -0.173234 -0.776660 -0.355473 0.798945 -0.499882 0.238291 0.931913 -0.477772 0.017789 -0.322188 0.756999 0.469956 -0.672136 -0.035370 -0.470494 0.441747 1.446348 0.547946 -0.239364 0.493884 -0.233069 -0.194484 -0.551300 -0.950706 0.022629 -0.466912 0.434498 0.168657 0.524868 0.278802 0.342385 -0.169213 0.313395 0.423572 -0.039504 -0.238810 0.660694 0.070108 0.045397 0.810298 -0.066494 -0.207992 0.335440 -0.383101 -0.494483 0.052149 -0.026912 0.925879 0.648417 -0.076005 0.933831 -0.570322 -0.186686 0.168341 -0.237885 -0.113097 0.417857 0.351980 0.131380 -0.251768 -0.408259 0.480406 -0.187555 0.380297 0.288690 -0.381979 -1.216756 -0.116512 0.628561 -0.605651 -0.095596 -1.026555 -0.625828 
of 0.262005 -0.441106 0.080032 0.322216 -0.352717 0.137051 -0.502954 -0.335609 -0.478222 0.419479 -0.628865 0.578501 -1.055225 -0.459001 -0.375923 -0.677502 0.542293 -0.040575 -0.453165 0.395143 0.541516 -0.161374 0.384628 -0.137574 0.176143 0.437104 0.758432 -0.104673 -0.276381 -0.285532 -0.066279 1.000128 -0.238984 0.692864 1.133548 -0.267072 -0.621548 0.270303 0.249449 -0.104749 -0.208046 0.100411 -0.592489 -0.348465 -0.524029 0.948410 0.074729 0.121632 -0.263478 0.158051 -0.155728 0.124710 0.084702 0.148225 -0.051814 0.354703 0.219216 0.665061 -0.153579 -0.350761 -0.268520 -0.027601 0.470809 -0.121648 -0.521669 0.256560 0.440487 0.412811 -0.239771 0.128706 0.398410 0.461885 -0.525751 0.770519 0.150526 0.462103 0.495243 -0.411419 0.230383 0.215823 -0.355481 0.560844 0.797856 0.361921 0.423080 0.728043 -0.074770 0.125221 -0.097192 0.094120 0.183314 -0.011761 -0.853762 -0.415952 0.358871 0.432503 0.348029 0.430335 -0.406081 0.076446 0.642294 0.422401 -0.708551 0.579564 -0.912359 0.701998 -0.134845 -0.072711 0.404607 -0.260197 0.013416 0.057068 -0.144475 -0.548976 -0.314642 -0.355068 0.939528 -0.459153 0.630425 -0.382699 0.014200 -0.211384 -0.078132 0.204128 -0.168062 -0.275337 -0.405189 -0.189426 0.255460 -0.129132 -0.366811 0.515661 0.090261 0.028990 -0.670304 0.867227 -0.128764 -0.359754 -0.162927 0.696058 0.538875 0.331979 -1.301059 -0.096845 0.552012 1.075053 -0.384933 0.396429 -0.852685 -0.765210 -0.767989 -0.539233 -0.078461 -0.305588 0.467376 0.012051 0.265495 -0.585770 1.052698 -0.573103 -0.489530 0.006221 0.857844 -0.124037 0.350272 -0.258912 0.125212 -0.985217 0.658063 0.243912 -0.206508 0.765462 -0.671972 -0.364675 -0.307373 0.166238 -0.744931 -0.264245 0.222617 -0.925962 0.349066 0.242717 0.346318 -0.810104 0.007397 -0.385947 0.470184 0.684735 0.789241 0.249291 -0.244394 0.364482 0.340702 0.488096 0.557745 -0.109680 -0.276707 0.142950 -0.260922 -0.263583 
and 0.420954 -0.327768 0.713655 -0.935214 -0.577248 0.492971 -0.151060 0.127331 -0.213448 0.714898 0.254285 0.055983 -0.158615 1.181039 0.005378 -0.380835 0.499465 -0.195597 0.575130 0.399374 -0.804266 -0.453570 -0.177888 -0.118922 -0.134829 -0.255053 -0.196569 -0.118998 -0.481036 -0.019153 -0.195454 0.128647 -0.250517 0.046113 0.323002 0.367565 0.459393 0.187476 -0.806218 0.663444 -0.128161 0.257045 -0.031233 0.168759 -0.218291 -0.827213 0.261253 -0.214172 1.066768 -0.036686 1.135199 -0.651916 0.535281 0.002433 0.981025 -0.020716 0.301787 -0.600286 1.081909 -0.320810 -0.057378 -0.251301 -0.728061 -0.753605 0.207176 0.708701 0.125381 0.290906 0.275843 0.266652 0.075444 -0.397633 0.426356 -0.241784 -0.590102 -0.740075 -0.333306 0.636251 -0.468210 0.106255 -0.280666 0.390383 0.345736 0.130555 -0.132094 0.526309 0.884351 0.384344 1.332259 -0.260426 0.109634 -0.720638 0.341008 -0.154839 -0.199268 0.400074 0.157112 0.530693 0.500695 -0.535197 0.557147 -0.001109 0.850198 -0.117330 0.309049 -0.049952 0.571225 -0.025815 0.338396 -0.262227 0.265583 -0.099884 -0.274632 -0.835926 -0.447559 -0.535635 0.372855 -0.290773 -0.645498 -0.520571 0.070235 0.668840 1.138502 -0.337753 0.306657 -0.186007 0.130622 -0.262408 0.493079 -0.666313 0.345022 0.128261 0.532924 0.093093 -0.295110 0.071742 -0.090589 -0.301346 -0.168434 -0.644749 0.377815 -0.499963 0.653997 -0.043483 0.541203 -0.470790 -0.423657 -0.296851 -0.242997 -0.043224 -0.094888 -0.467794 -1.285429 -0.058786 0.060523 -0.298247 -0.405629 0.151560 0.071087 0.469304 -0.917915 -0.441136 0.157830 0.055723 -0.071638 0.442882 0.670045 0.797379 0.061827 -0.078550 -0.187174 -1.044168 -0.293261 -0.159419 -0.157167 1.275474 0.124279 -0.318242 0.381320 -0.433027 -0.234024 -0.161753 0.080320 -0.278341 -0.353534 0.304787 -0.286266 -0.055451 -0.200877 0.835580 -0.648629 -0.176970 0.140428 0.110686 0.084091 -0.157297 -0.339506 0.948535 -0.515559 0.617400 
a -0.414150 -0.492813 -0.465654 -0.023510 0.441650 -0.203460 -0.014855 -0.276761 0.093281 0.280173 -0.418932 -0.180294 -0.631411 -0.688805 -0.530659 -0.700400 0.670730 -0.238478 0.697265 0.843542 -0.577138 -0.641819 -0.827685 -0.080220 -0.988861 -0.068779 -1.084322 1.334089 -0.919176 0.272132 0.603841 -0.054289 -1.139950 0.801958 0.046213 0.564521 0.056276 0.745864 0.443592 -0.236758 -0.110564 -0.520136 0.899045 -0.315275 0.372677 0.287326 -0.463367 0.487388 -0.079877 0.804548 -0.035693 0.052521 0.768727 0.755674 0.102948 0.714314 0.251555 0.854330 0.139864 -0.613272 0.231675 -0.605306 0.652651 -0.095797 -0.640969 -0.576688 0.408979 0.449960 -0.714481 -0.285006 0.352926 -0.807643 0.156908 -0.639203 -0.369681 -0.152023 -0.889414 -0.062435 0.046386 -0.276964 0.100488 0.278713 -0.502837 0.110291 0.315051 0.157403 -0.314544 0.435111 0.309608 -0.185885 0.367704 -0.375239 0.707172 0.666533 -0.286167 0.335970 -0.293098 -0.325861 0.680202 0.065903 -0.079687 -1.247875 0.628443 0.617705 0.147135 0.019653 0.349274 -0.322498 -0.719965 -0.259948 -1.218018 -0.336342 0.613103 -0.482001 -0.111291 -0.259275 -0.087718 0.079124 0.190039 0.346174 0.384036 -0.411292 0.516515 -0.105173 -0.210144 0.785515 -0.198435 -0.531138 -0.741044 -0.579443 1.184819 -0.442175 0.391034 -0.457505 0.668863 0.782304 0.699206 -0.704820 0.592056 -0.748443 0.200412 0.092526 -0.461820 -0.171358 -0.910598 -0.303636 -0.493211 -0.488874 0.658576 -0.572904 -0.139938 -0.934098 0.460760 -0.274095 -0.158613 0.269930 0.294971 0.832451 0.964561 -0.350813 0.616270 -0.484033 0.052111 0.091984 -0.185492 -0.241459 -0.520684 -1.272816 0.442853 0.773795 -0.067190 -0.947700 0.018222 0.638304 -0.293909 0.264246 -0.440086 0.749588 0.078753 -0.464391 -0.278238 -0.490164 0.585309 0.062882 0.655520 0.420497 0.657543 -0.068266 -0.359413 0.489647 0.997498 0.445048 0.020689 0.303896 0.907377 0.460909 -0.980370 1.101792 0.436373 -0.089733 
with 0.203021 0.886121 0.238569 0.061911 -0.182138 0.245298 0.887891 -0.145215 -0.962992 1.005736 -0.186653 -0.258740 1.177690 -0.337599 0.435873 0.069616 0.616558 -0.676019 -0.900129 -0.103719 -0.764652 0.421092 -0.408401 -0.747566 0.414157 -0.072947 -0.303197 1.109374 -0.225746 0.579899 0.158455 0.043852 -0.392720 -0.091593 1.340087 0.516061 -0.772621 -0.284023 0.525474 -0.062363 0.126438 0.494158 -0.965861 -1.101883 0.328675 0.232054 -0.368307 0.370358 0.272952 -0.337140 0.399239 -0.658721 -0.095794 0.003828 0.618543 -0.159863 -0.629966 -0.005144 0.300222 -0.249950 0.412041 0.554349 -0.573299 0.962782 0.656217 -0.081792 0.009232 -0.682616 0.336679 -0.793043 -0.031568 -0.129268 -0.539421 -0.489724 0.332861 -0.130970 -0.220820 -0.551933 0.848660 0.995828 0.232005 0.833414 0.449932 -0.131954 0.364142 -0.355840 0.714732 -0.890726 1.321475 -0.253277 -0.598356 -1.139518 0.437097 0.270107 0.915823 0.081310 0.448572 0.514088 0.684337 0.641220 0.609867 0.465292 -0.790518 -0.003109 0.178415 -0.440635 -0.432282 0.124572 -0.327776 -0.116329 0.317156 0.355420 0.025181 -0.086862 0.378563 0.108628 0.092920 -0.376500 -0.069991 0.416212 -0.560493 -0.353182 0.146409 0.268769 0.616505 -0.405608 0.509949 0.337578 -0.238437 -1.357943 0.064235 0.631462 -0.764972 -0.475312 -0.594486 0.426032 -0.153173 -0.195128 0.633106 -0.605913 -1.055377 -0.414891 -0.554730 0.087497 0.609156 -0.648103 0.760024 0.276746 -0.848926 -1.078571 0.079901 0.431662 0.436271 -0.253274 0.335987 -0.816030 0.743137 -0.112803 0.904132 -0.613701 0.525481 -0.972555 -0.374643 -1.106537 -0.001700 0.309501 -0.357874 0.410910 0.539040 -0.384792 0.160302 0.203249 0.444532 -1.017369 -1.359395 0.788912 -0.064960 -0.494505 -0.204430 0.555558 -0.523447 0.579088 0.429026 0.447155 -1.069680 0.044486 -0.571103 1.100090 1.371730 -0.281333 -0.367015 0.712263 0.558463 -0.103462 1.170422 0.259390 0.620359 -0.397425 0.201497 0.233558 
in -0.034192 0.079496 -0.177823 -0.906652 0.720745 0.783989 -0.428380 -0.619580 -0.906711 -1.045471 -0.053089 -0.478013 -0.772215 -0.232229 0.630752 -0.058573 -0.070312 0.581795 -0.633167 -0.103865 -0.308408 0.216645 -0.090720 -0.302846 0.564744 0.699250 -0.035726 -0.677272 -0.362015 -0.608963 -0.328340 0.530247 -0.449926 0.515114 0.483043 -0.403729 0.866518 0.763983 -1.440360 0.022649 0.168028 0.044086 -0.200250 -0.565939 -1.384658 -0.170301 -0.027422 -0.690303 0.620815 -0.834475 0.610083 -0.728987 0.052448 0.833003 -0.295278 0.732313 -0.376320 0.251892 -0.455975 -0.339988 1.066075 -0.750355 0.202791 0.015378 -0.286033 0.446326 -0.501773 0.263235 0.885121 -0.302176 0.334099 0.729290 -0.492161 0.287738 -0.683712 -0.438877 0.592052 -0.436071 0.203027 -0.135903 0.570646 -0.350868 0.031134 0.043247 0.244943 0.851377 0.039795 0.812950 0.199846 1.103344 1.010443 -0.437374 0.640420 0.264600 0.326720 0.346392 -0.135162 0.292535 0.392662 -1.068675 0.215908 0.128606 -0.070300 0.210265 0.391249 -0.494540 -0.139957 0.437578 -0.773387 -0.140266 -0.424536 0.603498 -0.030589 -0.662029 -1.206127 1.085427 0.561833 0.161934 -0.052221 0.032087 -0.609598 -0.007126 -0.759384 0.309212 0.313998 -0.124450 -0.363480 -0.166544 0.437152 0.006047 0.467315 1.293312 -1.071291 -0.246765 -0.120606 -0.799940 -0.582884 0.357488 -0.188615 -0.388907 0.797525 -0.398172 -0.749436 -1.090516 -0.096753 -0.239892 0.091229 0.586277 -0.625100 -0.044908 1.105732 0.518747 -0.544571 1.063625 0.509238 0.320455 0.014991 -0.197835 0.781314 0.187915 -0.296864 0.006915 -0.173910 0.355912 0.251068 1.126855 0.263529 -0.480138 0.603393 0.098267 -0.160990 -0.365796 1.333638 -0.367321 -0.777243 -0.327068 0.577490 0.297607 -1.202190 -0.048049 0.621170 0.585832 0.441752 -0.983993 0.733736 -1.217589 -0.311709 0.872562 0.209642 1.153835 -0.398799 -0.046221 -0.231112 0.120795 0.425241 0.070973 -0.228535 -0.256916 0.160938 0.550006 
the -0.070065 0.545960 -0.765297 0.187568 0.426527 0.881093 0.402779 -0.165795 -0.165872 -0.219426 0.292834 -0.318537 0.224074 -0.235339 -0.962998 -1.319041 0.148947 0.745484 0.355820 0.535762 0.435581 0.072501 0.533575 -0.237422 -0.099605 -0.993739 -0.633363 0.695854 0.660580 0.476085 0.920959 0.481709 -0.526198 0.028234 -0.766608 0.450785 -0.151511 0.673514 0.215976 0.131228 0.622211 0.386011 -0.410098 -0.470245 0.218326 -0.104105 0.470536 -0.380169 0.518154 -0.705784 0.106084 0.350579 0.141107 0.752621 -0.201033 0.461784 0.883122 -0.130088 -0.081640 0.769476 0.630789 -0.766323 -0.013752 1.144808 0.610417 -0.254578 -0.262047 -0.126179 -0.952789 0.975272 0.760208 0.219375 -0.152877 -0.007624 -0.245185 0.043154 0.945315 0.086604 -0.584806 -0.737570 -0.415977 -0.609296 -0.824647 -0.416303 -0.348165 -0.189013 0.233173 -0.334784 -0.182904 0.295376 -0.544634 -0.008594 -0.577770 0.154777 -0.902050 -0.209591 -0.991395 0.293817 -0.600119 -0.044187 -0.295574 -0.398007 0.033894 0.464744 -0.508787 -0.640909 0.243883 0.505072 0.072372 0.960660 0.209859 0.749200 -0.537131 0.047595 -0.164752 -0.423705 0.378825 0.763661 0.501989 0.190178 0.798504 0.140342 0.917109 -0.353520 0.296448 -0.574172 -0.014710 -1.022215 0.058293 -0.369719 -0.364785 -0.046887 -0.026126 0.031686 -0.090717 -0.459562 -0.194640 0.150216 -0.255488 -0.705300 1.061412 -0.545535 0.106984 0.521844 -1.244766 -0.548570 0.334369 0.403923 0.040529 -0.192176 0.042981 -0.192975 1.002703 0.563581 0.513849 -0.504544 0.584330 1.194273 1.270916 -0.022134 0.437691 0.083910 -0.476561 -0.038090 -0.964278 0.930626 0.574318 -0.387015 0.623127 -1.277507 -0.794930 -0.473949 -0.061669 -0.212288 0.166931 -0.918784 0.695226 0.425651 -0.821898 0.122726 -0.820435 0.366149 0.696474 -0.546408 -0.399854 0.350537 -0.357467 0.248190 0.245481 0.251873 -0.157255 -0.572432 -0.782994 0.309874 -0.499764 0.178797 -0.309719 -1.186106 -0.440028 -0.167675 
to -1.473859 -1.026120 -0.615328 -0.179503 -0.091569 0.895202 0.344179 -1.003525 -0.893760 -0.187471 -0.396796 0.316417 0.234492 0.079401 0.216335 0.498540 0.089229 1.594204 0.117187 -0.700747 -0.308643 0.325185 -0.037765 0.473268 -0.688065 0.184743 1.403366 0.114158 -0.431552 -0.325434 0.411736 0.850488 -0.325537 1.768738 0.868859 0.643276 0.436993 -1.315076 0.276006 1.049812 1.302327 0.632948 0.691821 0.722356 0.868652 -0.778212 -0.097698 -0.690328 -0.454923 0.090704 -1.221644 -1.065373 -1.863322 -0.809250 -0.739773 0.347706 0.070946 0.586875 1.178419 -0.805953 0.977813 1.112518 0.114755 0.125146 -0.268718 0.175735 -0.455423 -0.552166 -0.201900 -0.434332 0.155784 0.456210 0.520670 -1.197689 0.305204 1.409849 -0.154270 1.201097 0.346663 -1.186054 0.322252 -0.386037 0.119242 0.930221 1.160391 -0.431540 1.077911 0.261788 0.414179 -0.852875 -0.033888 -0.307354 0.335659 0.204784 -0.652635 0.659394 1.034067 -0.720718 -0.089257 -0.249734 0.269246 0.056077 -1.304809 -0.982176 0.024839 0.713043 0.338802 0.269848 0.579563 -0.114100 0.146162 0.096777 0.415821 -0.355178 -0.239807 -0.056021 0.337208 1.066276 -0.583981 0.175227 -0.297285 0.321575 0.999858 0.138864 0.476619 -0.754131 -1.072914 -0.320900 0.989435 -0.188774 0.101347 0.538435 -0.713848 -1.323679 0.339454 -0.565798 -1.233985 1.487774 0.097538 -0.181223 0.214527 -0.352781 0.393966 0.135766 -0.076562 1.136679 -0.076050 -1.172368 0.844462 -0.905335 -0.128925 -0.635333 -0.086741 0.923379 -0.139019 -0.178536 0.159098 -0.284375 0.914165 -0.221702 -0.432316 0.697127 0.889657 -0.171549 0.517461 0.143256 -0.222095 -0.461259 0.792405 0.488733 -0.376759 0.346657 0.073344 -0.206966 -1.685330 -0.155318 0.286234 0.453127 -0.600797 -0.700421 -0.979905 -0.917718 0.261160 -0.476382 0.143733 0.584739 0.271926 0.166197 -0.522511 0.567960 -1.172339 -0.004456 -0.165830 -0.099358 -0.283453 0.101219 0.086273 0.474365 -0.147161 -0.720331 
using -0.301465 0.972343 -0.473656 -0.047438 0.287758 0.196412 -0.618403 -0.897060 0.291281 0.400894 -0.685897 -1.052509 0.235926 -0.483830 -0.959087 0.157812 0.186611 0.047172 -0.945452 -0.804380 -1.014890 0.031339 0.014277 -0.053771 0.145383 1.084498 0.101624 -1.218438 0.785007 -0.843952 -0.437201 0.021870 0.855920 0.220995 -0.067753 -0.482563 -1.107094 -0.313699 -0.008780 -0.753878 0.343643 1.056715 -0.539189 0.020120 -0.286851 0.399377 0.150536 2.329358 0.730229 -0.776333 -0.285307 -0.214180 1.025632 0.324107 -0.273124 -0.263152 1.115844 0.143713 0.033893 -0.894666 -0.293540 0.507407 -0.108335 0.804199 -0.026806 1.261991 1.476716 -0.517402 1.041426 0.595487 0.440338 0.708975 -0.609718 0.518630 0.081177 -0.026104 -0.958752 -0.147437 0.626164 -0.704539 0.748285 0.218249 -0.716896 0.757361 -0.121185 0.281375 -0.090504 -0.703650 0.868291 -0.859781 0.211286 0.192212 1.539102 -0.208519 0.740319 1.251926 -0.219253 0.654307 0.447697 0.631664 -0.108025 0.390744 -1.336001 -1.879121 1.501739 -0.329623 -0.062368 0.083952 0.039591 0.544206 0.407304 -1.058532 -0.796577 0.250206 0.006906 0.873563 0.369619 -0.526364 0.987616 0.009211 -0.557428 -1.475440 0.072848 -1.780072 -0.534298 -0.062910 0.041844 -0.167319 -0.582137 0.210267 0.620904 -0.321509 0.063736 0.510975 0.800666 0.588216 0.078099 -0.285572 -0.075543 -0.033339 0.540055 0.038503 -1.469195 -0.251142 -0.228803 1.192478 0.083969 0.267000 -1.423234 -0.377902 -0.512083 0.989028 -0.952412 -0.698797 0.376898 -0.438752 0.692791 0.919957 -0.779081 -0.848241 -0.412191 0.804722 -0.542402 -0.995372 0.104449 0.352611 1.266472 0.278030 0.256842 -0.425451 -0.385910 0.123137 0.764932 -0.760764 -0.898498 0.191784 0.527334 -0.117095 -0.388174 0.123052 -0.394372 0.417061 -1.801051 -0.604411 -1.841375 -0.866931 -1.120299 0.252813 0.252093 -0.524413 -0.153894 -0.050213 1.400525 0.728915 0.964988 -0.128917 1.217243 0.812027 0.686058 0.476850 
on -0.825877 -0.037290 0.321336 -0.724790 -0.314678 -0.778586 0.084779 -0.764294 1.073620 -0.719050 0.592914 -0.781854 -1.414194 0.462566 -0.812435 0.223150 0.348993 0.907966 -0.936091 0.246096 -0.031084 -0.384613 0.407343 -1.068563 0.493082 -0.118919 0.787851 -1.366342 -1.141951 0.097479 0.276529 0.384501 0.463748 -0.366959 0.979448 -0.253959 -0.699075 -0.035566 0.461673 0.665833 -1.439111 1.599506 -0.787076 -0.498222 0.548395 -0.765455 0.100437 -0.997087 0.864406 0.625563 0.906269 -0.653897 -0.339422 0.077682 0.182605 -0.662300 -1.242694 -0.342961 0.764861 -0.867623 0.584440 0.706761 -0.538175 0.365619 0.537388 0.467007 1.215503 -0.327066 -0.440953 0.799491 -0.879756 1.179794 -0.796911 -0.990351 1.397797 1.491936 0.756037 -0.255838 0.243275 -0.012784 -0.692609 -0.038639 -0.189419 0.561087 -0.684816 0.063250 -0.100289 -0.590783 -0.860147 0.627619 -0.180343 -0.327077 -0.585732 -1.108972 0.237552 0.256733 -0.287989 0.528749 0.113643 0.410896 -0.653300 -1.109632 -0.491498 -1.231080 -1.195448 -1.235212 1.645241 0.592602 -0.760527 0.706868 0.967448 0.757637 -0.082563 0.593072 0.565028 0.833078 0.851817 -0.269086 0.950134 0.395062 0.056709 0.712711 1.226778 -0.018531 -0.879602 0.219357 0.087321 -0.828227 0.255179 1.033886 0.865000 -0.313716 -0.707613 0.830433 0.051992 1.086133 1.112074 0.143262 -1.180991 0.341689 0.077056 -1.303737 -0.235008 0.708957 -0.684985 0.429978 -0.444883 0.526044 -0.210130 -0.555343 -0.012785 -0.436344 0.041480 -0.828467 0.587752 -0.010510 0.027641 0.048544 -0.092121 0.905567 -1.004157 -0.862367 0.236714 -0.607232 -0.621754 0.853509 0.589497 0.856340 0.402106 1.091321 -0.627452 0.797176 0.718678 0.456224 -0.041958 0.582145 0.473787 -0.981010 -0.075102 1.212715 1.000827 -0.028347 -0.710406 1.160365 0.939582 0.351256 0.052198 0.762273 -1.150217 0.581476 -0.039047 0.732974 0.763452 -0.396611 0.117310 1.145847 -0.210896 0.270442 -0.655630 0.268044 
from -0.635794 0.658301 -1.739904 0.732875 -0.768113 1.495443 0.741018 -0.184613 -0.227525 -0.304395 1.229079 0.577436 0.691416 0.913387 0.777680 -0.244550 -0.264551 -0.866709 0.720326 -0.386148 0.533530 1.949460 -0.684572 0.187096 0.051633 0.178938 1.285750 -0.051974 -1.456561 0.111512 -0.395248 0.082911 -0.947178 -0.012994 -0.079701 -0.792027 0.145990 -0.230291 0.185144 -0.697590 -1.634909 -0.190262 1.139866 -0.984875 0.109121 -1.435870 -0.058146 -0.414887 0.776034 0.052638 -0.212471 -0.303346 0.071596 -0.609585 0.163415 0.543108 -0.856557 1.171990 0.567334 -0.680311 -0.115576 -0.499587 0.394682 2.006928 -1.101712 1.752918 -0.053448 -1.572197 0.532106 -0.085636 -0.122554 0.177646 0.261412 -0.673071 -1.057916 1.250587 -1.030868 0.021597 0.164641 -1.572071 0.298973 -0.808505 -0.248102 -0.158654 -0.751815 0.687206 -0.452840 0.832298 1.705679 0.368123 0.710620 0.512880 -1.120126 -0.610286 0.278296 0.888621 0.021017 0.837865 0.167546 -0.145682 1.297517 0.574733 -0.473519 -0.515385 0.698665 -0.640365 -0.424168 -0.803387 1.198876 -0.534264 0.139116 0.762057 -0.334084 1.030098 -0.366483 1.238623 1.548956 0.019402 -0.616899 1.039449 0.307899 0.725198 -0.539177 -0.202698 -0.673954 2.036804 -0.060147 0.026888 0.819632 -0.067043 -1.502986 1.335843 0.484491 1.154091 -0.344156 0.897956 0.459222 0.516031 -0.255772 -0.571457 0.623081 -0.218961 -0.370443 -0.231914 0.609971 0.657105 -0.771224 0.569684 -0.935338 0.498056 0.062884 1.091548 1.260732 -0.450157 -0.564209 -0.983984 1.799956 -0.736574 -0.214627 -0.154064 0.078251 -0.390624 0.669164 -0.236910 -0.236987 -0.374049 0.784901 0.046385 0.126525 -0.243296 1.649956 0.148998 0.378572 0.087018 -0.121871 -0.288488 -0.183711 -0.265972 0.537694 0.181777 1.005353 0.104324 -0.060793 -0.384741 -0.807669 -1.202569 -0.329754 0.505319 0.562413 0.573165 -0.731152 0.634541 0.193682 0.844894 0.561310 0.138414 1.181680 0.574947 0.661671 -0.537294 
an -0.056061 1.054646 -0.954960 -0.312640 -0.093486 -0.340734 0.902437 1.045304 0.466451 -0.345341 -0.899748 -0.506689 0.435385 -0.027589 -0.764972 -0.880042 0.047488 -0.389461 0.553508 1.757527 0.616592 0.427701 -1.107939 0.190771 -1.149082 -0.658495 -0.251925 0.555166 0.349467 -0.739669 -0.440615 0.937271 -0.772974 1.487790 -0.259448 1.186446 1.666366 0.771664 -0.793285 0.103842 0.039557 -0.587029 1.436663 0.033337 0.409896 0.064408 -0.052883 -1.079256 1.569649 -0.150487 0.292678 0.213940 -0.160111 1.124056 0.728189 0.072881 0.012685 -0.339440 -0.742306 -0.296286 -0.115156 0.238088 -1.259585 -0.022282 -0.153272 0.870506 -0.007909 0.496902 0.725725 -0.727111 -0.800636 -0.300741 1.147292 -0.516217 0.182894 0.900510 -0.864431 -0.972086 -0.054263 0.503168 0.912755 -0.302219 0.902978 0.309931 0.093832 0.861092 -0.615791 -0.966918 -0.593304 1.823800 -0.021784 -0.547401 1.398930 0.906386 0.334202 0.227149 0.321182 0.401536 -1.059686 -0.096433 -1.051731 -0.354687 -0.356696 0.243868 -0.120308 1.615276 -0.711008 0.356427 -0.146118 -0.256849 0.250884 1.045435 -0.577497 -1.562594 -0.361585 -0.750189 1.653657 1.402867 0.587291 -0.016105 0.260203 1.156413 -0.153464 -0.444909 0.531089 -0.213372 0.941810 0.104504 -0.260834 0.168122 0.833478 -0.738580 0.937351 0.673986 -1.085102 0.641303 1.665120 -1.783106 1.394740 -0.665323 -0.172860 -0.285708 0.675968 -0.231618 -0.484016 -0.690096 -0.680968 -0.396714 1.358766 -0.450707 0.217919 -0.838097 -0.417977 -0.827457 -0.833325 0.405947 0.801154 0.681560 0.686607 -0.684978 -0.594809 0.499536 0.613434 -0.525337 -0.228345 -0.863841 -1.043773 -1.516088 0.090509 0.835695 1.084332 -0.990403 -0.078118 1.035037 -1.392895 -0.672600 0.490960 0.982704 -1.007685 -1.163842 -0.466572 0.907091 0.854151 1.183410 0.991088 -0.280321 0.162441 -1.008509 -1.434549 0.881358 0.431488 0.192352 1.070321 -0.573987 1.493886 -0.362464 -1.028019 0.408646 0.459936 -1.479625 
reinforcement_learning -0.160982 0.071141 0.173683 0.647937 0.547181 0.221718 -0.125005 -1.195120 -0.041910 0.493545 0.356733 0.481285 -1.495592 -0.084363 -0.458645 0.952061 -0.647361 1.078278 0.679471 -0.185737 -0.566351 0.400884 1.223752 -1.324041 -2.040121 -1.125891 -0.714199 -0.456695 1.326082 -0.695037 -0.851002 -0.427198 0.975024 -1.864143 -0.348152 -1.152614 -0.385388 0.969024 0.410229 -0.742316 0.890500 -0.318235 0.329529 0.697136 -1.140885 -0.552654 0.713846 0.058336 -0.360310 0.155979 -0.310781 0.653899 0.393721 0.058244 0.835803 0.621322 0.959600 0.270270 0.508301 0.777544 -0.244550 0.183709 -0.740739 0.091767 -0.857610 0.568835 0.292552 -0.003499 -0.588978 0.005981 1.645259 0.477689 -0.085913 -1.228116 -0.917122 1.205693 -0.405148 -0.602041 1.554690 0.034892 0.454370 -0.639348 -0.279768 -0.756477 0.273617 0.449326 0.417528 -0.302066 -1.585064 0.500411 0.021390 -0.796669 -0.820758 0.004037 -0.901887 -0.306977 0.478097 -0.374867 -0.202479 -0.701288 -0.322833 0.488661 0.366251 -0.104077 -0.180152 -0.496360 0.728131 0.373143 0.223888 0.440812 1.305267 -0.133069 -0.624552 -0.817285 0.623259 0.308887 1.532157 1.175134 -0.010255 -0.168639 0.106417 0.650075 -0.043284 -0.164821 -0.410670 1.450143 1.019146 -0.216474 -0.599247 -0.224498 1.110310 -1.208789 0.256475 -0.710743 -1.139382 0.598348 0.008288 0.708036 0.874831 0.534364 -1.392886 -0.759986 0.621149 -0.619527 -0.390909 -1.053696 -0.597842 -1.871243 0.915291 -0.352349 -0.295589 -1.981577 -0.150698 0.642075 0.290497 0.014122 0.306664 -0.331624 0.605257 0.881756 -0.004717 -0.665799 0.333944 -0.116843 0.786681 -0.529385 0.260901 -0.359144 -1.138392 -0.616431 0.039844 -0.030743 -1.404139 0.861586 -0.367993 0.092664 -0.692427 0.534593 0.376168 0.805028 -0.490488 0.621945 -0.059512 -0.391754 -0.071754 -0.575756 -0.727848 0.073870 -1.167973 0.052231 -0.020410 -0.065894 -1.007419 -0.011074 -0.857620 0.335366 -1.597019 0.862864 -0.598402 -0.683153 
data -0.572671 -0.880802 -0.009995 0.441718 -0.192194 -2.313506 -0.901897 0.502715 1.837393 0.184891 1.608736 0.841267 -0.989216 0.312379 -0.730520 -0.261100 -1.502209 0.264303 -0.458633 0.369678 -0.113891 -1.765242 0.089790 1.083567 0.751499 -1.125294 0.322704 0.956505 0.785901 -0.586812 -0.587488 -1.193810 -0.113933 0.850390 -0.794248 -0.443175 0.828414 -0.139704 0.890276 0.026495 -0.425861 -0.509565 1.739394 0.320863 1.158319 -0.129683 -0.852925 -1.260322 0.741772 -2.158438 -0.011152 0.422803 -0.992780 0.067441 -1.434416 0.568567 -0.052058 0.623040 -0.587790 0.369312 1.693425 1.653159 -0.199996 0.531631 0.297496 -1.176946 -0.846732 -0.582462 1.025792 -0.243956 0.668502 -0.221075 0.041480 1.004367 -0.104204 0.255672 0.259998 -0.068024 0.028935 0.545046 1.342492 0.600394 0.223968 -0.127658 -0.883599 0.159508 0.273089 0.454535 0.916021 -0.509356 1.820880 0.485699 -0.203769 0.078345 0.016677 0.247232 -0.022923 -0.302993 0.407041 0.086643 1.830375 0.030313 0.093515 1.081165 0.782229 -0.104732 -0.953469 -0.142649 0.892246 1.452131 -0.964446 0.005058 0.202474 -0.587618 0.417928 -1.149893 1.167341 0.717193 -0.319082 -0.830515 1.008606 -0.270882 -1.349442 0.956525 -0.273644 0.770050 -0.130885 0.142573 -0.018390 0.302597 -0.866714 -0.655240 -0.072113 -0.123483 0.557368 -0.710422 1.100264 0.223912 0.432730 -1.082709 -1.396878 -0.704468 1.049948 0.480979 1.274474 0.469347 1.500632 -0.464516 -0.205962 -0.243541 0.297405 1.143476 0.935797 -0.595709 0.520121 -0.059043 -1.021617 0.831539 1.534252 0.237557 0.209944 0.096771 0.841902 1.180893 0.067477 0.224780 -0.260510 0.460417 0.127882 0.962579 0.812657 0.104309 -1.180032 -0.865320 0.147789 -0.684908 0.869536 0.079923 2.164943 -0.033101 0.117823 -1.817764 0.784060 0.150239 -1.627854 -0.243853 -0.956720 0.073197 -0.800008 1.122584 0.252804 -1.173504 -1.406851 0.309242 -0.902157 -0.279613 -2.432073 -0.134084 -0.038273 -1.020543 
models -0.276781 0.200401 -1.226808 0.110778 -0.204302 -0.984454 -0.906232 -1.405390 -0.367186 -0.544994 0.549428 0.052478 0.399194 -0.083342 1.714357 -0.586713 0.339323 -0.026981 -0.802560 0.669668 1.024107 0.062164 0.340201 0.340699 -1.785877 -2.191760 -1.061514 0.160868 0.414731 -1.090627 -0.606300 0.512300 -0.285011 0.449365 0.326691 -0.816546 1.175249 -0.534095 -1.429996 -0.096803 -2.154912 1.734032 0.709343 -0.327727 -0.049288 -0.927171 -0.235890 0.931418 -1.788795 -0.685568 0.416381 -0.166591 -0.087693 -0.221312 0.846538 0.157393 -0.970770 -0.380195 -0.071795 -0.760599 -0.337323 -0.453954 -0.743719 -0.688526 -0.588203 0.712312 0.022183 -0.076906 -0.624110 -0.463591 -0.510844 -0.656148 -0.262811 0.778231 0.324220 -0.534586 0.376063 -0.842593 -0.466077 0.314502 0.359936 0.868474 0.928486 -1.067365 -0.725149 0.006449 -1.322901 -0.128636 -0.047837 0.284863 0.368474 -0.321578 0.831665 -0.104293 -0.177587 -0.280498 -0.819009 0.303160 -0.261196 0.083190 0.168168 0.056732 0.185611 0.007124 -0.331260 0.665844 -0.939515 0.729968 0.647868 0.552987 -0.393950 1.663168 0.443436 0.376805 -0.018684 0.562147 1.312808 -0.701970 -0.061000 -0.093640 -0.463669 2.234668 -0.800624 0.243165 0.458797 0.940616 0.623106 -0.041959 -0.014522 0.972085 2.102942 -0.190730 0.449821 0.874716 -1.064033 -0.064831 -0.174274 0.427120 0.374096 -1.273457 -0.358835 0.365237 -0.652202 -0.183608 -0.089064 0.467521 0.000718 -1.511005 0.015020 -0.759435 1.141882 -1.844530 -0.025759 -1.194339 -0.773067 0.616282 0.747872 1.118562 0.831181 -0.719607 1.963622 0.949346 -0.439050 0.055256 -0.264784 0.355217 -0.905255 0.487856 -0.695694 0.593135 0.402097 -0.043925 -0.716804 0.419745 0.418641 -1.710974 -1.431813 0.409044 -1.091393 -1.041565 -1.542635 0.009928 -1.357285 0.114597 -1.015841 -0.352424 -0.452546 1.166161 -1.103870 -0.939268 -0.313620 -0.293428 -1.304882 -0.304692 0.594639 -0.809681 -0.175260 0.048247 -0.732329 0.617795 
via -0.089195 1.051312 -0.519987 -1.234439 1.588838 -0.109015 -0.699471 -0.549370 0.061066 0.053492 0.319211 0.036750 0.687091 -0.817962 0.375411 0.804690 0.365340 -0.747006 -1.191434 1.664649 -0.439295 -0.256050 -0.451097 1.237011 -0.477644 -0.370629 -0.500452 -1.159133 0.113638 0.552385 -0.106542 0.678196 -0.636625 0.085084 -0.195694 -2.031449 -0.660991 1.012169 0.431091 -0.080832 -0.660927 0.522413 0.203187 -2.115413 0.010865 0.433116 -0.941545 0.853260 -0.160252 -0.686879 0.076667 0.575986 0.632175 2.414507 0.687476 -0.446645 2.057278 -0.184164 0.241688 -1.215344 1.021107 0.828570 -1.726881 0.264950 -0.174165 0.290428 1.447263 -0.574999 0.502128 -0.984988 0.158769 -0.239849 -0.932921 -0.763795 0.142295 0.153368 -0.839595 -0.303756 0.854256 -0.491971 -0.120564 -0.700246 -0.515094 -0.287451 -0.561188 0.493242 0.220372 -1.392830 0.430542 -1.188812 -0.081752 0.359015 0.145048 0.759905 0.822156 -1.454406 -0.317419 0.343574 -0.486272 1.157987 -1.039669 0.080518 -0.134866 -0.285877 0.813277 1.172179 0.063041 -0.030814 0.196884 0.137940 -0.833907 0.208148 1.687093 -0.318215 -0.920578 0.036915 0.339651 -2.050085 0.127176 0.921596 0.404844 0.078392 -0.134537 0.847162 0.119131 -0.162232 1.263095 -0.957003 0.208174 -1.812729 -1.002109 0.043446 0.941660 0.151270 0.755586 -0.181594 -0.360223 -1.056327 0.841904 0.086272 1.661010 -1.719269 -2.648304 0.095820 0.090169 1.349520 1.026860 0.957278 -1.189560 -0.772440 1.465772 0.985904 0.388372 -0.657089 -0.033770 -2.163145 -0.119373 -0.134391 -0.105049 0.026571 -0.948897 0.928399 -0.747706 0.152495 1.297719 -0.073205 1.928453 1.927336 2.117319 0.839524 -1.683090 0.230645 0.886753 -1.082392 -0.809406 -0.529099 0.022333 -1.700080 1.291086 -1.928055 -0.333980 0.170747 1.156185 -0.841864 -1.035537 -0.718148 0.913346 0.384353 0.521655 -1.878122 -1.741943 -1.392018 0.022944 0.719923 1.070251 -0.007002 1.424183 0.001592 0.110727 0.913805 
by 1.119127 1.237435 -0.492585 -0.116520 0.109083 -1.337409 0.044279 0.525067 -0.780746 -1.379263 -0.290969 0.463590 0.487183 1.418934 -0.537389 0.079393 0.550012 -0.683121 0.166281 0.573534 -0.515397 0.306374 0.817936 0.110101 -0.307161 0.199962 -0.757623 1.281692 -1.383874 -0.432401 -1.182575 0.731425 -0.226992 -0.278416 0.456155 -0.550148 0.039931 -0.006811 1.215489 -0.235224 -0.437804 0.023971 -0.607765 -1.236817 0.564854 0.057262 0.006418 0.663413 1.044048 0.045850 -1.602389 -0.307752 -0.246927 -1.232815 -0.063538 0.409578 0.757989 -0.462533 1.181170 -0.080408 -1.000861 1.352502 0.768906 -0.160273 -1.152355 1.222872 0.885992 0.913692 -1.023724 0.880543 0.293117 -1.987675 0.207247 -0.937575 -0.659921 0.001475 1.255028 -0.102055 -0.004152 -0.715779 0.274253 -0.248213 0.519191 0.894942 1.628812 -0.113978 0.594696 -0.583703 0.067890 0.487246 0.336735 -0.126555 -0.164097 -0.088628 -0.209639 -0.523599 -0.527408 -0.425803 0.023829 1.996691 -0.930322 1.919491 -0.550935 -0.039985 0.597921 2.346001 0.072213 0.715037 -0.684898 1.672136 -0.996440 1.874539 0.388574 0.413272 -1.493480 1.235254 0.111854 0.246815 0.173179 -0.160050 0.991951 0.921020 -0.163644 -0.267961 -0.611855 -0.937241 0.960127 -0.360282 0.682633 -0.105744 -0.661853 -0.024486 -1.516790 1.424025 -1.499831 -0.096123 -0.544630 -0.390523 -0.685796 -1.023597 -0.021293 -0.090880 -0.041305 -0.027383 -0.285304 0.116813 0.601997 1.187319 -0.122528 -1.549004 0.292156 0.765235 0.936179 -0.615169 -0.637335 -1.036142 -1.898327 -0.463240 -1.775244 0.875133 0.470753 -0.068511 3.232189 -1.333725 0.002302 -0.022041 0.624148 -0.185894 0.352070 -0.327073 0.380274 -0.615201 1.436816 1.481387 -0.806112 0.978690 1.354745 -0.243869 0.012999 -0.839937 -1.112014 1.845793 0.847511 -0.567149 -1.300788 -0.102049 0.068575 0.921331 -0.273107 -1.784137 -0.709570 -0.457218 0.739082 1.327175 1.072455 -1.306078 0.576435 -0.289706 -0.306943 0.413458 
efficient -1.130202 0.525869 0.028066 -0.105930 0.560590 -1.200783 -0.780170 0.302376 -0.299188 0.673931 -0.435513 0.190193 -0.103582 -1.227894 -1.502662 0.595774 -0.109212 0.042334 0.095024 -1.172773 0.535869 0.183927 0.090862 1.319225 0.667691 -1.162204 0.972041 0.389493 -0.010360 0.794096 0.716692 -1.675427 -0.997683 0.780986 -0.729845 -0.209958 0.695293 -1.660412 -0.208934 0.154535 0.169155 -0.836380 1.061291 1.261763 -0.428776 0.696478 0.290505 0.450668 -0.082759 -0.716589 -3.067251 0.897227 0.874391 -0.577472 -0.821708 -0.655871 -0.578657 0.006471 1.503002 -1.712967 0.828980 -0.631569 -0.267240 0.394255 -0.040792 -0.036354 -0.873732 -0.449418 -0.313342 -1.494428 -1.119855 -1.449530 -1.224374 -0.070767 -0.361647 -0.675284 0.287951 0.891479 -1.628841 -0.549245 -0.009181 0.059567 0.669205 -0.199015 0.027521 -0.178339 0.526850 -1.093964 0.346437 -1.968922 0.881442 -0.364164 -0.931963 -0.355271 -0.744816 -0.977151 0.235093 0.136499 0.529194 0.450916 0.392067 0.303462 0.089501 -0.236165 -0.326116 0.604888 2.063593 0.120784 0.194578 -0.176083 -1.397003 0.918873 -0.685249 1.084653 -0.434677 -0.098774 -0.301058 -0.539215 1.302620 -0.695977 -0.612875 -0.277071 -0.004508 -1.356340 0.870247 -0.026229 1.009857 0.145601 1.351052 -0.141726 -0.623933 -1.256975 0.370660 0.261739 0.478535 -0.377381 0.128127 -1.452857 -0.172970 0.402677 0.018816 0.459980 1.174089 -0.384379 -0.671402 0.040150 0.471904 0.756985 -0.079410 1.263711 0.989388 -0.690632 0.408946 -0.702301 1.761917 0.231065 0.278603 -0.654242 -0.822533 0.106420 -0.567259 -0.166643 -1.054999 1.526243 -0.446026 1.224322 1.481785 1.226650 0.268163 0.888971 0.563509 1.016639 0.759277 1.178097 0.306351 0.164473 0.089567 0.283410 -0.739961 -1.151034 -0.846102 0.549038 0.736305 1.187440 0.523475 0.944752 -0.564165 -0.046160 -0.132867 -0.100980 -2.017728 -1.466920 0.625404 -0.070649 -1.284319 1.520039 -1.279421 -0.328873 0.661551 -0.295224 
approach -0.242386 0.622187 -1.056447 1.162460 0.742835 -0.322541 -2.158938 -0.733033 -0.849194 1.769129 1.207187 0.900208 1.765342 -0.343539 0.644158 1.547232 0.059812 -0.310650 0.194611 1.335283 -1.766139 1.623255 1.051650 -0.903327 0.245926 -0.756446 0.301692 2.015136 -0.976064 1.084086 0.173330 -1.784139 -1.370649 0.928517 0.887743 -1.687868 2.443386 -0.238007 0.119331 -0.232305 0.754194 -1.330701 -1.996779 0.127407 0.336636 -0.063072 1.091294 0.299300 0.680884 0.805602 0.849157 0.106708 -0.291977 0.247891 0.672588 -0.833092 -1.132895 0.762311 1.252538 -0.490985 -0.429606 1.222991 -0.015805 1.219537 0.442700 -0.092185 -0.998685 -0.349103 -0.982023 -0.524028 -0.511445 0.812350 -1.242150 1.122335 -0.082150 0.072151 0.596055 0.733321 0.609083 -0.016932 1.364929 -1.077066 -1.097294 -0.921515 0.015100 0.597631 -1.026893 0.186686 0.641713 -0.978042 0.269472 -0.577971 0.531637 -1.859280 -1.209700 0.752015 0.856390 0.259868 -1.186471 1.526709 0.020494 0.404343 0.703754 -0.913796 -0.521310 -0.723534 0.159454 -0.353644 0.754051 1.179617 0.823045 -1.466321 -1.147796 -1.708257 0.009194 0.252056 0.377369 -1.979609 0.008095 1.377058 -0.192153 -1.697662 -0.154707 0.551940 -0.914428 0.321728 0.045042 -0.803586 0.131037 1.187642 -0.804021 1.038576 -0.089350 0.644697 0.432918 -1.064750 0.275185 -1.495672 -1.208565 0.307946 0.988183 -0.682270 -1.762779 0.525864 0.245902 1.119328 0.585481 1.173084 -1.061707 -0.001823 -0.130397 1.588932 0.765322 1.025063 0.209643 1.066594 1.708731 -0.512906 -0.599328 0.681078 1.281502 0.323349 -0.380471 1.345387 0.438018 -1.267691 1.342763 1.208132 -0.021900 1.089475 -0.222304 0.058762 -0.343607 -0.080870 1.416771 -1.024321 0.323750 0.727654 1.459404 1.307415 -0.585903 0.565507 -1.267824 -0.185264 -1.348325 -1.126396 0.021037 -0.618958 -0.627409 -1.134751 0.092994 -0.299530 0.792619 1.015826 0.712242 -0.813024 -0.339323 1.449117 1.984226 -1.076893 
algorithms -0.118994 -0.375870 -1.183542 -0.596556 0.814584 0.256248 0.892545 -0.981081 0.268585 -1.232679 -0.639004 1.278467 0.904730 -0.868355 0.694031 -0.794001 0.520882 1.441732 -0.786210 0.717286 0.187802 -0.281579 -0.276409 -0.586738 0.706729 0.148831 -0.753030 0.148742 1.050812 -0.054228 -0.220777 -0.498530 -1.087810 -0.742046 -1.710265 0.915732 0.515413 -0.256367 -0.934523 -1.167996 0.993716 -0.570164 -0.418037 0.438971 1.533878 -0.355227 -0.470916 0.026671 -0.475979 -0.188631 0.440121 0.895575 0.117197 0.194221 -1.505982 0.781905 0.090652 -0.036576 1.159328 -1.114606 -1.110909 -0.462401 -0.052119 -0.287956 0.339296 -0.711887 -0.097308 1.424008 1.040621 1.585231 0.277106 -1.175951 0.389995 1.060948 1.683427 -0.254113 -0.566902 -1.595515 -0.365247 0.388775 -0.083035 0.122705 0.450172 0.567746 -0.117983 -0.010901 -1.258535 1.114296 1.727735 0.740295 0.458605 -0.813102 0.448992 0.391492 -0.340544 0.501021 -0.173898 0.302844 -0.061194 -0.026488 1.233790 0.338888 0.064419 1.085997 0.359800 -0.705757 -0.198836 0.659063 -0.094157 0.091246 -0.174597 -0.888886 -0.010115 -0.236539 1.667034 0.401961 -0.905487 -0.600839 0.491699 0.673429 0.916070 -0.483653 0.842299 0.131690 0.208979 -2.113493 0.327248 -0.213687 -0.726064 1.449538 -0.455221 -0.148322 -1.966182 -0.426412 -1.268175 -0.810278 2.012255 0.186916 0.750885 -1.042100 1.219899 1.015976 -0.276792 1.282599 0.414381 1.085046 0.453795 -0.643850 1.299188 0.006676 0.908678 -0.341839 -0.468288 1.300277 -0.614727 0.604708 1.526928 -1.256496 -0.779784 -0.597658 0.231035 1.048502 -0.041813 -0.282568 -0.018661 1.189179 -1.966049 0.566525 -0.970132 -0.082815 0.087198 1.208655 0.092884 0.078473 -1.922289 -1.196678 -1.809797 -1.282833 0.789699 0.062689 -0.974321 -0.025521 0.116046 1.853061 -0.380907 0.259948 0.598459 0.675822 -1.908504 -0.110194 0.913860 0.336122 1.842928 0.327342 0.991715 -0.613130 -0.704474 -0.133864 0.410145 0.316383 
feature -0.195957 0.470677 1.255844 0.292612 0.048002 -1.234836 0.539667 0.864379 1.100011 -0.301873 -0.281170 1.360607 0.014699 -0.805132 -1.755619 0.540384 -0.453440 -0.879818 0.750917 -0.995508 0.527798 -0.425915 -0.329873 0.318422 -0.120094 0.207285 0.432976 1.037805 2.846746 -0.479331 0.420981 -0.864859 1.027844 0.823484 0.874762 -0.468167 0.650366 0.915424 -1.436712 0.638970 0.895580 -0.145972 -0.426344 -1.329496 -0.746638 -0.698196 0.306305 -1.481028 -1.147484 1.455036 -2.241368 -1.315212 0.536891 -0.929201 -0.403309 0.148847 -0.448851 0.386390 1.345506 0.346759 -0.282858 -1.298993 0.380291 0.534825 -2.122426 -0.061393 0.454255 1.366157 -0.005210 0.272094 -1.528533 -0.203333 -0.210921 1.768920 -1.038180 0.180576 0.267349 -0.707113 -0.457142 0.338497 0.147573 1.061248 -0.783443 -0.665501 0.782764 -0.453436 -1.295634 0.719850 0.044022 -1.442850 0.595361 0.779959 0.053255 -0.523419 -0.544967 -0.677980 1.188839 0.348623 -0.542510 -0.170731 0.279206 0.256488 0.088811 0.273877 -0.714192 -0.643522 0.565977 0.620694 0.242152 1.185965 -0.120189 0.027355 0.998391 0.108006 -1.042880 0.009495 2.062025 -0.422139 -0.678066 -0.964555 0.275727 -0.885788 -0.789264 -1.028847 -0.255475 -0.190864 0.882397 -1.705318 -1.690771 -0.001357 -1.849101 0.141409 0.448350 -1.025048 1.207976 -1.016716 1.976555 -0.230410 0.799575 -1.061798 0.702457 -1.104879 1.252619 -0.718588 -0.613812 -0.943211 -0.651363 0.197501 -0.048415 0.549709 -0.815885 0.608939 -0.585324 0.457708 1.087428 -0.314515 -0.089117 0.155694 0.046007 -0.091795 -0.105059 0.105532 1.152185 -0.075183 -0.087164 -1.494946 -1.470225 0.714623 -0.890950 -1.051418 -1.011329 0.324900 0.332999 0.651260 -1.053265 -0.004142 1.020015 0.393053 0.212319 1.286690 -0.673215 -0.189242 1.310572 1.482130 -0.801109 -1.383015 0.234385 0.368241 0.717051 0.303962 0.529540 -0.323592 -0.837559 0.608012 -2.138359 0.468120 -0.705289 -0.410198 0.586173 -0.675232 
optimization -1.678133 -2.618639 0.182518 -0.221852 -0.217755 -0.036525 2.032887 1.063523 -0.218975 1.191403 -0.517264 0.164639 -0.072786 -1.118182 -0.377694 -0.821725 -1.753651 0.901859 1.417868 0.750645 -0.884808 -0.249595 -1.226398 -0.342106 -1.112746 0.165782 0.122476 -0.633284 0.570588 0.649761 -0.888543 -0.989640 -0.293757 -1.318547 -0.886055 0.491911 -0.484900 0.457800 2.031008 1.643879 0.033101 -0.314182 0.700177 -0.353443 0.906672 -0.361938 -1.006022 0.559588 -0.982149 0.547289 0.713664 -0.009226 1.465679 0.234994 -0.814619 -0.803161 1.136759 0.550057 -1.828346 -0.225108 -0.047191 -0.333838 0.931288 -0.210868 -1.737690 0.283799 -0.659604 0.408156 -0.974985 -0.575283 0.503032 -0.307363 0.067717 0.246311 -0.569744 -1.264423 -0.056499 -2.310005 0.124324 0.845642 -0.534078 -0.219425 -1.087074 -0.811002 -1.063789 -1.735954 0.338815 -0.927674 -0.433557 0.695905 2.356274 -0.356405 0.470494 -0.078942 -1.260830 -0.788276 1.287365 -0.117673 -0.167239 -0.066064 -0.849729 -0.458455 -0.603999 0.323526 -0.913620 0.443257 1.102687 0.782353 0.707967 -0.692235 -1.030996 0.686630 -0.934821 0.296705 1.001299 0.164488 -0.076297 -0.085795 1.426358 -0.828473 -0.041765 1.430947 0.837759 0.175628 0.783620 0.925217 0.478871 1.595196 -0.654929 1.102796 1.459697 -0.546481 -0.252226 -1.084838 -0.776018 -0.710545 0.448950 -0.978331 0.318470 -0.205198 -1.018962 -0.296527 1.142494 0.026030 -0.055474 0.745952 1.188194 -1.282187 0.609131 0.920296 0.387123 -0.747083 -0.797189 -2.417106 1.242052 -0.318731 1.684012 -0.135585 -1.076841 1.201011 0.238010 -1.231504 0.286451 1.294630 0.676301 -0.401924 -0.032517 -0.280818 0.890093 0.834483 -0.651732 -0.158452 0.239864 0.898417 0.787691 0.916891 0.070539 0.458718 0.265349 -0.097097 0.057638 2.258938 -1.968654 -0.203070 0.660098 -0.413699 -0.384402 0.299060 0.008550 -0.449591 0.182041 0.791093 -1.141800 -0.573843 -1.366917 0.623612 -0.655303 -1.884558 0.063555 -0.515975 
sparse 0.700258 -0.656036 -0.876129 0.305170 -1.279137 0.475987 -1.158874 -1.369687 -2.004894 -1.582312 0.362445 -0.550926 0.338697 0.156186 0.219971 -1.746032 0.343610 -0.109671 1.015163 -0.120202 0.709443 -1.208894 -1.181690 -0.857065 -0.631695 -1.474229 -0.762670 -0.332692 -0.334856 1.145727 -0.402092 -0.222562 -0.881389 -0.522484 -0.878227 2.408610 0.969415 0.018543 -1.032132 -1.424291 -0.317994 -1.431370 0.400512 0.796027 1.267656 -0.530792 0.038211 0.567212 0.354816 0.368577 -0.154466 0.053456 -0.424913 0.636718 0.229474 -0.076793 1.675858 -0.322394 -0.033703 -0.996478 1.182750 -0.064785 -0.100828 2.006094 1.392652 -1.317255 -1.469608 1.129827 0.195311 1.145501 -1.072732 0.923898 -0.234892 -0.520711 0.688480 0.241583 1.531256 0.770347 -1.482108 -0.793650 1.621242 -0.271320 1.921721 0.761423 -0.622285 0.547238 -1.061177 -0.356903 -1.885088 -0.759797 1.022028 1.641481 1.928431 -0.476846 -0.177419 -0.553767 -0.146749 0.607420 1.311109 -0.513374 -0.184855 -0.479670 -0.198191 0.242909 -0.810413 -0.739565 -0.876286 -0.850536 -0.842694 -0.689964 -0.580229 0.684901 -0.131141 0.841992 -0.468262 0.822386 1.125476 0.696231 0.706822 -0.412700 0.432621 0.747760 0.202272 1.198165 0.502613 -1.612477 1.412134 0.442142 -0.367311 -1.739950 -1.064138 -0.153652 -0.037457 -0.054186 0.793993 -0.634508 1.551986 0.254659 0.047738 0.772338 0.265154 -0.837133 0.042025 0.307091 -0.054720 -0.620697 0.430512 1.439788 -0.830256 -0.436635 -0.612938 -0.695894 -1.306164 -0.716386 1.709747 0.325731 -1.306165 0.801787 0.208571 0.207042 -1.086374 1.244177 0.708300 -0.470594 -0.205256 -0.555019 -1.074841 0.832498 -0.881619 -0.100107 0.816908 1.040441 0.640617 0.037035 -0.640129 0.826485 0.681401 0.544594 0.816856 -0.851355 -1.148164 0.611218 0.482002 0.564268 -0.138300 -0.352585 0.598397 0.367343 -1.869595 0.808732 0.550710 -0.098322 -0.346074 -0.478346 0.596360 -0.022266 0.301575 0.335224 -1.118319 -0.890489 
selection -0.817767 -0.225071 0.292255 -0.819477 -0.170310 -2.337117 0.227974 -0.733414 -1.172954 0.707538 -0.167205 0.949172 -0.790982 0.120937 -0.075134 -1.113701 -1.277752 0.327256 1.237862 1.516227 -0.597307 1.247190 1.006776 0.735846 -1.638698 -0.182781 -0.267555 -0.249294 -0.422257 -0.824901 -0.041904 -1.996200 0.641224 1.548868 -0.474447 1.539770 -0.519152 -0.595053 -0.730346 0.164961 1.806470 -1.315859 -0.206625 0.665627 1.134090 -0.771664 0.026242 -1.451511 0.167551 0.752505 1.169775 0.474480 0.165642 1.176020 -2.390673 1.222654 1.393764 -0.208183 0.264678 -1.927653 -0.249732 -0.268495 1.203012 0.588315 0.457738 -0.128547 -0.148918 1.417064 -0.482003 1.387007 -0.022075 0.409921 0.883711 0.753792 1.201647 -0.150255 0.448752 -0.337028 0.597122 -1.126445 -0.144720 -1.028030 -0.152329 0.065750 -0.276503 -1.489304 0.278884 0.943202 -1.129265 0.105446 1.241423 -1.081168 -2.208447 -0.776520 -0.037570 0.090979 0.662032 0.234456 -1.296208 -1.239577 -1.006045 -1.884065 0.151230 -0.464476 -1.350906 1.340443 -1.455430 -1.224515 -0.530046 1.001206 -0.298412 -0.177276 -0.411502 0.322899 -0.437610 -0.493035 0.726395 0.320717 -0.083084 -0.275387 1.913848 1.457118 0.418405 -0.017121 1.168415 1.063916 1.187606 0.107152 -0.247219 -1.259478 -0.235801 -0.350322 -0.633997 -2.311338 0.951073 0.193595 1.127756 0.316436 1.276719 0.745793 -0.050362 -0.596524 0.496905 0.344735 -1.062271 -2.035669 -1.185804 1.923494 0.360521 0.211823 -0.864643 0.288791 0.857017 -0.303271 -0.528126 0.131499 -0.537653 -0.238745 0.317853 0.777508 0.506999 0.276266 -0.446900 -0.448189 -0.265302 0.463719 -2.111933 1.282852 0.340101 0.226746 0.402434 0.205960 0.732540 0.803472 -0.463871 1.512559 -0.911299 1.364704 0.311359 -0.264150 0.108543 1.144271 -1.728839 1.953427 0.141538 -0.349147 1.695358 -0.423719 -0.568488 1.572664 -0.912033 0.870268 1.180445 0.207899 1.195307 -0.166932 1.142226 -0.596032 1.574316 0.061119 
analysis -1.479582 0.786276 -1.487445 1.228447 -0.005131 -1.069854 -0.597456 -0.647656 0.440606 1.236787 1.611431 -0.218929 1.677405 -0.080401 -0.037560 -0.421618 -0.553957 0.212445 0.633827 -1.231803 1.811373 -0.265202 -0.367452 -1.126263 -0.260237 -0.404195 -2.211263 -1.392471 1.542277 0.974207 0.657103 -1.326226 -1.795462 0.731107 -0.803789 -0.909395 0.137061 -0.413445 -0.499743 -0.659184 0.396172 1.782059 -0.689703 0.103939 0.041628 0.522090 1.137351 1.956752 -1.632191 -2.029140 0.005882 0.345750 0.633206 -0.446788 0.346826 -1.429883 0.974785 0.385811 0.660677 -0.813139 -0.648613 -0.272437 -0.378416 1.226139 -0.421610 0.657322 -0.545828 1.471586 -1.025904 -0.831389 -0.794241 0.564928 0.305675 0.008494 -1.081143 0.098647 -0.054666 0.443134 1.387395 -0.288857 -0.601865 -0.749391 0.960918 0.098307 0.335772 -1.680800 1.937873 1.075920 -0.441116 0.217336 -0.101486 -1.214214 0.022614 -0.311905 1.317191 -0.309550 -0.667172 1.725059 0.112685 -0.261658 -0.079615 0.030424 -1.096797 -0.973252 -0.629605 -0.957406 0.244103 0.215704 0.055148 1.253798 0.907778 -0.553470 -0.948113 0.193755 -0.042318 0.624212 -0.441210 -0.526311 0.085823 -0.853610 0.555945 1.838308 -1.593880 -0.176145 1.625361 1.459040 0.744976 0.308519 0.192454 0.692897 -0.958560 -0.076229 0.326901 0.033529 0.038965 0.695126 0.259260 -0.342613 -0.434068 1.770707 -0.225601 0.670865 0.896057 -0.525912 -1.186646 -0.297317 -1.157450 1.445167 1.167666 -0.988059 1.350414 -2.520123 2.161344 1.022504 0.373202 0.169887 -1.353384 0.120491 0.560648 0.568140 -0.002909 0.390268 -0.036025 1.369788 0.491286 -0.267808 0.884806 1.114935 0.774945 0.364413 -0.701200 -0.236554 1.539224 -0.207139 0.975143 0.347352 -0.634574 1.803473 1.188430 1.753124 0.139313 -0.334199 0.321888 -0.244797 -0.705240 -0.291056 -0.620450 0.287216 0.995328 -0.810387 1.307079 -1.343901 -0.220586 -0.343558 0.873130 0.248960 0.593918 0.555194 0.005057 -0.490523 
classification -0.417746 -1.359093 0.509675 -0.265411 0.513144 0.271286 0.548935 0.511627 0.465164 -0.255855 0.138452 -0.606504 -0.414941 -0.490120 -0.570194 0.362432 0.324962 1.029555 1.640900 1.297212 0.545311 -0.616416 0.981187 0.370210 0.314260 -0.323236 -0.504649 -0.672960 1.722038 0.005113 0.008663 -0.112724 0.253367 1.088415 1.074739 -0.667010 -0.585935 0.471436 0.825450 -0.167673 0.605005 0.046756 0.452588 0.329547 1.907770 -0.138749 -0.056986 -0.614968 -1.340518 -0.304123 -0.166296 0.637902 -1.176970 -0.266778 -1.115648 -1.801288 -0.821022 -0.224416 -1.085314 0.288439 0.075006 0.563291 -0.951393 0.865768 -1.171754 0.226470 -1.155545 0.157244 -0.641912 1.496778 1.169943 -0.028043 -0.905962 -1.873979 -1.459295 0.208343 -0.872268 -2.300236 0.497491 0.563774 2.527508 0.030820 -0.702766 -0.053384 -0.182785 -1.133684 -1.788269 0.631823 1.054958 -0.616323 -0.405943 -0.630419 -0.534590 -0.906913 0.343737 -0.397080 -0.105142 0.993155 -0.280502 -2.510638 0.216170 -0.748566 -0.345347 -0.279318 0.123221 0.442041 0.357049 0.003183 0.242770 0.599774 -0.694128 0.116559 0.530342 0.182359 0.520564 1.176662 0.237477 -2.876395 -1.120353 0.752153 1.293329 0.569811 0.304370 -0.051665 1.446997 -0.277539 0.687445 -0.278277 0.346495 -1.114806 -0.154676 0.568624 -0.779889 -1.144727 -0.657091 -0.147464 0.093613 1.058718 0.358396 -0.375220 -0.206194 0.072244 0.594599 -0.988273 0.126613 -2.014132 -1.159055 -0.074071 2.367553 1.549685 -1.092012 -0.503155 -0.275372 0.810821 0.099060 1.329285 -0.278921 -0.256198 -0.098513 0.974787 -0.078385 0.877115 -1.023686 -0.662050 0.969801 0.333413 0.736298 1.596020 1.308379 -0.318374 0.364967 0.621545 -0.254970 0.274171 0.845972 -1.025916 -2.582094 1.009933 -0.835665 0.841141 -0.036544 -0.898284 -0.640349 1.154931 -0.383312 -1.159231 1.115565 -0.098032 -0.989731 -0.305101 -1.433394 0.267074 -0.713904 0.068532 0.330683 0.574979 1.368027 -0.178243 -0.519479 -0.718989 
model -0.075093 1.462034 0.546400 2.191691 0.725344 -2.118708 -2.234177 -0.951966 -2.090379 -0.699441 -0.570550 -0.050684 1.244869 0.253629 0.899440 0.556671 0.256901 -0.173486 -0.683600 -0.456564 0.497225 0.474288 1.298472 -1.183327 -1.383406 -1.295327 0.639921 0.909349 0.517987 1.160437 -0.994895 0.852443 -1.739589 1.650960 1.117853 -1.338333 0.370654 -0.135934 -1.417418 -0.058752 -1.901500 0.960798 0.213469 0.238369 1.101295 -1.054415 0.045777 0.940262 -0.203582 0.008923 1.114234 -0.131693 0.181847 -1.072807 -1.935827 -0.886904 0.148144 0.984675 -0.803446 -1.029847 -0.691546 0.373943 1.876428 0.183912 0.722041 -0.005001 0.007669 -0.269918 -0.855775 -0.588769 -0.163336 -0.179328 -1.276838 -1.093390 0.073364 -1.514301 0.374683 -0.531575 -0.504613 -0.266226 -0.854028 0.139097 -0.754357 -0.326973 0.183277 0.426857 -0.220059 0.631618 -0.311634 0.226566 0.637237 0.887831 -0.427194 0.471664 1.124840 1.328948 -0.428361 0.163471 1.392020 1.022982 1.389726 0.612060 1.196858 0.787213 -0.697855 -0.721153 0.000089 -0.270511 1.088531 1.737043 0.902972 1.208001 1.526997 1.992811 -1.328482 -1.377813 0.863372 -1.140659 0.579806 0.216378 0.421212 0.326899 -1.341128 -1.283236 1.028557 0.678450 0.514778 -0.739290 -0.558261 0.841900 -0.534637 1.277785 1.022304 -0.344591 -0.139768 -1.455278 0.013889 -0.421497 0.271696 0.221412 -0.475204 -0.612965 0.888106 0.529189 1.240917 -0.365627 -0.948943 -1.817615 1.557523 0.150577 0.232730 0.242221 1.225952 -0.411893 -0.285811 0.756597 -0.680000 0.481284 1.114569 0.124723 0.905166 0.132804 0.371344 0.231120 0.632532 -0.391238 -0.141799 -0.921675 -1.584270 -1.309708 -0.165948 1.392893 -0.437295 0.260270 1.155424 -1.659374 -0.691148 1.760115 0.308464 0.353527 0.413671 -0.698415 0.467372 0.150509 -0.344363 -1.583902 -2.058772 -0.563295 0.922684 0.778278 -0.932766 0.073406 -1.325126 0.414641 -2.083645 -0.589884 -2.274866 0.624961 -0.071175 -1.528881 
clustering -0.337177 -0.556271 -1.844759 0.628478 -0.453348 -1.584755 1.081327 0.313260 0.434512 -0.636624 1.804228 0.336162 -0.109645 -0.395304 -0.645335 -0.187282 -2.629918 0.372466 1.556421 -0.642983 0.352543 -0.454847 -0.586865 2.017865 -0.492680 1.014750 -2.689562 -0.102262 1.574333 -0.144318 -0.179785 -1.325133 -0.439916 0.177856 -1.490247 -0.459344 1.195491 -0.467040 0.930359 0.969218 1.074458 1.063177 0.999267 -0.094179 0.898056 -0.549462 0.959376 -1.237866 -0.319134 -1.890007 1.589832 0.674444 0.193625 -0.503226 0.527392 0.764035 -0.617157 0.487018 -0.084901 -1.672479 -0.662810 -0.980586 0.551128 -1.668731 -1.139025 0.672289 -1.144731 0.677464 -0.168879 0.406696 0.841254 0.435074 -0.799865 -0.983437 0.405317 1.020013 0.559774 -0.833521 0.911732 -0.882673 0.040401 -0.733424 0.351608 -0.817675 0.314514 -0.083277 -0.796503 -0.816474 0.525133 -1.315593 1.134276 -1.270613 -0.165616 0.936430 -0.954702 -0.694999 0.483241 -0.724820 -1.787799 -1.842504 1.240278 0.016935 0.092376 -0.454679 -2.723239 0.406786 0.260391 -0.224754 -0.915227 -1.070515 -0.211839 -0.192282 -1.743909 0.375206 0.438357 -0.326747 1.615949 1.299888 0.108739 -2.023795 1.443159 0.405724 1.336463 0.174878 0.703859 0.723282 1.782696 1.172843 -0.224488 0.041425 0.997203 -0.978360 0.318240 -0.014978 0.512424 0.308999 -0.400066 -1.036005 -0.118682 -0.084482 -0.236341 0.138325 0.850731 0.093676 0.679253 -0.583321 -0.858914 -0.361612 0.338647 -0.219627 -0.466532 -0.347213 -0.494126 0.678668 -0.819222 -0.669398 0.628828 -0.837256 0.623797 0.181989 1.319882 0.876857 1.044647 0.250552 0.152666 -0.436255 0.684186 0.697303 1.784008 -0.771782 -0.467854 0.566441 1.462487 -0.720591 -0.028725 -0.664374 0.087821 0.661983 0.091602 0.363273 -0.111840 -0.790887 -1.179611 0.924811 -0.467223 -0.826248 1.034601 -1.186767 0.315516 0.229517 -0.259144 0.293788 0.180041 -0.657592 -0.785151 0.938623 0.354107 0.287674 -0.337592 0.356302 
stochastic 0.907878 0.463924 1.469115 0.208179 0.593289 0.378861 -0.288149 -0.975895 -0.834390 0.355033 -0.529286 -0.326746 -0.736090 -1.276134 0.133813 0.434228 1.488038 -0.383538 0.289745 0.020263 0.314058 0.645860 0.312921 -0.268341 -1.592814 -0.103744 -0.345800 0.918343 1.860810 0.550077 -1.872491 0.876286 0.390509 -1.434122 -0.064294 -1.159173 1.868401 -0.474696 -0.287255 -1.066309 0.758384 0.049125 0.598113 -0.349244 0.015766 0.605803 -0.351404 1.439067 -0.822903 -0.720949 -0.146716 1.175987 1.062781 -0.036856 1.882184 -1.838552 1.093182 0.565065 0.704826 -1.390459 0.027716 0.377987 -0.235708 -0.172984 -0.501889 1.151083 0.704943 0.014530 0.305822 -0.462415 -0.434032 -1.146234 0.455862 1.113115 -0.386298 -0.573764 0.576518 -0.324668 -1.468446 0.021234 1.277219 1.017802 -0.438674 -0.266810 -1.224601 -0.789906 -1.603235 -0.416936 -0.016894 1.177012 -0.025862 -0.629637 0.777378 -0.656352 -0.536424 -0.697533 0.419411 -0.487790 -0.889890 1.303490 -1.737199 -0.041474 -0.480313 0.291668 -0.555842 -0.477806 2.099486 0.657222 1.363456 0.428399 -0.616927 1.423852 0.186428 1.025798 1.028472 1.841775 0.121548 1.387124 0.064100 0.336085 0.087619 1.218934 0.961794 -0.832137 -0.323496 -0.084726 -1.111049 0.558674 -0.101890 -1.042092 -1.943572 -0.216929 0.069663 -0.054633 1.002715 1.762580 -1.160953 -0.525984 2.481000 0.242592 -0.673549 -0.095993 1.193220 0.037486 0.293366 0.217245 -1.060880 -0.595969 -0.682065 0.188289 -0.108447 -0.147154 -0.904257 -0.561011 -0.977815 0.774386 -0.451429 0.486646 0.849162 -0.492357 -1.185795 -0.620300 1.590170 0.783232 1.150994 -1.582591 0.160538 0.765093 -0.813927 -0.411933 0.227754 -0.440237 -1.915032 0.285071 0.096369 -1.005143 1.187857 1.141680 -0.306399 -0.476101 -0.159574 -0.391638 -0.917575 -0.276974 0.340337 -0.790459 -2.272155 0.580168 -1.859695 -2.034235 0.140967 0.737327 0.258515 -0.699279 -1.728549 0.160782 -1.122849 1.141024 -1.063860 -0.248154 
bayesian -0.297229 0.374998 0.739042 0.396881 -0.172941 -0.182912 0.252686 -0.102575 0.388043 -0.490032 0.037580 -0.079625 -1.823535 -0.471214 -0.549698 -0.067834 0.143726 2.660008 0.764850 0.548286 -0.297788 1.373395 2.458230 -1.972356 0.870368 -0.357553 -0.087407 -0.376095 -0.158761 0.692119 1.460151 -0.464470 -0.757013 0.017100 0.125706 -0.172531 -0.126020 0.197258 -0.726698 0.352844 0.802616 -0.300513 0.119812 -0.567077 1.167488 1.764564 0.374609 -0.805528 0.355311 1.363225 -0.622213 -1.175617 0.108660 -0.053204 -0.149352 -0.952685 -0.271609 -0.977677 0.026005 -1.073810 -0.940703 -1.010279 -0.111549 -0.511023 0.489877 -0.567007 -0.384392 0.886881 0.629662 -1.751723 -1.738696 1.213553 -1.222678 1.383097 0.171479 -0.537850 0.769697 0.745879 -0.475331 0.083029 0.101323 -0.216402 -0.094777 0.108267 0.875580 -0.079920 -1.454301 0.733725 0.045115 0.886430 -0.706206 1.019719 0.380667 -0.287087 0.461711 -0.271196 -0.632290 0.243116 0.342130 -2.134812 -1.763847 -0.487517 0.066673 0.389856 0.326460 0.044736 1.167690 -1.310660 -0.408989 1.047585 -0.191381 0.493629 -0.813019 0.506799 -1.605121 0.343390 0.053161 -0.949792 0.377498 1.459770 -0.097980 0.487300 0.129866 -0.484610 -0.604249 0.359990 -1.043161 1.186317 0.565029 -0.092922 -0.715258 0.799574 0.890427 0.058545 0.011817 0.938029 0.840893 -0.536666 0.902204 0.331501 -0.534356 0.138355 0.846567 -0.892878 0.175901 0.016876 0.081117 0.334859 1.404947 -0.270590 -0.610776 1.354423 -0.190084 -0.746333 -0.968286 0.451510 -1.511598 -0.047551 -0.842085 1.197485 -1.742441 -0.784673 0.397850 -0.257248 -0.496035 -0.318826 -0.009454 1.275265 0.792261 -0.571593 0.051641 0.921981 1.056322 0.622126 0.046305 -1.714961 0.777506 1.610194 -0.966974 -0.224988 -0.383013 0.852226 0.429544 -1.421262 -0.017399 -1.690010 0.550851 0.264240 1.247337 -0.493526 -0.063176 0.642777 0.157555 1.375616 -1.271360 -0.071541 -1.463904 0.349585 1.193548 -1.584430 
deep -0.470840 -0.490855 2.103486 -0.758478 0.309292 -0.571553 -2.147739 -0.804243 -1.107806 2.392993 -1.078982 0.624006 -0.471896 -0.646239 0.003828 -0.994246 1.354240 0.142332 0.279751 -0.022009 0.544103 0.545363 -0.354833 -0.084218 -1.143774 -0.684725 0.977592 -0.972158 0.267436 0.483198 -1.191514 -0.379294 0.090847 -1.001705 -0.397496 2.378019 0.890050 -0.663731 -0.206402 1.384290 0.830570 0.717452 0.421945 0.105159 -0.137140 0.327903 -2.396545 -0.763732 -1.191710 1.295116 0.911820 -0.477143 -2.435698 0.513206 1.593200 1.371459 2.050939 0.706741 -0.345773 -0.318297 0.308867 -0.813074 1.936883 0.136723 -0.123907 -2.044794 -0.412643 -0.638344 -0.200633 -1.300202 -0.114564 1.162844 -0.463292 -0.227463 0.262857 0.765710 -0.160509 0.474628 -0.223942 -0.353038 0.525717 -1.682855 -0.321448 0.200418 1.230611 -0.347613 1.079649 0.085999 -0.854941 1.862602 0.059151 0.514314 -1.916885 -0.636618 -0.058771 0.015737 1.670395 0.237135 -0.338841 -1.012560 0.739336 0.430549 0.346589 0.036831 0.873031 0.629758 0.818395 0.647862 -0.152495 0.455243 0.644370 -1.423134 1.262357 0.748319 1.064307 -0.720652 -0.026429 0.046664 -0.257688 2.137378 2.224359 0.425762 0.504112 -1.023907 -0.386344 1.549104 0.895041 0.793656 -1.255124 -0.606550 -1.513101 0.657908 -1.209770 -1.522915 0.252249 -1.323621 0.690835 -0.505489 1.507873 -1.188170 -0.498241 -0.501916 -0.327013 0.083496 -0.124903 0.539297 -1.059528 -1.080701 -0.083359 1.101371 0.672883 -0.404364 1.317772 0.241909 -0.832661 -0.936440 0.698688 -0.311441 -0.009794 0.709973 0.465369 -1.261006 -1.049131 -1.379534 -0.104663 0.948702 -0.765566 -1.254920 0.576716 0.018678 0.996830 0.006153 0.533887 -1.025704 1.184860 -0.888286 0.293661 -0.991064 -0.196608 -0.229478 -1.006092 0.295294 -1.522070 0.158894 0.089125 1.351674 0.816928 0.195533 -0.751364 0.805316 0.076711 0.088925 -0.436288 -1.466314 -0.511758 -0.528565 0.071025 0.311803 -1.039080 -0.716840 
multiple -2.202821 -2.546790 1.773290 1.350348 -0.188123 -1.571000 -1.196360 -0.293320 -0.257137 1.695949 -1.442692 1.051011 2.284605 0.705609 -1.250287 -0.389176 -0.352025 -0.473266 -0.072766 -0.802610 -0.018415 0.338054 0.294342 0.729790 -0.000540 -0.730115 0.118577 0.061004 1.452606 0.549398 -0.839467 0.683318 0.766277 -0.267679 0.289835 0.633060 -0.597821 -0.020876 -0.150051 -0.148705 -1.434891 -0.870645 -0.613297 0.327550 1.581423 0.450100 1.054074 -1.364798 0.125710 0.736971 0.231550 1.443284 -0.753092 -0.269890 -2.295409 -1.077913 0.557763 1.242550 0.801985 -0.580471 0.307319 1.264984 1.806439 -0.953425 1.109434 0.455542 1.108508 -0.066653 1.740788 0.977997 -0.880542 -1.352269 -0.224661 0.050661 1.312314 -0.344369 0.731209 -0.768137 0.658691 0.034591 -0.270001 -1.481606 -0.666858 -0.164169 -0.861466 -1.101058 -0.007252 0.912851 -1.052881 -0.463095 1.718909 -0.404287 -0.782353 -0.912817 0.961259 0.058806 1.554304 -0.982817 0.539180 -1.821238 0.783851 -0.321751 0.231108 1.691389 -0.427738 0.383458 -0.927857 -1.643013 -0.044633 1.266305 -1.753793 1.600202 -1.024493 -1.376877 1.284345 1.342231 0.580845 0.197775 -0.120653 -0.579745 0.446964 -0.423798 0.115496 0.076749 1.103268 0.772854 -0.728661 0.209849 1.440714 -0.235985 -0.341355 0.251347 0.312914 1.325558 0.042410 -0.910414 -0.431824 0.753283 -0.340892 0.652905 -1.344188 -0.979708 0.826896 0.708996 -1.436463 -0.148575 -0.345199 0.262788 -1.049719 -0.936336 -0.526784 1.484400 0.811637 -1.689111 -0.479842 -1.004354 1.304250 1.835410 -0.546550 0.013087 -0.625070 -0.166558 1.141384 -1.355073 -0.022644 -1.162200 -0.719693 -0.035421 -1.076064 1.502511 -0.445825 -1.272943 -1.057326 0.000783 0.349356 -0.410779 0.016872 -0.106934 1.648311 0.922592 1.263070 0.227741 -0.929002 -0.593694 0.436846 -0.529106 -0.649599 0.756551 -1.053806 2.061093 0.231063 -0.554968 -0.892992 0.214703 0.723750 1.840797 0.047624 -0.333194 -1.108659 -0.183379 
fast -0.151000 -1.440934 1.209382 0.254367 -0.720728 -0.123286 -0.109655 -1.196330 1.095001 -0.627539 0.112274 -0.411723 -1.534847 0.041097 -0.840285 -0.741960 1.799878 0.620932 -0.152344 0.328609 0.751270 1.500072 1.532634 -0.179843 -0.807825 0.270260 0.028261 0.887895 0.477231 0.394696 -1.231757 -1.276535 -1.130900 -0.004336 1.035378 -1.671773 -1.399712 -1.725291 0.922148 0.115465 1.050777 -0.568401 -1.277261 0.121809 0.017453 1.496744 -1.184028 0.377188 -0.251360 -1.663279 -1.171688 -0.589216 -0.134267 0.058505 0.473457 -1.389220 0.774590 -2.784191 -0.683289 -1.954620 -0.336149 0.496893 -1.570768 0.122645 1.247205 -0.526538 -1.229737 -1.132716 -0.075826 1.433688 -0.436061 0.638759 0.206863 0.816320 0.845683 -2.774659 -0.259042 -0.173917 1.013565 -1.887128 0.977693 -0.244482 -0.039915 0.465355 -1.475635 -0.325233 1.380843 -0.447921 -1.338922 -0.992674 0.511663 -0.530160 0.508961 -1.382575 0.313157 -0.114599 0.126509 0.197576 1.074206 1.742348 -0.544402 -0.245376 -0.370154 -0.754891 0.659064 -0.417354 -0.069579 -1.381558 -0.617465 0.187689 0.409233 2.037681 0.581160 1.664675 1.322047 1.165449 1.221849 -0.206435 1.598354 -0.709005 -0.005013 1.927706 -0.955877 -0.193994 0.399386 -0.150231 -0.880450 -0.052523 0.695603 -0.844064 -0.725299 -1.967231 1.305321 0.847344 1.864732 0.274002 -0.102961 -0.089788 1.307892 -0.576781 0.339359 0.242321 1.194690 -0.990720 -0.242548 0.168970 0.297215 0.037460 0.798882 -0.642635 -0.091902 0.263861 -0.167848 -0.738996 -0.711731 -0.278463 -0.343100 0.529783 -0.958984 -0.481709 1.042104 0.345606 0.270603 0.297051 -0.880563 -0.498317 -0.951926 0.563045 -0.326506 -0.218658 0.102718 -0.673182 0.481001 0.967791 1.169326 -0.127398 0.579770 0.154176 -0.267018 -0.329701 0.135235 -0.810034 1.470625 0.184666 1.533306 -1.067646 -0.626090 0.190450 -0.111649 -0.816054 -0.860823 1.002850 -0.980720 0.493721 -0.655041 0.981902 -0.238803 -1.104235 0.603618 -1.042548 
algorithm 0.111554 -2.246788 0.537716 -0.132291 2.078817 0.662161 -0.856925 0.354833 0.909914 -1.785353 0.439485 2.457355 1.319374 0.144873 1.029666 -0.084098 -1.073655 0.349253 -0.006505 -0.193345 -0.589915 1.060312 0.051650 0.060548 0.468144 0.677259 0.479488 1.369222 -0.858570 -1.625953 -0.323778 -1.944034 0.858383 -1.564449 -1.725303 -0.637880 -1.992606 -0.190579 -1.452502 0.667201 0.784082 0.630665 0.536393 0.380261 -0.647693 -1.005813 -0.945390 -0.288103 -1.506805 0.064871 -1.228887 0.060482 1.466178 0.819252 0.138617 -0.531687 -1.194566 -0.306621 -0.207450 0.187563 -0.012485 -0.941064 -0.290537 -0.934863 -0.444912 -1.444576 0.148084 0.514935 0.867710 -0.626489 0.254107 -0.647483 0.402574 -0.443942 0.627832 -1.448088 0.148451 -0.972612 -0.533800 1.210358 0.266880 -1.189662 -0.150424 -0.022429 -0.882090 -0.179084 2.135597 -0.410792 1.507640 -0.895268 -0.242614 -0.200221 -0.590913 0.337430 -1.229288 2.292212 1.615133 0.082826 0.878946 1.427140 0.821620 1.776373 0.573068 -0.595074 -0.419300 -0.605165 1.019159 0.047432 1.229544 0.962485 -0.441817 -1.069990 -0.867415 1.842038 0.885233 -0.602220 1.245048 -0.792825 0.456513 0.726782 -0.254738 -0.261110 0.162451 -0.240421 -0.625173 -0.294428 -0.288689 -1.709079 -0.192964 0.156349 -2.754957 -0.154319 -1.219256 1.244002 0.131980 0.098535 1.056275 -1.288688 0.610194 1.135328 2.648043 1.703320 -1.182009 -0.349016 0.645627 0.317685 -0.783841 -1.594064 -0.678535 -0.180026 -1.460170 -0.605986 0.675605 1.952610 -0.841327 0.136298 0.392243 -3.063875 -1.179077 0.008816 -1.819399 -0.192052 2.099818 -0.376532 -0.003667 -0.183865 0.039951 -0.058975 0.805288 1.366760 -1.338145 -0.564273 0.655189 0.497309 -0.509112 -1.638093 -1.413052 0.036988 0.672432 -0.178830 -0.218613 2.401410 -0.274826 1.617133 -1.024650 0.250009 0.078524 0.603567 -0.200000 -0.863419 1.535545 0.240706 1.326046 0.403019 -1.729902 -2.377644 -1.256826 0.051924 1.293614 -1.017318 
networks 0.102783 0.852250 -0.684142 0.447490 -0.461486 -1.455340 -1.454207 0.054290 -0.763210 0.208985 0.968193 -1.053039 -1.683196 -0.175388 0.026227 0.899827 0.285025 1.627075 -0.106465 -2.102252 1.779536 -1.827331 -1.448647 0.058673 -0.126777 -1.783458 -2.009967 1.430420 1.042833 -0.185603 0.981741 0.198503 -0.914659 0.293081 -0.118871 0.073674 -0.395198 0.768244 0.574728 0.119005 -2.194508 1.313054 -0.456941 -0.349952 -0.754261 -1.640038 -1.420471 -0.756441 -1.590403 -0.495096 -1.570051 0.613127 1.426104 0.766792 1.072662 -0.461076 -1.148403 0.181749 0.549232 0.146937 -1.553199 -1.136714 -1.930176 -0.043009 -1.152507 -0.792143 0.063364 0.347725 -1.084389 2.157211 1.678315 -1.199314 0.143842 0.414694 -0.743363 0.624891 -0.421057 -0.387207 -0.345839 0.242974 2.310854 -0.824397 -1.293515 1.052931 0.077849 0.765725 -0.179419 -0.332186 1.218755 -0.934160 -1.560175 1.792453 -0.420777 0.816876 1.630864 1.294669 0.299239 1.193770 0.421857 -1.296510 2.286807 0.143100 -0.011609 -1.066568 -0.394648 -1.162839 0.770029 0.163597 -1.217305 0.228006 1.489172 -0.126032 0.842205 0.610053 -0.063728 -0.462723 1.265133 1.446426 1.838969 0.316975 0.974053 -0.096331 -1.410052 1.370547 -1.147584 1.484054 0.319024 0.149398 1.443191 0.624172 0.544306 -1.736774 0.326595 0.679893 0.058632 -0.261671 1.361351 0.037313 -0.435346 1.944325 -0.110690 0.458965 0.305773 -0.218209 1.284321 -0.906619 0.783561 0.274067 2.991399 0.685910 1.007943 -0.095326 1.013358 0.206889 -0.505878 -0.618777 0.888143 -0.799058 -0.395165 -2.171277 0.441776 -0.500573 -0.209653 0.896782 0.320080 -0.291052 0.607103 -0.406026 -0.976799 0.428140 -1.641875 -0.708912 -0.218031 1.119983 -0.525289 -0.890753 -2.583228 -1.562029 -0.517107 -0.213352 -2.056902 -1.422283 0.269534 0.666168 -1.451333 -0.832847 1.202650 0.314918 -0.622717 -0.197660 -0.496135 0.229386 0.223290 -0.690728 -0.669957 0.511299 -0.256700 1.503294 0.001653 1.174276 
regression -1.246766 -1.684027 1.893150 -0.141642 -0.425959 -2.027536 -0.154368 0.504197 -1.430867 1.553012 -0.353571 1.415525 -2.308128 -0.791037 0.197802 0.492311 -1.180971 1.096945 0.231277 2.089365 0.754298 0.494812 -0.443584 0.099143 -0.204630 -1.521230 -0.367320 -0.161969 1.781861 -0.539185 -0.916461 -1.736014 0.138194 -1.107639 -0.654898 0.497748 0.534348 -0.130534 0.636175 -1.796570 -0.642540 -1.791457 -0.089763 0.147233 0.116881 1.042132 -0.239962 -0.161964 -0.475906 0.516539 0.033863 1.029258 0.246886 -1.475799 -1.764936 -0.960627 0.720117 -0.788192 0.080687 -0.010587 -1.244830 -0.973939 -0.351029 -0.037385 0.023111 0.598020 0.446135 -0.242124 -1.478258 -0.513554 0.423306 1.713023 1.555391 -0.170260 -0.189831 1.463820 0.492276 -0.001836 0.694491 0.086997 0.448530 0.664359 0.964324 -0.179790 0.365734 -0.101348 0.846564 -0.457784 -0.677349 0.320967 -0.093662 -0.627384 -0.066435 -1.185593 -0.106014 -1.041716 -0.667981 0.109660 0.569274 0.087747 0.849261 -0.715890 -1.145102 -0.633113 -0.465523 0.351911 -1.503274 -3.210962 -0.676276 0.034072 1.092154 0.427756 -2.279138 -0.141299 -0.100646 0.399386 2.280557 -0.450788 -2.341515 -0.608349 0.168110 0.235362 0.059747 -0.805141 0.970079 0.923494 -1.292841 0.583839 1.552871 -2.039965 0.490301 0.318504 0.568297 -0.486817 -0.171735 -0.345179 0.265905 1.325985 1.111106 1.069095 1.183609 -1.655347 1.614910 1.081831 -1.014554 -0.792840 0.490926 -0.511405 1.444157 1.238945 -0.834658 -0.148047 -0.506911 -0.406310 -0.948247 -0.142617 1.437766 -0.214412 -1.585285 1.053394 0.028575 0.339083 -2.280971 0.499245 -1.139315 -0.113380 -0.490745 1.471462 -0.741232 -0.038368 1.023532 0.629218 -0.997830 0.936387 -0.665211 -0.014481 -1.446287 -0.109417 -1.592314 0.141014 0.186787 0.974581 -0.719700 0.927723 -0.019593 -0.031122 0.762447 -0.145392 0.545067 0.241501 0.850269 0.235875 -0.181005 -0.181070 -1.043439 1.241443 1.984293 0.304561 1.449084 -0.150404 
kernel -0.254902 -1.813358 -0.785329 1.132744 1.433141 -0.817756 -1.411648 0.115427 -0.158626 -1.008947 0.003949 -0.050466 1.661918 0.190626 -2.301107 0.142531 0.699421 -0.751802 0.308035 0.831653 -1.988466 0.006775 0.427054 -0.938465 -1.679335 -0.933767 -0.874759 0.391951 0.248561 0.329702 -0.187854 -0.380709 0.844271 -0.223863 -1.714184 -0.046571 -1.351761 -0.058418 -1.141789 -0.518731 -0.814586 0.265229 1.003381 -0.630515 0.727736 0.602004 -0.401966 -0.781709 -0.449295 0.219421 -1.221086 -0.262732 -0.730570 -0.543897 0.095621 -0.111760 -0.194525 -0.782680 -1.308326 0.204014 0.198885 -0.018300 -0.191060 -1.046865 0.246004 -0.175468 -1.567894 -0.516389 -1.075946 -1.040286 0.298584 0.194534 -1.050591 -1.733000 -0.598675 -0.701587 -1.240792 -0.689965 -0.505537 1.737818 1.471100 -0.343551 0.814745 0.145967 1.686691 0.713188 -1.078968 -1.232416 0.216672 -0.399803 1.173514 0.917664 1.362766 0.805779 0.171195 -0.812825 -1.224555 0.012365 0.075540 -0.232357 1.180757 0.416381 -1.286307 0.344348 -1.149329 -0.946815 0.123892 0.247367 -0.148551 0.336432 0.232583 0.383997 1.887606 1.533160 -0.601010 0.467935 -0.028407 -0.493857 0.219005 -1.254321 1.080533 0.537571 0.370982 -0.375567 1.141967 -1.090391 1.511725 -0.940935 0.111364 -0.442330 -0.345697 0.099285 0.556998 0.314829 1.311380 -0.922981 -0.756097 -1.033756 0.572874 -0.053098 1.753930 -0.313293 0.389536 -0.403042 0.352917 0.564515 -0.012493 -1.054249 -1.786422 1.244108 -1.526420 -2.594824 -1.245339 0.491519 0.520004 0.159164 0.233260 0.889542 -1.213451 0.049150 0.583305 -0.308903 -0.381039 -1.113643 -0.719941 0.037392 -0.700825 0.939761 0.295073 -0.569009 -0.694996 2.337163 0.294855 0.486875 0.193442 0.680185 -0.906760 0.921110 -0.465250 1.193069 -0.534981 1.409264 -0.255142 -0.013204 1.868034 -0.548218 0.630569 -2.280614 0.129866 0.133589 0.608548 -0.267289 -0.289992 1.137961 -0.992834 0.051264 0.287783 -0.138523 -0.539291 -0.792587 
estimation -0.783050 -1.072294 0.531833 0.589679 0.040237 -1.306481 1.361105 0.636454 -2.409187 0.638239 -1.628649 0.577968 -1.698712 -0.731844 0.993984 -0.604339 -2.300704 -0.131804 0.578677 -0.637383 0.729277 2.286962 0.667069 -0.394540 -0.945339 -0.464686 -1.516199 -1.631488 0.752663 -0.475837 -1.799593 -1.146203 -0.998027 0.969884 -0.663708 1.564927 -0.877086 -1.959570 1.215194 -1.117593 1.495994 0.140824 -0.547430 -0.190090 -0.429794 -1.315857 -1.099106 0.626668 -1.099101 -0.028688 0.451155 0.625817 0.879634 1.809311 -0.970836 1.046513 1.188192 -0.355646 0.054100 0.713425 -0.968701 0.640753 0.270904 -0.880180 -0.554586 0.651576 0.815903 -0.283833 0.409298 0.040404 2.856519 -0.391154 -1.037477 -0.972517 -1.663797 0.910776 -1.467080 -1.003807 -0.360378 -2.255709 0.389034 -1.529859 -0.176246 -0.674102 -1.293538 0.030246 0.660430 0.989714 0.545164 1.207930 -0.594052 -0.118372 0.385461 -0.804132 -1.307440 0.958397 -1.298996 -0.028089 1.649879 -1.019664 0.607292 0.274957 0.336405 0.556699 -1.141529 -0.715041 0.493605 -0.099940 -0.247227 1.430151 -0.632266 0.337473 -1.700958 1.474365 0.988462 -1.297409 -1.021939 0.727279 -1.981347 0.455862 2.766770 -0.598079 0.687233 0.729234 0.823629 1.650083 -0.298564 -0.936934 0.266783 0.144488 0.053409 -0.871122 0.187539 -0.489059 1.120911 -2.084927 0.224841 -0.247685 1.489282 0.194243 -0.432268 -0.422729 1.095335 -0.989638 1.560701 -1.239202 0.238228 -0.801673 -0.574271 0.694805 -0.927351 -1.513988 -1.039810 -0.272834 0.932548 1.218575 -1.385337 -0.538902 -0.438026 -1.012545 -1.043425 0.454509 -0.065728 0.179994 -1.535966 1.085146 -1.302075 2.476128 0.035597 -0.136478 2.684195 2.419618 -1.075760 -0.399651 -0.605538 1.250888 -1.201203 -0.201284 0.489565 0.604691 0.331863 -1.328693 -1.222764 0.422043 -1.020779 -1.722362 -0.527160 -0.913422 0.938059 -1.025841 0.926684 -0.942737 -0.437127 1.180656 -1.768657 1.424487 0.265900 -1.461545 0.194206 1.495531 
linear 0.825672 -1.625330 -0.370979 0.093506 -1.681261 0.933856 -0.352114 -0.407578 0.796798 -1.022692 0.030120 0.373397 0.378593 -0.929886 0.457761 -0.907102 1.507198 1.445842 -0.193300 -1.122686 -1.204770 0.708136 1.048872 -1.164120 -0.344240 0.194837 -0.296905 -0.040055 0.929769 -1.290243 -0.093404 -1.164608 1.057641 -0.203944 -0.547899 -0.589243 -0.081956 -0.121374 0.816836 0.234565 -0.182739 -0.060655 -0.121250 0.408745 -0.635410 -0.607693 0.871140 0.557424 -1.747061 0.145208 0.973122 0.659872 -1.211501 0.154096 -0.367124 -1.044790 0.480987 -0.426832 0.074905 -1.478826 -0.637396 0.634326 -1.813768 0.214248 0.489553 0.120281 -0.703919 0.125478 -1.598012 -1.378105 -1.029633 0.495820 0.710704 2.788363 0.181194 0.776823 1.869235 1.047963 0.800707 0.698688 -1.007593 -1.166195 1.916513 -0.022981 -0.362006 0.833251 -1.062757 -0.576724 1.047999 1.559509 0.445840 1.561802 0.101366 -1.583169 -1.232733 -0.097004 -0.450424 0.176118 -0.080365 0.511566 -1.565285 1.534137 -0.200895 1.548878 1.089228 -0.957842 1.085554 -0.708606 -0.799617 -0.055465 -1.579569 0.258621 0.958894 1.691412 -0.662847 0.635844 0.104351 0.272589 0.961794 0.985240 -1.285094 1.484384 -0.393385 0.346790 1.007551 0.059124 0.582087 -0.132090 -0.240596 -0.503241 0.455527 -0.727952 -0.799076 0.108524 0.803358 0.395955 1.130677 -0.982708 0.360273 0.069804 -1.723998 0.798777 0.895540 -0.303569 -0.365728 -1.128261 -1.382507 0.713894 -0.573414 -0.123103 -1.970845 -1.168767 -2.041149 -1.639139 0.236579 -1.325738 -1.437520 -0.386167 0.204820 -0.196142 -1.157053 1.150135 1.702217 -1.450632 -1.300685 0.698380 -0.335264 -0.499408 -0.425648 0.433765 2.348586 1.704444 -0.484012 -0.507620 -0.672946 1.507007 -0.055685 -0.983526 -1.562478 -1.407581 -1.612006 0.843126 -0.381129 -0.215996 -0.300916 0.219710 -0.530585 -0.503342 -0.747046 -1.069030 -0.659778 1.354410 -1.827790 -0.488323 -0.460495 1.164845 0.260726 -0.601260 0.455231 0.942895 
prediction -0.053289 -2.373652 -0.813583 -0.428313 -1.343512 -1.765657 -0.614715 1.616192 0.926041 0.329587 1.496646 -0.276147 -0.037757 0.738472 -1.809574 0.022657 -0.792146 0.442856 0.757731 -0.296693 -1.343204 -0.198530 0.824875 1.122460 -0.529150 -0.509724 0.086774 0.683186 -1.668023 -0.735431 -0.188106 -1.345339 -1.035215 -1.548097 -2.042282 -0.618062 0.663578 0.035253 -2.047536 -1.026930 0.072827 -1.191671 0.410522 1.595944 1.554885 -0.849263 0.767192 -0.836451 -1.683541 -1.327891 0.983017 -0.846188 0.242467 0.065185 -0.700779 -0.675012 -1.417489 0.320115 0.491256 -0.433371 -0.994365 -0.716725 0.153463 -1.071830 0.570842 -1.136949 -0.334966 -0.871297 -0.294453 0.011808 0.500993 1.087191 -0.640203 0.610114 -1.189474 0.373148 -0.479187 -0.969019 -1.086751 -0.651680 -0.541158 1.340807 -0.043538 0.606830 0.212754 -1.247931 1.659616 -1.431942 -0.023764 -0.979052 1.527499 -1.903325 1.455571 0.269305 -1.393834 -1.317818 1.433915 0.990793 0.040768 0.563413 -1.871795 0.402557 -2.263231 1.261237 -0.116086 0.440908 0.631519 -0.557162 -0.047548 -0.494656 1.758663 -0.165950 -0.582461 -1.426636 1.135336 -0.526509 0.517694 1.042495 -0.335740 -1.111836 1.005967 -0.053134 2.062254 0.369675 0.246797 0.571792 0.577778 0.254676 1.056109 -0.488900 -0.345841 0.461235 -1.534501 -2.204353 0.350816 -0.234167 -0.487042 1.143174 -0.620896 1.423713 -0.998524 0.663297 0.788250 -0.323421 -0.294306 -0.006289 0.307907 -0.775644 -1.465820 0.133775 -0.764582 -0.009670 -0.217359 -0.136329 1.034832 1.830475 2.430925 -0.252803 -0.267692 0.165223 1.568233 -1.244700 -0.400224 -0.207809 -1.070130 -1.256825 -2.524733 -0.696623 -0.291843 -0.507226 2.542583 0.970040 0.439252 -0.418362 0.278129 -1.293422 -0.287903 0.657710 -2.632809 0.426161 -1.031231 1.682348 -1.651205 1.303828 0.623618 -1.453874 0.247764 -0.661685 -0.776869 -0.274865 -0.273268 -0.694844 -1.315577 0.355672 -0.342586 0.128043 -0.199903 0.904111 0.433958 -0.169693 
gradient -1.058289 -1.344662 -1.798424 1.085566 0.785143 0.153892 -0.064971 -0.711353 -0.233396 0.333843 -1.129569 0.971405 0.311634 0.773223 0.900269 -0.915340 -1.128773 1.400084 -0.493597 0.855300 0.109769 -0.561000 -1.125771 1.186630 0.501539 -1.619358 -0.541797 0.023364 0.676977 0.126462 -0.254754 -1.753586 -0.587231 -1.954704 1.982500 -0.909256 1.673521 -0.677624 1.078013 -0.998064 0.327277 1.748634 0.775207 2.351759 0.032010 -1.302030 -1.849417 0.123674 0.381291 0.610441 -0.073794 1.002120 -0.841673 1.277352 0.976840 -1.032304 0.627567 -2.985163 -1.742646 -0.809672 0.028286 -1.302299 -1.693258 0.704764 -0.107295 0.408057 -1.284917 0.271598 -1.229402 1.070619 -0.519763 1.320572 1.069953 0.427470 -0.375604 -0.492425 0.084925 -0.381061 0.809573 0.578661 1.190024 1.430650 0.955041 -0.783948 0.811136 1.296016 0.066629 1.084837 -1.183360 2.480908 -0.714786 0.330374 -1.446310 -0.434698 -0.306104 -1.261541 0.133588 -0.237682 0.288891 -0.135279 0.813164 -0.688046 0.036029 0.556339 -1.311786 0.264017 -1.792844 0.050682 1.730901 1.125107 -1.105326 0.793592 -1.855365 0.324391 -0.216636 0.320833 -0.691963 1.352920 0.888182 -0.318185 -0.652264 0.966761 -0.330252 -1.529814 0.401471 -0.772942 1.950768 2.375819 -1.585756 1.379910 -1.691460 1.500281 1.272131 -0.609364 -0.461466 -0.271406 -0.351707 2.149409 1.651084 1.787675 1.176425 -0.240503 1.543081 -1.988951 -0.108483 2.408581 -1.510844 0.054128 -0.473154 0.164470 -0.921924 -0.341528 1.276921 -0.069979 1.314639 -0.335568 0.577277 -0.529347 0.221452 0.108937 1.518650 -0.935373 1.453607 0.181515 0.101740 1.417686 -1.303515 0.599916 -0.301975 0.249918 1.046908 0.907391 1.469984 0.926270 -0.359572 0.697446 2.646797 -0.353871 0.597715 -1.093147 -0.966896 -1.596686 -1.164088 0.217158 -0.631156 0.696678 -1.382702 -0.759265 0.996327 -1.149130 1.385020 1.005032 -1.161334 -1.198856 -0.722411 -0.964696 0.628323 -0.371880 -0.769882 -0.553584 
based 0.015760 0.796767 -0.576242 -0.100761 1.097724 -0.364457 -0.346869 2.062165 -0.538421 0.855849 -0.533470 -0.129968 1.694045 1.347070 -2.812468 -0.247966 -1.510853 -1.068284 1.026700 -1.709321 -1.849074 0.440063 0.374897 0.639772 1.076852 -1.764885 0.851656 -0.753724 -2.074677 0.116370 1.039424 -0.971207 -0.992173 0.997136 -0.495464 0.541490 -0.493213 -0.021092 0.255898 1.585127 0.311478 0.635137 0.116904 -0.435330 0.527879 -1.968041 -1.113951 -0.019305 1.401603 0.618693 -0.626708 -0.135868 2.404927 -1.323106 0.237869 -0.464227 0.079044 2.375906 0.167288 -0.868763 -1.431813 -0.552702 0.294092 -0.194563 -1.247416 -0.388524 -1.162059 -1.116297 -2.197528 2.381488 -1.155473 0.238747 0.176214 -0.035595 -0.461589 1.464921 0.495345 -0.531753 -0.670481 -0.765247 2.289402 -0.286760 0.487150 -0.480599 0.222426 -1.065101 -0.225698 -1.841281 0.879275 0.706177 0.710297 2.287362 1.313812 -1.870405 -0.259755 -0.988943 2.050852 -0.980812 -0.135782 -0.941762 0.916236 2.483303 0.660947 0.445874 -0.767299 1.448034 1.293754 -0.348669 -1.541645 1.918627 -0.463582 -0.598922 1.233598 0.053479 0.822122 -0.685561 -1.207700 -0.770934 -0.418217 -0.699757 -1.143062 0.409404 2.218362 -2.141188 -0.233754 -1.824257 -0.660734 -1.640007 0.410784 -1.850661 2.037712 0.610143 0.618304 0.763222 1.967097 0.078514 2.903472 -1.362477 1.147410 1.123172 -0.051256 0.221257 -0.414750 -0.874469 0.145614 -0.831631 0.312778 -0.538674 1.138885 0.431348 -0.954990 -1.154791 -0.553114 -0.843094 0.805647 0.243925 -1.021026 1.030127 -1.060631 -0.832125 0.176984 0.222467 1.112162 -1.840291 1.623423 1.646202 1.559668 -1.256819 0.828489 -0.613264 -0.224499 0.183989 -0.121862 -0.577810 0.437043 0.084126 2.752564 0.226631 -0.853557 2.856806 1.481014 1.526449 0.861962 -0.336012 -1.232449 0.559418 -1.271390 -1.012462 -0.262669 1.515561 0.427823 2.012610 -1.076143 0.275486 -0.958075 -2.065323 -0.188270 -2.534307 -2.310848 1.946842 
online -1.635482 0.102691 0.281987 -0.064618 -0.210372 0.431605 -0.288547 -2.568532 0.580215 0.416758 -0.505573 0.428320 1.215452 -2.077172 0.438713 -0.709238 1.115078 0.181788 -0.648563 -0.266837 -1.060288 0.013802 -0.909291 -0.531355 -0.632507 -0.466243 -0.789577 -2.395285 0.265346 1.263079 -0.574513 -1.683684 -0.160230 -0.505371 -0.007745 0.354138 0.814575 1.170464 0.184541 0.483289 0.246923 -0.255881 -0.391593 -0.710571 0.817393 0.647450 0.775227 -0.042464 -1.709406 0.794004 -0.535410 1.025723 -1.039165 -0.243220 -0.505926 -0.269794 1.835929 0.565220 1.822093 -0.406506 0.010730 1.502367 -0.125509 0.114253 1.267473 -1.588279 0.134631 0.085364 -0.178923 -1.070299 0.119463 -0.108475 1.432963 0.360969 0.573132 -0.736982 1.023536 -0.725855 0.957771 -1.004869 -1.944232 -0.531327 0.892393 0.528455 -2.213122 -0.148316 -0.205947 0.504799 1.265813 -0.220371 -0.968148 -0.981946 -1.226957 -1.048747 1.296858 -0.940594 1.623166 -1.077613 -1.517410 -0.452251 0.397288 -1.106909 -0.215167 0.100103 -0.381323 0.169203 0.633363 -0.834275 1.365417 0.200381 -0.986351 0.752621 -1.189952 -0.238483 -0.531165 1.465952 -0.096859 -0.413145 0.976313 0.454464 -0.566457 0.144300 -1.868396 -0.886471 1.264760 -0.416314 1.388129 -0.149803 0.329253 0.711543 -2.075820 -0.384987 -0.263456 -0.482746 0.197534 0.984412 1.075616 0.188444 1.348168 1.285067 0.130406 -0.220863 -0.441642 0.804826 -0.523311 -0.974960 -1.490482 0.482868 0.894530 1.619465 0.997304 -0.061799 0.055860 -1.327134 -0.345782 -0.113504 0.652102 1.144130 0.221538 -0.149125 -0.127845 -0.779838 0.528923 0.838316 -0.260462 -0.845268 -0.410784 0.795820 -0.772224 1.063371 0.457844 0.764820 0.125104 -0.306907 -0.405589 -0.705326 0.109164 -1.106803 1.434448 -0.003894 -0.943007 0.544739 -0.098271 -0.189946 -0.319480 0.763516 0.539128 1.014647 -1.393612 0.591455 -0.335196 -0.715525 -2.573943 0.445300 0.119993 1.276122 -0.608149 0.926663 0.260243 -1.042710 
active 0.796350 0.939064 -1.128583 -1.986262 1.152736 -0.356638 0.016660 1.209330 1.278266 -1.242969 1.426937 -0.560571 0.316666 1.661428 -1.050419 -0.783855 -0.787289 -0.097198 1.335224 -1.576927 -0.738061 0.505337 -0.223880 0.560748 -0.068015 -0.471609 -1.815087 0.006598 1.861112 2.008401 -0.293777 0.074334 -1.019878 -0.944423 -0.729930 0.603200 -0.837893 0.045284 0.231011 -0.085674 -0.476027 -0.868903 -0.701145 -0.358377 -0.422516 -1.074648 0.791892 0.027669 -1.905333 0.595035 -2.542927 -0.106802 0.143018 -1.944041 -0.721645 0.378213 0.281356 -1.098940 0.806058 0.224307 -0.015081 -0.169743 -0.781226 0.562382 -0.357154 0.703363 -0.924611 0.141680 -0.776661 -0.376730 -1.011250 -1.083328 0.317303 -1.449621 1.463641 -0.579178 0.993816 -0.731557 0.296238 0.301379 0.014772 0.517696 1.335465 -0.032922 0.866243 -1.796093 0.444224 -0.996242 0.271168 -0.326350 1.334843 0.828401 1.495130 -0.050949 -0.428813 -1.007308 1.275486 -0.390596 0.079082 -1.388047 -0.922395 -0.042755 -0.681512 -0.066747 1.198234 -0.691645 0.659872 0.040143 0.776599 0.740259 -0.365578 1.917306 -0.508223 1.727626 -2.049712 0.301706 1.478984 -0.155763 0.611019 -0.874257 -0.629623 2.070593 -0.855942 -0.037828 0.977439 -0.572370 0.951432 0.831784 0.894513 0.116447 -0.480279 -0.060593 0.195435 1.168854 0.192782 -0.187612 0.142652 0.838533 1.588341 0.348959 -1.050075 0.046575 1.198940 0.291369 -1.022161 -1.374482 1.084683 0.936369 -1.057913 0.205149 -0.401297 -2.590658 -0.870632 -0.711776 1.313012 -1.732175 1.232148 -1.124744 -0.614466 0.274671 -0.309850 -0.128398 0.667473 0.050393 0.405445 -1.250215 0.501006 -1.781034 0.310855 0.488395 -0.488954 0.462564 0.491907 -1.016541 -0.232404 -1.439459 -1.065018 0.450994 0.325715 2.065910 -1.556831 -1.209271 -1.025917 -1.005953 1.315003 0.552026 1.019534 -0.058342 -0.970108 0.538315 -0.005034 0.357668 -1.230583 0.642669 0.185711 1.344944 0.595491 0.681897 0.949534 -1.039138 
search -0.076816 0.604969 -1.315213 1.232764 1.223543 1.146210 -0.995336 -0.143247 -0.372314 0.174838 -0.212368 2.535046 -0.602146 0.458940 -0.898119 -1.021561 -0.106553 -0.183724 -0.634901 0.049729 -1.117331 -0.957158 0.628877 -1.957909 -0.479993 -1.030886 -0.164489 1.583219 1.776861 -0.314986 -1.175561 -2.133916 -1.706096 -1.433325 0.467523 1.141744 1.394242 1.067233 1.508104 0.716783 1.456953 1.016036 -0.541240 -0.101889 1.041425 -1.392662 0.361142 -1.529175 -0.132352 1.603014 -0.071779 0.425514 0.530501 1.778881 0.493422 -1.076424 -1.537279 0.093356 -0.827209 -1.261776 -0.121095 -1.238640 -0.796781 1.029918 -1.830362 0.283275 0.328869 0.392969 -0.222834 -0.645031 -1.040957 -0.153760 2.166118 0.005939 -0.858491 -0.352528 -1.607360 -1.367578 0.973477 0.420136 1.567336 0.331153 0.051314 -1.830903 -1.820567 -0.706923 -0.413147 1.961960 -1.353013 0.308053 -0.383669 -0.399546 -2.109952 -0.143366 -0.687976 0.753312 1.143121 -0.686329 -1.097460 -1.586637 0.602682 -0.783802 1.198044 -0.797015 -2.080086 1.401283 2.177520 -1.508733 0.051866 1.103287 0.015728 3.399182 -0.547348 0.467436 1.561763 0.099167 -0.267092 0.244674 -1.261662 -0.294773 -0.571907 -0.230343 -1.060860 -1.660573 -0.396159 -0.186281 0.399381 0.204458 -0.043334 1.528586 0.183153 -0.495925 -0.634043 -0.677667 -1.648889 -1.015185 -1.417954 0.027268 0.019969 0.259263 1.393319 -1.482894 0.917602 0.186950 -0.170274 0.973424 -0.063370 -0.819400 2.729479 0.275279 0.246115 -0.394824 0.326525 1.562406 0.003810 2.314931 -0.207151 -0.032859 0.268742 0.881261 1.953208 0.194717 0.406259 0.705278 -0.865958 -0.015415 -1.362928 -0.070671 -0.670502 -0.773687 -0.225447 1.384856 -0.949274 0.528968 1.575587 -2.848166 1.397378 -0.568227 0.647312 -0.034907 -1.873184 -0.337338 -2.156680 -0.115387 0.150284 -0.771784 0.878767 0.737700 0.325446 -0.216909 2.880051 -0.412813 0.847910 -1.147528 2.046416 -0.353281 -0.098001 -0.662193 0.720104 -0.184311 
robust -0.303949 0.406419 -0.694937 -0.335884 -0.370037 -1.919489 -0.147855 0.578031 1.850167 -1.143916 2.374783 -0.846085 -1.658417 0.962075 -0.104488 -0.101165 -0.429114 0.569067 0.633902 -0.519305 -0.748523 -1.320605 -0.218346 0.304170 -0.760594 0.256345 -0.719556 0.223262 1.268716 -0.386097 0.445323 -2.040748 -0.559973 -1.034668 -0.217622 -0.412248 0.488170 0.681300 0.538710 -1.568180 0.841836 -0.294572 -0.012647 1.921166 -0.415578 1.254075 1.691972 0.789425 0.088348 -0.929751 0.415292 0.611861 -1.226073 1.165964 -0.577279 1.415124 1.522498 -0.243928 1.665145 -0.555298 0.359380 -1.343275 0.121005 -1.143925 -0.818607 -1.132570 -0.680478 -1.375456 0.641471 -1.127018 -1.024703 0.473334 -0.022154 -1.551373 -1.074619 0.199935 0.223487 -0.272592 1.753129 -0.820622 -0.460135 -0.976804 1.311318 0.697654 0.689949 0.757371 -0.322321 -1.280148 -0.545983 -2.489669 1.217224 -0.136645 -1.250544 -0.199278 0.460943 -0.138646 -0.389294 -1.127045 -1.209745 -0.917090 0.206998 -0.737317 -0.223848 -0.521760 -0.087919 -0.688100 -0.511641 -0.965346 0.285231 0.031929 -1.534371 0.694535 -1.458822 0.461015 0.900386 0.888988 0.495098 -0.220972 1.402535 0.104228 -0.542244 1.990705 0.790010 -1.127180 0.313387 0.683066 0.832593 -0.828165 -0.042750 0.805235 0.073341 2.399220 0.261177 0.116472 2.761027 0.388948 0.633917 -0.143482 0.235763 -0.684498 -0.221790 0.311608 0.094893 0.453739 0.718737 -0.544566 -0.650527 0.407933 -0.319015 0.919919 -0.873316 -0.853044 -0.174859 1.545903 -0.546771 -1.075021 -1.371798 -0.689034 -0.500928 0.267762 0.052228 -0.273144 -1.192418 -0.800255 0.119709 -0.115240 -1.354409 0.100625 0.855711 -0.072327 -1.208110 0.714740 0.915314 -0.705557 1.088331 0.604080 -0.813866 -0.680944 1.078426 0.326482 0.372103 0.812680 0.146495 -0.673631 0.557368 0.062184 0.922065 -0.260184 -0.933669 2.104676 0.922405 0.061538 0.240527 0.169244 1.526906 -0.005815 2.272644 0.764375 -0.962645 -0.269790 
inference -0.171503 -0.314503 0.882919 0.784370 -0.155980 1.020290 -0.305707 0.051216 -1.273219 0.610346 0.162179 1.739217 0.313933 0.477134 0.714992 -0.972490 -2.028825 0.754814 -0.241542 -1.817707 -0.735785 -2.061136 -1.073661 1.402206 0.199676 -2.720026 0.630427 0.499736 0.824263 0.457148 -1.015122 -1.615882 1.398440 -1.852287 -3.569672 0.090132 0.135246 0.114371 0.090041 1.819267 -0.116114 1.549951 0.265629 -2.090735 -0.361416 -0.768542 0.640315 -0.225612 -0.946917 -0.246173 1.267739 1.049759 0.537224 1.038041 0.706637 0.125050 -1.499485 0.692696 -1.303194 -0.279751 -1.716732 1.221510 2.435601 -1.842891 0.910811 -2.782301 0.692325 -0.049925 -1.309993 -0.516113 0.879914 -0.717355 0.640640 0.406087 -1.947001 -0.031658 0.912732 -0.042127 -0.695488 2.222187 -0.294454 -1.065466 -2.394226 0.299415 -0.208235 0.600306 1.860676 0.296732 0.809317 0.815882 -1.097189 1.648693 0.321430 1.002546 -0.144956 -0.265582 1.907675 -0.158255 -0.435205 -1.118466 1.295350 0.266830 0.137340 0.841118 -0.152000 0.601194 -0.440064 0.173341 0.662459 -0.268017 -1.399895 0.522137 -2.185203 -0.588470 -0.373144 -1.156105 0.485094 -1.017403 0.998940 0.035834 2.050715 1.020143 0.983730 -0.462286 1.291469 -0.339990 0.036650 -0.042851 -0.032463 -0.254216 -0.367403 0.314461 0.775873 -1.629762 -1.421520 0.058032 0.543914 1.708625 -0.574339 -0.472013 -0.770293 0.655882 2.156660 1.779344 -0.641585 1.158502 -0.067545 0.390125 -1.908774 1.149802 -0.550194 -1.662668 1.932612 0.354114 0.734067 1.799912 1.410504 -2.095308 0.573662 -0.527587 0.570527 1.842360 -0.318258 0.240964 -1.819083 -0.257673 0.480827 1.536829 -0.048928 -0.224397 -0.421082 0.008385 -0.633996 0.971235 1.722657 0.138545 -0.229965 1.245708 0.639882 0.449687 -0.405846 -0.118629 -2.451911 1.095430 0.052023 0.444033 -0.366107 -0.549167 0.632039 0.089743 1.307726 0.315311 -0.587860 -0.460005 -2.463469 1.929860 -0.047732 -0.027601 -0.159582 -0.233921 
structured 0.511023 1.066459 -0.498835 -1.323280 1.292688 1.004690 -0.469658 0.590690 0.369736 -1.248365 -2.122622 -1.189382 1.138562 0.689083 0.349706 -0.108081 1.539884 2.428528 0.345750 0.471777 -0.262218 1.285140 2.053782 -1.022441 -0.294533 -1.919371 -0.119124 0.166209 2.116143 0.459962 1.506741 -1.632484 1.120401 -0.412581 0.026176 0.429188 1.194277 -1.968831 1.026078 0.308289 -0.402894 -0.158688 0.078506 -0.141745 1.485281 1.235639 -0.703997 -0.302579 -0.634236 -0.024480 -0.645839 0.617072 -2.456147 -0.367914 -0.038006 0.049090 1.774621 -0.625463 -1.292902 -0.633387 0.177461 -0.688716 -0.994040 -0.939517 1.065863 -0.154281 -1.922537 -0.700939 -0.349179 0.241370 -1.578957 0.279273 -0.635819 1.576103 -0.394755 -0.585567 0.163504 1.126242 0.957933 -0.044005 -0.354523 0.193624 0.591906 2.081730 1.701813 0.961606 -0.131698 0.399680 -0.703812 0.406784 -1.308452 1.393221 1.027248 -1.389822 -0.703121 -0.707354 -0.803889 1.288349 0.598756 -0.051811 0.923397 -0.189869 -0.098732 0.166364 -0.422154 -0.466084 3.284297 -1.492099 -1.514058 1.049335 0.014295 0.879931 -0.088727 1.099975 0.689754 0.765147 -1.399414 0.676785 0.872414 0.712947 0.946225 0.639798 -0.341207 0.347114 -0.275323 0.318221 -1.475359 0.973836 0.623225 0.510504 -1.172878 -0.589085 -1.983501 0.178901 0.814791 -0.168594 -0.341702 1.412607 0.393360 0.005287 -1.347749 -1.282503 -1.452041 -0.281516 0.918573 -0.367817 1.185494 0.402507 0.799201 -0.008453 -1.719258 -0.038745 -2.471796 -1.373836 -0.037367 -1.385122 -1.699110 -0.958211 -0.796970 1.150405 0.380075 0.508078 -0.567827 0.177833 -1.107093 -0.384987 -0.450930 0.875550 0.263176 0.313096 -0.692302 -0.098240 0.194400 -0.368085 -1.171662 0.631342 -1.262316 -1.231221 -1.266244 -0.826654 0.355168 -0.707186 -0.316882 -1.177230 1.001741 0.899486 0.486508 -2.298690 0.015264 0.435759 0.073463 -0.220292 -1.879209 1.443792 0.354882 0.825256 -0.578418 1.855604 1.047041 0.289792 
hierarchical 0.211591 0.230974 0.679149 0.413975 -0.118120 0.018963 0.228291 -0.197976 1.737720 0.819008 0.163691 -0.350169 0.135305 0.046094 -1.194927 -0.708149 -0.160291 -0.957936 -1.063256 -0.846731 -0.880998 1.010000 1.708175 0.785043 -0.310898 -0.162671 0.828213 -0.627705 0.066022 1.959213 -0.274192 -1.148120 -0.780847 0.146944 0.047001 0.102561 1.069735 0.739333 -0.290670 1.495801 0.443419 1.303110 -1.556742 0.266384 -0.484873 0.899286 0.728257 1.089150 0.889894 -1.240979 0.172760 0.667027 -1.513672 0.184254 0.687179 0.136810 2.531869 0.285756 -0.716881 1.394299 -0.335908 -0.134369 -0.264351 -0.770130 -0.349068 -0.512583 0.599814 -0.977043 -0.745623 0.209888 -0.612003 2.367863 2.064359 1.250116 -0.206347 -0.745149 0.971979 -0.022288 -0.064353 -0.388086 -1.115692 -0.171902 0.712838 1.837812 -0.534895 0.182050 0.803412 0.381210 0.379227 0.004053 -0.085582 1.207543 0.882206 0.580505 -0.206558 -0.957020 0.978511 0.013403 0.027115 -0.330839 0.560406 -0.766841 0.325867 -1.506760 0.155289 1.468287 -0.281814 -0.249915 -1.079867 0.401357 -0.650899 0.673079 0.131515 -0.640095 0.515893 -0.839931 0.229941 0.543615 0.678800 -1.113103 0.257073 0.575549 -0.630787 -0.797233 0.374882 0.388390 0.697964 -0.712963 -1.171591 -0.628740 -0.714779 1.274571 0.963509 1.229537 1.460481 0.658517 0.569498 -0.581233 -0.128760 0.789357 -1.142797 -0.892582 0.018477 0.666028 0.793381 -1.822593 -0.148325 -0.179852 0.418534 -1.266696 0.499615 -0.219637 0.043111 -0.512592 0.238256 0.336158 -0.624564 0.680544 -1.007267 0.644796 1.641943 0.531825 0.606427 -0.831184 0.275313 -1.066358 -1.633895 -0.808834 -0.073203 -0.999298 -1.279505 0.231045 1.893478 -0.891320 -0.227223 0.266693 0.845159 -1.497668 0.617618 0.215780 -0.761287 -0.515248 -0.863540 -1.399730 -0.973754 0.573195 -2.405148 0.178861 0.674289 1.724556 -0.167145 -0.494445 -1.784666 -0.568937 -0.319887 1.749531 0.272635 0.366842 -0.965947 -1.861153 
adaptive -0.171676 0.660771 0.800290 -0.369691 0.650916 -0.757146 -0.386799 -0.850090 0.783411 0.507800 1.194866 1.386656 -0.343658 -0.224222 0.361534 -0.682796 -0.186253 1.155191 -0.101738 -1.739934 -0.276344 1.029075 -0.226530 0.738139 1.120255 0.664789 1.478532 -0.564223 -1.169577 -0.501844 1.059583 -0.501683 -0.659889 1.052411 -0.030036 1.145987 0.188071 0.908619 0.814007 0.095992 1.169174 0.599279 0.673147 0.862405 -0.090909 -0.273432 0.397352 -1.398192 0.858487 -0.383675 -0.369764 -0.078796 -0.162705 0.874767 0.201098 0.883077 -0.092029 1.213962 2.143902 -0.365107 -0.915550 -0.531297 -1.683382 0.966612 0.983644 -0.075301 -0.856345 0.005355 0.703292 1.668377 -1.803352 1.397177 -1.054963 -1.252869 -0.395140 -2.079408 0.347096 -0.362004 -0.392438 -0.452232 0.371068 -0.597150 -0.651294 0.729510 -0.780560 -1.686069 0.023301 -0.256362 -0.277366 -1.507360 0.630622 -0.371294 0.656478 -0.181506 -0.380210 0.380952 2.574568 -0.606276 0.826893 0.361640 -1.293922 -0.624683 0.612966 0.016752 -0.646759 0.020115 0.560540 0.098326 0.811091 -1.130292 -1.353921 -0.230990 -0.088599 0.404237 1.106674 1.538799 1.081761 -1.743481 0.426891 -0.923983 -0.896142 1.146102 -0.241036 0.034398 0.149139 0.323124 2.560132 -0.341367 1.482106 1.904905 -1.271530 0.031990 0.208727 -0.569178 0.734072 0.201161 -0.001406 -0.750105 2.744588 2.036457 -1.248931 1.294661 0.655390 -1.318479 -0.541253 -1.177638 -1.920318 -0.085520 0.500079 0.222902 -0.818878 0.925925 -0.046573 -0.172835 0.480547 0.869153 -0.927188 -0.261436 -0.006913 -0.117367 -1.940164 -0.048224 -0.285045 1.537898 0.247550 -1.417976 -0.906808 -0.271672 -1.541139 -0.176133 0.158049 -0.645527 1.524180 -0.060302 -0.133830 -0.475884 0.248396 0.406297 0.314106 0.534109 0.189910 -0.940261 -0.749981 -0.572379 -0.051050 0.268031 0.407909 -0.212751 0.310462 -0.408513 0.911873 1.644409 0.564801 -0.280385 0.384159 -0.890608 -2.285576 -0.337716 1.393761 -0.854483 
