1427 200
</s> 0.002001 0.002210 -0.001915 -0.001639 0.000683 0.001511 0.000470 0.000106 -0.001802 0.001109 -0.002178 0.000625 -0.000376 -0.000479 -0.001658 -0.000941 0.001290 0.001513 0.001485 0.000799 0.000772 -0.001901 -0.002048 0.002485 0.001901 0.001545 -0.000302 0.002008 -0.000247 0.000367 -0.000075 -0.001492 0.000656 -0.000669 -0.001913 0.002377 0.002190 -0.000548 -0.000113 0.000255 -0.001819 -0.002004 0.002277 0.000032 -0.001291 -0.001521 -0.001538 0.000848 0.000101 0.000666 -0.002107 -0.001904 -0.000065 0.000572 0.001275 -0.001585 0.002040 0.000463 0.000560 -0.000304 0.001493 -0.001144 -0.001049 0.001079 -0.000377 0.000515 0.000902 -0.002044 -0.000992 0.001457 0.002116 0.001966 -0.001523 -0.001054 -0.000455 0.001001 -0.001894 0.001499 0.001394 -0.000799 -0.000776 -0.001119 0.002114 0.001956 -0.000590 0.002107 0.002410 0.000908 0.002491 -0.001556 -0.000766 -0.001054 -0.001454 0.001407 0.000790 0.000212 -0.001097 0.000762 0.001530 0.000097 0.001140 -0.002476 0.002157 0.000240 -0.000916 -0.001042 -0.000374 -0.001468 -0.002185 -0.001419 0.002139 -0.000885 -0.001340 0.001159 -0.000852 0.002378 -0.000802 -0.002294 0.001358 -0.000037 -0.001744 0.000488 0.000721 -0.000241 0.000912 -0.001979 0.000441 0.000908 -0.001505 0.000071 -0.000030 -0.001200 -0.001416 -0.002347 0.000011 0.000076 0.000005 -0.001967 -0.002481 -0.002373 -0.002163 -0.000274 0.000696 0.000592 -0.001591 0.002499 -0.001006 -0.000637 -0.000702 0.002366 -0.001882 0.000581 -0.000668 0.001594 0.000020 0.002135 -0.001410 -0.001303 -0.002096 -0.001833 -0.001600 -0.001557 0.001222 -0.000933 0.001340 0.001845 0.000678 0.001475 0.001238 0.001170 -0.001775 -0.001717 -0.001828 -0.000066 0.002065 -0.001368 -0.001530 -0.002098 0.001653 -0.002089 -0.000290 0.001089 -0.002309 -0.002239 0.000721 0.001762 0.002132 0.001073 0.001581 -0.001564 -0.001820 0.001987 -0.001382 0.000877 0.000287 0.000895 -0.000591 0.000099 -0.000843 -0.000563 
for -0.510460 -0.172895 0.414258 0.449800 0.385229 -1.267232 -0.318842 -0.453401 0.032280 0.700974 0.010349 0.321735 -0.008313 -0.201347 -0.375359 0.975653 0.395698 1.752974 0.408734 -0.996061 -0.402372 0.337150 0.033575 0.496842 -0.417414 0.274514 0.341278 -1.069407 -0.055630 0.580473 -0.488870 0.145060 0.107200 -0.100562 0.234209 -0.124616 -0.363810 0.078104 0.107661 0.070899 -0.779257 0.152999 -0.276108 -0.813045 0.854590 0.191122 0.504939 0.478435 -0.581241 0.512215 0.786463 -0.247132 0.203414 0.785529 -0.175374 -0.924611 -0.216081 0.029156 -0.078992 0.032515 -0.253703 -0.323351 0.454340 0.843586 0.200705 1.086303 0.675107 -0.420358 0.272422 -0.578610 -0.545194 0.154521 -0.110986 0.315682 0.442355 0.146700 -1.107179 -0.352045 -0.184400 0.712892 0.512211 -0.135735 0.548843 0.149741 0.383875 0.513955 -0.156384 0.369520 1.039245 -0.405462 -0.096755 0.047090 0.217339 -0.120727 0.892757 0.012224 -0.729890 0.466558 -0.315187 0.279027 -0.619522 0.696359 0.115014 1.232955 -0.023465 -0.737714 -0.374622 0.085823 -0.034589 0.274043 -0.292398 -0.540283 0.166088 -0.357921 0.234812 0.412657 0.783044 -0.541314 -0.760063 -0.939684 -0.138640 -0.141998 -0.072033 0.480194 0.452130 0.295556 0.259670 0.221131 0.271902 0.106173 -0.418479 0.615875 0.270084 0.107307 -0.044185 0.786255 -0.217067 0.297131 0.448684 -0.306371 -0.249755 0.000631 -1.005004 0.198924 0.732696 -0.039227 0.804561 -0.484327 0.572895 -0.000035 -0.130796 -0.527359 -0.124102 0.154925 -0.004564 0.201925 -0.184995 -0.012743 -0.178457 -0.312739 -0.596251 -0.512182 0.496977 -0.312779 -0.618932 0.458958 0.242522 -0.464003 -0.061031 0.020686 0.008110 0.876283 -0.477918 -0.562990 0.057327 0.536669 0.292140 0.259713 0.000501 -0.694489 -0.170863 0.819040 0.235958 -0.701426 0.070232 -0.331813 -0.626542 0.109430 -0.315423 0.589194 -0.361996 0.587813 -0.185631 1.106660 0.629358 -0.414885 -0.269681 -0.253897 0.463672 -0.543354 
learning -0.351631 -0.722567 -0.015642 0.085257 -0.307931 0.122240 -0.351348 0.893134 0.117216 0.327767 0.439739 0.267243 0.794656 -0.384590 0.194026 0.112310 -0.564025 -0.420321 0.056632 0.364638 -0.101003 -0.122180 0.601239 -0.429295 0.278794 -0.247971 0.218846 0.373798 0.492473 -0.543085 0.216987 -0.385921 -0.093517 0.745925 0.233420 -0.486196 0.523675 0.365509 0.454256 0.529567 -0.361139 -0.427832 0.036841 -0.113201 0.245338 -0.606626 0.899793 0.467759 -0.145071 1.068625 -0.447833 0.053325 0.750295 0.462509 -0.746411 -0.086790 0.599420 0.324746 -0.037505 0.108802 -0.533345 0.162940 0.693204 0.099951 -0.315818 -0.002117 0.889604 0.136774 0.036092 0.110030 0.185653 -0.695406 0.510858 0.294717 -0.489665 0.455006 -0.729200 0.196881 0.625489 -0.458064 0.048863 0.275347 -1.043600 -0.837612 -0.139396 0.781713 -0.013896 -0.155251 0.272052 0.357714 0.022490 -0.332203 0.016103 -0.159076 -0.035617 -0.449390 0.856894 -0.382213 -0.219179 -0.464524 -0.453979 0.331974 -0.774482 0.072899 0.139617 0.798410 -0.022384 0.140587 -0.686946 -0.779482 0.531850 -0.282282 0.132514 0.210907 -0.104680 -0.413621 0.256969 0.160508 -0.026288 0.680654 0.195582 -0.193255 0.512075 -0.494833 0.313281 0.036539 -0.833752 -0.147369 -0.861462 0.006307 0.391150 -0.158906 0.062042 -0.111500 -1.160164 -0.262100 0.489631 -0.279958 -0.280564 0.457135 -0.056392 -0.385226 0.752957 0.495922 0.059260 0.238439 0.564239 -0.108883 -0.635376 -0.879116 -0.661763 0.180167 -0.410663 0.102914 0.590820 -0.185296 -0.412049 -0.102799 0.219868 0.444238 -0.093242 0.200713 0.368591 0.928642 -0.415442 -0.721827 -0.021021 -0.124266 0.930117 0.249054 0.038251 0.199875 0.817450 0.150187 0.466113 0.536850 0.466850 0.591817 -0.405817 -0.380894 -0.908369 0.358718 0.423402 0.623054 0.417917 0.189856 -0.531473 -0.516906 0.372104 0.497040 0.336270 0.288420 -0.752847 -0.441096 0.383519 0.669749 -0.125731 -0.644222 0.302570 -0.397487 
of 0.098534 -0.534995 -0.055636 0.126689 -0.093870 0.458337 -0.610735 0.267089 -0.446707 0.556560 0.168533 0.392777 -0.318308 0.456742 -0.334465 0.450523 0.149576 0.234315 -0.241157 -0.449167 -0.055913 -0.196210 0.498776 0.128235 0.597044 0.209824 -0.542942 -0.049500 -0.127471 0.987015 0.647381 0.734659 -1.003800 -0.512755 0.055794 0.436238 0.308186 0.443482 1.416867 -0.059202 -0.440520 0.532314 -0.690458 0.078441 0.544151 0.583590 -0.404219 -0.555284 0.324292 0.123615 0.297282 0.130671 -0.094024 0.215885 -0.449907 -0.042743 0.051557 0.048118 -0.281958 -0.453861 -0.362873 -0.624691 0.158202 -0.601635 0.780544 -0.162776 0.080891 0.165103 -0.785324 0.222765 -0.612560 -0.330043 -0.192040 -0.103180 -0.155217 -0.096617 -0.218997 0.358604 -0.610754 -0.138617 0.431272 -0.493840 -0.028235 0.026700 0.079136 -0.232546 0.630048 0.289933 0.455989 -0.319681 1.403187 -0.281765 -0.335362 -0.330709 0.061456 -0.052401 -0.335159 0.363735 -1.035916 -0.294705 -0.190028 0.061034 0.343645 0.157186 -0.284247 1.064853 -1.206596 -0.271530 -0.031094 0.310750 -0.189665 -0.268457 0.369272 -0.693698 0.006532 0.105733 0.573542 -0.670098 0.142765 -0.172776 0.980986 0.197413 0.918094 0.782171 -0.238848 0.585189 -0.032558 0.277159 0.267750 0.241207 -0.104800 0.540204 0.202413 -0.235540 -0.889256 0.411348 0.388200 0.049988 -0.248751 0.233022 0.314745 -0.457282 -0.075416 -0.085311 0.594842 0.431857 -0.022212 -0.324533 -0.559068 0.069405 -0.937244 0.059360 0.229079 -0.722199 -0.669701 -0.000756 -0.116588 -0.381095 0.126243 -0.002118 -1.066024 0.208376 -0.101948 0.491400 -0.695509 -0.326222 -0.026620 -0.030173 0.017443 0.278342 -0.148272 -0.022890 -0.685267 -0.300396 0.229847 0.510542 -0.235186 -0.258919 0.211485 -0.438368 0.176157 0.399142 0.243722 -0.522881 -0.159339 0.236780 -0.228367 -0.447351 0.205920 -0.408737 -0.097354 -0.438217 -0.080747 0.440982 -0.110312 -0.446526 -0.891899 -0.464124 -0.160391 0.057801 
and 0.134747 -0.544106 -0.190168 -0.715276 0.232733 -0.571062 0.679023 -0.193484 0.201201 -1.041426 -0.368561 -0.115040 0.477376 0.757949 0.086546 0.498485 0.021240 0.581141 0.220882 -0.019243 -0.519405 -0.157111 0.581570 -0.677556 -0.023789 -0.478439 0.062115 -0.027789 0.801727 0.629269 0.364436 0.417584 -0.141883 -1.022332 0.985798 0.417874 0.416916 0.410391 0.119439 0.913069 -0.401477 -0.736674 -0.070484 -0.119176 0.560579 -0.173271 -0.501771 0.003330 0.350487 0.691378 1.123630 0.123151 -0.199135 -0.635365 -0.215110 -0.125263 0.282362 -0.145307 0.286757 -0.682061 0.547174 -0.421208 -0.239906 0.151992 -0.022155 0.660507 0.468455 0.122973 0.841320 0.683155 0.505948 -0.199193 0.479922 -0.560903 0.379551 -0.282824 0.391293 0.838137 -0.115452 0.623685 -0.371611 0.588503 0.193871 -0.349878 0.192903 0.937370 -0.166948 0.076805 -0.602144 -0.693057 -0.294575 0.228340 -0.011527 -0.913040 0.029570 0.882353 0.581624 -0.414242 0.267212 -0.027833 -0.470578 0.188096 -0.174007 0.427199 -0.429674 -0.133435 -0.437374 0.152579 -0.217359 -0.908333 0.600710 -0.240212 -0.445620 -0.617417 0.243046 -0.549207 -0.161675 -0.561606 -0.459010 -0.495272 0.259766 0.796609 0.434716 -0.184305 0.554846 0.080305 0.120238 0.070318 0.268878 0.246858 0.367863 -0.333333 0.369179 -0.777146 0.508733 -0.035899 0.163309 -0.977819 -0.095244 -0.021231 0.193536 -0.247250 -0.317157 0.244425 0.336540 0.576923 0.038067 -0.242655 -0.153560 -0.315412 0.379117 -0.551364 -0.284140 -0.362739 0.522044 -1.003560 0.461629 -0.641193 -0.537187 -0.327082 -0.095040 -0.874149 0.898099 -0.535801 0.717499 -0.193045 0.214875 -0.448268 0.029849 0.503324 -0.111319 -0.351282 -0.787889 -0.339307 0.533608 1.230371 0.192509 0.508066 0.124283 -0.389090 -0.016007 0.018150 -0.071690 0.345783 -0.031491 -0.043523 0.010583 -0.046634 -0.073492 0.137275 -0.116901 -0.149877 0.838162 0.020742 -0.359233 -0.103367 -0.436754 0.319467 -0.346757 -0.319643 
a -0.283712 0.019385 0.403112 -0.924833 0.406015 -0.064616 -0.253298 0.119703 0.195590 -0.049097 -0.600532 -0.519019 0.495256 -0.990759 -0.517433 -0.821173 0.460886 -0.769623 0.019286 1.304488 -0.549695 -0.472044 -0.786498 -0.025274 -0.515869 -0.017596 -0.187390 0.561384 -0.673337 -0.178211 0.277679 0.224780 -0.350381 -0.470147 0.301615 0.792427 -0.454675 0.156768 0.726744 0.853884 0.479904 -0.761975 0.188428 0.713509 -0.154583 1.324556 0.413031 1.029517 -0.144076 0.409672 0.947523 -0.273973 -0.183179 0.682108 0.584612 0.540814 -0.258752 0.228289 -0.737814 -0.734695 -0.097673 -0.510988 0.025177 -0.165411 -0.883520 -0.062157 0.085014 -0.186777 -0.212766 0.015093 0.227593 0.441687 0.096851 -0.543996 -1.087307 0.877254 0.042966 -0.184781 -0.247009 -0.702804 0.334784 0.312682 -0.341376 0.276005 0.548141 0.605463 0.298794 0.313844 0.093004 -0.487852 0.306994 0.406363 -0.045693 0.276604 -0.384019 0.698802 -0.624401 0.476844 0.101129 0.243973 -0.612954 -0.916724 -0.186951 0.463033 0.680771 0.394138 0.403022 0.148219 -0.383501 0.475041 -0.443057 0.113076 0.773955 -1.345729 0.216961 -0.202538 -0.434904 -0.867637 0.383872 0.710221 -0.134174 -0.699077 0.146780 -0.519583 0.009469 -0.547902 -0.761272 -0.239653 -0.853267 -0.240574 0.518777 -0.859023 -0.605712 0.133269 0.009609 0.207191 -0.070684 -0.024649 0.018680 -0.181641 0.776354 -0.219627 -0.891609 -0.384141 -0.904748 0.461986 -0.397101 0.573440 -0.226025 -0.971127 -0.342733 -0.603458 0.051666 -1.169547 0.107382 0.037533 0.319308 -0.570364 0.521016 -0.153533 0.188737 -0.675669 0.363109 -0.326238 -0.108601 0.737785 -0.107188 0.038106 0.203047 0.370377 0.220639 -0.070214 -0.275668 -0.688278 -0.095674 0.403145 -0.322635 0.368629 -1.120147 -0.612376 -0.359200 0.680716 0.437031 0.677192 0.809769 -0.127909 0.038786 -1.069071 0.404218 0.414961 0.510699 0.432863 0.270664 0.329833 0.107043 0.702010 0.240363 0.222469 -0.117134 -0.525280 
with -0.271225 -0.351002 0.414624 0.916329 -0.288827 -0.463605 -0.398832 -1.370761 0.245229 0.903352 -0.155474 1.103015 -1.320763 0.380957 0.612982 -0.340145 0.194383 0.251749 0.041893 -0.986549 -0.076022 -0.324829 0.769334 0.104796 0.117116 -0.316423 0.171106 -0.269017 -0.182856 0.833265 -0.461859 0.437165 0.348779 0.342599 -0.066821 -0.481019 -0.617738 -0.443739 -0.162987 0.180367 -0.177596 -0.006155 -0.173354 -1.658897 0.243010 -0.385064 0.164119 0.528939 -0.227935 -0.501354 0.717690 -0.314975 -0.763484 0.735710 0.421422 -1.156108 -0.771910 0.169633 0.523639 0.278706 -0.636540 -0.473374 0.334622 -0.088944 1.279705 0.103545 -0.382859 0.231735 -0.722009 -0.534060 0.237558 1.170947 -0.823230 -0.573464 0.988783 0.127368 -0.520205 -0.233960 0.107937 0.799484 0.593053 0.233354 0.707995 -0.735016 0.321174 -0.692784 0.646314 -0.417571 1.037537 0.023913 0.067282 -0.733798 0.157647 0.108250 0.659706 -0.509623 0.983282 0.345316 1.052767 0.154212 0.284256 0.236404 -0.302454 0.430829 -0.156810 0.366117 -0.537737 0.370626 -0.079114 -0.046387 0.150512 -0.146917 -0.324789 0.021403 0.001259 -0.338715 0.563339 -1.168650 -0.578287 -0.264527 -0.689844 0.534717 0.436328 -0.756840 0.368466 0.275888 0.414213 -0.239726 0.642260 -0.358711 0.683157 -0.173538 0.418949 0.756273 -0.613645 0.444241 0.131185 -1.696559 0.890198 0.045838 0.713247 0.134910 -0.478333 -0.131210 0.090647 0.141978 -0.136717 0.334593 -0.090195 -0.294657 -0.074066 -0.077177 0.656095 -0.182706 0.532262 -0.220597 0.059446 -0.339012 0.575070 -0.298569 -0.244294 -0.305900 0.611511 -0.349682 -0.365628 0.040828 -0.263769 0.408635 -0.043425 0.016169 0.238978 1.107272 -0.142191 -1.267994 -0.159711 -0.279911 0.255244 0.786778 -0.056757 0.552426 -0.061773 0.920165 0.184941 -0.132858 -0.361499 -0.186578 -0.378792 0.052270 0.479838 -0.063617 0.149077 0.383610 0.253223 -0.196510 0.793048 -0.156391 0.547946 -0.496282 0.171794 -1.126347 
in -0.183361 -0.761938 0.166579 -0.728699 0.812519 -1.187967 -0.122169 -0.348262 0.445931 -1.013219 -0.064299 -0.128940 -1.062384 -0.192209 -0.499282 -0.126553 -0.410390 0.850197 0.538019 -0.266552 -0.863200 -0.070887 0.265437 0.842281 -0.472171 0.431536 0.384377 -0.057072 0.215745 0.219883 -0.228030 0.337049 -1.002642 -0.475856 -0.995979 -0.016919 0.518386 0.590482 -0.090513 0.437776 -0.704492 -0.266470 0.045407 -0.122871 0.577180 0.286093 -0.131233 -0.232401 0.761021 -0.767482 -0.704150 0.794180 -1.073153 -0.009940 -1.279279 0.452652 0.437810 0.416245 0.007495 -0.202206 -0.432212 0.188421 0.488859 0.448103 -0.225828 -0.079113 -1.473792 -0.126381 0.608495 -0.402671 -0.676751 0.917510 -0.183937 -0.286181 -0.344567 0.169484 -0.848216 0.448675 -0.996387 0.392638 0.783291 -0.724963 0.148304 0.682654 0.497603 1.048664 0.494639 0.137574 -0.275388 0.588405 0.128522 0.573851 0.378295 0.312469 0.973786 1.445656 0.364110 0.764692 -0.363185 -0.702222 -0.157172 -0.033444 0.351096 0.604274 -0.549084 -0.232139 -0.033971 -0.070392 0.538388 0.565323 0.222721 -0.503444 -0.722856 0.077341 -0.115782 0.030480 -0.028919 -0.302500 -0.355784 -0.068022 -0.021644 0.188264 -0.051110 -0.915216 0.311025 0.213317 1.186207 0.477360 0.250533 0.933449 -0.144678 0.257622 0.528376 -0.133041 0.238765 0.506042 0.568127 0.649778 0.089643 -0.309543 0.614649 -0.575250 -1.165048 -0.371837 0.055319 -0.306726 -0.282116 -0.717046 -0.270644 0.858317 0.538028 0.338414 0.218638 0.240586 0.564519 -0.102412 -0.103727 -0.075690 0.341857 0.431547 -0.241972 -0.075966 -0.618432 0.426648 -0.286596 -0.686477 -0.182109 -0.423925 0.434284 -0.054393 0.840304 -0.264661 0.513207 -1.582606 0.092045 0.360245 0.102368 0.364445 -0.244294 0.219452 0.274968 1.365917 0.518454 -1.503906 -0.101122 -1.020381 -0.301131 -0.361999 0.652088 0.100677 0.299590 0.418596 1.089366 0.772904 -0.145742 0.162792 0.138488 -0.163872 -0.901136 0.619225 
the -0.702230 0.009902 -0.944435 -0.210304 0.607003 -0.671146 0.708356 -0.550390 0.247286 0.612995 0.412780 0.552885 0.325798 -0.090157 -0.401543 0.095144 -0.349066 -0.432438 0.556386 0.657153 0.545019 -0.315767 -0.142767 -0.699665 0.026270 -0.818739 -0.151424 0.248827 -1.049626 0.093831 0.459930 0.010449 -0.131669 0.226768 -0.126551 0.931135 0.341025 0.275862 -0.378406 0.574995 1.112453 -0.201156 -0.193270 -0.984078 0.320819 0.962555 1.223982 -0.444654 0.274804 -0.432139 0.339485 -0.763472 -0.295490 -0.141344 0.539936 -0.068137 1.071259 0.607251 0.234569 -0.255440 0.985965 -0.746207 -0.092007 0.444610 -0.470157 -0.310189 -0.443735 0.076273 -0.070389 0.584648 -0.217578 0.818759 0.070442 -0.028369 -0.987713 0.537531 0.066091 0.496435 0.379702 -0.390751 0.175350 0.290486 0.650437 0.114471 0.411698 -0.150288 0.119205 -0.516585 -1.949147 -0.184629 -1.118366 -0.172981 0.137168 -0.005408 -0.784590 0.151924 -0.631365 -0.144634 -0.478663 -0.495643 -0.513514 0.259461 -0.082141 0.995099 -0.355200 0.004221 0.181525 1.062686 0.349393 -0.259696 -0.564782 -0.277504 -0.591864 0.187644 0.746447 0.048468 0.655385 0.057597 -0.238984 -0.376139 -0.405642 -0.023065 0.226444 -0.157537 0.085511 -0.804691 -1.020564 -0.517819 0.505219 0.015606 -0.154201 0.717327 -0.138755 -0.416464 -0.411154 -0.094715 -0.109433 0.043352 0.045602 -1.167814 0.316687 0.193521 0.016204 0.492327 -0.607011 -0.014636 0.909892 -0.007963 -0.523422 -0.494484 0.496451 -0.464067 0.861390 0.719937 0.538940 -0.279078 0.355519 0.331014 0.171447 -0.424889 0.855287 0.286213 -0.187709 -0.031299 -0.650885 0.001116 0.040242 0.110769 0.443363 -0.115317 -0.366006 -0.900533 -0.702827 0.266221 0.339505 -0.452259 -0.658859 -0.486763 0.026523 0.816104 -0.276729 1.453144 1.327462 0.052100 -0.558822 -0.372704 0.246868 -0.548404 0.135092 -0.019653 -0.668868 -0.117247 -0.737441 0.962065 -0.537001 0.725726 0.267327 -0.386363 -0.160088 -0.633083 
to -0.413618 -0.780740 -0.852238 -0.859462 0.331397 0.594265 0.635636 -0.100153 0.779129 0.954711 0.450900 -0.348152 -0.056862 -0.606471 -0.229141 0.525257 0.676386 1.492583 -0.534921 -0.447509 -1.173803 0.161120 0.754726 -0.654849 -0.603239 0.534885 0.754416 -0.438475 0.668051 -0.685884 0.372302 1.113304 0.368262 0.857770 0.043344 0.589035 0.084268 0.594208 -0.273532 0.006649 -0.048582 1.435722 0.153367 -1.098745 1.216792 -0.133721 0.415021 -0.133781 -0.765945 -0.830948 -0.640850 -0.329254 -0.379670 -0.163948 -0.987200 -0.241128 -0.137800 0.622389 1.264857 0.703307 -0.864524 1.096737 0.969466 0.550177 -0.379912 -0.114778 -0.426832 -0.663373 -0.184175 -0.302705 0.746246 -0.601995 -0.989882 -0.900704 0.983158 0.673926 -0.559379 0.503116 -0.048581 -0.508523 0.743832 -0.389565 -0.284745 0.102694 0.948785 -0.566274 1.234426 0.910253 0.737487 -0.508837 0.135202 -1.064203 0.237567 0.080990 -0.159916 0.840304 0.295700 -1.050242 -1.364616 0.322135 -0.291366 0.462568 -1.294111 0.620395 0.893098 1.177089 0.535913 0.895765 0.569339 -0.338017 0.327484 -0.111728 0.174640 -0.942275 -0.923100 -0.835742 -0.415935 0.652311 -0.551081 -0.300641 0.398504 -0.624172 0.208610 -0.194174 0.696258 -0.881176 -0.138386 0.556216 -0.620746 -0.418797 -1.054928 0.673054 -0.748907 -0.957257 0.111321 0.640522 -1.087355 -0.305136 -0.003590 -0.456845 -0.468989 0.192056 0.406044 -0.323004 -0.332235 1.602042 0.195100 -0.492360 1.266253 0.693922 0.709498 -0.770636 0.316135 0.284726 0.025988 -0.820298 0.765354 0.353249 0.294846 -0.558422 -0.437643 -0.160275 1.096205 -0.036551 -0.727038 0.260543 -0.232723 -0.687464 -0.109671 0.578502 0.252651 0.908234 -0.013058 -0.715335 -0.313139 -0.510913 0.485093 -0.489494 -0.278795 -1.072861 -0.660025 -0.258075 0.967639 -0.397562 0.449819 0.415890 -0.265696 0.471661 0.216817 0.700051 -0.338742 -1.061325 -0.956312 1.162944 -0.568996 -0.352995 0.749413 0.716379 0.344679 -0.487371 
using -0.427225 0.458218 1.109035 -0.020376 1.107654 -1.967099 -0.964476 -0.717008 -0.079112 0.319225 0.251248 0.126559 0.110520 -0.098865 -0.155164 0.007143 -0.187230 0.336512 -0.152360 -1.340085 -0.438644 -0.022452 2.117558 1.260586 0.799870 -0.730705 -0.062723 -0.208043 1.091563 -0.056647 -0.348769 -0.282462 -0.420999 1.027603 0.124763 0.566364 0.778626 -0.849450 -0.099245 -0.204334 0.205303 -0.075126 0.544998 -1.315329 -0.226489 -1.124505 -0.153537 1.152002 -0.335557 -0.012653 0.141973 -0.255910 0.803930 0.820279 -1.286767 -0.067855 1.349401 0.179365 -0.167334 -0.584015 -0.275210 -0.710933 0.830017 -0.514018 0.235723 0.364891 0.530612 -0.340762 0.152270 0.099418 0.184994 0.590621 0.639161 0.619289 0.411834 -0.205184 0.365714 -0.954772 -0.621115 -0.231826 1.398971 -0.131411 0.650582 -0.356066 -0.187086 -0.803322 -0.794723 0.280530 1.506926 -0.666227 -0.213686 -0.306270 -0.099079 0.584033 0.278089 -0.205858 -0.071952 1.088538 -0.404113 0.830995 0.099326 -0.098394 0.454370 -0.461699 -0.296742 0.638011 0.952976 0.777544 -0.058832 0.031009 -1.028700 -0.364808 0.854871 1.235831 -0.193733 0.600703 0.466728 -0.923096 -0.798499 -0.067636 1.050115 0.178737 -0.688083 -1.567071 0.218745 0.527448 -0.149544 -0.421090 -0.457425 0.131355 0.141138 -0.455453 1.701766 0.594456 -0.103083 -0.247716 0.552026 -0.745815 0.899462 0.689273 0.492612 0.312990 -0.644476 -0.558238 -0.881042 0.509070 1.209042 0.907923 -0.332437 0.349038 -0.294752 -0.878572 -0.089419 -0.393518 0.075091 0.009960 -0.311237 0.893746 -0.146495 -0.324071 -1.884379 -0.181685 0.493948 -0.608144 -0.423751 0.709082 0.471299 -0.096484 0.025754 0.033942 1.031138 0.912024 0.403455 0.329140 -0.328632 0.668259 0.314142 -0.680691 0.428920 0.337473 -0.550908 0.063122 -0.664171 -0.366061 -1.097275 -0.612015 -0.994422 -0.199972 -0.096629 -1.096182 -0.044921 -0.178088 0.761088 -1.724409 -0.906186 -0.029372 0.576073 -1.000521 0.889682 0.333484 
on -0.756945 -0.073567 -0.089422 -0.946052 -0.723612 0.690128 0.157731 -1.618640 0.019520 -0.593212 0.784721 0.145469 -1.389818 -0.419526 0.003947 0.610834 0.195318 0.613193 -1.270523 -1.059174 -0.902932 -0.535843 -0.542188 -0.471519 0.141243 0.025913 0.894655 -0.511842 0.416467 0.143939 -0.893856 0.050228 -0.059219 -0.503912 0.337764 -0.258828 0.251028 0.203370 -0.212021 0.372866 -0.714109 1.141726 0.169715 -0.977492 0.034221 0.474170 0.833284 -0.540173 -0.019712 0.673487 0.851976 -0.282211 0.443937 0.552821 -0.293118 -1.253683 -0.130866 -0.001670 1.399493 -0.055223 1.172448 0.548492 -0.354456 0.408520 0.438648 0.019066 0.564917 0.379870 1.120387 0.374947 -0.197055 -0.134304 0.154667 0.299695 0.930168 1.204105 1.296382 -0.819867 -0.406091 -0.031686 0.002913 0.409750 -0.683663 0.827018 -0.231730 0.244771 -0.221554 -0.243757 -1.502735 0.374259 0.411598 -0.007071 -0.791540 -0.257378 0.074356 0.422892 -1.048245 -0.340489 -0.223877 -0.076123 -0.937867 0.076227 -0.414279 -0.848115 -1.117170 -0.977963 0.548131 1.097968 -0.465502 -0.169489 1.364669 -0.723977 -0.651211 -0.208312 0.450596 0.664512 0.618663 -0.104753 0.712679 -0.084877 0.102501 0.626136 -0.199052 0.133056 0.276914 -0.211051 1.109973 0.693502 0.540531 0.883727 -0.259849 -0.255480 0.435956 -0.370639 -0.425818 1.151171 0.565098 -0.845433 -0.463123 0.536718 0.339273 -1.106951 -0.594021 0.590518 -1.001723 1.135239 -0.258170 -0.180511 -0.435377 0.589253 -0.310278 -0.306876 0.160053 -0.405270 1.003460 -0.326918 -0.579705 0.045429 0.300428 -0.012341 -1.110161 -0.093025 0.392552 0.406726 -0.544338 -0.506552 0.525681 1.058643 -0.021098 0.785938 -0.798237 0.461927 0.582812 1.271480 -0.805892 0.725864 -0.002118 -1.148293 0.252980 0.000925 0.038827 0.116383 -0.108922 -0.014832 -0.422768 0.141525 1.398055 0.935550 -0.077072 -0.596725 0.288262 0.293817 0.701696 0.553422 0.112979 1.421734 -0.196319 0.796301 -0.366904 -0.340703 
from -1.586772 0.973496 -1.772875 -0.099158 -0.298849 -0.544424 0.419112 1.068436 -0.830431 0.837113 0.313774 0.966358 -2.169973 -0.426254 1.407394 -0.397636 -0.202659 0.946759 1.694566 -0.196802 -0.617813 1.412274 1.469759 -0.157858 -0.765131 -0.412691 0.145996 0.084314 1.372253 0.860624 0.296023 0.655650 -0.260076 1.099624 -1.329941 -0.261641 0.563852 -0.565576 0.845828 -0.180401 -0.675784 -1.704515 0.295033 -0.367491 -0.558341 -1.418463 -0.992704 -0.179016 0.708884 -0.362347 -0.059678 -0.627453 -0.340667 -0.237609 -0.017875 -0.501240 -0.415699 0.835839 0.360117 -0.550396 -0.571386 -0.399815 -0.328132 -0.736170 -0.233320 0.219877 -0.879332 -0.032841 1.395788 -0.264352 -0.310583 -0.047776 0.126502 -1.132933 -0.019939 0.110283 0.276169 1.039284 0.201178 -0.311961 0.300923 -0.566942 0.345865 -0.446398 0.253316 0.619038 0.027529 -0.098370 0.353838 -0.268213 0.732796 -0.213296 -1.917516 0.304233 -0.389114 -1.041937 0.436194 1.507851 0.326927 -1.022418 -0.377315 1.133381 0.078743 -0.272070 -0.023581 -1.003065 1.581840 1.257360 0.825237 0.879234 -1.254003 0.660120 -0.615243 0.304155 0.752879 1.466057 0.837942 -0.700317 -0.249370 0.907517 0.254996 1.581880 -0.213226 0.258689 -0.605260 0.919753 0.804136 -0.087356 -0.042912 0.815118 -1.254887 1.495145 1.679642 0.319093 -0.784949 0.508597 0.303627 0.473292 -0.594784 0.220505 -0.815591 -0.167204 0.586146 0.148346 -0.194978 0.102608 -0.910436 0.354574 0.261102 -0.271898 -0.195557 0.752286 0.638367 -0.308086 -0.776041 -1.126239 0.786889 -1.873634 -0.876226 -0.304916 0.804492 -0.107525 0.260610 0.551492 -0.332209 0.068846 -0.177308 0.355393 -0.790085 0.053003 0.752442 -0.017170 -1.801184 0.306754 -0.540341 -0.929111 -0.854955 0.510578 0.832850 0.123835 0.672879 0.076147 0.922759 -0.466771 0.835561 -0.304126 0.387101 0.886586 0.161746 0.768083 -0.314246 -0.503899 -0.606068 0.575146 0.466853 -0.810225 0.370395 0.915264 -0.086500 -0.275759 
an -0.110281 0.167325 0.648869 -1.074749 -1.788066 -0.026898 -0.149566 -0.067160 0.414064 -0.380560 -0.059885 -0.312698 0.213348 -0.262955 0.909168 1.103924 1.709329 -0.964424 0.911286 1.662504 -0.942597 0.236407 -1.211807 -0.210605 0.657264 -0.091246 -0.465896 0.135879 -0.002634 -0.408132 -0.396940 1.108129 -0.047040 1.106693 0.005199 0.743594 0.321369 0.454446 0.494643 0.855526 0.985677 -0.882081 1.562607 -0.254774 -0.341414 1.021261 0.320215 -0.477440 0.518200 0.850566 0.144810 -0.382788 -0.853867 -0.364170 -0.278215 -0.333728 -0.810667 -1.051911 -1.326492 -0.080464 -0.390603 0.074924 -0.472927 1.126361 -0.971661 0.786037 -1.142775 0.284555 0.156941 -0.877249 -0.115447 1.011269 0.308868 0.273319 -0.668330 -1.056744 1.196537 -0.110323 -0.205005 1.979933 0.146197 1.412507 0.487055 1.069440 0.349740 0.525233 -1.081826 0.269363 -0.689475 0.123732 -0.328728 -0.202484 1.142673 0.554601 -0.205295 0.121515 -1.159404 0.298744 0.663764 -0.398547 0.502544 -1.010485 -0.820019 0.547279 0.779326 1.932861 -0.911429 0.681528 -0.145029 -1.119213 -0.556925 0.881651 0.392988 -1.640505 -0.367517 -0.444594 -0.261608 -0.323934 1.809106 1.158580 -0.402723 -0.010476 -0.505619 -0.603197 -0.949325 0.195944 0.343488 -0.568512 -0.101196 0.048478 2.218302 -0.432919 0.420683 -1.068772 0.018925 0.263648 0.374225 -1.117174 0.327046 -0.114876 0.680118 0.237292 -0.555497 0.934932 0.036448 -1.272538 -0.652425 -0.395200 -0.038855 -0.338238 -1.360520 0.041855 -0.928921 -0.793612 -0.751948 -0.712853 1.492613 -0.636016 0.673332 -0.266951 -0.300081 0.467046 1.259540 -1.243869 -0.614032 -0.204661 -0.668430 -1.042941 1.500186 0.971246 1.396013 0.660619 0.430375 -0.362543 -0.276555 0.327473 0.610054 0.548880 -1.163010 -1.750267 -0.578017 0.053683 1.931646 0.643338 -0.048539 0.600056 0.746263 -1.447161 0.750905 0.612976 0.964198 -1.050808 0.125918 0.815638 0.169781 -0.231443 -0.898820 0.289961 0.921516 -0.583183 
data 0.830454 1.469318 -1.370050 0.669760 0.001176 2.502027 0.809927 0.321080 0.136660 -0.768284 0.259705 -0.554203 0.599522 0.238641 -0.196841 0.873733 0.393620 -0.974139 -0.720650 0.130411 -0.449518 -0.442657 0.069262 -0.237186 -0.841428 -0.506258 -0.657484 -0.530323 0.400941 -0.396995 0.445263 -0.232287 0.224014 -0.396801 -0.446752 1.191305 -0.033895 -0.782912 1.277197 0.015719 0.139234 -1.576777 0.269211 -0.316405 0.031663 -1.043774 0.767553 0.629355 0.589791 -0.914900 0.168908 0.744069 0.208692 0.380177 0.870233 0.809520 0.207037 -0.689357 -0.266275 -0.032948 -0.013270 1.921074 -0.737296 1.351229 -1.138272 -1.009211 0.414927 0.251344 -0.372892 0.976526 0.933139 -0.072623 -0.027748 -1.104961 0.544337 0.446622 -0.066370 0.181415 0.197015 -0.108016 1.733186 -0.239235 0.788412 -0.972112 -1.174443 0.052174 1.426529 0.612050 -0.097178 1.540954 -1.245204 1.867081 0.467949 0.608028 -1.100670 -0.551792 0.734310 0.959219 0.285043 -0.199491 1.272817 -0.224616 0.354270 -0.560606 -0.858663 0.723983 0.482454 -0.522916 0.273380 -1.430794 -0.651483 -1.347945 0.632292 0.661994 0.448777 0.607697 -0.016997 0.667665 0.970319 0.242008 1.344421 -0.759180 0.322839 -0.551881 0.115706 1.288633 0.949027 -0.448350 -0.978750 -0.236024 -0.059361 -0.668331 -1.033557 -0.483184 -0.453609 0.382449 -1.369819 -0.593047 -0.556530 0.012619 -1.294877 0.039226 -0.445845 0.587165 0.547295 -0.297810 0.225937 0.537252 -0.863062 -1.085131 -0.568147 0.698577 -0.204158 -0.184991 -0.788773 0.987548 -0.861228 -0.003528 0.931443 -0.494647 0.595250 -0.106283 -0.774971 0.127362 0.627632 -0.027921 -0.003200 -1.354081 -0.543543 -0.716294 -0.105661 -0.098037 -1.499246 0.614107 -1.721873 0.425846 -0.174963 -0.681874 0.007415 0.319706 -0.559883 0.456208 0.236243 -0.756654 -0.685942 0.767385 -0.139188 -0.624694 0.947197 0.537389 -0.353649 -1.852835 -0.566965 0.978569 0.366694 -0.551591 -0.449540 0.486385 -0.427002 0.636249 
reinforcement_learning -0.526159 0.117879 0.032715 0.426582 -0.252773 1.301501 2.021419 0.775624 0.182551 -1.023224 -0.055382 0.370449 -0.546796 0.310745 -0.369238 0.307555 -1.338835 -0.237006 0.788919 0.045947 -0.568067 -1.216400 -0.719041 -0.183649 1.568943 -0.750799 -0.908631 0.601406 -0.281708 -0.321898 -0.071134 -0.613692 0.296816 1.599855 -0.690461 -0.623948 0.468021 0.187203 1.389104 -0.662790 -0.000389 -0.176749 0.699945 0.818492 -0.476666 0.015352 -0.864732 -0.060695 1.237251 0.460446 -0.200000 0.604475 0.621260 -0.613223 -0.528500 1.118017 0.076101 0.025282 0.021009 -0.342148 1.334837 1.085057 -0.206802 1.205012 -1.379458 -0.595648 0.453775 0.273484 -0.261475 0.609676 0.895158 0.152577 0.395690 0.371347 -0.931733 -0.002047 1.021382 -0.490049 0.134791 -0.986944 0.049352 2.079603 -0.346650 0.399074 1.646160 -0.269247 -0.198468 -0.009035 0.311349 0.746205 0.363292 0.862389 -0.106327 -0.110607 -0.630005 -0.092257 -0.287180 -1.289952 -0.133362 0.264472 0.540278 -0.377103 -0.514602 -0.444243 0.002758 0.284445 -1.437675 -0.282667 -0.439038 1.005877 0.251844 0.036570 -0.449831 -1.595765 -0.059269 -0.743066 -0.152867 0.622755 0.648143 -0.216835 0.863275 -0.022748 -0.652725 0.231198 -0.273343 -0.975835 -1.093781 -0.609359 -0.760734 0.632318 -0.251190 -0.700292 -0.023311 -0.663881 -0.242719 -0.474352 0.029903 0.385391 0.660224 0.138492 -0.511999 0.374884 1.533434 0.868976 0.037008 0.524918 0.873820 -0.692251 -0.663242 0.602132 -1.712657 0.885586 -1.228109 -0.833599 0.607365 -0.574206 0.627436 -0.326130 0.420492 -0.142073 0.913520 -0.296795 -0.222758 0.828547 -0.642815 -0.063470 1.521046 1.633073 0.101902 0.564379 0.696106 0.406264 1.116495 -0.503519 -0.706330 0.100551 1.373276 -0.269600 -0.442542 -0.301669 -0.903169 -0.138554 -0.537599 0.749769 -0.690535 1.146297 -0.993311 -0.733137 -0.945561 -0.412473 0.099713 1.300634 -0.546690 -0.375273 -0.627461 -1.819730 0.205822 -0.893728 0.154728 -1.212961 
by -1.015732 -1.132501 1.193748 -0.441248 -0.549579 -1.375771 -2.884471 -2.597485 -0.982782 1.054275 0.381934 -1.234827 -1.675963 -0.223476 2.457973 1.773782 0.657634 1.633518 1.270594 0.005867 -0.275664 -0.579817 0.579618 -0.099223 -0.562841 -1.435352 -1.676892 -0.210953 -0.099444 1.042027 -0.797623 0.582582 -0.873779 0.717248 0.967664 -1.163954 1.291930 -1.141851 0.415439 0.524144 0.443863 1.409788 0.835669 -0.492719 0.969784 -0.396170 -1.073359 0.268917 0.487883 -0.092272 1.314185 0.260388 -0.752077 -0.936320 1.311674 0.386120 1.210302 -1.570218 -0.100894 -0.250248 -0.412160 -0.168216 0.259156 -0.517586 1.448029 -0.407717 0.676154 0.284508 -0.047557 -1.214794 -0.120008 0.621786 -0.030005 -0.156191 -0.002883 -0.394097 0.455757 -0.314945 -1.142492 0.853288 -1.227394 0.086599 1.118344 -1.349905 0.250968 0.244598 0.058406 -0.040053 0.215549 -0.118590 0.373224 -1.294370 1.519879 -0.132093 -1.684041 -0.166602 -0.695591 0.057366 0.616199 0.160284 0.485772 0.129838 -0.052026 -0.192497 -0.118802 0.088879 0.225930 0.981888 0.330170 -0.277307 -0.568347 0.207571 0.642682 -0.592934 -0.626974 -0.421233 0.765141 -0.934575 -1.317071 -0.193310 -0.548923 0.436759 -0.866907 0.444258 0.320440 -0.971076 0.652283 0.485702 0.593301 -0.337430 -0.236728 0.395501 1.692561 1.199021 -0.144273 0.953357 -0.456868 0.613480 -0.054416 -0.456140 -2.041741 -0.155448 -0.408998 0.384065 0.329219 0.733390 -0.182328 -0.797938 0.494843 -0.793296 0.936280 -1.757901 0.227701 -1.049370 -0.710034 -0.052277 -1.077373 1.253294 0.209564 -0.088914 1.153793 0.688397 -0.464843 -0.212720 -0.386365 -0.041936 0.425978 1.144576 -0.566028 -0.336469 0.837137 -0.390043 0.406938 0.242548 1.391679 -1.432612 -1.164214 -1.416810 0.132446 -2.155041 -0.226765 0.391422 0.310650 0.227297 -0.657607 -0.116086 0.026438 0.605769 -0.139574 -0.612896 -1.381172 -0.250853 -0.302163 -0.098481 -0.355144 -0.865083 0.517423 -0.730121 -0.530285 -0.713017 
via 0.252237 0.281667 0.654772 0.036203 1.122964 -0.574472 -1.479204 -1.322620 0.030473 1.283831 0.123012 1.017726 -0.464657 -1.133673 0.680922 0.941402 0.215687 1.362552 -1.359492 -0.235069 -0.639892 -1.127417 1.301383 0.726405 -0.797886 -2.270497 -1.235460 -0.302847 -0.247047 1.441463 -0.211181 -0.427132 -1.030310 0.135177 0.021026 -1.777837 -0.596463 0.653343 0.424827 0.019957 0.956298 1.270255 0.362264 -2.713965 -0.522914 0.085006 -0.768144 -0.528676 -0.598221 -1.398619 1.750522 0.415468 0.508303 1.968735 0.571342 -0.851885 -0.170098 0.377028 -1.430163 -1.067978 0.049789 -0.186239 0.807391 -1.252900 0.950953 -0.036294 0.294123 -0.568057 1.163287 1.016349 0.363446 0.087091 0.120474 0.403274 0.098651 0.795983 -0.533969 -2.263610 -0.402291 1.221481 -0.653411 -0.455964 0.234016 -0.849996 -0.053699 -0.164139 0.020537 0.133745 1.482943 -1.125568 0.017522 -0.030327 -0.674969 -0.188152 1.306592 -0.325115 0.905313 1.060834 -1.339484 0.831019 -0.457508 -1.694806 -0.230453 -0.028386 0.085724 0.925889 -0.423971 0.119319 -0.774046 -0.508106 -0.968938 -0.489102 -0.123781 0.510870 -1.118962 1.552805 -0.194665 -1.051413 -2.371753 -0.593977 0.261264 -0.473155 -0.246376 0.300385 0.322649 0.273385 1.083860 -0.227766 0.139489 -1.308883 -0.427694 -0.273490 0.842062 0.431405 1.558930 -1.081121 2.057565 -0.099929 1.267233 0.567473 1.366856 -0.857138 -0.992990 0.688976 -0.184687 -0.191976 0.050692 0.963147 0.510809 0.174177 0.376018 -0.559877 0.021670 -0.209518 -0.250203 -0.756736 0.107314 0.065853 -1.026573 -0.848995 -1.065146 -0.604007 -1.162475 0.025254 -0.094451 1.073019 0.717418 0.543226 0.386609 0.778384 0.578534 0.197120 -0.611689 -0.010512 0.942229 0.018656 0.187599 -0.469859 0.934856 -0.325287 1.630806 -0.103695 0.684341 -1.276865 -1.260157 0.932478 -0.092486 -0.588839 1.717719 -0.350046 -1.319170 -0.246854 -0.237050 -0.680637 -0.722181 0.556786 -0.753145 0.700949 -0.933916 -0.091121 
models 0.792299 -0.855799 0.634340 -0.207077 -0.449739 -0.231085 0.726615 0.127645 -0.620897 -2.000519 -0.478509 0.720628 1.397986 -1.230919 -0.098878 0.815359 1.087074 -0.720992 0.509962 1.723244 -0.867153 -0.014532 1.335678 0.895062 0.195851 -0.636651 -0.729208 0.943186 -0.194779 0.300484 -0.457243 -0.305146 -0.716519 -0.639530 -1.362594 -1.482984 -0.536590 0.203536 -0.020328 0.883173 0.004998 0.332744 1.056924 -1.477130 -1.112449 -0.490287 1.104146 -0.189429 0.956841 1.004127 -0.334632 -0.943547 0.597717 -0.552437 0.608604 1.363815 -0.437347 -1.523386 1.058152 -0.056508 -1.131747 0.412564 -0.469971 0.050326 -0.759815 0.310395 0.652004 0.499314 -0.645212 0.665126 1.183952 0.319834 -0.243739 -0.113863 -0.143270 -0.804812 0.235116 -0.295628 -0.488821 0.314607 0.378305 1.232056 -0.597898 0.692815 1.503619 -0.023552 -0.283566 -0.144518 -0.795023 -0.650589 0.237716 0.989432 0.200001 -0.330406 -1.813532 0.336799 -0.155845 -0.242620 -0.588264 0.623302 -0.703822 0.310158 -0.059147 -0.440591 -0.503583 0.463542 0.117946 -1.763310 -1.314633 0.498578 0.321854 0.593674 -0.592426 -0.906214 -1.189406 0.150958 -0.121439 -0.696532 0.969739 -0.992516 -0.400726 1.361885 -1.072245 0.172684 -0.846187 -0.204308 1.156129 -0.442412 -1.549915 -0.614237 -0.843086 -0.151833 -0.350916 0.187447 -0.148835 0.836201 0.537286 -0.647184 0.677947 -0.518971 0.400837 0.565763 0.805478 -0.136098 -0.364275 -0.516560 -0.524362 0.132560 -0.221325 0.285742 -1.912400 0.387196 0.565156 -0.096205 -0.331961 0.107244 0.103064 0.679324 -1.142862 0.078488 -0.818902 0.076960 0.093428 -1.297463 -0.619026 -0.025164 0.736913 0.403770 -1.177495 -1.154044 0.465734 -0.274316 -0.928819 1.453359 -0.366149 0.016087 0.368393 0.372646 -0.583839 -0.209465 0.978990 0.645505 0.074868 -0.222822 -1.096228 -0.336782 0.131492 0.589317 -0.533845 0.200701 1.582250 0.411809 -2.006846 -0.250905 0.464895 -1.123127 -0.207922 0.191894 -0.284705 -0.568161 
approach -1.192848 1.130370 1.090575 0.975432 0.998980 -0.479739 -1.031523 -0.925566 0.081194 -0.313921 -0.219549 1.215379 -1.172984 -0.182383 -1.032085 0.524595 -0.302952 -1.362312 0.342915 -0.430472 1.199037 0.348645 -0.125797 -0.242787 -1.485164 -2.219717 -0.481985 -0.480580 -0.123896 0.001895 0.642201 -1.621238 -1.727610 0.974543 0.121035 1.201481 -0.719405 -0.219654 0.604537 -0.919861 1.187772 -0.709385 0.256041 1.720287 0.158125 -0.943672 -0.045142 -0.136193 -0.209156 -1.205258 -0.776712 -0.036522 -0.004980 0.400826 -1.111654 -0.299425 -1.028592 0.430356 0.508072 -2.067039 -0.037446 0.074386 -0.605054 0.318688 1.784075 -1.081692 -0.376124 0.990890 -0.939042 0.457049 -0.585252 0.370152 -1.199844 -0.245725 0.465431 -0.163334 1.012745 0.690071 -0.988873 0.010526 0.051381 -1.825746 -0.454185 -1.796678 -0.537578 0.907354 0.639974 0.682501 1.117314 -1.910285 -0.458287 -0.548066 -0.486178 -0.645487 0.420740 -0.340080 0.864705 0.023894 -0.469035 0.677730 0.699479 0.360874 -0.902693 -0.113033 -0.656523 0.120292 1.076690 -0.238971 -0.015586 1.749305 -0.981301 -0.496848 -1.495844 1.425474 -0.029435 1.701022 -0.549852 -1.757072 0.450311 0.524830 0.285745 0.956087 0.174827 0.273063 1.454237 0.446977 0.410310 -0.916898 0.608078 0.595589 0.073153 0.345463 -0.033368 1.682475 1.711191 -1.719462 -0.101344 -1.000143 -0.725667 0.538834 0.160425 -1.552299 -0.290280 0.997021 1.306131 -0.599968 -0.568685 0.094793 -0.146210 1.360443 0.466694 -0.976116 0.938491 -1.222876 0.013921 0.797631 1.401383 -0.337445 -0.278578 0.386296 0.418382 -0.263498 -2.088017 1.403862 -0.813447 -0.236838 0.752473 0.882368 -1.265668 2.062691 0.249800 0.623621 -0.658350 2.015848 0.021122 0.182349 -0.303206 1.229787 0.140278 -0.264602 0.290617 0.338536 -0.367397 0.713151 0.897221 1.103017 0.733887 0.563028 -0.919510 0.012342 0.359625 -0.434854 0.952875 -1.346573 0.778064 -0.122975 -0.446122 -1.258658 1.829033 -1.760015 
efficient 1.157555 -0.444521 0.291642 -0.825148 -0.119411 -0.326694 -0.173546 -0.467060 -1.063642 0.806352 0.865028 -0.017509 1.779321 -1.253140 0.165270 1.217318 -0.631948 0.031953 0.299639 0.485250 -1.920489 1.841057 0.684169 0.429126 0.049956 -1.191563 -0.455196 1.716581 0.622756 1.359256 1.190224 -1.662160 -0.548810 1.286820 -0.203093 0.091019 0.698235 -0.409164 -1.036181 -0.713042 2.393179 -0.061862 0.886539 1.283565 0.668341 -1.313913 -0.370037 -0.208358 0.806553 0.011571 -0.833829 0.015643 0.117430 0.265559 -0.240169 -0.055190 0.518672 1.551203 0.537956 0.460826 1.508328 -0.152667 0.354877 1.750402 0.482030 0.079060 -0.175620 0.131057 0.526816 -0.671087 0.507388 0.273932 -0.546264 -0.193010 1.552681 0.594936 0.339965 0.162304 0.238655 -0.528118 1.222337 -1.290937 -0.144299 -1.322090 -0.162932 -0.748048 0.746785 -0.206524 0.701296 -0.993627 0.160382 0.749390 0.303836 -1.265260 -0.149717 0.414904 -1.184384 -1.158471 -0.497445 0.378752 -1.097297 -1.270931 0.504901 -0.972531 1.674813 -1.601824 -0.246168 -1.341567 -0.394131 0.893157 0.676523 -0.496244 -0.480460 -0.402840 -0.512933 -0.034313 -1.098166 0.234462 -0.914950 1.507251 0.702363 -0.457494 -0.335863 -0.175990 0.023551 -0.075459 0.474165 -0.683812 -0.446240 -0.511068 -0.857425 0.663529 -0.588681 0.999671 0.343482 -0.207074 0.463877 0.510688 -1.268269 1.068310 0.672896 -0.104931 0.082848 0.456666 -0.355194 0.155826 -0.634283 -0.326887 0.495452 0.370578 -0.195815 0.242204 0.056671 0.731732 -0.820916 0.152739 -1.144241 0.812610 -0.013475 -0.758424 1.022912 1.006007 0.799916 0.395606 0.966957 -0.868810 -0.114404 -0.296617 -0.062530 -0.170773 -0.101947 -1.044737 0.708947 -0.225516 -0.368530 -1.268559 -0.231655 0.445885 -0.942019 -0.503493 0.503400 -0.852026 0.488193 -0.672319 -0.518897 1.160095 -0.164552 0.182986 1.285342 -0.184739 0.098636 -0.472769 -0.138119 1.646498 1.336899 1.703492 0.268328 -0.031059 1.298712 0.369005 
feature 1.192421 0.038879 -1.743378 -0.877457 0.529895 1.796010 1.367299 0.295065 -0.137252 -0.705426 -0.548395 0.519129 1.689446 -0.684997 0.180938 -0.022008 -0.121334 0.687602 0.788812 -0.051418 -1.078138 0.242587 -0.229722 0.875273 0.939294 0.952002 -0.169109 -1.135105 0.977868 0.827063 0.241451 -0.969539 -0.896093 -0.315806 -0.820240 1.703011 -0.844159 -0.162764 0.256473 -0.167488 1.465040 -0.287983 0.046026 1.520540 0.109595 -0.813865 -1.958950 -0.668960 -0.055401 0.000322 0.038373 0.376646 0.638480 -0.533527 -0.383045 0.642004 0.415393 -0.665310 0.176922 -0.447390 0.286509 -1.362907 -0.202323 0.803786 -1.492581 -1.850457 -0.162848 1.041001 -1.254239 -0.163133 0.055683 -1.224294 0.341924 -1.276266 0.906267 1.196185 -0.488615 -0.613306 -1.466516 1.126403 -0.253748 -1.382773 0.655261 -0.699452 -0.582183 -0.641064 1.230948 0.089607 0.167062 0.175413 0.785867 0.859832 1.023071 1.402985 -1.572953 -0.703642 -0.309141 -0.582305 1.067073 -0.620140 1.497054 0.805768 -0.391049 0.123221 0.958698 0.013711 1.140583 1.435176 0.731325 0.841397 0.650574 -0.054707 1.097889 -1.515880 1.613106 0.999954 -1.534963 -0.713805 1.143624 0.794564 0.772969 0.424041 0.532343 0.531604 0.943911 -0.648240 0.870408 -1.151388 1.533888 0.090306 -0.256215 -0.225979 -0.988939 -0.700234 -1.066837 -0.129746 -0.305250 1.545149 -0.125669 -0.792698 -0.287289 1.852143 -0.375273 -0.095068 0.343819 1.288437 -0.877701 -0.288918 -0.275812 1.437087 0.489653 -0.408185 0.086307 0.191414 0.204454 -0.246419 0.574469 0.497509 -0.946084 -0.733458 0.506706 0.242104 -0.790385 -0.202723 -0.486507 -0.886888 -0.281125 0.657088 -1.204311 0.443023 0.033151 -0.043935 0.911881 -0.282043 -0.159590 -0.204740 -0.211927 -1.786174 -0.048326 0.162144 -0.385978 -0.887001 0.867748 0.594896 -0.685235 -0.696080 -0.818491 -0.099955 -0.497867 -0.257881 0.862462 1.788931 0.296622 0.768138 -0.275589 -0.321588 0.203154 -0.375790 1.057632 0.139140 
algorithms -0.477134 1.023404 1.017637 1.082405 -0.923432 1.726726 -0.071708 1.472124 1.727228 -1.324584 -0.352459 -1.314045 -0.369593 0.472226 -1.759254 0.937347 1.088073 -2.168185 -0.015926 0.178388 0.031977 -0.648260 1.130678 0.497488 -0.009664 0.135025 -1.291140 1.036686 0.625220 -0.650286 -0.358336 0.251987 1.074986 0.724056 1.520561 0.135886 -1.021493 1.339363 -0.925472 -0.149333 1.950337 0.255095 0.594440 0.820753 -0.667657 0.315539 1.412891 0.434471 0.467398 0.508994 -0.767773 -0.929207 -0.537876 -1.701041 -0.365847 -0.173055 -1.419387 0.880125 -0.254287 0.715658 -0.075606 -0.000024 -0.008806 -0.854162 -0.251131 1.384833 -0.615513 0.173298 -0.672326 -0.265909 -0.993416 0.928333 -0.271306 -0.817149 -0.108854 1.167644 -0.960664 0.139016 -0.724651 1.958930 -0.189212 0.090442 -1.644376 -0.261817 0.302515 0.554691 0.430400 0.299286 0.798424 -0.925930 -0.015045 -1.055259 1.016407 0.890160 -0.615674 -0.385485 0.950427 1.069816 -0.231987 -0.382060 -0.672316 -0.252821 -0.236714 0.725108 -0.255392 -0.099514 1.257092 0.879708 -0.151152 0.193796 -0.908558 -0.817150 0.992008 0.107669 0.056858 1.087576 -0.310481 -1.361031 0.155596 -0.150017 -0.577303 -1.520838 -0.558778 -0.379030 -0.572720 -0.638659 -0.925087 -1.051853 0.226536 -0.173190 -0.076181 0.292916 0.729589 -0.257719 0.683731 0.227692 -1.086996 -0.020500 -1.116692 -0.576469 1.264001 0.305237 -0.273587 -0.212361 -0.298075 0.089350 0.067290 1.076452 -1.001317 0.696100 0.331470 -0.980896 -1.473135 -0.236767 -0.542447 0.140722 -0.427147 1.319514 -0.017146 0.529331 0.912554 -0.054478 1.720959 -0.600194 0.691462 -0.205630 0.494916 1.420501 -0.052835 -1.525112 -0.394470 1.344142 -0.173017 0.280123 -0.931034 0.049664 0.876505 0.515632 -0.193967 1.742138 0.296251 -0.736099 1.309053 0.456233 -0.608400 0.228861 -0.435566 1.523808 0.735379 1.634079 -0.801033 -0.884822 -0.863553 0.653105 0.707311 -0.011447 -1.716642 0.250270 -1.149329 -0.728768 
selection 0.785339 -0.661709 -1.700907 -0.072679 0.670849 2.380893 -0.193683 0.927436 1.060036 -0.134074 0.431112 0.365523 0.632139 -0.972839 -0.021964 0.143826 -0.607561 -0.972345 0.863129 -0.706567 0.292131 1.119993 -1.287121 0.085085 -1.492168 1.525169 0.420441 -0.622028 -1.620219 1.104388 -0.013801 -1.087285 -0.031569 1.034258 0.937774 1.799189 -1.593115 0.284601 0.900356 0.574279 0.705912 0.563722 0.571309 0.550774 0.395667 0.966320 -1.125187 -1.326654 -1.233663 2.359301 -0.268724 1.376809 -0.592907 -0.360137 -1.232316 1.097532 0.006299 -0.392930 -1.068896 1.496190 0.459515 0.687089 0.991330 0.242242 -0.566444 -0.557336 0.654458 0.005144 -0.848345 -0.976880 0.016379 -0.524628 -0.598609 0.418013 -1.017320 -1.405961 0.468749 -0.284039 0.609279 0.673961 -0.910033 -0.193494 -0.824580 -1.667478 -0.429998 -0.560925 0.893520 0.171388 -0.207320 -1.368007 1.721506 0.972332 0.970401 0.718584 -0.784512 0.797665 -0.197267 -0.420748 1.092165 -0.622975 1.284021 0.442653 -1.125427 -0.886935 -0.683100 -0.436443 -0.463217 0.322240 0.148243 -0.625082 0.327011 -0.188244 -0.575381 -1.005092 -0.151780 0.800951 -1.003718 1.249655 0.307609 0.260246 0.006826 0.634569 -0.852020 -0.409766 0.440788 -0.467350 -0.058312 0.683043 0.574396 0.162302 2.095528 -0.564303 -0.626686 -0.622144 -0.399351 -1.113143 0.295688 -0.970932 -1.641063 -0.599644 -1.532878 -0.817126 -0.052460 0.164587 -0.143086 1.272974 1.493983 1.791476 -1.271352 2.012706 0.353241 0.617573 0.343008 -1.619494 -0.186882 -0.912639 0.646286 1.305729 -0.299134 1.730375 1.129183 -0.140290 0.684177 0.699379 1.060038 -0.821699 -0.333019 0.722597 0.964828 0.580859 -0.028773 -1.111253 0.775593 -1.206375 0.301661 -0.277731 0.670337 -0.121217 1.052106 -0.721507 -0.084136 1.588474 1.305840 -0.685850 -0.682664 -0.180629 0.197271 0.880445 1.688610 0.594731 -0.676196 -0.343065 -1.588831 -0.385707 0.202452 1.380403 -0.381513 0.398408 0.674166 -0.609425 
sparse 0.991906 -0.339573 -0.960439 0.447302 -0.410325 0.794226 -1.040465 -0.842020 -0.992915 -0.683270 1.640963 -0.503357 -1.592723 0.629376 1.108414 -0.497259 1.075765 -1.557934 0.878766 0.074066 1.127602 -1.336722 -1.361712 -0.982763 -0.103251 0.099556 -0.600026 -0.018287 -0.329921 0.815379 -0.528116 -1.218811 -0.020006 0.639761 -0.622477 0.473443 0.256155 -0.351400 -0.967568 -0.025137 0.551896 -0.112110 0.515171 -1.278858 -0.611552 0.077476 -1.739029 -0.040814 -1.212675 0.161963 0.075515 -0.742182 -0.129557 0.558081 0.839720 -0.698795 1.273211 1.776033 0.041851 -1.102426 -0.150883 -1.017416 -0.387965 1.428593 -0.509229 -0.942298 -0.236941 -0.106890 0.277007 0.140782 -1.544320 -0.574533 0.253611 -0.754537 -1.097239 0.466984 1.415893 0.889838 -1.456834 1.487551 0.684582 -0.952381 0.269159 1.464623 -0.304267 0.640452 0.263329 -0.325327 -0.921496 0.446287 0.681774 1.005173 1.172120 0.199596 -0.528060 0.127453 -0.603497 -0.686779 1.221975 1.069820 -1.026175 -0.175124 0.235064 0.362679 -0.367182 -1.288468 -0.243608 -1.000466 -0.804379 -2.178098 0.311856 0.715943 -0.355319 -0.774561 -1.275072 0.799325 -0.235122 0.601407 -0.405568 0.291817 1.030527 0.329557 -1.549582 1.984496 -0.178875 -1.122320 -0.058353 0.618495 0.853488 -1.275695 -0.657654 -1.390978 -0.142042 -0.260937 1.580924 0.421932 1.208168 1.406215 -0.737092 0.745747 0.294238 0.718914 -0.808769 1.483726 0.176542 0.257685 0.037902 0.027601 -1.052107 -0.454001 1.360086 0.523910 -1.512015 0.216674 -0.056873 0.053537 -0.657783 0.603773 -1.897303 0.895217 0.817626 0.285609 0.854838 -0.867968 -0.555007 -0.179205 -0.061930 -0.509780 0.756070 0.227136 -0.459581 -0.029326 0.860156 -0.719540 -0.886377 -0.312790 0.774123 -1.226703 -0.017874 -1.191807 -0.774275 0.613585 0.866719 -1.267434 0.254639 -0.912122 1.311670 0.562555 0.114658 0.908441 1.140421 -0.745353 -0.298989 -0.031269 0.278432 0.760161 -1.095556 0.786028 -1.547233 1.071562 
analysis 0.464876 -0.780225 0.290619 -0.861634 0.124188 0.067387 0.735368 -0.909750 -1.382034 -0.300345 0.630323 -0.513936 -0.005495 -0.932094 0.953035 -0.289316 -1.204301 -0.381091 1.764801 0.984659 -0.009280 1.306668 0.729734 -0.223923 -0.003832 -0.115847 -0.284658 -0.628581 -0.984175 -0.898116 -0.139100 -1.853564 0.970131 1.691823 -0.735281 1.341463 -0.948974 -0.637803 -1.017353 -1.420239 1.538679 -1.781093 -0.226794 0.857282 0.358338 -0.710956 -0.402819 -0.802342 0.659622 -0.357194 0.233608 -0.298250 0.466786 0.369500 -0.144512 0.674658 0.761217 -0.724977 1.441895 -1.667053 -0.444086 -1.194490 1.272656 -0.666183 0.726702 0.483152 0.987470 0.721493 0.939787 0.191698 0.215519 1.995005 0.371749 0.315289 1.251171 -0.711089 0.609729 -0.462266 1.669434 -1.398726 -0.422770 -0.957188 0.622838 1.074319 0.079909 -1.406832 -0.408270 -0.654336 -0.553336 -1.601559 -0.050474 -0.772739 -0.437183 -0.938751 0.176889 0.006158 0.138414 0.497192 -1.355397 -1.377623 -0.241166 -0.791652 0.617121 -0.660638 -1.723884 0.358330 -1.670029 -0.582463 -0.889167 0.209747 -0.633287 0.538766 -1.725114 -0.698962 -2.124297 -0.010900 -0.716473 0.757640 -0.847780 -0.736695 0.308856 0.397919 -1.253993 0.502946 1.083501 0.258391 0.807345 -0.218784 -0.475916 -0.721527 -0.879891 -0.408122 -0.837242 -1.119840 1.477440 0.825955 -0.358124 0.788189 1.263382 -0.123721 0.614272 0.054541 -0.327635 0.262009 0.425935 -1.098208 -0.943991 1.803334 -1.361580 -0.817778 -0.418229 0.185797 0.873987 -1.716000 -0.580417 0.264042 -1.311103 -0.364294 -0.157620 -1.184624 0.979862 0.479622 -0.744457 0.275613 1.745023 0.756404 -0.713915 2.350054 -0.760723 0.891906 -0.569146 -0.161389 2.232753 0.583880 -1.061037 1.551917 -0.470456 1.020023 -0.241355 -0.210602 0.633224 1.849119 -0.784765 0.928826 -1.476592 0.067978 -0.116984 0.070911 0.257063 0.841623 0.281276 0.739882 -0.514444 0.155079 0.682291 0.164233 0.952805 0.009775 0.829353 -0.830591 
classification -1.018228 0.099372 -2.709950 0.059581 -0.640335 1.403684 1.951276 1.794007 0.757147 0.494194 1.358462 -0.550951 1.233462 -0.531126 -0.350806 1.606652 -0.130657 -0.194880 0.688613 -0.387303 1.429293 -0.368880 -0.503643 -0.043006 0.766043 0.738127 -0.441097 -0.322315 0.740144 0.269758 1.104935 -0.408954 0.351685 0.364876 -0.821754 -0.489244 -1.050137 1.183149 -0.534159 -0.941906 -1.517096 1.330062 0.331365 -0.176577 -1.463805 0.366947 -0.830092 0.698503 -0.325394 0.700787 -0.088784 1.185346 0.113807 -1.266499 0.450143 -0.822981 -0.764224 0.960128 -0.874082 -0.681119 0.730315 -1.279742 0.514513 1.216417 -0.518515 0.161116 -0.153043 0.070915 0.205872 -1.026327 -0.127327 -0.701008 0.823104 -0.539722 -2.143916 1.095856 0.331506 -1.568009 1.239784 0.478093 -1.227850 0.104534 -0.274230 0.352628 0.779439 -0.399162 0.931052 -0.085945 -1.390736 -0.636802 -0.141688 0.167588 -0.257721 -0.552397 0.660929 0.274225 0.342668 1.905147 -0.719625 -0.334968 0.719216 0.670380 -1.565444 0.098344 0.916338 -1.346745 1.881191 1.367371 -0.621670 0.879757 0.988683 -0.449510 -0.669348 0.639240 -0.368373 0.237687 -0.358501 0.597131 1.294452 0.720985 -0.085737 -1.027254 1.003540 -0.698643 0.407123 0.414092 0.939592 -0.206707 -0.469013 1.144531 -0.376016 -0.058720 -0.260382 -0.229082 -0.211532 -0.478644 0.271755 -1.624892 -0.995133 -0.124151 -0.456441 0.684348 -0.336373 -0.958741 -0.197543 0.919707 -0.227215 -0.130827 -0.557499 -1.423878 1.328737 -1.004955 -0.181441 -0.263525 1.061480 -0.092134 -1.123443 0.813290 1.110767 0.952658 -0.581266 -0.715344 0.554791 1.552763 0.444246 0.111595 0.935796 -0.280273 1.416601 0.540628 0.350414 0.391386 1.764411 0.605369 0.978970 -0.260630 0.534313 0.599240 0.801147 0.762246 0.321342 -0.857865 1.050229 0.145285 -0.321873 1.094652 0.201782 -0.412430 0.447981 0.276928 0.250243 0.151895 -1.455285 0.102907 0.943907 -0.886850 -1.873776 1.160146 -0.681565 -1.739514 
optimization -0.177164 -1.298224 0.815939 1.229405 -0.280555 0.496824 1.215274 -0.315585 1.059213 0.938787 0.435769 -0.811470 1.668039 -0.424254 0.268595 0.413891 0.000973 -0.107186 2.997954 0.157710 0.787635 -0.109124 -0.082902 -2.420417 0.075909 1.580752 0.547844 0.498047 1.486177 -0.360284 0.508401 -1.088523 1.262778 0.490137 -0.016554 -1.300323 -0.562179 -0.496476 1.587755 -0.359127 1.455974 -0.205228 0.224195 0.368390 -0.213484 -0.548270 0.014547 -0.512200 -2.057590 -0.029993 0.645570 0.369851 -0.574985 -0.851541 1.249221 0.277170 -1.182752 -0.565358 -1.059334 0.695458 1.841188 0.667393 -1.375746 0.920659 -1.286623 0.634194 -0.272282 -0.743483 -0.761976 0.641169 -0.039518 1.716914 -0.030951 1.374667 -1.900806 0.723214 -0.238870 -0.666261 0.627492 -0.175660 0.436830 0.346151 -2.770915 -0.896440 0.635985 -0.331666 -0.220172 -1.067297 -0.102985 -1.099361 0.960232 -0.017261 0.904193 -0.636470 0.034744 1.728617 -0.655096 -0.465704 0.272749 -1.133994 0.735877 0.376701 0.515088 -1.248760 -0.189453 -0.121141 -1.057010 0.672781 -0.296922 -0.563845 1.281793 -0.780887 -0.779426 -0.251060 -0.221514 0.399241 -1.245235 -0.430894 0.510861 0.923367 -0.008412 -0.950236 0.078013 -0.985546 1.608775 0.644314 -0.774217 -1.325539 0.381926 -0.302331 -0.525816 0.665153 -0.332009 -0.746971 -0.294949 -1.111384 -1.068390 0.085748 -0.786629 1.229888 -0.026018 1.155992 0.459061 -0.434702 -0.886102 -0.601590 -0.493543 -0.890206 -0.120493 0.114971 -1.690988 -0.570614 0.460270 0.395576 -0.440578 0.914322 0.135384 -1.795049 -0.652941 -0.922182 -1.206239 -0.324101 -1.138627 -0.364462 -0.428223 0.886289 0.218538 0.676949 0.990928 0.654667 -0.672016 -1.789101 1.138356 0.226870 0.615217 -0.243055 0.200973 0.770250 -0.704664 -0.426422 -1.421913 -0.605379 -1.278182 -0.962836 -0.704190 -0.559181 -0.407213 -0.000511 -0.160106 -0.852405 0.636561 1.055312 -0.995629 -1.064399 -1.117754 0.701734 0.388310 2.288791 1.507056 -0.277818 
model 0.129878 0.282829 1.184696 -0.406640 -0.363446 -0.127010 0.114733 -0.013426 -1.960688 -1.704568 -0.143276 0.943458 1.720198 -0.387445 0.289968 0.647391 0.582725 -0.616329 0.517503 2.226819 1.010832 1.414279 0.803169 -0.765584 0.439362 -1.309141 1.211020 -0.295788 1.034296 0.748357 0.190724 1.215202 -1.604611 -1.265678 -0.498952 -0.041052 -2.632160 0.847947 0.228845 -2.046960 -1.331162 -0.454982 -0.721055 0.303500 -0.034885 -1.761960 -0.028101 0.814413 1.727487 0.505879 -0.366277 0.200297 1.228325 -0.062567 0.066926 1.392738 -0.572550 -1.378850 1.393682 -1.768997 -0.723659 0.933330 -0.063445 -1.123522 0.959812 -0.023933 1.121542 1.099446 -0.998308 0.361357 -0.314062 -0.335237 -1.420840 -1.867571 -0.299594 -0.602124 -0.532232 -1.365701 0.070381 -0.735136 -0.260506 -1.302820 0.323454 0.675070 1.520616 0.061521 -0.574998 0.931999 -0.965870 0.924713 0.686536 0.990945 0.119435 -0.753714 -0.078905 -0.225741 0.111352 0.387771 -0.523486 1.067970 -0.200969 0.831257 -0.024474 0.179064 -0.355727 -1.350669 0.157215 -0.527880 -0.445987 0.702918 -0.712002 0.129029 -0.042735 0.244037 -0.986345 0.836970 -0.320158 0.715200 1.104962 0.761774 0.499784 0.888298 0.433566 -1.062934 0.761004 -1.957667 1.700379 -0.389517 -0.126140 0.623483 -1.222813 -0.437218 -1.867978 -0.823721 -0.811176 -0.896691 -1.486329 -0.137612 0.301418 0.456081 -0.540484 0.345104 1.376410 1.887871 1.372854 -0.547609 -0.801239 0.660602 -0.248328 0.571251 -0.011629 0.198973 -1.079102 -0.367562 -0.343754 0.332510 0.768488 -0.644752 -0.130346 -0.851956 -1.503875 0.575509 -1.085081 -1.162701 -0.287085 -0.676121 0.043442 0.874366 -0.254170 -2.300727 -0.935189 0.174578 -0.652951 -0.775317 -1.944882 -2.668199 -0.390919 -0.274501 0.146228 0.034962 0.296334 0.722985 0.782291 0.160225 0.271705 -0.477177 -1.316082 0.568979 0.807641 0.040901 0.834101 0.351304 -0.534468 0.857771 -0.291132 0.308459 0.475010 -0.245114 0.013044 -0.364752 
clustering 0.771339 0.312655 -0.929242 1.016949 -0.327977 0.393870 0.629039 2.057006 -0.120578 1.160177 0.358115 0.273270 -0.275093 -1.868169 -0.985075 -0.143575 -1.173442 -0.285905 1.141338 0.188568 0.870453 0.777877 -0.677590 -0.529381 -0.666100 1.337772 -0.122976 0.973903 2.294938 -0.082558 -0.856051 -2.385440 0.690787 0.347413 -1.169674 -0.381549 -0.406033 0.083130 0.496948 0.535191 1.395263 -0.773195 -0.034522 0.365535 -0.557501 0.664189 1.310991 -0.423297 -0.810610 -0.191945 0.648014 1.719933 -1.457712 -0.184020 0.565520 1.492666 -0.356538 0.124511 -0.803637 -0.138019 1.029479 -0.785098 0.105866 -0.136334 -1.110512 0.730447 1.102640 1.745066 -0.054023 0.460204 0.710262 0.971793 -1.382270 0.071882 -0.369209 0.922538 0.549467 -0.725492 -0.057668 -0.589898 1.182280 0.406955 -0.853187 -0.880582 -0.687658 -0.362736 -1.305537 -0.489100 -0.448472 -0.574514 0.716443 -0.520375 0.010571 -0.064331 -0.745436 0.506397 -0.721332 -0.611722 -0.185156 -2.470254 2.612888 -0.079819 -0.418043 -0.672172 -0.984421 -0.020029 1.212179 0.562799 0.318946 -0.514959 0.435053 -0.231683 -0.315104 -1.634735 -0.005408 -0.475616 -1.345292 -0.145938 -0.023149 -0.405895 1.296604 -0.536302 -0.222215 0.822746 0.668070 0.581543 0.025707 0.059598 0.140003 -0.301958 0.606677 -0.140737 -0.510862 -1.117019 -0.629046 -1.158824 0.501260 -1.774554 -0.579605 -0.408293 -0.980707 -1.316262 0.059019 -0.182381 1.458070 0.153109 -0.444887 -0.281889 -0.273876 -0.228192 -1.125964 -0.894836 -0.650406 0.070850 -1.139451 -1.582262 0.652463 -1.412555 0.429821 1.120897 0.693800 1.501940 -0.276602 -0.051636 0.318299 -0.653116 -0.321653 0.069803 1.710372 0.049557 -1.453752 1.115769 1.266962 0.324077 -0.635109 0.439530 0.008053 1.139230 0.472679 -0.313945 -0.534845 0.263431 -0.660725 0.341506 0.591080 -0.289849 -0.559195 -0.799320 0.076054 -0.170953 -0.329563 1.152362 -1.706115 0.763399 -0.329947 0.124156 -0.470678 0.663327 -0.923987 0.717789 
multiple -0.407259 -0.462029 -0.224711 -0.084801 -0.455337 2.029303 0.613597 1.473508 -1.859112 0.112718 -0.710128 -0.618761 0.064672 -1.400579 0.393446 -1.169803 0.351462 0.163799 2.175469 -0.919707 1.860310 0.469516 -2.230703 -1.701673 -1.403068 0.645085 0.362751 0.086217 -1.144299 -0.124072 -0.215657 -0.363583 0.477293 -0.602643 0.441412 -0.847177 0.550088 -0.538054 0.437714 -1.093634 0.034080 -0.532678 0.301100 -1.393082 -0.263509 1.293121 -0.775360 0.828649 -0.489715 -0.823487 -0.596484 1.747492 2.342770 1.789874 0.315371 -0.554823 1.293737 2.325021 0.353642 -0.407594 0.580835 1.115500 -0.564486 1.485973 -0.700705 0.389388 -0.068541 -1.406604 -0.362761 1.045690 -0.175721 -2.180120 -0.949773 0.233535 -1.544213 0.317755 0.521832 -1.136787 -1.524359 -0.578416 -0.005684 0.930157 0.509881 -0.829753 -1.366027 -0.667268 -1.115983 -1.927948 -0.340472 1.646233 0.745288 -0.833958 2.731607 -0.847842 -0.074841 -0.693669 0.562343 -0.074107 -0.867045 0.266848 0.277135 0.450307 -1.395363 -1.400656 -1.068077 -0.541951 0.307943 1.216416 0.885278 -0.136409 0.665279 0.975921 -0.430258 0.065322 0.337749 1.183174 -1.350756 1.903868 0.625948 0.550613 1.010524 0.741095 0.624262 -0.609090 0.814359 0.532593 -0.522296 -0.196342 -0.349551 -0.029166 0.573125 0.809334 0.286112 -0.328602 -0.080076 1.253924 -0.269712 -1.696621 0.932234 0.309834 -2.207873 -0.157474 0.474340 0.840805 0.027720 -0.774845 -0.229037 -0.125519 -1.047673 1.037768 -1.048290 -0.040958 0.010086 -1.500331 0.149772 0.546685 -0.272516 -0.105350 0.261835 -1.062853 -0.125496 0.038207 0.863520 0.753840 0.789536 -1.874861 0.850796 -0.172228 -0.481236 -0.444163 -1.095593 -2.037037 -0.381599 0.160183 -0.754203 0.830932 0.531712 1.206209 -0.919809 -0.579676 0.435406 0.343160 0.035953 -0.161403 -1.016632 0.159030 -0.105238 0.859595 -0.487521 0.150812 0.400870 -0.768299 -0.223509 -0.178320 -0.899791 0.831279 -1.673349 0.165757 0.089507 1.600117 
bayesian 0.193850 -0.386560 -0.191182 0.339374 0.458505 -0.958618 0.721731 -0.683430 2.425460 -0.705961 1.134842 -0.852693 0.598579 0.490170 1.505850 -0.919760 0.193342 -0.650550 -0.850406 0.645594 1.574303 1.114753 -0.057402 0.267083 0.163792 0.663019 0.047852 -2.744249 -0.210599 -0.647814 1.193841 0.586919 -0.319477 1.112962 1.017702 1.027129 -1.505130 -1.138432 -1.023825 -1.373001 0.847529 -0.971091 0.360085 0.154331 1.115952 2.102528 -0.052136 -1.830325 0.843471 0.240255 -0.751323 -0.975540 0.768189 -0.656218 0.397446 0.229298 0.683973 -1.343653 1.119988 -1.192142 0.023347 -1.185483 -0.987342 -1.111794 -0.450766 -1.414599 0.104938 0.113808 -0.158467 -1.914647 -1.017960 -0.078608 1.134950 -0.331566 -0.070292 -0.137524 -2.041832 0.689618 -0.344020 0.133615 0.584254 -0.193845 -0.197064 0.388186 0.340656 0.054537 0.398048 -0.384879 -0.014934 0.960059 -0.281797 1.539489 -0.247173 0.430612 0.828052 -0.522632 -0.214379 -0.173555 -0.619532 -1.983803 -1.526633 0.688646 1.048263 0.756080 -0.732468 0.320934 1.343286 -0.920665 0.165312 1.249470 0.378631 0.279183 -1.019217 -0.383398 -1.613255 -0.557971 1.482993 0.270114 0.559677 0.889811 -0.427305 1.194731 1.389169 -1.996196 -1.689404 -0.622877 1.253133 0.257426 2.002393 0.306499 -0.184001 -0.241977 -0.285398 -0.200558 0.608384 0.080721 1.066445 -1.191486 0.324217 -0.359632 -0.424191 0.417621 0.986195 -0.135933 0.184481 0.928185 0.688736 -0.637511 -0.565342 -0.579297 -0.417608 0.452269 -0.355424 -0.605007 -2.081770 -0.157926 0.280341 0.228220 -0.324779 0.939763 -0.884941 -0.350190 -0.969860 0.020856 -0.662546 0.887870 -1.123312 0.266034 0.017793 0.987218 -1.200806 -0.185869 1.452416 0.853241 -0.778128 -1.391968 0.104889 0.414307 -0.043176 0.410171 -0.491021 0.948973 0.238574 -0.279684 0.515774 -1.075523 1.209913 0.480619 0.532527 0.151664 -1.287413 -0.637657 0.625941 1.585237 -0.357049 0.786329 -0.326148 -0.128731 0.180972 0.170329 
stochastic 2.112959 0.896867 2.823979 0.662074 -0.754990 -1.300201 -0.781609 -0.365524 -0.872678 0.277756 -0.692793 0.674791 0.480480 0.213766 1.039713 0.479195 1.745037 -1.116409 0.050986 -0.052788 0.792337 1.235864 1.343237 1.580295 2.171263 0.744694 -1.037328 -1.229437 1.820230 0.196234 0.124803 -0.462366 -0.029580 0.586931 0.266612 1.087254 0.116540 -0.251481 -0.927423 -0.983516 1.120003 0.164187 -0.369353 -0.520513 0.038203 1.200254 -1.119443 -0.326208 0.509780 1.666386 -0.508448 -0.347024 1.224301 -0.123471 1.131700 1.777714 0.434981 0.185926 0.625039 -0.708089 0.966594 -0.901956 -1.632251 0.245029 -1.481827 -1.854301 -0.047030 0.713398 -0.066778 0.876773 -0.615997 0.711895 -0.280658 -0.154030 -0.994170 0.933074 1.173923 0.822251 0.013021 0.145366 0.431254 -0.179754 -0.802967 0.319841 0.958268 0.992867 0.041958 -0.524271 -1.064338 1.022411 0.010870 0.530566 0.541233 -0.548477 0.108682 -2.014863 -0.044604 -0.458475 -0.901579 1.282371 -1.393698 0.149765 2.072222 0.409423 1.154295 -0.842633 -0.091986 -0.315433 -0.250805 0.916740 1.666107 -1.122395 0.366653 -1.217554 0.553111 -0.178330 -1.257777 -0.168581 0.915572 0.816851 0.743991 0.577046 -1.122098 -0.353599 -0.656124 -0.171732 -0.645012 1.170865 -0.221238 -0.450517 -1.052283 -0.042576 -0.466275 -0.655336 1.493196 0.320277 0.424083 -0.077478 1.877632 -0.298439 -0.459857 1.094878 1.229978 2.318118 -0.299671 -0.424389 -0.349191 -0.911736 0.402772 0.881883 -0.791484 -0.343427 -0.582805 0.045923 -0.483784 -0.622954 -0.966336 0.493010 0.524165 0.690730 0.584753 -0.713848 -0.684131 -0.049048 -1.145684 0.589995 0.626766 -0.850384 -1.103222 -0.511032 -0.245730 0.843205 1.461553 -0.850534 1.039376 -0.339858 1.644423 -0.523789 0.349909 -0.491001 -0.515672 0.672055 -1.902874 -0.400931 -0.143538 2.784655 -2.133150 -0.600275 -0.525857 1.075585 0.826560 1.952561 -1.792880 -0.824168 -0.810428 -1.405744 0.104426 -0.039330 0.167433 -1.679317 
algorithm -0.344174 0.278869 1.932854 -0.518880 -1.698674 0.863041 -0.554142 0.180181 -0.605890 -0.097165 -1.529127 0.123621 2.274500 1.322021 -0.653274 0.713280 -0.532644 -1.115940 -1.477344 -1.560614 0.121001 -0.303964 1.125033 1.778317 0.642317 -1.194890 -0.763303 0.329472 0.665716 1.401262 0.823880 0.185139 1.038592 -0.250412 -0.005536 0.239464 -0.722274 -0.012275 -1.059556 -1.914894 0.939790 -1.535735 -0.854812 2.098140 -0.288402 0.814354 -0.438365 -0.208882 -0.199181 -0.722953 -1.761923 0.951027 -2.245817 -2.480638 -0.292595 0.610341 -0.799484 0.271950 0.921455 0.392937 0.530236 1.096624 0.105781 -1.306929 0.729688 -0.308252 0.313312 0.861107 -0.113088 -1.652234 1.268445 -0.473689 -0.053404 -1.528976 1.330906 0.845982 0.075471 1.156943 -1.166008 -1.220064 -0.947785 -0.530217 0.453689 -0.486875 -0.790186 -0.838560 1.018646 0.640195 1.447460 -2.625244 0.653438 0.919638 0.218360 1.516365 0.208193 -0.863749 1.272351 -0.309074 1.456010 -0.693679 0.239927 -1.211246 -0.201707 -0.453897 0.399921 1.400425 0.209510 -0.416724 -1.338075 1.510076 -1.084328 1.008615 -1.096359 0.033308 0.978430 1.898506 0.658135 -1.194156 0.383957 0.600367 1.806739 -0.829367 0.012784 -0.834473 -0.744794 -0.220623 -1.129699 0.206790 2.158760 -0.673160 -0.998627 1.304600 0.977504 1.866109 -0.660999 -0.160836 -0.167587 1.466207 -1.429958 -0.096467 -1.783945 -0.621553 0.678597 0.223133 -1.209704 0.674772 -0.158461 0.147492 0.729890 -0.340887 -0.053824 0.726682 0.461039 -0.575885 -0.433638 -0.931648 1.136579 0.948517 -0.771049 -1.005901 -0.205640 -0.429037 -1.039714 -1.989423 -0.779369 0.427377 -0.052443 0.015882 -0.475977 0.458068 1.382469 -0.786331 -0.444489 -0.385004 -1.004836 0.153204 -0.479188 -0.681938 -0.315539 0.297855 0.778695 -1.787587 -0.048011 -0.765323 -0.663411 0.395760 -1.976316 1.385046 0.117524 1.161803 -1.136555 -0.069911 -0.619039 -0.420524 -0.149433 1.301861 -1.296488 0.549095 0.735104 -1.774834 
fast -0.437938 -0.912842 -0.207840 0.653025 -0.621899 0.880762 0.266256 -0.090270 -0.174645 0.003408 1.648891 -0.594333 0.511523 -0.612968 0.724407 0.010909 1.192127 0.635122 0.065979 0.699918 0.737473 0.676755 0.370675 0.161752 -0.545558 0.227824 0.724369 0.666098 0.257686 1.212715 0.023682 -0.654362 -0.835431 -0.289469 0.420293 -0.481010 -1.587198 0.363573 -0.232366 -1.090188 0.746562 -0.367217 -0.539149 -1.576512 0.170824 0.792818 -1.160525 -0.020115 -1.512286 0.590715 -1.090644 1.121751 1.715224 0.019070 0.969537 -0.079433 1.292066 -0.496979 1.391948 0.484453 -0.219002 -1.142573 -1.766209 -0.156975 -0.909943 -1.537700 1.063439 -0.912256 0.879429 -0.170332 0.390083 0.904513 -1.146031 -0.860520 -0.623246 -0.048936 -1.024668 -0.545872 -0.414740 -0.727817 2.220628 0.623196 -0.161770 0.666953 -0.193667 0.611072 0.539468 -0.503947 -1.510346 0.035863 0.436404 -1.441464 1.305737 -1.380003 -0.038500 -0.351541 1.184065 0.172599 1.182550 0.108226 -1.432992 -0.470321 -0.066021 -0.861010 0.447250 0.162932 0.812369 0.337580 -0.928088 -2.010657 0.879223 0.648890 -1.659794 -0.829338 0.442205 0.022075 0.119414 -1.067226 2.183043 0.596558 -0.055440 0.890129 -0.233662 -0.278304 -1.732611 -0.486035 0.257490 0.670367 0.046733 -0.250915 -0.302730 -0.132528 -0.135378 -0.656369 0.788595 0.075166 -0.725091 -0.087452 0.438874 -0.135387 0.333847 -0.989007 0.601833 -0.006198 0.205452 -0.951006 1.332727 -0.408960 0.564618 -0.471014 1.040423 0.833883 -0.574567 -0.651960 -0.649907 0.031361 -1.402815 1.036659 -1.472555 -0.578587 1.246974 -1.154238 0.913749 -0.620808 -0.420650 0.944441 -1.488615 -0.156347 -0.095396 0.700658 0.618147 -0.103763 -0.544401 0.731456 1.316037 -0.162606 -0.533167 -2.159577 -0.500213 -0.318448 0.407939 0.480402 0.190630 -1.407336 -0.161184 -1.019542 -0.845942 -0.593834 -0.268961 -0.634320 1.070942 -0.139142 -1.395099 -1.433869 -0.804664 1.883494 0.441634 -0.592910 0.220417 -1.368458 
regression -0.032269 -0.628175 -2.203278 0.792436 1.052006 2.424675 1.346947 2.363585 1.698860 -0.540335 -0.063899 -1.567012 0.762363 1.740793 0.596720 0.119459 -1.216203 -0.793782 1.272782 0.879812 0.412663 1.540149 0.317417 -0.376321 -0.136668 1.560403 0.830800 1.372125 -0.317822 0.326661 -0.985064 -0.273536 0.258742 0.811495 0.106159 -1.299080 0.142106 0.411688 0.343404 -0.189217 -0.335371 -0.846918 1.793088 0.010147 1.219378 0.646140 -1.248668 -1.044633 -1.104564 1.326560 -0.871039 0.389408 1.864842 0.104664 -0.545123 -0.770783 -0.347343 1.389801 -0.487142 2.437162 0.842195 -0.547803 0.846479 -1.489651 -0.811055 -1.178280 1.310442 -0.736339 -0.620533 -1.256855 -0.143413 0.133823 0.749156 0.061361 -0.278766 -0.798316 -0.483506 0.035015 0.412755 1.101606 0.925637 -0.302137 -0.723799 -0.320750 0.406785 -2.177381 0.656641 -1.338667 0.805069 -0.999409 0.115925 -0.060796 0.244513 -1.142505 -0.468068 0.677771 -0.608089 -0.154408 0.376512 -0.583048 1.444818 -0.447327 -1.107424 -0.725094 0.456608 -0.269558 1.565606 -0.869122 1.317235 0.946521 1.144533 0.908415 -1.080337 0.479951 -0.258280 -0.630385 0.476704 0.828256 0.083835 -0.078289 -1.171682 0.708564 -0.018865 -0.136159 0.228180 -0.410689 -0.057188 -0.262951 -0.480832 -0.337478 -0.071414 -0.229604 0.309972 -0.018029 0.601936 -1.577720 0.961862 -0.612864 0.988629 0.907859 0.253591 -0.013140 0.354624 0.435014 0.437551 1.523265 0.961757 1.042242 -1.326614 0.022627 -2.064291 0.521800 0.498107 0.334469 -0.981809 -0.177700 0.100425 -1.248175 -0.459546 1.403001 -0.885784 -0.268230 -0.732430 -0.074277 -0.581462 -0.734166 1.288911 0.033845 0.795333 1.478078 -1.437032 -2.247606 -0.000453 -0.676177 0.357092 0.908037 0.040405 -0.341759 0.214631 -0.726249 -0.565638 1.050838 -0.503414 -0.031607 -0.215944 1.826698 1.383894 0.850934 -0.513303 1.283909 0.925640 0.375514 -1.769231 -0.520070 -0.226552 -0.770848 -1.097658 1.461687 -0.288819 0.425627 
linear 0.902689 -0.995197 -0.064603 1.372246 -0.574926 0.644927 -0.325379 -0.535267 1.439637 -1.035275 0.115553 0.427258 -0.458109 -0.043448 0.687091 0.034016 -0.088220 -0.155655 -1.130807 -0.470968 -1.079036 0.635464 1.560764 0.186959 -1.607911 -0.659455 0.034015 -0.389425 0.434599 -0.136614 -0.483975 -0.463582 -0.243009 1.114696 1.784017 0.655702 -1.087782 0.645497 -0.326751 1.537733 -0.351850 1.290996 -1.405486 -0.201469 -0.267652 -1.021984 -0.856820 -0.913930 -0.651074 -0.250764 -1.789427 0.154333 0.647322 0.326800 1.683604 -0.021577 -1.384338 0.619445 0.816518 0.415236 -0.586897 -1.063001 -1.155091 0.092928 -0.795855 0.103929 -0.214165 -0.320951 -1.057968 -0.193776 -0.046679 0.860359 1.860957 0.463262 -1.902814 1.720278 -0.965998 0.236664 -0.572249 0.157957 1.193009 1.327444 -0.413054 1.767134 1.490103 0.377011 -0.034669 -0.897512 -0.882227 -0.314450 0.119971 1.619392 1.790941 0.373088 0.796589 0.595934 0.696292 0.156022 -0.083225 -0.266231 -0.996659 0.617620 0.760523 -0.122674 -0.182801 0.817181 -0.936619 -1.603892 -1.373444 0.291642 2.219531 1.656658 0.417586 -0.294896 -1.321551 -1.113741 0.204724 0.883324 -0.289613 -0.299446 -0.957654 0.429661 -2.311900 -1.201482 -2.024689 0.030909 -0.540163 -0.871443 1.156039 -0.962996 2.017347 -0.563135 0.342637 0.762832 0.307983 0.600964 0.849542 0.182490 0.100858 -0.614822 0.449966 0.255394 -0.372174 -0.656645 0.757783 -0.867596 1.866582 -1.790624 0.957101 -0.048266 0.056636 1.370925 -0.082420 -1.319039 -0.442041 -0.530862 0.022130 0.855011 -0.402200 -0.799257 1.304653 1.078537 0.601341 -0.406375 0.032617 -1.489958 -0.639707 -1.295316 -1.050355 0.890434 -0.380866 -1.236347 0.086549 0.574244 -0.614577 -0.174915 -1.137634 -2.375842 -0.936742 0.118671 -1.553676 -1.946176 -1.136908 -0.265498 -1.217109 0.168790 1.051451 0.371528 0.483421 -1.585053 0.204811 -1.229033 -1.513517 0.105251 -1.069385 -0.269586 0.290086 0.535691 -0.023702 0.121201 
kernel 1.176193 0.194214 0.614457 -0.190024 0.559749 0.280736 1.927997 0.915028 -1.350812 0.258372 0.734878 0.287474 2.088192 -0.666863 -0.345225 -0.714805 0.133866 -0.791451 -0.519867 0.676909 0.617865 0.404987 -1.020610 -1.572238 -0.110855 -1.273901 -0.358191 0.121513 0.337665 -0.332946 -0.438957 -0.926178 -0.250698 -0.940507 -0.673030 0.629831 -1.605880 0.777736 -1.107264 -0.562659 -1.138667 -1.240163 0.763115 -0.904478 -0.138178 0.179592 -1.049344 0.666279 -1.332174 -0.777219 -2.140944 0.760292 1.616984 -1.885785 -0.830893 -0.111621 -0.971367 -0.093929 -0.428401 -0.424206 -0.130139 -1.487409 0.701492 -1.006326 0.572337 0.022456 -0.249065 -0.594654 -0.266993 -0.555042 0.904295 -0.293069 0.834292 0.841158 -1.489206 1.293769 1.500033 -0.490236 0.021380 0.507688 0.664487 0.134204 2.477118 1.716601 0.852545 0.218626 -0.448870 -0.121667 -0.190174 1.013775 0.135205 -1.140715 1.239430 0.073264 0.417170 0.407514 -2.317773 -1.299495 1.580459 0.386857 1.561880 -0.422199 -0.379672 -0.022811 1.668978 -0.724284 -0.308223 -0.189373 -2.030622 -0.156510 1.012659 0.585842 -0.142145 0.085999 -1.916502 0.232940 1.025104 -1.327263 -0.661622 1.434408 0.238792 0.477139 -1.098384 -0.494853 0.497526 0.285086 -0.743943 -0.048841 1.446480 -0.364389 -0.719632 0.230825 -0.758241 1.640863 0.581580 -0.703281 0.297275 0.387363 -0.170008 -0.365163 0.418228 -0.219590 0.227531 0.625371 1.211330 0.438535 0.357358 0.305563 -0.184603 -0.777480 1.403824 -1.330530 -0.666032 0.990733 -0.107508 -0.149882 0.708021 -0.014974 0.084613 -0.062475 -0.659037 -1.099067 -0.382790 -0.110343 -0.650465 0.548438 0.643988 -0.276903 0.785721 0.082980 0.280084 0.332941 -0.278597 0.439228 -1.886469 -0.680390 -0.145146 -0.805194 -0.762395 0.670181 0.985793 1.147129 0.049672 0.670788 -1.290082 1.001307 -1.164872 0.094407 1.093548 -0.082104 1.687709 0.844223 -1.824264 0.423494 -0.523655 0.852800 0.561812 1.656705 -0.481584 -0.416658 
prediction 0.236775 -1.764173 0.110705 1.469364 -0.478491 0.878247 0.453878 0.239917 -0.683815 1.573218 -1.097710 -0.572918 -0.071820 -0.239418 -0.739762 0.421044 -0.321845 -0.338482 -0.616847 1.155376 0.231660 0.347570 -2.855329 0.081379 -1.124404 1.205249 -0.114778 0.060990 0.203889 0.443378 -1.149708 1.376907 1.500013 1.078591 -2.027339 -0.532984 -0.351862 0.619879 -2.421693 -0.166222 -0.655445 -1.156672 0.189096 -0.171273 0.880885 -0.628383 0.194868 -2.177015 -0.164232 1.036945 -1.048146 1.387460 -1.461831 -0.120136 0.265023 -0.288526 1.748915 0.050465 -1.080613 -0.912597 -1.521124 1.461412 0.461237 0.687717 -1.058282 0.554382 0.417411 0.985408 -1.609102 0.201779 1.001046 -1.308061 -1.509079 -0.655003 -0.538889 -1.115350 0.186947 -0.166951 0.841164 0.866421 0.582155 -0.184921 -0.882212 0.215243 -0.098592 0.263910 -0.966136 -1.238507 1.631246 0.039433 -0.314860 -0.380452 3.771742 0.412419 -0.276107 0.455582 -1.287703 0.314783 2.129382 -1.070658 1.857228 0.258939 -0.508381 -0.661163 -0.702612 -0.303270 0.181660 -0.545015 -0.905216 0.761235 0.474633 0.848806 -0.702353 0.705410 0.161845 -0.851488 1.313930 -1.659238 2.627464 -0.498169 1.104683 -0.762739 0.123548 0.836034 -0.115225 0.325005 -0.692827 -1.136533 0.831592 0.862510 -1.062819 1.204257 0.969388 0.995056 0.431436 -1.196111 -0.950859 -1.257928 0.415414 1.712845 0.405239 -0.779269 -0.278507 1.258313 -1.330815 1.826174 -0.638392 -0.009254 -1.240828 -0.544746 -0.503389 -0.577055 1.116969 -0.212755 0.331538 0.172657 0.099458 -0.343048 -0.736955 0.486804 1.677716 -1.298537 -0.072849 0.243290 0.615842 0.152726 1.278758 0.447708 0.855439 0.716807 -1.424905 1.265533 -0.286235 0.699411 -1.381611 -0.057977 0.163837 1.867818 -0.344044 0.727438 -0.061476 -0.149701 -0.578572 -1.219222 2.249336 0.007847 1.179958 -0.642432 -0.615557 0.092557 0.024263 -0.330242 -1.370088 0.612275 -0.963466 0.709667 -0.832314 -0.689576 0.938638 1.075773 
estimation -0.763056 -1.074052 -0.254167 1.477277 -0.720936 0.167738 0.840477 2.431820 -0.348499 0.562380 -1.127639 -0.315424 0.635420 0.931142 -0.355016 -0.599208 -0.855108 -3.680984 0.895261 -0.319296 1.071643 1.773827 1.488099 -0.078082 -1.152189 1.842463 0.302217 1.015085 0.262933 -0.948642 -0.603412 -0.430144 1.690272 -0.393662 0.156669 -0.594966 -0.716847 0.509168 0.468203 -0.567717 0.166374 0.769689 -1.479465 0.847119 -0.207067 -0.434537 -1.627100 0.094361 0.246159 2.017169 -0.998160 -0.341333 -0.186458 0.264745 -0.351394 0.915471 -0.194419 1.941182 -0.607561 1.385648 2.441310 -0.281303 -0.920387 -1.769483 -2.246504 1.089366 1.744902 0.697096 0.845172 -0.819964 1.849297 0.449953 -0.875165 -1.642212 -3.433451 0.653641 0.870499 -1.376100 2.164844 -0.498349 0.908415 -0.504848 0.058256 -0.731764 -0.771943 -0.954361 0.654359 0.144965 -0.998920 -0.586614 -0.356016 1.001460 -0.522344 -0.626543 -0.156202 0.391857 -0.363846 -0.160163 1.338170 0.033738 0.361287 2.173067 0.070649 0.591763 -1.755579 -0.553185 -0.719414 1.311731 0.144679 -0.150019 0.114496 0.813070 0.757747 0.100714 0.096762 -1.113525 -1.365359 -0.116105 -1.819982 0.392893 1.935057 0.593583 -2.667589 0.031767 -0.562149 0.564174 0.222535 -0.044256 -0.268779 0.297285 -0.157338 0.240423 -0.295193 0.092089 -1.059674 -0.791692 -1.168097 0.417409 -0.272833 -0.962930 -0.562255 0.715388 1.253903 -0.559612 0.179356 0.520566 0.733925 -0.177410 -3.251395 -0.035676 -0.127344 -0.191088 -0.949845 -0.059073 0.434280 -0.887571 -0.267600 -1.052241 0.172090 -0.149497 0.138278 0.656085 -0.429325 0.403747 -0.681500 1.248275 2.402079 -0.083069 0.056448 -0.006728 1.390483 1.793278 0.570256 0.089181 -0.106408 1.922941 -0.863036 -0.095710 -0.667210 0.453530 0.276148 -0.267166 1.215000 -0.589537 -1.666906 0.228515 -0.971596 1.498539 1.148474 0.621229 -0.599372 -0.766562 -2.237823 0.148870 0.735363 -1.395843 0.698759 -0.974654 0.540461 -1.168801 
based -0.158090 -2.213631 0.033916 -1.116403 -0.327798 -0.807425 -1.975846 -0.268636 0.378630 -0.250616 0.357532 0.981794 1.603957 0.632028 1.944119 -1.792649 0.641175 1.963402 -0.293252 -0.875013 -1.358184 1.934778 -1.321115 -0.975767 -0.874933 0.204772 -0.255737 1.543165 1.370666 -0.416466 0.732651 0.041058 0.625329 0.825631 -0.823638 0.779345 0.031466 0.158089 1.226851 0.365481 0.018739 -1.043890 -0.031862 -0.988646 -0.075249 -1.132230 -0.098507 1.414634 -1.836559 -2.499748 0.348667 0.839990 -0.104242 -0.903244 -3.330234 0.111329 0.399506 1.249457 0.286617 0.335553 1.428532 1.173934 -0.082798 1.614474 2.266663 1.379133 1.220338 1.043329 -1.489369 0.364060 1.188988 -1.028162 1.577759 1.794161 -0.452715 2.333932 2.340811 1.753633 1.185300 0.097028 0.095376 -1.113849 -0.318911 0.878993 -0.516158 0.783992 -0.815501 -0.896543 -0.894213 1.081869 -0.563349 0.647473 1.579505 -0.003096 -1.848441 2.614898 0.265478 -0.474468 1.413024 -1.876049 -0.122815 0.698528 -0.023196 2.811910 1.450062 -1.176794 1.289454 -0.441308 0.657901 -0.575664 -1.007853 0.565105 0.869016 0.464754 1.408804 2.776693 1.148032 -0.375359 0.528879 1.742088 -0.571603 1.045411 -0.706283 1.323888 -0.208493 0.274568 -0.629105 -1.970712 1.323407 -0.580355 -0.122755 -0.667978 -1.321672 -0.011490 0.069547 -0.687452 0.613531 -0.162278 -1.767296 -0.108925 -1.120182 2.835190 0.375856 0.109443 0.244750 -0.477487 -0.900940 -1.899233 -0.371910 -0.863321 1.593747 -2.481454 0.809017 -1.409862 0.413966 0.035424 -2.148836 -0.509674 -0.237455 0.149166 -1.517296 1.368178 0.639166 0.782234 -1.133621 0.539227 -1.432102 -0.430364 0.121017 0.249677 -0.425706 -0.424965 0.269748 -0.549611 0.120949 0.274797 -0.530365 -0.933017 -0.765718 -0.090719 -1.666425 -2.061164 -0.196094 1.511464 -1.808581 0.019119 -0.922560 0.181716 -0.672614 -0.712554 -0.966034 0.326996 0.307392 0.952379 -0.653288 2.513992 0.980061 -0.846084 0.123707 -1.026962 
search -1.082032 0.875380 -1.097507 -0.296311 0.092757 -0.573663 -1.380502 2.574387 -0.047742 -1.574666 0.937936 -0.942720 1.840472 0.392289 -0.600846 0.541437 -2.196070 -0.748656 -0.219756 0.711775 0.900241 0.585745 -1.018071 0.881998 1.079726 1.030036 -1.989661 1.160718 -0.713732 -1.292114 0.051660 -1.599495 -0.047643 0.686106 -1.349580 -1.974972 -0.954084 0.626888 0.050233 -1.526952 0.990090 -0.941487 -0.108684 2.464676 -1.238970 -0.342031 1.310660 1.047665 -1.500344 -0.860650 1.547270 -1.787870 0.809222 -0.142886 0.279558 0.333692 -1.263186 -0.605726 0.760425 0.626967 0.255039 -0.048523 -1.926231 -0.246962 0.110283 0.102842 -0.082539 0.434770 -0.288132 0.648342 0.059821 1.263972 -0.048424 0.059292 -1.874702 0.698503 0.626190 1.306425 -1.811499 -2.845283 -1.077286 0.641615 -0.973217 -0.847761 -1.188921 0.156857 1.489355 -0.376346 -0.420765 -0.321247 0.847464 -1.056161 0.820233 0.875389 -1.255857 0.005422 0.266231 0.277441 -0.228387 1.018381 -0.015492 0.838666 -0.788811 0.273717 0.943198 -0.215099 1.104702 -0.819219 1.656327 1.207440 1.990019 -0.842217 -1.303499 -1.293314 1.081275 0.339670 1.084673 0.505667 1.384188 0.054536 -1.391186 -0.012535 -0.369968 1.339757 -0.575287 0.336174 0.631056 -0.698375 0.032389 -0.399882 -0.533511 1.155632 -0.476655 -2.321339 0.740202 -1.518602 -2.329776 0.610720 -0.102923 0.309285 -1.477278 0.283537 -0.004393 -0.671741 -0.999866 -0.121215 -1.029642 -0.020034 -0.062132 0.621790 -1.515401 0.506888 -0.283329 1.286663 0.112473 0.351322 0.882939 0.386444 0.810798 -1.026631 0.498395 -0.827652 -0.189189 0.565812 -1.524423 -1.669447 -0.737161 2.143968 -1.012183 1.054783 1.461338 1.618607 0.308393 0.007176 -0.770405 0.537349 1.124772 0.946984 -1.135479 -0.956367 1.246280 1.472270 -0.203224 0.400025 -0.806726 -0.288393 -0.490509 -1.300365 -0.332405 -1.235674 -0.557292 -1.162434 -1.764149 0.549663 2.560400 -0.949918 -0.363989 1.387226 0.111979 0.111555 
networks 0.039397 -0.696996 -0.968928 0.206251 -0.577464 0.706077 1.076065 0.162519 -1.569183 -0.336375 -0.864825 0.185276 -0.400550 -0.629278 0.449034 -0.010590 0.043941 -1.887802 -2.273755 1.666044 -2.000492 0.558857 0.880746 0.470627 0.983854 -1.346578 -1.158127 1.866045 -0.005858 0.157662 -0.163760 -1.283270 -0.849489 -0.444676 0.252606 -0.254493 0.630571 -1.442386 -0.406055 -0.802549 0.262167 1.130076 0.525164 1.929661 -1.050707 -0.449178 -1.218482 0.280367 1.204394 0.553834 1.015560 0.775557 1.466411 -0.683671 0.745540 -1.673332 0.706372 -2.117044 -2.234093 -0.552985 0.499858 -1.511908 -1.157079 -0.824206 0.228203 1.547444 0.735441 0.575789 -0.925647 0.033098 -0.843305 1.106041 2.416146 -0.031230 0.853275 0.032801 0.836913 -0.162060 1.343533 -0.000509 -0.013258 -0.222998 0.645242 0.705584 0.879973 0.586866 1.252179 -0.432852 -0.117351 1.676539 -0.275446 0.410964 -2.539782 -1.057929 -0.309645 0.096293 -0.039807 -0.767386 0.129233 0.380978 -0.046363 -0.165001 -0.946530 0.343368 -0.127383 1.026361 -0.807219 -0.307139 1.646819 2.015323 -0.223150 0.504599 -0.611897 0.443467 0.207607 0.651082 0.823943 1.578364 1.076974 -1.253735 -0.689070 0.327456 -0.060299 0.123654 -0.567392 0.593872 1.291426 -0.685523 -1.093866 0.427239 -1.749398 1.144407 -0.181404 -1.675408 -1.150312 0.186914 -1.022091 0.627800 -0.416718 1.895531 1.179973 1.927843 2.156334 -0.651042 -1.324567 1.074221 -1.298566 2.089651 -1.767395 -1.100217 -0.996824 -0.005941 0.855159 -0.673223 0.442945 -1.068834 0.027130 -0.972964 0.116315 -2.555447 1.689388 0.248616 1.431131 0.020344 -0.524871 1.523920 0.552350 0.895907 0.082777 -0.299007 -1.533836 0.805005 0.551131 0.573815 -0.182393 1.133623 1.367391 -0.152704 0.611337 -0.219151 0.322684 -1.593210 0.715368 -0.847341 -0.414858 0.517461 -1.121605 1.145091 0.850062 -1.874777 -0.420792 2.235568 -0.073260 -0.069188 0.030192 -0.604189 -0.257235 -0.228731 -0.651279 -0.625873 
online -0.460718 0.723734 0.409734 -0.362466 -0.000952 0.992874 0.807333 0.803089 -0.603207 -0.305410 0.317644 0.027684 0.651010 -0.139086 -0.806855 -0.380864 -1.107320 -0.737787 -0.153529 -0.919481 -1.410864 0.043821 -0.281442 -0.999797 0.306544 -0.804923 -0.614193 -0.673917 0.246472 0.181347 0.560070 -1.511230 -0.043241 1.459367 0.546161 0.645512 0.258923 -0.165332 -0.117098 -0.401236 1.281764 -0.387161 -0.676203 -0.316171 -0.618657 0.653962 0.374614 -0.191524 -0.249914 0.194073 1.590623 -1.157953 0.614600 0.866708 2.296179 -0.277606 -0.800759 0.910376 -0.123185 0.378533 -0.892088 0.490959 -0.799753 -0.791792 0.932079 -1.818228 -0.378709 -0.732868 -0.254289 0.544664 -1.239344 -0.451572 -0.141639 -0.241803 -0.562925 0.978586 0.096602 -0.206975 -1.396444 -0.454553 -0.206237 0.297961 -0.375290 -0.122568 -1.021902 0.487725 0.645504 -1.168551 0.802538 -0.055476 -0.459728 0.491186 1.021229 0.115490 -0.444459 -1.274801 0.631720 -0.130733 -1.480121 -0.482179 -0.752587 -0.284570 0.257398 -2.027933 -1.684715 0.396342 0.280110 -1.551080 -0.227015 -0.312918 -0.473659 -1.381910 -0.195860 -0.732784 -0.357522 1.395720 -2.195726 0.234227 -1.474743 -0.933105 1.170585 -0.814292 -1.169374 -0.307295 0.219588 -1.020771 -0.058377 -0.196519 -0.163989 -0.266486 0.539577 0.469535 -0.532655 -0.661567 1.479782 -0.436598 1.104899 -0.238236 0.173579 -0.205396 -0.484384 0.980081 -0.734229 1.223886 0.254272 -0.216342 0.466931 0.198995 0.851192 1.877240 -0.921140 0.524427 -0.464089 -1.590760 -1.345469 1.123804 0.079807 0.338378 -0.725544 -0.433544 1.720413 -0.990841 0.736634 -0.727311 -0.634586 0.100201 0.186835 0.386289 -0.439413 0.370123 -0.975632 -0.381188 0.731637 -0.714508 0.011884 -0.990957 0.934262 -0.415360 0.533197 -0.333741 0.472735 -0.191577 -0.755567 -0.865075 -1.019464 1.148576 -0.370012 -0.797682 0.737130 0.479743 0.563937 -0.922358 -0.896155 0.997681 0.464393 0.416591 0.298747 0.019788 0.420598 0.753543 
active 2.598273 0.396856 1.117373 -0.166844 -1.691252 0.805510 1.401703 0.269907 -0.357119 0.792715 0.040735 -0.937675 0.651378 -1.960175 0.747245 -1.400800 -1.399487 -0.334452 0.319861 -0.333086 -0.966413 0.092200 0.639409 0.098909 0.652998 -0.875352 -0.818931 -0.300600 1.836155 -0.786274 -0.473997 -0.576181 -0.962083 1.384925 -0.630260 -1.360271 0.613457 -0.159210 -1.328447 -0.676081 -0.305927 -0.573548 -0.135494 -0.971023 -0.295066 -0.604570 0.233214 -0.151502 -1.120214 -1.306509 -0.395294 0.774847 -0.948566 -1.061939 0.596384 0.364614 0.322709 -0.070987 0.103622 -0.383634 -0.084330 -1.546287 -0.799772 -0.101499 0.853405 -1.504635 -0.797022 -0.806104 -0.870347 -0.713871 0.171683 -0.308055 -0.083930 1.798117 -1.196493 -1.084538 0.716873 -0.585533 1.134346 -1.241058 -0.909554 -0.514267 1.339056 -0.980564 -0.920574 0.255899 -1.736649 -0.957892 0.738719 1.132813 0.171908 0.208475 0.179842 0.925831 -0.806705 0.296958 -0.071634 0.270923 0.507351 0.067101 0.850203 -0.457267 -0.047847 0.440624 0.558173 -0.870501 -0.330239 0.030524 0.997766 -0.098676 2.644161 1.426815 -0.598870 -0.338235 -0.672592 -0.440955 -0.218671 -0.249229 0.076833 0.467733 -1.405817 -0.133162 -1.166073 0.108414 0.640284 -0.736412 -1.803332 -0.977387 1.175331 0.626881 -0.673218 -0.081594 0.128854 -0.396743 0.135838 1.435151 0.361608 0.719958 1.054630 -0.547806 -0.765692 1.732690 0.529082 0.446720 0.442529 -0.105511 0.068850 0.899539 1.515785 0.857427 -0.190390 -0.442367 0.467859 -0.004416 1.239123 0.455221 0.988555 0.514745 -0.951981 -1.813145 0.599280 0.818337 -0.972008 -1.012625 -1.105132 0.929059 -0.708486 -0.503356 -0.762490 0.120174 0.580694 -0.227977 0.097606 -0.521563 -0.238529 0.549785 0.723370 -0.780638 1.122043 0.331003 0.055271 0.405342 -0.261529 -0.491822 0.187304 -0.959945 2.114449 1.427286 0.732165 0.608329 1.127504 0.611549 -1.783284 2.305458 -0.449607 1.060564 -1.132831 1.547124 -0.590197 -0.666329 
deep -0.304151 0.632561 0.210874 -1.184252 -0.110253 1.446501 0.354876 -0.398841 0.313806 0.032911 -0.451871 0.077365 -0.342838 1.386807 -0.205201 -2.067356 0.077573 1.370438 -0.113640 0.368093 -0.827904 -0.142112 0.110506 -0.849423 -0.136342 -0.522770 -1.137120 -0.226046 0.530303 0.950579 -1.197489 1.476549 0.928434 -0.410025 0.689577 -0.259032 -1.800700 -0.475938 0.725817 -0.123439 -0.804280 0.002892 -1.297500 0.356917 -0.472690 0.777559 -1.696747 -1.430691 -1.271979 0.293334 0.272227 -0.871449 0.100250 -0.097316 0.805722 0.651682 -0.386883 -0.351849 0.748510 -0.321218 1.129875 1.160242 -1.966165 -0.282713 -1.198804 -0.308387 0.196633 -0.906066 -0.739388 -0.175084 -0.982308 -0.639048 -0.530597 -1.101991 0.946686 0.056644 -0.885792 -0.119296 -0.908213 -0.930949 0.232849 1.214238 0.200420 0.266583 1.352941 -1.022738 1.283399 -0.380154 -1.455275 0.644837 1.213972 1.032699 1.191702 0.206202 -1.006391 -0.523542 1.452483 -0.716381 0.348002 -0.585531 -0.912128 -0.322753 -0.963204 -0.664326 0.151058 0.836878 0.704805 -0.816184 1.098956 1.669386 -0.572147 -0.007233 -1.081669 0.483329 -1.574867 1.266722 0.272164 1.278613 0.523925 -0.231710 0.408328 1.016993 -0.552474 1.291194 0.034709 -1.203601 -1.413298 0.113553 0.082423 -0.363517 -0.838378 0.093870 0.238746 1.496029 -0.050262 -0.969518 -0.958347 -0.241836 0.230320 -1.226624 -0.032457 0.392380 -0.263022 1.155185 -0.846548 -1.464103 1.716073 2.534431 -0.616248 1.137514 0.127148 0.131982 -0.907395 -0.232312 0.307704 1.505693 0.294996 0.266975 0.753716 2.037733 0.169310 -2.617189 1.420724 0.887132 -0.499806 -1.686173 -0.043228 0.674349 0.971421 1.130162 -1.026119 0.174036 1.446399 -2.276531 0.159588 -0.814847 -1.472569 -0.984438 -0.807950 1.339908 -0.951702 0.506467 0.530578 -0.827259 0.996118 1.726046 1.093305 -0.029288 -1.095672 -0.033173 0.017856 0.234614 -0.266708 -0.583580 0.206126 1.894241 -0.652591 0.782036 0.692629 -1.271858 
structured 0.956511 0.537852 -0.107539 2.036024 -0.650737 0.948496 0.612091 1.274866 2.046359 0.906489 1.045043 -1.291758 -0.392016 0.091334 -1.465811 -0.455139 -0.171505 -0.679852 -2.056904 1.229866 -0.597099 0.666814 1.447307 -1.274778 -1.587279 -0.369548 0.547640 -0.195578 0.978114 -2.074500 -0.860457 -0.428737 0.255525 -0.076547 1.958030 1.822451 -0.300221 -0.134902 0.340510 -0.759057 0.670070 0.563955 -0.006602 -0.358597 1.409359 0.588376 -0.985398 -1.270905 -1.260090 -0.761813 -0.691600 -0.800474 0.692107 0.226334 0.584808 -1.478955 -0.364195 1.239429 0.733667 -0.265218 0.929826 -1.554729 -1.242665 1.206019 -0.666795 0.683011 -0.246027 -0.372250 -0.477250 -1.746458 -0.305967 1.947995 1.242440 0.334650 -1.649552 -0.724909 -0.042348 -2.386532 0.650577 -0.465860 -0.300126 0.613907 0.568481 0.273721 0.008473 -0.062778 -0.385828 -0.731144 -0.865399 0.978357 -1.574256 1.132049 -0.104687 -0.031922 0.934311 0.211560 0.058475 -0.783841 -1.280385 -0.340280 -1.417539 0.417195 -0.680580 -0.406701 -0.226735 0.659454 0.993278 -2.660696 -1.017493 0.923563 1.658448 2.341998 0.827965 0.539571 0.490466 0.756694 0.657007 -0.305628 -0.398902 -1.218435 -1.482689 1.239387 -2.228581 -0.850711 -0.995041 -0.656445 1.113273 -0.353484 2.006334 2.003512 0.675758 -0.925115 -1.693885 0.970410 0.310700 -1.079239 -1.420413 0.296003 -0.032214 -1.033132 1.283145 -0.279626 1.179822 -0.180743 0.336927 0.644805 0.366969 0.216491 0.890824 -0.504553 0.924655 -1.371660 -0.610178 0.131612 0.832348 0.142274 -0.760126 0.418471 -0.484823 0.509153 -0.525485 -1.084610 0.008878 1.513109 -1.022756 0.102154 -0.292711 -0.154948 0.479318 0.275498 -0.782542 -0.425089 0.570235 -0.273530 1.360457 -0.274799 1.085090 -0.957149 0.555428 0.154083 0.158075 -0.600028 -1.352107 0.389436 -0.347281 0.488690 1.972872 2.970666 0.600906 -1.258337 -0.252256 -0.590827 -1.566876 -0.296938 1.270052 -0.075338 -1.399995 -1.150087 -0.850743 -0.002022 
hierarchical 1.499143 -0.655887 0.392071 0.076367 -0.750447 0.348184 -0.648131 0.060080 -0.748044 0.383673 0.654378 0.006201 0.201379 0.299231 0.083315 -0.387473 -1.059273 1.296272 -0.606551 1.019461 -0.162686 -0.773960 0.879713 -0.610664 -0.645174 -1.785185 -0.197731 0.179613 -1.162824 -0.339257 0.025926 0.252225 0.690732 0.758340 -0.394486 0.759552 0.871158 0.475191 0.093668 -0.090445 0.797812 -1.135966 -0.757244 -1.358564 -0.141815 -0.007356 -0.113732 -0.055712 -0.928149 -1.057194 1.062399 -0.073610 0.391702 0.450446 -0.496624 0.777287 0.627334 -0.132216 1.471015 0.106302 -1.043129 0.673890 -0.337018 0.051486 -1.148876 -1.433723 -0.410321 -1.150893 -0.688559 0.008091 -0.386085 0.483485 -0.903748 0.347304 -0.425357 -1.003208 0.041081 0.021843 1.501216 0.536489 0.433740 0.346000 -0.289492 1.175500 0.124303 1.413777 -2.032668 -0.810177 0.032209 -0.612621 1.228241 0.795747 1.983516 -0.217264 0.816293 0.132738 1.646115 0.768601 -0.811962 -0.140566 -0.884150 0.792101 -0.231528 0.069851 -0.835906 0.275085 -0.177668 0.167856 -0.191362 -0.133311 -1.116039 1.266471 0.131357 -0.593478 1.129333 1.654143 -0.222687 0.609026 0.367347 -0.460201 -0.294745 0.817931 -0.013866 -0.159995 -1.759356 -1.377393 0.498329 -0.805708 0.110267 -0.462116 0.958643 0.149940 -1.583607 -1.513938 0.647873 -1.626367 0.052932 0.182235 1.384628 -1.239559 -0.496480 0.496820 -0.485396 0.520025 0.877421 -0.057499 1.668283 1.922869 -0.724278 1.283635 1.480163 -0.685722 0.098762 0.821704 0.277779 0.465362 0.323148 -0.585695 -0.981754 -0.719945 0.999449 1.734868 -0.544960 -0.021662 -0.559939 -0.974840 -0.481748 0.282391 0.684917 1.119225 -0.762368 -0.052254 -1.006773 -0.944314 0.918870 1.129580 -0.132227 -0.504507 0.653809 -1.421578 -0.575093 0.455149 -2.169354 -0.649720 -0.467205 -0.437211 0.069279 -0.224145 -0.342678 -1.071235 0.016523 -0.197037 1.191404 0.370858 -0.510374 1.774411 1.545491 -0.300649 -0.525152 0.017122 
inference 1.105379 0.276992 0.723109 -0.261171 -1.038696 -0.019585 0.831961 0.176138 -1.138264 0.903457 -0.046768 1.577135 1.350307 0.123336 -0.143998 -0.261123 -1.008433 -3.101517 0.638447 -0.450083 -0.400541 -1.528943 -1.053576 0.300020 -0.770646 -0.009421 1.530578 0.071392 -1.390130 0.795415 -0.322212 -1.913588 1.770835 -1.185190 -1.369859 -0.379708 -0.087861 0.178662 -0.532989 1.485163 0.358723 -0.575683 -1.090292 1.053112 -2.014299 -1.360365 -0.887699 -0.226378 -1.649913 0.847515 -1.398522 -0.329231 -0.457119 -1.894995 -0.615296 1.033562 -1.559562 -0.124418 -0.608762 0.675195 -0.559690 2.294939 -0.263139 0.073498 -1.325932 -0.697550 -0.717942 -1.242069 -1.187344 0.363088 0.594339 0.445150 0.419423 -1.552357 -1.023134 -0.986470 1.792571 0.737062 0.887765 0.829551 -0.422451 1.615729 -0.866057 0.169159 0.268974 0.394516 0.719957 -0.685826 0.551115 -1.317976 1.619759 -0.741864 -0.590112 -0.106010 0.163578 -0.715902 -0.783001 1.122367 -1.009055 -1.777970 0.885191 -0.174101 -0.683560 -0.061189 0.712638 -0.334786 -0.023803 0.162124 -0.496369 0.073155 0.126818 0.283177 -1.131789 -0.189247 -0.962275 -0.144790 0.770811 0.576438 -0.544511 1.333442 1.542671 0.556316 -0.490398 -0.015910 -1.036098 -0.823223 -0.735204 -0.884293 -0.114891 0.309626 -0.263950 1.249199 -0.942070 -0.430490 -0.826190 -1.641711 0.818246 1.238684 0.358842 -0.344560 -2.170847 1.330644 1.962849 2.144544 0.103214 -0.415954 0.040957 0.963579 -3.176803 -0.542979 -1.689555 -1.498381 2.087373 0.289543 0.059720 -0.736500 0.198428 -1.504268 0.793096 -0.950407 0.318147 0.918771 -0.092571 -0.752387 0.013014 0.480277 0.935698 -0.833046 -0.806701 -0.261705 -0.561981 -0.671649 -1.135079 -1.249644 2.252444 2.530912 -0.020075 0.612686 -0.015841 -0.159001 -0.917948 -0.534002 -0.544417 0.374578 0.320774 2.874726 -0.236087 0.330906 -0.660025 0.635729 -0.599272 0.856004 -1.280136 1.161794 0.190580 1.331539 -0.650443 1.609208 1.160586 0.704789 
robust 1.477636 0.325152 -1.470645 -0.894429 0.131003 1.086577 1.961104 -0.005855 0.299438 -0.985437 1.168626 0.318902 1.269519 -1.166365 0.655426 0.556287 -0.473705 -0.618777 -1.340180 0.841678 0.262716 -0.106879 0.343073 0.191540 -0.148446 -2.152889 -0.122802 -1.336620 0.865619 -0.303512 -0.075233 -1.138213 1.054264 1.047065 0.562157 0.330987 0.067399 0.311400 0.525015 -0.585241 -0.535803 0.465414 1.566527 -0.648549 0.943721 0.498010 -0.029195 0.478413 -0.905529 -0.214106 0.266344 -0.029713 -1.087482 0.380608 0.324248 1.080216 0.344320 0.054096 -0.123657 0.882552 0.442999 -0.946576 1.481326 -1.289264 0.458481 -0.862200 1.336057 0.516132 0.818878 -0.068587 -0.179760 1.303275 -0.579907 0.957718 0.876229 0.368216 0.022852 0.851134 -0.014048 -0.407657 0.079329 -0.080424 0.932751 0.555982 0.497801 0.601220 -0.154900 1.387094 1.492169 -0.037714 -0.349116 1.672523 1.500561 -1.145840 0.292832 -0.324724 -0.666841 2.408308 0.250769 -0.604456 1.810360 -0.475903 -0.036416 -0.408862 0.393880 -0.376129 1.101265 -0.679047 -1.111143 1.048925 0.627239 0.867007 0.117533 -0.893169 -0.832621 0.700770 -0.109423 -0.632246 -0.107208 -0.286638 -0.489289 0.152829 -0.243551 -0.225907 0.269096 0.183010 0.292349 0.303844 0.629984 -0.876996 -0.597288 -1.395021 -2.254457 -1.678729 0.705216 -0.000741 0.257967 1.047068 0.305375 -0.591483 -1.205000 -0.461547 -0.310741 -0.414942 1.566858 -0.813178 1.832915 0.652653 -0.026494 0.774638 -0.181456 1.222775 -0.485613 -1.136630 -0.424158 -1.186292 -1.276543 0.253238 0.740954 2.803627 1.652606 0.399843 0.070375 0.353741 1.500555 -0.107647 0.412232 0.167020 1.263321 -0.389643 -1.185942 -0.825130 2.208171 0.638384 -0.325564 1.048082 0.100247 -0.872115 1.538082 0.360788 0.651307 -0.380779 -1.047495 -0.105218 0.152441 -0.479582 0.643521 -0.200994 0.821465 -1.214476 -0.644636 -0.691696 -0.642067 2.306312 -0.119253 0.613749 -0.856752 1.288162 0.165029 -0.065198 
method 0.644208 1.509872 2.541813 -0.115218 -0.010100 1.917623 1.015430 -0.915450 1.215895 0.460714 1.238698 2.094032 0.779960 0.340009 -0.306637 2.743775 -0.186589 -2.255224 -2.972733 0.562505 3.229434 0.054691 0.792715 -0.375207 0.482785 0.590494 1.833553 -1.399226 1.859579 0.951418 0.866950 -0.956017 0.174534 0.296631 1.081426 0.205910 -1.016806 0.720530 0.000135 -0.026898 1.070454 -0.151296 -1.927060 2.105795 -1.352345 1.323406 1.317530 0.051744 -0.270464 0.061962 -2.433695 -0.146479 0.078261 -1.251548 0.040895 0.475147 -1.409785 -0.926626 0.911723 0.930942 -1.548776 1.025354 0.575607 -0.866013 -0.129198 -1.223555 -1.299378 0.635531 -0.118813 0.547501 -0.186824 1.442806 0.705213 0.866278 -0.024177 -0.872506 -0.588075 1.214766 -0.852653 1.071080 -1.152973 0.146688 -1.804997 0.273399 -0.420557 0.477748 0.319903 0.714249 -1.007653 -1.103562 -1.305110 -0.104722 -0.607351 1.322593 0.331975 1.059220 1.761646 1.083404 -0.662956 -0.058483 1.717575 0.147344 0.905303 -1.144497 0.085422 0.510911 0.143956 0.137186 -0.978116 1.643818 -0.407573 0.762647 -0.191152 -0.486370 0.449916 1.378688 0.163978 -0.180481 -0.001246 0.219055 -0.201001 -0.732062 -1.315595 -2.138254 -0.643049 -1.556242 0.988384 0.815377 0.812786 0.458981 -0.351391 0.641238 -1.197881 1.492426 0.304122 -0.689062 0.448658 -1.157131 -0.336499 0.812350 -0.548115 -2.178754 -0.818440 2.056974 0.299686 1.318739 0.864157 0.881188 0.912598 -1.141905 1.048669 0.470460 0.159665 0.463553 -0.798433 -0.506198 1.406093 -0.702997 -1.848919 -0.287559 0.187528 0.349859 -0.863015 -1.446645 -0.569387 -0.395175 -0.245635 0.722494 -1.171722 -0.316288 0.130923 0.566885 -0.306169 0.987210 0.128937 -0.642474 1.837552 -1.694431 1.206274 0.781445 1.089188 -0.510227 -1.495117 0.837863 -0.227719 1.065791 -1.289991 1.601587 0.217724 1.749725 -1.268153 -0.028394 -1.079633 -1.107594 0.134098 -0.190369 -0.829383 1.678766 -0.350565 -2.659354 
gradient 2.972979 -0.646389 -0.363058 0.045812 -1.567101 1.255917 -0.089637 1.952636 0.549812 -1.961059 2.566328 0.093756 1.946543 0.553766 0.221683 -0.242770 0.325961 1.543570 1.937538 0.306370 -1.489966 -0.723398 -0.670499 -0.458868 0.454307 0.440783 -0.475186 0.307066 0.208804 0.186507 -0.081018 -0.013591 0.494658 -0.168710 0.363599 -0.881304 -0.078652 2.055801 1.450955 -1.433302 0.652614 0.001092 -0.293642 -1.816617 -1.492350 -0.999497 -1.008978 0.098421 -2.282512 -0.502309 -0.442326 -0.013476 1.346889 -0.392653 0.911374 2.139116 0.123608 -1.598922 0.907510 0.448961 -1.503674 -0.363340 -0.376937 -1.115893 0.003692 -0.658988 -1.586128 0.551776 0.869615 0.678011 0.089617 2.396560 -0.529303 -0.757950 -1.991301 -0.567428 0.581690 1.732455 -0.744282 -1.061135 -0.813160 1.785502 -0.087180 2.174388 0.996014 -0.246070 0.371296 -1.045727 -1.187390 -0.337274 0.415352 -0.642002 1.777098 -0.722775 -2.797321 -1.003254 0.013573 2.504784 0.015263 -0.427085 -0.968462 -0.168494 1.541959 0.087875 -0.457235 1.208518 0.537050 -1.379043 0.488164 -1.726664 -0.144137 -0.515637 -2.907233 -0.679362 0.465253 0.663911 0.023732 0.106668 0.354752 0.431628 0.529611 -1.493055 -0.538209 1.214801 0.860738 -0.061833 -0.174047 -0.436311 2.974240 1.905067 -0.806956 0.036656 -0.044096 -1.909796 0.353565 -1.323370 -1.944655 -0.080271 0.346135 1.552151 -0.559895 0.197114 0.728325 -0.566939 -0.593191 -1.179274 1.835808 -0.698281 -0.067846 -0.723475 -1.219849 0.297169 -2.059137 0.705131 -0.068510 0.711771 -0.201683 0.489262 0.362370 0.323709 -0.339340 -0.201882 0.446170 -0.388660 -0.942626 -0.787344 -0.594488 0.505554 -0.730567 -0.128197 0.642833 -0.902558 -0.388997 0.390662 -0.847072 -0.531886 -0.120817 -0.597584 -1.020131 -0.776199 -0.199667 0.784189 -0.698568 -0.727448 -0.949829 1.075751 0.442059 0.170915 0.247537 0.169980 1.458313 -0.922521 -0.409764 -0.336065 -0.244667 0.950475 0.947095 -0.188107 0.009820 -0.062762 
