1347 200
</s> 0.002001 0.002210 -0.001915 -0.001639 0.000683 0.001511 0.000470 0.000106 -0.001802 0.001109 -0.002178 0.000625 -0.000376 -0.000479 -0.001658 -0.000941 0.001290 0.001513 0.001485 0.000799 0.000772 -0.001901 -0.002048 0.002485 0.001901 0.001545 -0.000302 0.002008 -0.000247 0.000367 -0.000075 -0.001492 0.000656 -0.000669 -0.001913 0.002377 0.002190 -0.000548 -0.000113 0.000255 -0.001819 -0.002004 0.002277 0.000032 -0.001291 -0.001521 -0.001538 0.000848 0.000101 0.000666 -0.002107 -0.001904 -0.000065 0.000572 0.001275 -0.001585 0.002040 0.000463 0.000560 -0.000304 0.001493 -0.001144 -0.001049 0.001079 -0.000377 0.000515 0.000902 -0.002044 -0.000992 0.001457 0.002116 0.001966 -0.001523 -0.001054 -0.000455 0.001001 -0.001894 0.001499 0.001394 -0.000799 -0.000776 -0.001119 0.002114 0.001956 -0.000590 0.002107 0.002410 0.000908 0.002491 -0.001556 -0.000766 -0.001054 -0.001454 0.001407 0.000790 0.000212 -0.001097 0.000762 0.001530 0.000097 0.001140 -0.002476 0.002157 0.000240 -0.000916 -0.001042 -0.000374 -0.001468 -0.002185 -0.001419 0.002139 -0.000885 -0.001340 0.001159 -0.000852 0.002378 -0.000802 -0.002294 0.001358 -0.000037 -0.001744 0.000488 0.000721 -0.000241 0.000912 -0.001979 0.000441 0.000908 -0.001505 0.000071 -0.000030 -0.001200 -0.001416 -0.002347 0.000011 0.000076 0.000005 -0.001967 -0.002481 -0.002373 -0.002163 -0.000274 0.000696 0.000592 -0.001591 0.002499 -0.001006 -0.000637 -0.000702 0.002366 -0.001882 0.000581 -0.000668 0.001594 0.000020 0.002135 -0.001410 -0.001303 -0.002096 -0.001833 -0.001600 -0.001557 0.001222 -0.000933 0.001340 0.001845 0.000678 0.001475 0.001238 0.001170 -0.001775 -0.001717 -0.001828 -0.000066 0.002065 -0.001368 -0.001530 -0.002098 0.001653 -0.002089 -0.000290 0.001089 -0.002309 -0.002239 0.000721 0.001762 0.002132 0.001073 0.001581 -0.001564 -0.001820 0.001987 -0.001382 0.000877 0.000287 0.000895 -0.000591 0.000099 -0.000843 -0.000563 
for 0.060168 -0.395793 0.676705 0.086148 -0.290871 -0.715173 -0.045410 -0.126575 -1.139311 0.563172 0.423528 -0.654302 -0.485380 0.051490 -1.094809 0.244550 0.538400 0.512311 -0.728341 -0.177623 -0.261174 0.273278 0.302231 0.628341 -0.320109 0.332880 0.892845 -0.863053 -1.063682 0.269937 0.387444 -0.520908 -0.114587 0.418270 -0.658389 0.232474 0.088336 -0.534305 0.191007 -0.509894 0.376399 -0.317170 -0.575501 0.370263 0.572336 0.251801 -0.465923 0.036705 0.222335 -0.267002 0.554338 0.173903 -0.445015 -0.240755 0.239980 -0.571443 -0.392039 -0.616569 0.966460 0.083035 0.814594 -0.319849 0.122618 -0.198462 -0.393737 0.636065 -0.503350 -0.442588 0.328233 0.004762 -0.011449 0.606207 -0.466471 -0.059354 0.090524 -0.583444 0.037416 0.596887 0.176892 0.175372 -0.317345 0.310534 0.691384 0.254855 0.596546 1.003646 0.247412 -0.755538 0.935204 -0.338382 -0.026369 0.313937 0.481442 -0.242346 0.351225 -0.139722 0.304229 0.669346 -0.059296 0.535109 0.140720 0.037626 0.505172 -0.101497 -0.003813 0.515111 0.194289 -0.452531 -0.707387 0.490526 0.265875 1.462617 0.306720 -0.906856 -0.252372 1.066867 0.707466 -0.942752 0.312768 0.301858 0.124139 -0.230686 0.388620 -0.696427 0.244940 -0.158784 -0.360197 1.147318 0.569059 -0.103642 -0.791482 0.123148 0.363607 -0.149113 0.332833 1.105534 -0.383605 0.883506 0.096037 -0.310903 1.548738 0.164077 -0.911849 -0.073497 -0.203453 0.353392 -0.202928 -0.068905 -0.207034 0.155755 0.085987 -0.105171 -0.395760 -0.340847 -0.989555 -0.179803 -0.059857 -0.424134 -0.494625 -1.042003 -0.501830 -0.436822 0.124026 0.149842 -0.413922 0.092297 -0.032599 -0.186044 -0.269779 0.608041 -0.276134 -0.322317 0.279045 0.004316 -0.062529 0.292976 -0.134369 -0.949136 0.297700 -1.256781 0.227211 -0.239040 -0.312682 -0.427886 0.337563 -0.031117 -0.140934 0.180695 0.249741 0.211808 -0.043848 0.379643 0.232180 0.027356 -0.507098 0.297043 0.439617 0.105636 0.046348 -1.098686 
learning -0.229175 0.207338 -0.120922 -0.013662 0.512682 -0.328790 -0.562797 0.241973 -0.097246 0.222696 -0.043378 0.128984 0.044831 -0.074029 -0.155983 0.608479 -0.076648 0.806726 -0.057728 -0.171705 -0.352651 0.280448 0.700347 0.141996 -0.357558 -0.564531 0.122623 0.239259 0.505478 -0.279778 0.030004 -0.168766 -0.117322 0.116368 -0.223273 -0.746062 -0.593819 0.526131 -0.161927 0.552946 -0.329084 0.169249 0.048123 0.644567 0.005051 -1.084161 -0.317455 -0.067593 0.298659 0.307403 0.173031 0.310639 -0.472655 0.705377 -0.752748 -0.385890 0.553038 0.843744 0.139433 0.052243 -0.098060 -0.173916 -0.112289 -0.029809 -0.894272 -0.150441 0.864193 0.077756 0.385118 0.780852 -0.098458 -0.542192 -0.059389 -0.216915 -0.577555 -0.467939 -0.375459 -0.486942 0.094083 0.282730 -0.500970 -0.025399 -0.382033 -0.460161 0.006651 0.421263 0.195796 0.297629 0.088449 -0.135728 -0.340497 0.815727 -0.596250 0.473943 -0.288204 0.418577 0.118724 -0.371824 0.439013 -0.753258 -0.288285 0.381916 -0.571262 -0.141408 0.419345 0.592794 -1.000930 0.609076 -1.007329 -0.228199 -0.018272 0.374204 0.405333 0.182560 0.914123 -0.111518 -0.252307 -0.334887 -0.151133 -0.635431 -0.057707 0.193355 0.019815 0.164853 0.799946 0.497137 -0.331619 -0.026946 -0.372522 0.070627 0.435052 -0.037182 -0.924720 0.136524 -0.722145 0.240975 -0.355270 -0.017042 0.114554 -0.563088 -0.115526 -0.036937 0.430332 0.310019 0.053960 0.643404 -0.169333 -0.679535 0.191498 -0.210960 -0.554656 -0.045686 -0.676785 0.292262 0.072529 -0.287267 -0.031005 -0.112126 -0.447199 0.672015 -0.242191 -0.579349 -0.476215 0.958243 -0.009152 -0.327149 -0.025325 -0.503800 -0.042284 0.053221 0.538532 -0.718283 0.330297 0.655399 0.128940 -0.214926 -0.286928 0.194804 -0.220593 0.429023 -0.136388 0.236964 0.124788 0.098305 0.879039 0.155729 -0.580645 -0.505687 0.490485 0.439042 0.465797 0.096118 -0.880273 -0.517436 0.131596 0.240939 -0.369927 -0.283577 -0.208837 -0.614661 
of -0.022582 -0.578937 0.482134 -0.041403 -0.111105 0.434638 0.491269 -0.299826 -0.486991 0.837736 -0.610797 0.338291 -0.278766 -0.830259 0.194684 0.139143 0.694991 0.184239 -0.585829 0.093615 -0.037689 0.000104 0.308877 0.544952 1.014609 0.330381 -0.168584 -0.291072 -0.078938 0.436972 0.495918 0.074767 -0.604776 0.647180 0.638155 0.598827 -0.105811 -0.301622 0.447404 -0.884521 -0.125705 1.006493 -0.694574 0.746933 -0.003480 1.020597 0.053083 0.036486 0.683314 0.950202 -0.252222 0.338886 -0.134079 0.097449 -0.688596 -0.123259 -0.135548 0.311687 0.069944 -0.418983 -0.344896 -0.274841 -0.568260 -0.535504 0.257340 -0.175203 0.329721 -0.509580 -0.272540 -0.162592 -0.658836 -0.668829 -0.246835 -0.357435 -0.011087 0.243168 -0.291834 0.326617 -0.085441 0.399629 -0.166967 -0.010921 0.731062 0.058900 0.332271 -0.146342 0.676654 0.228615 1.408280 0.041395 -0.001414 -0.445896 -0.476210 -0.219783 -0.389026 0.178286 0.141074 0.777854 -0.489843 -0.385562 0.270794 0.114604 0.603741 0.870131 -0.296717 0.925941 -1.070030 -0.840787 -0.320470 0.467657 0.844403 0.309560 0.140998 1.168214 0.112301 0.084142 0.196460 -0.183545 0.278427 0.307313 0.108769 0.975357 -0.258889 0.470521 0.361937 0.227778 -0.193790 0.352153 -0.099392 0.570637 -0.353968 0.645482 -0.019652 0.170029 0.170367 0.222580 -0.228575 0.130799 -0.148491 0.396198 -0.055290 0.033593 -0.085807 -0.248595 -0.175043 0.464564 0.728218 0.873247 0.009205 -0.684213 -0.299570 -0.041849 -0.592946 -0.002953 -0.175156 -0.319857 0.294203 -0.809045 0.746388 0.031802 0.347671 -0.676940 0.238245 -0.202474 -0.517123 0.753718 0.116488 -0.112373 0.092552 -0.161853 0.396961 -0.801621 0.262817 -0.200133 -0.236763 -0.133047 0.239034 -0.364515 0.652873 -1.113066 -0.570431 1.049634 0.691180 -0.884804 -0.228308 0.657283 0.451708 0.515671 1.003751 -0.755645 -0.118349 0.446798 -0.064159 0.180888 0.484335 -1.132503 0.501623 -0.551603 -0.261782 0.499956 
and -0.144240 0.230409 -0.565745 -0.404878 0.205648 -0.764566 0.184372 0.288682 0.201824 0.795154 -0.769576 -0.262093 -0.585288 0.511303 0.470728 0.253608 -0.042283 0.366266 -0.007014 0.617964 -0.895584 0.349614 0.221444 0.289172 -0.595098 -0.294914 0.699820 0.901914 0.790362 -0.029325 0.208344 0.505607 0.133019 0.105605 -0.179912 0.097838 -0.427650 -0.115975 0.432756 0.332412 -0.043192 -0.169560 -0.241155 0.000803 0.456985 -0.699785 0.455802 -0.095083 0.571431 0.073644 0.627313 0.419787 -0.697207 -0.296141 -0.065784 0.031176 0.511805 -0.181035 0.591948 0.189053 0.590638 0.728164 -0.410413 0.120144 0.613981 -0.038914 -0.268743 0.292928 0.150686 0.650278 0.355301 -0.344317 0.081561 -0.107007 0.396066 0.203507 -0.090206 0.870515 -0.246972 0.370379 0.528725 -0.460763 0.454257 1.064471 -0.172323 0.439715 0.268417 0.931015 0.590092 -0.681183 -0.634236 0.424520 -0.458409 0.123251 0.910554 0.126665 -0.246912 0.900302 0.706353 0.520439 0.218998 -0.980767 0.706295 -0.050048 0.098446 0.049632 0.204777 0.139060 0.777073 0.653059 -0.571291 0.149123 0.284963 -0.857571 -0.233422 -0.333151 0.067850 -1.596199 0.050531 -0.729282 -0.666251 0.731246 -0.640527 0.129420 -0.039807 0.927125 0.506468 0.484323 -0.691613 0.023910 -0.277899 -0.667358 0.153697 -0.185957 0.015903 -0.610330 -0.266512 -0.468120 -0.812296 -1.279519 0.274364 -1.242164 -0.069504 -0.112624 -0.073616 0.596023 -0.245280 -0.255668 0.274192 -0.124576 0.022945 0.035879 0.135041 0.311827 -0.007397 -0.134482 0.645857 -0.206879 -0.253249 0.558815 -1.016981 -0.333232 0.474031 -0.318447 0.244878 0.574086 -0.562717 0.446871 -0.407814 0.139391 -0.261133 -0.019736 -0.201543 -0.472306 -1.140934 0.795728 0.081633 -0.704888 0.458594 -0.609114 0.080191 -0.408970 1.401528 0.063933 0.938773 0.267053 0.176374 0.951607 -0.692416 0.135330 -0.759610 -0.404389 0.565122 1.004877 0.702881 -0.531692 -0.604646 0.771050 0.627117 -0.314300 
a -0.185882 -0.168749 -0.206455 -0.198291 -0.026483 0.540856 0.152534 0.809927 -0.988813 -0.473192 0.434315 -0.421266 -0.560942 -0.194708 0.214454 -0.842910 0.554627 1.210506 -0.040576 0.463229 -0.366741 -0.243076 -0.135140 -0.443831 -1.168838 -0.787552 -1.017659 0.797669 -0.258839 0.064429 0.423725 -0.254245 0.356601 0.868722 0.209708 0.812928 0.266804 -0.627652 0.673195 -0.209718 -0.146835 -0.751664 1.102395 -0.304872 0.064773 0.949491 -0.398127 0.586134 -0.491388 1.205141 0.799084 -0.315854 -0.417804 0.516807 -0.487737 0.187850 -0.586435 0.208649 0.150002 0.415633 0.508607 -0.489313 0.493421 0.322204 -0.591567 -0.533482 -0.285812 1.448179 -0.475926 -0.454230 0.110972 -0.576924 0.570023 -0.741817 -0.667672 0.458370 -0.666540 -0.315971 -1.033045 -0.991625 -0.343914 0.114637 -0.869180 -0.219203 1.479008 -0.115372 -0.838152 0.062220 -0.114285 -0.785882 -0.182887 -0.014201 -0.643630 0.316946 -1.052397 0.474230 -0.565552 -0.157012 0.345797 0.323229 -0.418894 -0.173498 -0.087430 0.189839 1.077728 0.517543 0.743905 -0.100203 -0.545654 0.245606 -0.151706 -0.195817 0.602255 -0.467439 0.509789 -0.023916 -0.089687 -0.580328 0.062945 0.196418 -0.261549 -0.438097 0.576712 -0.091469 -0.259948 0.236974 0.149200 0.162519 -0.537817 0.521588 0.475612 -0.208463 -0.773223 0.042672 0.359301 0.327737 -0.557162 -0.004265 -0.393825 -0.045591 1.143558 0.108207 0.148528 -0.052346 -1.464366 0.329698 -0.381280 -0.552601 -0.003482 0.479350 0.103634 0.063341 -0.486345 -0.211475 -0.192698 0.598337 0.790897 0.181901 0.308837 -0.067789 0.087017 -0.694266 -0.100902 -0.095478 -1.072416 1.602165 0.026412 -0.974519 0.533560 -0.082071 -0.159898 0.246836 -0.960511 0.703359 -0.267600 -0.299509 -0.356586 -0.155590 -0.442500 -0.828048 -0.139226 -0.055919 -0.214795 0.208308 0.011815 0.062743 0.147836 -1.130168 0.163829 0.049445 0.283230 0.451061 -0.228437 0.639288 0.300246 -0.279758 -0.556802 0.660630 0.025387 0.517568 
with 0.149903 -0.382173 0.819514 0.173044 -0.679540 -0.315085 -0.426516 -0.428689 -0.640602 1.190094 -0.069468 -0.038138 0.392979 0.297058 -0.135664 -0.471485 -0.374669 -0.376142 0.161929 0.669751 0.407475 0.486469 -0.279646 -0.579409 0.264005 -0.091956 0.337173 0.560453 -0.889853 -0.127351 0.367489 0.772951 0.422411 0.967363 0.421242 0.521236 0.736064 -0.362969 0.125056 -0.170215 0.090975 0.170685 0.309662 -0.768165 0.476591 -0.988484 -0.081975 -0.276455 -0.138220 0.264055 -0.088413 -0.563423 -0.161448 -0.447559 0.933011 -1.331336 -0.339082 -0.518455 0.943243 0.636450 -0.770796 0.034312 0.212891 0.427034 -0.543669 0.470310 -0.497299 0.288552 0.116722 0.261146 0.904622 0.971336 -0.543930 0.376587 0.144111 0.530601 0.396944 0.792228 0.490790 0.441204 0.260878 -0.082594 0.695777 -0.473126 0.141409 0.075086 0.094988 -0.440798 0.828259 0.705754 -0.352819 -0.064580 0.899866 0.500545 0.363323 0.220838 0.156975 0.751501 0.062590 0.064899 0.395987 0.496287 0.136707 -0.262132 0.201184 0.355699 -0.595362 -0.090705 -0.418143 0.124258 0.278170 0.561006 -0.270756 -0.748313 -0.171743 0.313547 0.382343 -0.469527 -0.019271 1.000664 -0.492765 -0.180095 0.099964 -0.945841 0.442162 -0.003762 -0.549030 -0.120027 -0.381167 -0.250166 -0.989136 0.156663 -1.060759 -0.933983 0.281226 0.311447 -0.115281 -0.699251 1.524327 0.047047 0.759398 0.115333 0.341448 1.243749 -0.861219 0.310953 -0.551615 1.098563 -0.237963 -0.512919 -0.644940 0.488380 0.292339 -0.022362 -0.053941 -0.706254 0.253257 -0.245827 -0.152045 -0.521174 0.117145 -0.286088 -0.166602 -0.506925 -0.030194 -0.098856 -0.187598 -0.180192 -0.128389 0.178461 0.490056 -0.051046 0.129090 -1.144070 -1.105171 0.525062 0.643749 0.291479 -0.789451 0.297910 -0.140730 0.103831 0.471475 0.789304 -0.239966 0.102988 -0.367844 1.061385 0.827735 -0.290224 -0.096080 0.436289 0.594223 -0.249387 0.363490 0.207079 0.288868 0.102876 -0.017328 -0.579342 
in 0.863542 0.469347 -0.512195 -0.082413 0.128638 -0.320804 0.157144 0.785269 -0.147715 0.851526 -0.190672 -0.650304 -1.137457 -0.287747 0.096277 -0.307972 -0.501907 0.562290 0.877994 0.143418 0.481503 0.234810 -0.913827 0.497336 -0.663393 0.310168 -0.394403 0.482813 0.012244 0.222198 0.114680 0.622997 -0.169469 0.410990 -0.463924 0.017937 1.525974 0.181121 -0.171525 0.371310 -0.051907 0.515696 0.204837 0.032168 -0.443909 0.981846 -0.638084 -0.566074 0.818512 -0.603456 -0.097826 0.546339 0.253362 -0.026347 0.094073 0.433697 0.047016 0.232340 0.299441 0.486864 -0.310975 0.398116 0.348575 0.362639 -1.127107 0.858791 -0.188884 -0.056237 0.498546 -0.811342 -0.291263 -0.322980 -0.255357 1.578036 0.569735 -0.526514 0.121315 0.953065 -0.474321 -0.205548 0.767818 0.245185 0.143871 1.528328 0.111241 0.245268 -0.618013 0.363571 0.086740 0.485142 0.619417 -0.158177 0.611901 -0.035560 0.559919 0.201083 0.892597 0.650267 -0.758386 -0.672154 0.394095 0.437660 0.264174 -0.013708 0.830351 -0.062214 0.283225 0.016487 -0.398031 1.155472 0.274268 0.873657 -0.106178 0.688306 -1.229719 1.300953 0.379581 -0.413852 -0.390547 1.004211 -0.859892 -0.450387 -0.227751 -0.708521 -0.688977 -0.269804 0.036935 -0.059015 0.651570 1.750039 0.810482 0.259937 0.774532 0.160220 0.063685 -0.180805 0.336282 0.438017 -0.802664 -0.270863 1.221849 0.082652 -0.379357 -0.322438 -0.618934 -0.891110 0.399827 -1.113805 -0.445424 0.603905 0.325198 -0.150056 -0.271393 -0.771800 0.139642 0.064086 -0.263531 -0.683698 0.189226 0.917830 0.198918 0.686755 0.211592 0.197262 0.298424 0.451323 0.216718 -0.459766 0.026934 -0.031560 0.332169 -0.862335 0.928436 -0.612829 0.124834 -0.761680 -0.252540 0.007870 -0.253690 -0.206242 0.109009 0.670082 0.488163 -0.950082 -0.465193 -0.775203 -0.260003 0.266560 1.004756 -0.333817 -0.276556 0.813958 -0.067833 0.058495 -0.597635 -0.014745 -0.315325 0.546586 -0.730544 0.182185 
the 0.228888 -0.550972 1.189275 -0.675502 0.038881 -1.458872 -0.176234 -0.190873 0.106585 -0.336642 0.134520 0.332253 -0.618632 -1.041822 0.824200 -0.427157 0.436832 0.725604 0.426215 -1.115595 -0.035025 0.029532 -0.540140 -0.625521 -0.232406 -0.959918 0.015231 -0.181710 -0.081255 0.628219 -0.028375 0.249850 1.221675 -0.340471 0.348350 0.346668 0.590942 -0.819526 0.082895 0.746256 0.034566 1.044061 0.206115 -0.721722 -0.089159 -0.200246 0.474093 0.053342 -1.056805 -0.053372 0.587122 0.897497 0.125560 -0.600502 0.039985 0.706373 0.464343 -0.737130 -0.345105 0.599172 0.561625 -0.844892 1.310842 0.099605 0.323949 0.015490 -0.325594 0.088057 -1.318737 0.563991 -0.781130 -0.068276 0.565632 -0.546960 0.140102 -0.207277 -0.558615 0.892004 -0.171985 -0.617715 -0.108989 -0.628071 -0.876211 -0.017118 0.406713 0.005066 0.689929 -0.366017 0.074191 0.026158 -0.871197 -0.477329 -0.726003 0.366714 -0.250177 0.145501 0.178115 -0.848187 -0.061767 -0.052490 0.148526 0.805052 0.379641 0.505278 -0.266755 0.339845 -0.632259 0.646577 -0.123074 0.590366 0.105002 0.065246 -0.725325 -0.354703 0.100502 0.244874 0.492636 0.312453 -0.352535 -0.931895 0.056047 0.329700 0.166850 -0.584741 -0.314574 -0.823306 -0.726706 -0.628942 -0.487364 0.739735 -0.611060 0.519618 0.557924 -0.918267 -0.461027 0.354930 -0.579394 0.271965 -0.354900 0.369594 0.831705 0.471448 -0.478267 0.524182 0.499180 -0.588862 -0.040652 -0.000766 0.093946 -0.098045 0.753291 0.704517 0.681096 -0.183496 0.177956 -0.108042 -0.566156 0.690329 0.882348 -0.215349 -0.288199 -0.080261 -0.415695 0.226955 -0.261542 0.823988 -0.308960 0.057268 -0.434301 -0.272233 -0.262897 -0.474894 -0.527766 0.023118 1.029114 -0.151050 0.674472 -0.447025 0.414246 1.453332 -0.662658 0.535860 0.261611 0.511082 0.222876 -0.364457 0.492020 -0.843380 0.478252 0.297426 0.475421 -0.317501 0.001875 0.670470 0.380556 -0.287905 0.114991 -0.643252 0.055367 0.039761 
to 0.325083 -0.047719 -0.752753 -0.674677 0.602266 0.848715 0.668183 0.490698 -0.048288 -0.257005 0.932828 0.581715 -0.039113 -1.011387 -0.015382 0.823995 0.032459 0.553632 -0.273047 -0.010159 0.103988 0.308121 0.325763 0.022388 -0.191949 0.658575 0.710882 -0.057420 0.072704 -0.253393 1.030530 0.688687 0.487976 1.100520 -0.586607 0.433707 0.720658 -1.263155 -1.197238 0.055263 0.444899 0.880454 -0.198545 0.150059 0.649783 -0.696143 0.264053 -0.500562 -1.259183 -1.033610 -0.847823 -0.384767 -0.588469 -1.172812 -0.166227 -0.644620 -0.000257 0.923376 1.735502 -0.959709 -0.176509 0.607263 1.003915 0.052077 -1.115912 0.355088 -0.500682 0.433091 -0.464936 0.422376 -0.157732 0.208216 -0.544195 -0.228324 1.217210 0.374751 0.009391 0.652817 0.232554 -0.928890 -0.218814 -0.053960 -0.241203 0.102812 1.038219 -0.455402 0.680560 -0.029327 0.195790 -1.492940 0.812658 -0.980924 0.299264 0.015360 -0.671706 0.292740 0.059651 0.029102 -0.438097 -0.134600 0.385233 -0.335892 -0.325340 -1.385335 0.399615 0.611105 0.599851 -0.684260 -0.041137 0.258122 0.598272 0.536088 -0.581855 -0.884419 -1.196940 -0.349656 0.273052 0.938985 -0.261414 -0.405569 0.047506 0.837571 0.575145 -0.134749 0.010812 0.063972 -0.478684 0.346038 0.466640 0.123182 -1.733380 0.078959 -0.437048 -1.261103 -0.769422 0.788496 0.304961 1.052645 -1.164319 -0.351048 0.256499 0.048951 0.722003 -0.627889 -0.199366 1.506655 -0.192759 -1.254852 0.885264 -0.213026 0.080805 -0.886218 0.382539 1.142875 -0.529379 -1.662142 -0.445681 0.275207 1.251458 -0.659308 -0.069120 -0.085450 0.792554 -0.425932 0.700429 -0.457471 -0.763570 -1.177019 -0.426826 0.211230 -0.682761 -0.198219 0.053119 -0.233915 -0.657627 -1.053806 0.620749 -0.774148 0.155061 -0.099654 -0.399446 -0.189914 0.213246 -0.303782 0.613634 -0.019727 0.938994 0.477574 0.349034 0.976901 -0.136974 -0.581432 -0.842250 0.216448 -1.413479 0.488329 -0.402275 1.449434 0.417911 -0.864424 
using -0.291862 0.386682 0.697869 -0.442261 0.402143 -0.181548 0.984964 0.519364 0.447547 -0.518104 0.934831 -0.570902 0.521333 0.364223 -0.806915 -1.271949 -1.357747 -0.243422 0.341524 0.157391 -0.632479 0.929489 -0.136741 -0.359202 0.453420 -0.619843 0.870751 0.205666 -0.198688 -1.482241 -0.896682 -0.891860 -0.075095 0.007970 -0.635884 -0.041383 0.557566 -0.455911 0.225774 -0.469919 0.429402 0.695780 0.395282 -0.888521 0.085044 -0.877483 -0.543004 1.425789 0.677308 0.735262 -1.344741 -0.435388 -0.424597 -0.362096 -0.835179 -0.275285 0.349510 0.615796 0.135562 0.249488 -0.147376 -0.246816 0.041124 -0.128422 -0.013120 1.173891 1.055522 -0.864187 1.585412 0.102135 0.141250 0.664616 0.375169 0.698713 -1.441671 -1.174701 -0.006728 -0.403394 -0.823405 0.447449 -0.288264 -0.506960 -0.814103 -0.448221 0.545428 -0.462024 0.078811 0.307819 1.642324 0.478107 1.281427 0.282434 0.308790 0.476633 0.620761 0.486337 0.736226 0.713873 -0.705568 -0.442299 0.639373 -0.060624 -0.200068 -1.273591 1.348715 1.510145 -0.480905 0.621338 -0.699537 1.006230 -0.014008 1.146625 -1.349834 0.054037 -0.981598 0.612342 0.866023 -0.580817 0.306349 0.507242 -0.452514 -0.103992 -0.358236 -0.735746 -0.531826 0.350961 -0.823323 -0.650548 -1.323222 -0.578327 -0.699081 0.115862 -0.062890 -0.245509 -0.415535 1.352341 -0.214539 -0.607505 1.255623 0.412731 0.412846 -0.603766 -0.824253 0.283326 -1.525088 0.556181 0.100566 0.782345 -0.334888 -0.146885 -0.449841 -0.345648 -0.502100 -0.551437 0.129863 -0.194822 -0.290028 0.057271 0.887770 0.292643 -0.639114 1.095486 -0.310314 -0.038293 0.475690 1.068380 -0.561637 0.432205 -0.022762 0.540728 1.386946 0.185338 0.207196 0.535508 -0.736318 -0.734586 0.349732 0.259675 0.023311 -1.312062 0.356322 0.132733 -1.537019 0.042442 0.232709 -0.507007 -0.340644 0.185412 0.028365 -0.532571 -0.452145 -0.087067 0.097375 -1.245697 0.266015 -0.211161 0.383883 -0.250742 0.390929 0.675731 
on 0.933562 0.092128 0.082391 -0.263595 0.164498 -0.786708 0.404962 -0.963962 0.156544 0.718428 -0.978310 -0.090485 -0.482167 0.038289 -0.742998 0.132101 0.785803 0.776630 -0.409056 -0.454963 -0.593164 -1.193976 0.295956 -0.654922 0.268250 -0.054020 -0.744948 -0.416277 0.348025 0.398242 0.094395 0.798174 0.766444 -2.320217 0.783888 -0.593988 -0.968020 -0.845185 0.552970 -0.058760 -0.825915 0.399712 -0.551854 -1.198227 0.287704 -0.218157 -0.084704 0.481210 -0.251299 -0.786571 1.083066 -0.430354 1.275814 0.897596 0.218766 -0.672134 0.057031 -0.209512 0.845658 -0.077650 0.174523 0.781313 -0.838895 -0.378770 0.499843 0.354672 1.028900 -0.348863 0.756470 0.123365 -0.256178 0.182611 -0.141444 -1.451228 1.540055 1.219109 -1.201843 0.230491 -0.216092 -0.383889 0.185013 0.448616 0.637135 1.096473 0.552913 0.322058 1.647477 0.140949 0.124126 0.442892 0.277330 0.679849 0.071780 -0.424998 0.516522 -0.584133 -0.653835 0.177886 0.798024 -0.617183 0.115232 0.353610 -0.977032 -0.340873 -0.706523 -0.476546 0.254871 -0.046512 -0.706429 0.444691 0.778982 1.172118 -0.206863 0.488035 0.074005 0.463164 -0.327781 -0.356049 0.184302 0.419491 -0.820397 -0.979248 0.837739 0.756177 -0.404221 0.571404 -0.194094 0.026001 0.300211 0.616791 0.407639 0.029411 0.970910 0.129027 -0.787269 1.199331 1.674280 0.525819 -0.081396 0.499568 0.090711 0.355838 0.210967 0.559034 0.294658 -0.190297 -0.341058 -0.967036 -0.427257 -0.649149 -1.742087 -0.549331 0.441064 -0.622441 0.300732 -0.807490 0.007515 -0.077572 0.654639 0.749493 -1.074494 -0.286859 -0.360594 -0.942438 0.081571 0.100007 -0.007665 0.964088 -0.060220 0.610842 0.348969 -0.201902 0.648003 -0.114139 -0.272276 0.666954 -0.854654 -1.220855 -0.197274 0.808386 0.763417 0.012659 -0.957028 -0.108923 1.056087 -0.015688 -0.179383 1.259303 -0.210936 0.035994 -0.341553 0.619850 -0.340028 -0.444230 0.124388 0.738753 -0.263561 0.401647 -0.147772 0.473816 
an -0.917328 -1.360668 -0.940917 -0.135718 0.174100 0.233696 0.759050 0.187797 0.503471 -0.128944 0.698107 0.877460 -0.638375 0.347474 1.173596 -1.286764 1.098270 0.677612 0.911707 -0.885053 -0.719051 -0.049570 1.009314 -0.620998 0.155140 -0.263894 -0.918571 0.473108 0.657230 0.147495 0.622670 0.383800 1.059940 -0.232027 -0.269497 0.345453 0.069996 -0.145339 0.518741 0.158567 -1.385315 -1.563217 0.827552 -0.034343 -0.093201 0.338625 -0.549685 -0.079801 -0.080956 0.849170 -0.341580 -0.601168 -1.458118 -0.001727 0.109280 0.944982 -1.598264 1.110152 0.345356 0.506521 -1.767905 -1.367928 -0.051714 -0.354269 -0.393996 0.999136 -0.966997 -0.339052 0.677745 0.509076 1.207595 -0.603806 0.668775 -1.834558 -0.081599 0.422912 -0.805696 0.508343 0.018346 0.243577 -0.383970 0.070879 0.138737 0.500717 0.985372 -0.252062 -1.205204 0.482331 1.296324 -0.235185 0.024606 -0.031987 -1.158157 0.632972 -0.986299 -0.347674 -0.335196 0.428432 0.493448 -0.111950 0.159459 -0.124054 -0.684233 -0.791123 0.682880 -0.271304 0.624901 0.186288 -0.386678 -0.915225 -0.695726 0.095539 1.127298 -0.340131 1.537718 0.736688 -0.614487 -0.399517 -0.919771 1.038953 0.746315 0.147538 -0.844961 -1.153579 0.199570 0.620092 0.475195 0.870294 -0.123928 0.230224 1.020621 -0.943630 0.286226 -0.587159 0.041984 -0.065272 0.690676 0.173376 0.734396 -1.026809 0.203331 -0.485966 -0.461003 -0.811571 -0.693018 -0.273666 -0.772483 -0.164129 1.328775 -0.479114 0.048920 -0.027190 0.094101 -0.774036 -0.520281 -0.617955 0.288744 -0.047292 -0.737157 -0.297584 -0.094683 0.521796 -0.250188 -0.073781 -1.343456 0.705045 -0.577965 -1.510706 -0.745692 -0.111312 0.706849 -0.150339 -0.376787 -0.650644 0.011037 0.119006 -0.548022 0.996660 0.216067 1.169938 -0.322792 0.360460 0.475557 -0.424549 -0.884225 -0.355997 0.878168 -0.261046 0.402491 1.250294 0.010929 0.887100 -0.224002 1.373855 0.546322 0.162804 -0.101392 1.192218 -0.535770 -0.351278 
from -0.255074 1.050218 1.215797 0.020392 -0.747518 -0.391070 0.093658 0.680955 -0.102673 -0.369635 -0.648433 -0.150075 -0.487856 0.477032 -0.031211 0.030817 0.198423 0.400081 0.486192 1.482536 -1.587705 0.669133 -0.062864 -0.749442 -0.744060 -0.835736 -0.504256 1.575846 0.154215 -1.431408 -1.328489 0.829255 -0.897399 0.166949 -0.674643 0.562129 0.844010 0.692113 -0.599045 -0.256805 0.628113 -0.262826 0.983562 -0.268897 0.280742 0.425215 1.398937 -0.608866 -1.045939 0.372921 0.522295 0.673162 -0.266372 -0.246251 0.541048 -0.947450 0.113886 -0.489088 -0.020751 -0.961014 -0.571045 0.872486 -0.038611 0.596437 0.576134 1.195483 0.139115 -0.835589 0.793911 -1.598930 -0.526612 0.582184 0.168120 -0.573049 0.539603 -0.142046 0.098608 -0.049549 0.088448 0.817059 1.093277 0.823288 0.731091 0.273246 -0.691780 0.977969 1.381788 -1.442304 -0.305729 1.123697 -0.487042 -1.049059 0.210081 0.092795 1.014159 -0.309087 2.122416 0.180056 -1.492048 -0.144076 0.261735 -0.685269 -0.868341 -0.554110 -0.168053 0.589098 -1.413533 -1.837970 0.487369 -0.507710 1.228627 0.312809 -0.566774 -0.410339 0.280900 -0.398561 0.995846 1.502749 0.988842 -0.791567 -0.152068 -0.039525 -0.341724 -0.177217 0.293972 -0.596171 0.835609 0.144585 0.567104 0.828501 0.011736 0.710748 0.450515 -0.176853 -0.950329 -0.118096 0.030287 -0.710701 -0.457669 -0.423492 0.629293 1.219350 -0.069232 0.123528 0.482869 -0.669698 -0.580765 -0.513719 -0.717848 0.402732 -0.447550 -0.125145 0.156357 0.115378 -1.378983 -0.421021 0.184201 -1.754968 0.294852 0.111219 0.219532 0.786957 0.235963 1.261169 0.273065 -1.355452 0.105515 -0.603844 0.257386 0.069744 0.541028 -0.571160 1.295840 -0.200954 -1.242581 -1.001451 0.643021 0.630586 -0.112878 0.039308 0.628812 -0.090042 1.064913 0.147310 0.166513 0.346478 1.355659 0.107136 0.184364 -0.332703 0.253331 -0.452317 -0.146849 -0.535810 1.469923 -0.463674 -1.038005 0.420915 -0.225544 0.915578 
by 0.914405 -0.961752 0.871290 0.043536 0.104439 -0.414209 0.098109 -0.524953 -1.587997 0.218615 0.332870 0.283625 0.253745 1.323632 0.546300 0.394179 0.108458 -0.426949 -0.957515 -0.999248 -0.048396 -0.468847 0.872701 -0.612120 -2.100010 0.178982 2.182965 0.194594 0.069894 -1.684280 -0.383022 -0.224100 -0.452803 -0.641710 0.050050 1.169472 -0.739923 0.153737 1.396983 -0.514008 1.142407 -0.736884 -0.971648 -0.525881 -0.198668 0.886949 1.387399 0.035591 -0.110451 -0.131990 -0.245918 0.737755 -1.267322 -1.108471 -0.114048 1.277094 0.371010 -1.141606 -0.007586 -0.651627 0.818322 0.317399 -1.229395 0.928774 -0.000583 -0.084403 0.100495 -1.362005 0.302327 1.138709 0.540143 0.004657 -1.112517 -1.057886 0.644006 0.305612 -1.135784 0.341363 0.649339 0.420569 2.339569 -1.059214 1.051206 0.269003 0.200383 0.224865 1.481457 -1.358066 1.005294 0.199881 -0.450489 -0.895778 0.177662 0.866362 -0.187150 -0.310586 0.796132 -1.870677 0.004750 0.266357 -0.028404 0.288806 0.948492 -1.004783 0.311948 0.562999 0.756270 -0.346823 -0.601321 0.633967 0.583769 0.392475 -0.359080 0.863127 -0.590675 1.404317 1.079700 0.376945 1.231039 0.976984 0.409745 -0.341946 -0.694749 0.404263 0.311197 0.351144 0.441367 0.831986 -1.371987 0.132281 -0.098192 -0.995405 0.431923 -0.257894 -0.817025 -0.432909 -1.205173 -0.076557 -0.355783 0.373740 -0.359138 0.221553 -0.332347 -0.323751 -0.670949 -0.202748 -0.597009 0.332321 0.050048 -0.501378 0.172805 0.502919 1.489616 0.497462 0.792300 0.943823 -0.993700 -0.408163 0.471864 -0.642409 0.170820 -0.003777 -0.527354 -1.114455 0.538987 -0.745809 1.275621 -1.280798 -1.113649 -0.847390 1.042897 -1.349181 -0.162893 0.731644 -0.702049 0.871226 0.726528 -1.016156 -0.040569 -0.276205 -0.583726 0.003697 0.025469 -0.882443 -1.116691 -0.472659 0.503977 -0.121223 0.929847 -0.010351 -0.269682 0.260695 -0.037613 1.502958 0.950211 -0.248956 0.334717 0.745440 0.412150 -0.647021 
reinforcement_learning -1.331594 -1.010308 -0.197654 -0.685026 -0.001621 -0.570792 1.079283 1.523209 0.638826 0.507131 0.408443 1.774556 -1.504702 -0.134189 -0.207314 0.459749 0.200710 0.601843 0.292900 -0.975105 -0.190291 -0.424263 -0.530821 0.769846 0.256949 0.107731 1.137241 1.058075 -0.531076 -0.905802 -0.055700 0.240502 -0.538675 0.593863 -0.139072 -0.425468 0.120829 0.083110 0.226832 0.233083 -0.650313 -1.745108 0.864596 0.713976 -0.022377 -0.534412 -0.211610 0.491572 0.585913 0.957572 -0.395263 -0.775820 0.104044 1.243035 -1.535904 1.106605 0.609995 0.932759 -0.596437 0.332886 1.256216 -0.402131 -0.272566 1.241240 -0.769612 -0.025362 0.642155 -0.472661 -0.124922 0.933415 -0.300817 -0.605534 -0.991839 0.025522 -0.662159 0.484404 -0.575648 0.250985 -0.451744 -0.927007 0.233050 0.225531 -0.186371 -0.021677 1.008485 -0.912642 -0.183382 0.885055 0.072815 0.571154 0.801479 -0.374611 0.234760 -0.221135 0.406882 -0.151872 0.229488 -0.563650 -0.300860 -0.537507 0.188924 -0.578512 0.192301 0.068622 0.719880 -0.763726 0.292173 0.014354 -0.202143 -0.742777 0.961731 -0.248737 1.420982 0.337818 1.109228 -0.209322 0.490797 -0.629894 -0.679311 -0.591909 1.167969 0.495110 -0.274058 0.040251 0.010797 -0.943998 0.093138 -0.611951 -0.016160 1.312058 -1.154115 -1.349272 -0.926224 -0.595966 0.190131 -0.032712 1.798709 -0.666755 1.151520 -1.278560 -0.952986 -0.421789 0.387361 1.146308 1.513143 0.937550 1.274136 -0.318638 1.329370 0.451549 -1.479965 0.286562 0.111773 -0.263905 1.751335 -1.274163 1.140110 0.436179 0.449138 0.297311 -0.349747 0.193594 0.339649 0.993266 0.702407 -0.157116 0.630101 -0.073501 1.031848 0.709491 0.404211 -1.427387 0.150233 0.078068 0.803560 0.643402 0.468311 0.043009 0.391537 1.288391 -0.269435 0.287296 0.337463 0.384463 -0.296361 0.400002 0.374836 -1.336509 -0.793072 0.929816 0.189765 -0.000463 0.046237 0.576654 0.047915 -1.283401 -0.695531 -1.013206 0.635229 0.090116 
data -0.747792 0.080887 -0.481349 0.236044 -0.455213 0.502790 0.049124 -0.186935 -0.611013 0.363586 -0.032844 0.571378 0.390189 -0.367482 1.091376 0.720081 0.383418 0.512780 -0.316396 0.497190 0.626486 -0.316423 0.793276 -1.323390 0.501550 -1.421200 -0.874312 1.061309 0.345562 -1.104316 -0.267251 1.295358 -0.229565 1.312425 -0.741857 -0.634330 0.888110 -0.204313 -0.074992 0.772866 -1.063828 0.706579 0.846826 0.894862 -0.928534 0.197229 0.121468 0.240271 -0.036452 0.387669 0.669421 0.290322 0.200643 0.066241 0.958996 0.593692 0.482247 0.110113 -0.720411 -1.068531 -1.425282 0.135568 -1.402580 -0.764705 -1.096248 0.257694 0.110202 0.295471 -0.734765 -0.530699 -1.236578 -1.374279 1.196989 0.093933 -1.245950 -1.017390 -0.027849 0.307843 -1.920022 -0.133707 -1.009610 -0.036624 0.619344 -1.054461 0.296077 -0.670206 0.123201 0.892744 -1.331448 0.767944 1.005016 -0.521491 1.189080 -0.674616 -2.123130 -1.232720 1.356358 -0.566945 0.540332 -0.239846 1.254468 -1.023817 0.712201 -1.553730 -1.729473 -0.629222 -0.268452 1.191010 1.276534 0.072089 0.235182 -0.475352 -0.812229 -0.939046 0.450654 1.018389 0.831181 0.262714 0.450961 -0.080159 0.991455 0.727533 -0.272640 0.066234 0.695490 1.067824 0.756276 -0.165064 0.748063 0.199709 0.144747 -0.168454 -0.921562 0.458657 -0.237019 -0.471039 0.401300 0.221346 -1.171009 0.027224 -1.492073 -0.600011 -0.836474 -1.232158 0.749670 1.583854 1.358271 -0.431592 0.482081 -0.315414 0.216732 -1.057021 -0.114616 -0.908461 -0.550094 0.765695 0.409268 -0.471630 0.344334 0.072467 0.627548 0.723302 0.257011 0.846589 0.505199 -0.107843 0.023008 0.851051 -0.199974 0.699553 -0.419093 -1.115785 0.546579 1.501318 1.981999 -0.068356 -1.238079 0.567160 0.210819 0.441760 -1.802217 0.156092 -0.790975 0.096436 -1.461475 0.928403 -0.390379 -0.792291 0.023838 -1.488210 -0.757912 -1.029241 -0.237453 -0.744322 -0.838836 -0.683790 0.092498 1.330338 -0.603045 0.324385 
models -0.741805 -0.334589 0.245019 -1.102153 0.888621 0.233431 -0.144551 0.409142 -0.331276 -0.361074 0.494373 -0.653745 -0.273772 -0.835755 0.246194 0.023869 1.259658 0.507874 -1.015215 0.034879 -0.227128 -0.573786 -1.376836 0.519774 -0.141327 -1.617999 -0.349524 0.584696 -0.813085 1.010599 -0.230923 0.536930 -0.194484 0.078193 -0.310406 -0.392395 -0.439117 -0.494018 -1.304535 1.038484 -0.272075 -1.342448 0.967207 -0.866960 -1.126251 0.206739 -0.174799 0.456782 -1.912200 -1.298631 0.076987 0.535035 -0.404447 1.523992 -0.761634 -0.196127 0.648499 0.580976 -0.952439 0.940765 -0.452712 0.354001 -1.156014 -0.156741 -0.255937 -0.179407 -0.230169 -0.633486 0.045836 1.191378 1.593243 -0.993907 -0.673639 -0.203587 0.550256 -0.131734 1.933117 -0.796907 0.988561 -1.070771 -1.087100 -1.188609 -1.493997 -0.805901 0.583463 -0.514586 -0.663295 0.523692 -0.310932 -0.878578 -1.055423 -1.295636 0.070457 -0.506031 0.767507 -0.025667 0.215086 -0.342849 -0.945641 -0.478694 -0.558906 -1.591826 -0.207469 -0.089014 1.180021 0.355078 0.671688 -1.334170 -0.824672 -0.770514 -0.095248 0.116518 0.935316 0.555823 -0.851933 1.890552 -0.992976 -1.117513 0.000079 -0.513723 0.727595 -0.376959 -0.835452 1.120043 0.103381 -0.225768 1.812397 0.189929 -0.154684 -0.611188 0.445252 -1.014101 -0.186917 -0.639835 1.983667 -0.712241 0.315959 -1.005686 1.286740 0.568229 0.737673 0.325657 -1.435919 -0.019328 0.529391 0.853693 0.588774 -0.287989 0.861591 -1.338945 -0.890260 -1.005046 0.946666 0.068541 -0.522517 -0.919437 -0.118129 0.203813 -1.048514 0.495193 -0.993125 1.113831 -0.789106 -0.944141 1.068812 -0.514783 0.496245 -0.771473 0.355867 -0.460936 -0.864345 -1.140445 0.048058 0.385396 1.323458 0.712629 0.051477 -0.515699 -0.143501 0.447615 0.156151 0.031861 0.418172 -0.822301 -0.185968 1.084590 0.495852 -0.072287 0.596379 0.112689 -1.083732 0.666685 -0.702500 0.487868 0.143331 0.720564 -0.951027 0.272124 -0.269251 0.599304 
via -0.080900 -0.339556 1.382569 0.295558 0.510963 -0.595670 -0.354520 -0.332604 -0.161976 -1.195902 0.154708 -1.376102 0.705009 -0.661051 -1.142655 -1.370585 0.840395 -0.535945 0.501243 0.778502 -0.061270 0.873103 0.652623 0.302506 -0.251369 0.435726 -0.502672 0.699882 -0.474629 0.694400 -0.454986 -0.886040 -0.256426 -0.865410 -1.282278 -0.691754 -0.126414 0.340081 -0.073122 -0.165148 -0.688482 1.080902 -0.460567 -0.964724 -0.887257 0.803681 1.978708 1.744737 0.943862 0.328623 -0.721709 0.682038 0.603906 -0.652105 -0.233572 0.498749 -0.338677 -1.208330 1.298700 0.617813 -1.465095 0.891975 -0.184770 0.395288 0.796955 1.107435 1.394557 -0.214860 0.674929 0.022567 -0.233504 -1.020586 -0.315535 -1.061294 -0.364445 -1.897963 -0.205385 -0.573948 0.122179 0.607432 0.215452 1.127545 0.219862 0.674084 -0.259078 2.070328 -0.297950 0.205662 2.182891 -0.866449 0.963730 -0.964577 -0.518379 -0.653609 -0.037739 1.284034 0.120341 -1.565842 0.021504 0.710999 0.044238 1.331443 0.755908 -0.362701 0.756796 0.251084 0.792337 -0.458334 0.722705 1.361560 -0.198819 1.775658 -0.262074 -1.677123 -1.670159 1.674909 -0.015173 -0.754168 2.716330 0.334123 0.571342 0.526837 -0.211065 -0.737192 -0.332787 0.319951 -0.105665 0.603033 -1.374092 -0.472483 -0.345070 -0.924350 -0.453619 0.451339 -0.577437 0.219561 0.330796 -0.286141 0.389043 0.927746 0.181679 1.438511 -0.810210 -0.470973 -0.870713 -0.830734 -0.712097 0.414603 -0.970303 0.322177 0.465998 0.301062 0.235501 -0.931802 -0.548163 -1.286979 -1.063256 0.236827 -1.031534 0.606984 -0.297563 0.558683 0.613472 -0.720397 0.111125 1.207129 1.015297 0.105370 -0.945455 0.112887 1.467870 0.203777 -0.183472 0.229934 -0.398325 0.129304 0.327606 1.072126 -0.048089 -2.816848 0.756784 0.522049 -0.579226 -0.180104 -1.148584 0.723659 -0.688605 1.192406 -0.966181 -1.305093 0.529824 0.218705 -0.830665 -0.120572 0.081737 -0.303865 0.100708 -1.197721 0.313032 -0.600468 
feature -0.681439 0.908310 -0.007566 -0.094792 1.033362 0.032856 -0.038582 -1.261089 1.793865 1.074554 -1.288692 1.282468 -1.126855 -0.449187 -0.654584 0.410207 -0.639976 -0.483358 0.515288 -0.742918 -1.240589 0.034976 0.149011 0.713926 -0.568222 -0.971824 -0.201315 -0.688440 0.972719 0.318218 -0.845564 -0.475538 -1.580607 0.817573 0.174732 1.266161 1.352463 -0.922288 -0.969083 0.109379 0.777818 -0.352555 -0.763802 0.593589 -1.482177 0.719543 1.528739 -0.218591 -0.298466 0.364929 -0.945022 0.872473 0.464987 0.058065 -0.548668 0.372233 -1.021455 0.374564 0.077066 -1.443316 0.039650 0.919297 -1.133539 -0.400643 -0.305251 -1.919193 -1.064651 1.409646 -0.657905 -0.479032 -0.483598 -0.894264 0.074752 -0.218782 0.232855 -0.944506 1.082368 0.775098 -0.854316 0.184359 -0.983650 -1.143338 0.799917 -2.085757 -0.901692 -0.250062 0.700581 0.192529 0.473197 -1.215843 0.469467 -0.556928 -0.655910 0.017248 -0.743631 -0.642048 0.372638 -0.149438 -1.011920 0.424451 -0.104319 0.250365 0.189148 -1.583185 0.119109 -0.022546 0.442402 0.203715 -0.086373 -0.632279 -0.395452 -0.582834 -2.008995 0.728694 0.136270 -0.003314 0.075618 -0.180901 1.339271 0.349277 0.373122 -1.267560 0.512243 -1.321106 0.297102 1.011771 1.194779 -0.508333 1.035645 1.081476 -0.977586 -0.224757 -0.495957 -0.814074 0.836568 0.045080 0.581417 -1.017918 -0.294962 0.508015 -1.021265 -0.175636 -0.363405 0.205543 -0.180043 0.034895 -1.105919 0.591445 0.226882 1.509060 -0.422472 -1.649797 0.144953 -0.507092 0.776670 0.676524 1.783184 -0.761859 0.607800 0.063541 -0.046142 -0.310227 -0.740580 -1.135631 -1.183107 0.739734 0.634514 -0.299321 0.220098 0.022507 -0.097873 0.518837 0.398466 -0.402807 2.147437 0.266998 0.406133 1.405346 -0.145657 -0.047444 0.204255 0.108500 0.380398 -0.123132 -0.334437 1.860894 -0.272604 0.046648 0.851320 0.413911 0.235766 -0.345558 1.585402 -1.511111 -1.197019 -0.398448 -0.471911 -0.309317 0.737416 -0.765078 
approach -0.218728 -0.022852 -0.255107 0.763112 0.624514 0.490212 -0.008152 -0.752864 -1.380965 0.909799 0.465517 0.560020 1.444727 -0.773798 0.890977 0.936038 -0.619109 -0.190609 0.717916 0.171078 -0.579349 0.600418 -0.149188 -1.658998 0.085250 0.870335 -0.244901 0.648116 -0.496555 0.223043 -0.614780 -0.646127 -0.514212 -0.458959 0.350801 -1.381090 0.803723 -0.215500 0.486688 -1.055473 1.670988 -0.633965 -0.079892 0.658420 -0.845773 0.286738 1.714994 -0.048804 -1.156615 0.953683 1.495131 -0.750806 -0.095361 1.879936 0.322307 -1.218464 1.309736 0.922599 0.328158 0.129345 -0.344814 1.333945 0.236974 -0.169319 0.834678 -0.173362 0.449833 -0.339799 1.774953 -0.351366 0.449465 0.345879 2.292304 -0.026592 0.667015 0.616245 -1.165347 0.180874 -0.955182 0.192616 1.524054 -1.028797 -1.234628 -1.150912 0.084592 1.306263 -0.222367 -0.253507 -0.629081 -0.534220 0.130151 0.689521 0.428028 -0.438670 0.460926 0.281712 0.393426 0.000035 -0.910732 0.120663 0.165664 -0.113081 0.491560 0.791891 0.564599 -0.974385 -1.013461 -0.805958 0.338821 0.676863 0.005932 -1.337754 -1.194976 -0.883442 1.053145 1.598181 -0.080712 0.098106 0.291885 0.252964 0.475609 -0.767776 -1.053603 -0.384598 -0.236386 0.649062 -0.262037 -0.249253 -0.845197 0.421168 -1.412767 1.407507 -0.503980 1.155391 -0.430607 -0.827205 0.155717 -0.950181 -1.230205 -0.601667 0.640473 0.877194 -1.651403 0.121302 -0.471125 1.394289 -0.558235 1.616539 -0.738640 -0.588965 0.630325 1.198459 -0.273779 0.293577 0.544254 -1.284959 0.024379 -1.031620 -0.220264 0.057927 1.828681 0.919741 1.128170 0.560814 1.111796 -0.115257 0.854579 1.351485 -0.463827 0.350511 0.474054 0.062402 1.176074 -1.331029 -0.034078 -0.760944 0.633249 0.515757 1.759239 0.481748 1.413932 0.277267 -1.389634 0.191838 -0.588390 -0.703538 -0.950092 -0.448594 -0.442704 -0.202589 2.282407 -0.416849 -0.252893 0.020964 1.232165 -0.961629 -0.243044 -1.873577 -0.176975 -1.054055 
selection 1.113583 -1.037285 -0.861050 -1.578476 1.064555 -1.282085 0.713595 -0.359851 1.463368 -1.464784 -0.680504 0.591518 0.854239 0.115451 1.653106 0.769478 0.576020 0.498882 1.237262 -0.650748 -1.173394 -0.686947 1.795003 -0.422947 0.836917 0.722979 -0.908211 0.116283 1.449767 -0.261840 0.317618 -0.388227 -1.557150 -0.341447 -1.023233 0.125883 -0.290746 1.833432 -0.299418 0.329628 0.082827 -1.181201 -1.389281 0.257512 0.588409 -0.292202 -0.753184 0.064742 0.721644 -0.455115 -0.020665 1.012828 1.274295 -0.273396 -1.773362 0.681949 -0.010741 -0.335566 -0.089470 -0.517712 -1.193155 -1.244231 1.232844 -0.250565 1.289580 -1.675287 -0.555860 2.299224 0.390238 0.444679 0.736720 -2.484063 0.993962 -0.131037 0.147460 0.901382 -0.976389 -0.614236 0.954987 0.167951 -1.872767 -1.120020 1.629981 -0.905702 0.389494 -0.914746 -0.681210 1.104257 -0.070591 0.302791 0.688481 -0.287812 0.967298 1.096422 -0.343065 -0.179209 -0.979611 -0.127686 2.136184 0.324436 0.414110 0.764064 0.418632 1.169573 0.763648 -1.121021 -0.202129 1.327940 -0.342809 -0.916123 0.314648 0.041493 0.288483 -0.315077 0.208467 -0.279322 -0.984818 -0.182158 0.355691 0.359630 1.327857 -0.110876 -0.033403 -1.090178 1.483400 0.239017 -0.038461 -0.343821 1.346512 -0.012553 -0.314434 -0.374186 -1.557658 -1.184843 -0.608329 -0.978214 1.180210 1.179130 0.307503 0.077019 -1.496407 1.153793 -0.372817 0.503122 1.081122 1.113480 0.268062 -0.601792 0.766754 -0.118312 0.624909 -0.412768 -1.267601 0.868088 0.626819 -1.611292 -0.119078 0.225017 -0.032292 -0.407828 -0.004632 0.046908 -0.720476 -0.723989 -0.193270 1.275816 -0.860241 0.555840 -0.327104 0.387501 -0.037254 0.186229 0.308853 -1.412135 0.318458 -0.133139 -1.032131 -0.784214 0.667025 1.717387 -0.579641 -0.962502 0.512130 0.916082 -0.330307 -0.367570 0.829391 0.033843 -0.177814 0.367842 1.168230 0.206474 -0.005694 0.172232 -0.470570 0.259220 -0.051515 -1.365132 1.231062 0.756441 
algorithms 0.367656 0.519276 -0.880594 -0.332887 0.672615 -0.209908 -1.250027 0.928184 -0.030098 -0.946595 0.209283 -0.025827 0.363902 0.701044 -0.632914 0.678844 -0.928455 0.482057 -0.994424 -0.484651 -1.205865 1.087299 0.816346 -0.271407 -0.438717 -0.617677 -0.754599 -0.768421 0.759051 -0.629812 0.508104 1.746668 0.124124 -0.083956 1.032647 -0.149470 0.575915 0.480367 -0.665871 1.805559 0.440705 -0.389914 0.149093 0.203660 -1.190069 -0.012371 0.580605 0.411011 0.439031 0.242388 0.198972 -1.103944 0.522913 -0.894670 0.224083 2.168237 -1.140086 0.668780 0.881865 0.265708 -1.545435 -0.794987 -0.631286 -0.859845 0.719931 -0.262749 -0.412852 0.940780 0.969145 -1.277429 -0.259564 -0.099132 0.084750 -0.105761 -0.583804 0.056837 -0.839734 -0.427826 0.261765 -0.032852 -1.460065 0.910194 -0.902321 -0.897066 1.242308 0.238555 -0.500039 0.764410 -0.459730 0.843742 0.046613 0.492447 1.054784 1.173993 -0.652345 -1.768111 -0.220753 1.273670 -0.530703 0.849248 -1.240562 -0.212396 -0.806700 -0.962276 0.366562 -1.182598 0.104659 -0.272916 -0.019749 0.177654 -0.794694 0.056929 1.039896 -0.942308 -0.433491 -0.293180 0.921736 -0.433059 0.086694 -0.343146 0.899885 -0.697521 0.716591 0.302428 -0.951484 0.303826 0.572771 -0.332989 -2.403740 0.427779 0.034872 0.673937 -0.363719 -1.478153 1.402276 0.036578 0.126383 0.952967 0.976888 -1.078591 -0.700731 -0.309895 0.242068 -1.074448 0.190808 0.448485 0.565804 0.963977 -1.607370 -2.019753 0.574867 -0.952936 -0.998887 0.627562 -0.033253 -0.813444 -0.525001 0.287792 -0.436472 -0.064693 1.229515 0.963869 1.192945 -1.856857 0.079520 0.144810 -0.515919 0.427803 0.817716 -1.967186 -1.091550 1.020758 -0.286863 0.654252 -1.092990 -1.104617 0.686019 -0.200033 -0.460768 1.045958 -0.193631 -1.408038 1.169597 0.436216 -0.760601 -0.633788 -0.479021 -0.451732 0.532941 0.513704 0.165651 0.926846 -0.343076 0.785254 -1.979439 -0.157134 -0.927377 -0.144325 -1.798173 -0.896567 
efficient -0.015068 -0.103992 -0.888758 0.144018 -0.421625 -0.281330 0.336981 0.459923 0.181381 -0.243722 0.318174 0.304680 -0.999855 -1.382346 1.074300 0.014332 -0.361799 -0.480449 0.649318 -1.411107 -0.412656 1.609567 -0.068134 0.104211 -1.823565 -0.089100 0.360791 -0.349889 0.284562 -0.131444 -0.443467 -1.336787 0.053874 -1.639466 -0.327033 0.570841 -1.008680 -0.749904 0.650589 1.114020 0.807095 1.500799 0.318714 0.092487 -0.065436 1.292736 0.596056 0.183795 -1.136240 0.806076 0.176709 1.238250 -0.587322 0.746537 -0.506642 0.530975 0.224813 0.023231 -0.715017 -0.269090 1.300383 -0.245798 0.709633 1.031181 -0.059971 -0.699625 -0.862155 0.316878 0.132207 -1.140860 0.015462 0.395868 -0.227573 -0.074520 0.415865 -1.156711 0.144557 -0.916521 -0.023204 0.492998 -0.454219 -1.253806 -0.200645 -1.894747 -0.829898 -0.835222 1.093182 0.429156 -0.606630 -1.415615 0.634232 -0.279127 -0.039854 0.332857 -1.471262 0.352754 -0.244856 0.441665 1.217358 0.232583 -0.061709 1.117503 -0.379844 -1.327982 -0.303321 0.119918 0.448311 1.127625 0.127632 -1.019930 -0.030007 0.201013 -0.456659 -0.919090 -1.626641 1.231661 -0.570351 1.588167 1.639115 0.639447 -0.557373 -0.309425 0.404019 -0.758871 0.679672 0.716029 0.590610 1.417284 -0.112597 -0.229725 1.671122 -0.221563 -0.272220 0.140526 -0.303168 -0.499147 0.751144 0.512592 -0.208654 0.732841 -0.619642 0.064487 -2.018682 0.054535 0.436117 1.440361 0.998586 -1.782165 0.578571 0.516124 0.052398 -0.104838 0.290740 0.039755 -1.200154 -0.365568 0.070882 0.126217 -0.325118 1.140618 -0.935463 0.651486 0.676168 -0.475047 1.747852 0.201453 0.520939 0.911465 1.106974 0.210501 -0.592474 1.545895 -0.006186 -0.496831 0.398635 0.736131 0.184374 0.662377 1.181818 0.418686 -0.961931 1.615444 -0.374200 -0.523255 -0.245885 0.206295 -0.235006 0.666845 0.815692 0.175493 -0.345702 -0.185607 -1.165465 -0.548906 -2.171259 -0.145675 -0.712504 0.491618 -0.700182 -0.981023 
analysis 1.047144 -1.875000 -0.786632 -0.198382 -0.206492 -1.488886 -1.026689 -0.400751 -0.758174 -1.369874 0.830424 -0.358883 -1.194198 -0.031116 0.956180 -0.757193 -0.479604 0.409825 1.553137 0.866458 -0.364767 -1.957296 0.382140 -1.940419 -0.456979 -1.068418 -1.278873 0.690263 -0.732238 1.750568 -1.452515 -1.292236 0.262322 -0.487807 0.613413 0.338339 -0.965876 -1.189115 -1.776128 -2.121498 0.128479 -0.247186 0.801090 1.454970 0.710572 -0.537971 -0.270240 0.090078 -1.382290 0.558049 0.323191 -0.384773 -1.517381 0.138926 0.190226 -0.337975 0.768404 -0.969797 -0.567447 -0.398801 1.748790 -0.309749 -0.124694 1.064424 -0.301144 0.989970 1.077029 0.228360 1.442826 0.121751 -1.182103 -0.119500 -0.632053 -0.421289 -0.505693 0.779688 1.498637 0.418146 -0.278161 0.436739 1.309531 -0.963655 0.794791 -0.145106 -0.398704 -0.030395 -0.418203 0.032562 -0.577688 -1.018506 1.111739 1.173389 0.223096 0.471520 0.178139 0.092517 -0.522012 -0.426731 1.065614 0.206536 0.246296 -0.160136 -0.270542 0.020739 0.016369 0.378247 -1.320557 -1.042138 -1.336460 -1.175541 -0.409168 0.099940 -0.700071 0.323297 -0.841990 -0.318792 -0.025397 0.999554 -0.429734 -0.175045 0.724541 -0.481548 -1.045364 1.338532 -0.295276 -1.050537 -0.613342 -0.694514 0.264688 -0.538296 -1.218199 -0.064876 -1.046172 -1.820651 0.925757 -1.506249 1.457516 0.820954 -0.249626 0.991920 0.204974 0.119259 0.366754 1.314293 0.080339 0.970136 1.364376 0.848881 0.276298 0.173127 -0.457441 -1.032724 0.964335 -0.201996 0.356349 -0.865163 -1.812662 0.288694 -0.025706 1.396746 -1.048622 1.468293 -0.240960 -0.418696 -0.475917 -0.147575 0.733929 0.712325 1.065657 0.031983 0.533177 -0.070097 1.222651 -0.869954 1.103721 0.461286 0.341980 0.374971 1.505574 -0.133750 0.491438 1.667628 -1.128057 -0.042799 -1.460847 0.759274 -1.150255 -0.092886 -0.262915 0.942178 -0.498590 0.511651 -1.347325 -0.025555 1.040494 0.748493 -0.135524 0.789393 -0.013452 -0.711377 
sparse -0.691636 -0.198333 -1.369252 -0.460713 1.155917 -1.540264 0.383266 -0.891470 0.569197 -0.515470 -1.336762 0.788269 -0.770705 0.253486 -0.737358 0.115486 2.549201 -1.276090 0.744312 -0.091631 -0.815516 -1.093892 0.017069 0.222052 -0.436641 -0.524974 -0.470493 -0.515351 0.307419 0.196903 0.733517 -1.122952 0.666157 0.750202 -0.341699 1.784112 -0.623850 -0.316047 -0.617625 -1.651439 0.830409 -0.855074 -0.616842 0.091749 -0.222572 -0.485006 0.422605 0.406740 -0.894231 -0.461829 0.181706 1.200609 1.127758 1.909247 -1.192976 1.840665 -0.061137 0.493904 0.912491 -0.140828 0.114423 -1.451812 -0.148631 -1.120133 1.453060 0.596758 0.499612 0.565502 0.790356 -0.162083 0.468947 0.291081 -0.809143 0.518720 0.504555 -1.318814 -0.492186 0.450985 -0.513638 -0.687952 0.981530 -1.491259 0.877258 1.587398 0.049077 -0.200050 0.825727 -0.568117 -1.100212 -0.397330 0.460424 -0.770090 0.607820 -1.357065 -0.921730 0.865631 0.594632 0.232650 0.559224 -0.560145 -0.461521 -0.229155 -0.545997 0.033267 -0.976132 0.367018 0.026838 -0.419780 -0.861609 0.287214 -0.310379 0.827581 -0.438210 -0.663875 -0.507221 1.212837 0.564238 0.492604 -0.856455 -1.083299 1.153813 1.051328 0.092139 -0.220083 0.803542 2.602609 1.365518 -0.434909 0.041320 -1.038451 1.209962 -0.349240 -0.321768 -1.104158 1.323152 -0.800141 0.668188 1.333045 -0.286246 -1.069703 0.411545 0.373385 -0.739134 -0.155351 0.677832 -1.306523 -0.602612 0.006247 -0.354637 -0.993965 -0.431174 0.228504 0.153382 -0.135783 0.543976 0.877045 -0.609988 0.552148 0.593097 -0.002150 -0.144927 0.236333 -0.529651 -0.960942 0.711893 -0.245541 -1.561956 1.012139 0.572140 0.080641 0.294349 0.720553 -1.567341 -0.471610 -0.784093 1.702490 -0.218311 0.646672 -1.026022 0.119843 0.017032 1.500491 -2.098052 0.275750 -0.879791 -0.780033 0.485469 0.068516 -0.620288 1.308276 -0.442152 -0.150179 1.437868 0.367587 1.010904 1.635245 0.731774 1.270195 -0.069521 0.139998 
classification -1.905865 0.586240 -1.056050 -0.554933 0.571105 -0.540591 -1.056965 0.967691 0.864241 0.704015 1.532889 0.293829 -0.603428 0.638860 0.283388 1.289617 -0.655404 0.623758 0.337667 -1.650183 -1.734276 -0.609573 0.981494 0.361793 1.014863 0.050784 0.533090 -1.222044 0.453259 -0.712906 -0.581450 -0.027405 -0.994378 0.324606 -0.524550 0.715651 -0.004508 1.452255 -1.276517 -0.222273 -0.291214 0.287793 -0.630900 -0.623004 0.525597 0.019920 0.152496 0.023199 -0.901950 1.355341 -0.409544 -0.290430 0.629972 -0.029626 1.155812 0.317355 -0.423793 0.049476 0.886737 0.309253 0.301149 0.131060 -0.463302 0.890107 -1.167878 -0.630836 1.019983 1.671140 -0.329479 -1.726370 -0.633192 0.973629 0.672713 -0.407920 -0.131838 0.108068 0.155068 -0.043655 1.820141 0.608938 -0.400959 0.297756 0.347736 0.446614 2.013047 -0.015880 0.898400 0.424816 -0.194269 -0.762088 -1.274268 -0.089759 0.468664 -0.855736 1.147742 -1.298294 0.117196 0.747884 -0.037533 0.149849 -0.373621 0.864324 -0.964801 1.835197 -0.511826 0.734975 0.814741 0.841676 0.735230 0.442490 0.324035 -0.036818 0.273458 -0.103007 0.607347 -0.308444 0.728130 -0.101329 1.485508 -0.641066 0.531567 -0.346871 0.103477 -0.720176 0.850405 0.071066 -0.130975 -0.653594 -0.727457 1.618632 -0.088050 0.842397 1.371102 -0.581668 1.154386 -0.854890 0.638275 0.369731 0.928439 -0.276830 -0.155205 0.074835 1.374751 -0.143827 0.852350 0.824699 -1.245501 -0.104801 -0.740598 -0.871160 1.360455 -1.183882 0.929578 0.260271 1.313564 -0.493638 -1.546738 0.863387 0.574633 0.318956 -0.876563 -0.263914 -0.450868 0.560480 0.291936 0.730391 -0.135387 -0.621666 1.294545 0.687704 -0.095365 -0.280708 1.979358 -0.659831 1.302183 -0.770259 -0.252618 0.497807 0.957060 0.336423 1.125057 -0.940763 0.806936 0.116484 0.112598 0.516203 -0.136909 -0.601039 -1.182454 0.635839 0.997920 -0.301058 -1.945154 -0.507832 0.717139 1.086991 -0.851462 -0.372930 0.507128 -1.024608 
model -0.409198 -0.949916 0.809520 0.101644 0.676602 0.174682 -0.082504 0.188907 0.869447 0.517270 0.498330 -0.495473 -0.307953 -0.574010 -0.678992 0.700058 0.821458 1.228748 1.075711 1.070706 0.264858 -0.523128 0.503706 -0.149796 -0.004218 -1.353248 -0.642747 0.697091 -0.010743 0.260754 -0.134924 -0.273066 0.606468 0.805784 0.770277 -0.599885 -1.522483 -1.984583 -0.245781 0.095489 0.897348 0.318364 1.064152 1.354593 -1.594844 0.812287 -1.176273 -0.881649 -1.367509 -0.672792 1.131142 1.099841 -2.083681 0.122678 0.013671 -0.693688 -0.628283 -0.285163 -2.209480 0.668855 0.632154 0.523196 -0.606811 -0.533334 0.652663 -0.723251 -0.684445 1.015392 0.000723 1.105141 0.100665 -0.848421 0.045407 -0.334360 0.688950 -0.414180 1.468436 -0.234157 -0.634333 0.248366 0.756407 1.513597 -1.163726 -1.046093 0.688445 -0.598074 0.876132 -1.006638 0.601345 -0.030303 -0.034094 -1.409844 -0.914923 -0.297550 -0.126742 -0.397316 -0.303700 -0.607736 -0.725373 -1.694319 0.735333 -0.632308 -0.350478 -0.015811 -0.447738 0.207453 0.272714 -0.197386 0.919022 0.464302 0.130227 -0.852384 -0.005628 1.150809 0.300277 0.205243 -0.842965 0.039971 -1.094033 -0.826062 1.365215 -0.583354 -0.641501 0.649097 -0.369874 0.291509 0.941425 -0.484515 0.627214 -0.373944 -0.818719 1.449800 -0.947064 1.111245 -0.305064 -1.546605 0.381828 0.238811 -0.272735 0.609363 0.703136 0.747979 -0.390950 0.599546 -0.655509 1.424293 -0.198983 1.107424 0.788547 -0.742057 -0.682497 -0.511976 1.082546 1.035274 -0.097391 -0.596850 1.721396 -0.187350 0.600597 -0.005823 1.011897 0.292845 -0.606356 -0.179353 0.663977 0.466658 2.047462 -0.869882 0.874286 -0.503415 -0.449724 -0.291164 1.222534 0.716886 1.593072 -1.249200 -0.024068 -1.143442 -1.228868 -0.063628 -1.217085 -0.854782 -0.878889 -0.368167 -1.369480 0.093972 -1.498400 1.132260 -0.029463 -1.227457 -1.362579 0.554526 -0.577844 -1.743367 1.154778 1.309934 -1.663878 0.838163 0.390096 -0.333348 
clustering 0.270612 -0.648348 -1.216748 0.308074 1.188033 -1.306877 -0.338079 -0.644830 0.232489 -1.708606 -0.670435 1.841072 0.226049 -0.647678 0.116977 0.175570 -0.487753 -0.045872 0.271003 0.666629 -0.390478 0.148715 0.031450 -0.818597 -0.230842 -0.582870 -1.020382 0.087660 1.103374 0.799757 -0.124469 1.076011 -2.615814 -0.587010 -0.500617 -1.978291 -0.237504 -0.370795 0.044464 -1.051042 -0.998287 -0.405593 0.906884 0.183670 0.566703 -0.535777 0.864903 0.964098 -0.610704 0.110407 0.842007 -0.929900 1.319948 0.201931 0.035921 -0.148973 -1.162268 -0.476075 -0.456026 -1.916193 -0.296711 0.075831 0.396252 0.520297 -0.728492 0.471418 0.850737 -0.346020 -0.163703 -0.435314 -0.062203 -1.223412 -0.298915 -1.409734 -0.920837 0.615939 -1.275646 -0.571247 0.685567 -0.120204 -0.125292 0.031770 -0.743099 0.104887 0.262953 -0.742235 0.103645 0.337873 -1.510305 -0.141001 -0.523450 0.986706 0.309375 0.087279 -0.419684 -0.019551 0.136961 -0.156476 -0.330044 0.505440 0.649635 1.133046 0.947643 1.390140 -0.935182 -1.082352 0.053580 -0.018722 0.136597 0.241850 -0.535129 -0.748826 0.858737 0.755226 -0.975011 -0.250523 -0.475200 -0.386700 -0.097465 0.682575 0.971883 0.561466 -0.962798 -1.271163 1.308858 -1.566960 0.974238 0.351743 0.154019 1.321559 -0.453348 -1.483707 -0.651609 -1.120414 1.008827 -1.553705 0.105022 0.327609 1.368172 0.943020 -0.104812 -1.036112 0.266017 1.132015 1.680546 -0.178487 -0.626670 -1.090065 -0.077984 0.605244 -0.291446 -0.079433 -0.224865 -0.364038 0.550286 0.720974 0.335254 -1.352495 0.223493 1.057383 -0.347069 1.111540 -1.109472 0.835858 -0.782078 -0.832401 0.231351 0.293747 -0.036136 -0.318543 -0.440500 0.942948 0.359198 -0.649782 0.400606 -1.734355 0.170126 0.054886 0.286733 0.299204 -1.329653 0.356453 0.345464 1.193971 -0.059054 0.102370 0.328514 -0.680789 0.859347 1.229669 -0.311270 -0.933128 -0.590652 -0.658512 -0.351722 -0.681017 -0.413428 0.911092 0.276812 -1.510250 
algorithm -0.098965 1.120379 0.100396 2.325275 -0.555761 0.402593 0.173435 1.114848 0.693306 0.430452 0.274576 -0.486550 0.546911 -0.224089 0.521000 -1.034649 -1.171424 -0.427070 0.631535 0.121949 -0.346346 1.379706 -0.042424 0.438573 0.060122 1.611123 1.261599 -0.228447 0.741274 -0.824747 -0.431190 -0.173431 0.612753 -0.693392 -0.339860 0.208673 -0.845097 0.426504 -0.442322 0.001094 2.633076 1.013061 -1.535764 -0.058540 -0.093874 0.070762 1.734075 -1.805060 -0.564092 -0.139151 0.828628 -1.042636 -0.680108 0.086582 0.898885 1.457960 0.006434 0.467383 -1.820931 0.397682 0.226148 0.260091 -0.233077 -2.050343 0.612983 -0.511802 -0.319906 0.895937 0.253749 1.211489 1.122668 1.232063 -1.540896 -0.934106 -0.288718 1.580939 -0.404437 -1.038927 -0.640323 -0.724393 0.741704 0.007652 -1.532583 -1.518157 0.634910 -0.020796 -0.016784 -0.273753 0.573179 0.271645 0.471696 -0.491299 -0.981617 -0.371000 -0.236787 -0.725305 0.457440 0.453050 -1.788886 -0.641591 0.192443 0.706523 1.518999 -0.104768 -1.403060 -0.302808 0.983204 -1.823361 -0.372202 -2.096852 0.310881 -1.686479 -1.157601 -0.743523 0.024451 -1.642209 0.959377 -0.450061 1.825738 -0.526828 0.698777 -1.111767 0.029808 1.459166 -1.953080 0.020496 1.968201 -0.613022 -0.930932 -0.106301 -0.125943 -0.042243 -1.513915 0.541502 0.664469 -1.410573 -0.305610 -1.738044 -0.589054 -0.524992 -1.246694 -0.023187 -0.084716 -0.656123 0.294531 0.054119 -1.039147 -0.827269 -2.121992 -0.782760 -0.652185 -0.859989 -1.287959 0.728853 -0.698266 -0.790620 0.638057 -0.553204 -0.087050 -0.450286 1.053642 1.319220 1.060413 -0.903994 1.046621 1.190641 0.490186 0.312301 1.397473 0.316602 -0.498358 0.808537 2.182110 -0.676023 1.140992 -1.001634 0.737739 1.398051 -0.254242 -0.139624 -0.390914 -0.471576 0.269924 -0.091363 -1.468602 0.781241 -0.337072 -0.545221 2.066235 -1.001726 0.380264 -0.022857 -0.636092 0.448151 -1.131407 -3.184214 -1.166003 -0.246463 -0.307948 1.564853 
multiple -0.270758 -1.566511 0.589369 -1.326199 -0.905537 0.096731 1.161415 -0.694958 -0.174975 -0.021536 -2.058938 0.014503 1.070936 -0.144649 0.364402 0.308169 2.629575 1.330694 1.151607 -0.206672 -0.456512 -0.520874 0.763401 -1.089517 0.322715 1.002163 -1.716726 0.560309 2.351187 -0.403274 -0.329153 -0.343640 -0.072857 -0.051673 -0.426251 -1.871973 0.424158 -0.320011 0.443879 -1.179960 1.032447 0.319494 -0.023155 -1.581048 0.897350 -0.083817 -0.005144 -0.068264 -0.270349 -0.962391 0.718807 1.739929 0.746922 1.273928 1.243704 -0.007455 1.334655 2.097575 0.699942 -2.155240 0.292154 -0.238713 -0.959721 -0.581281 0.205086 0.125739 0.953249 0.370744 -0.490646 0.663951 -1.097002 -1.498139 1.295845 0.832245 -0.295020 0.124784 -0.532775 -0.328484 -0.347509 0.325204 0.692496 -0.091785 2.175720 -0.524358 -0.479979 -0.630108 -0.998760 -0.583858 0.543774 1.635226 -1.692507 0.119932 1.493629 -0.919072 -0.284997 -1.755042 0.340531 0.095993 0.237292 0.889933 -1.276632 0.706079 -1.698257 0.110608 -1.094904 -1.236578 0.750168 0.886458 0.391180 -0.329197 -0.362246 -0.817676 1.531935 1.108924 1.362306 0.193787 -2.277767 0.575960 0.987466 -0.878032 -0.015627 1.098741 -0.843452 -1.193860 0.525135 -0.303039 -0.197536 0.524223 1.008711 -1.338128 -0.648583 1.011841 0.282577 -0.526728 -0.077950 -0.940463 0.507714 0.834666 0.917572 0.164666 -0.653157 0.732340 0.293154 1.329857 0.252530 1.347947 -0.846512 0.105163 0.590141 1.108429 -0.870197 -0.803497 -1.255209 -0.264538 -0.803172 0.449836 -1.250858 2.094133 0.709176 -0.964484 -0.603327 -1.190557 0.569262 1.164034 -0.836684 -1.297773 0.944479 0.912672 -0.104611 0.717145 0.612248 -1.744160 0.084849 -0.344539 0.385336 1.534465 1.514624 -1.084573 -0.540884 -0.837429 0.252495 0.686033 -0.908324 -0.608684 -0.139765 0.031601 -1.160001 -0.373993 -0.631936 -0.635764 0.073340 -0.320822 0.092938 -0.261070 -0.241374 -0.803557 -1.321349 0.041148 -0.205326 1.019473 
bayesian -1.027071 -0.673293 0.373817 0.445177 0.396134 -2.073657 0.854715 0.691640 1.502249 -0.626924 0.874322 0.747666 -0.111763 0.771069 0.735335 0.773775 0.671595 0.502700 -0.257811 0.283117 1.049616 -0.914960 0.251364 0.277601 1.851346 0.432016 -0.653643 0.790529 -0.502598 1.304305 0.217970 -0.951696 -0.097397 0.408271 0.388811 -0.006170 -1.683134 1.077525 -1.169641 -0.149831 0.067776 -0.003157 -0.430323 1.001927 0.137428 0.650122 1.286795 0.223124 0.669135 -0.819235 -0.038789 -0.892405 0.532337 -0.725981 -0.832750 -1.161053 0.650299 -0.841022 -1.269020 -0.529813 -0.502405 -1.258596 -0.150977 -1.959752 0.359083 0.065183 0.778703 1.492852 -0.175656 -0.639885 -0.734511 0.367338 0.867369 0.717957 0.441053 0.008614 -1.332569 0.827311 0.348242 -1.172541 0.165404 -0.314867 -1.522203 -0.861694 0.743768 -1.082162 -0.707815 -0.959079 -0.944911 -1.151588 0.309149 -0.184439 -0.704307 1.507982 0.737694 0.329529 0.522127 0.568111 0.090221 -0.491487 -0.218363 -0.525096 1.011965 0.025941 0.645285 -0.342098 0.074021 0.478886 0.334252 -0.187796 -0.515757 0.297681 -2.620411 0.198396 -0.522088 0.496273 0.927171 0.735335 0.079770 1.386501 -2.236290 -1.191389 0.365799 -0.332703 -1.316924 1.108472 1.681195 -0.568004 2.044851 -1.755594 -0.869298 1.900075 0.599916 -0.892578 0.586387 0.726908 0.179561 0.360353 -1.192355 0.099933 -0.003169 -0.410742 2.102322 -1.091798 1.000444 -0.344611 0.528942 1.423662 0.204572 -0.393901 0.334683 1.392580 0.820856 -1.659836 -0.082793 -0.405281 -0.223381 -0.960546 -1.112675 0.033999 0.148178 -0.153244 0.545242 -1.970794 0.747738 0.062600 -0.494468 0.040714 0.220056 -0.932920 -0.520625 0.384036 0.999765 0.951704 0.385329 -0.988828 0.679795 0.801733 -1.422031 1.452142 -0.159171 0.460530 0.492739 0.034632 -0.062772 -0.370315 0.022285 0.659378 0.219962 0.431456 -0.507723 -0.492883 0.065149 0.218081 0.175321 0.239465 0.264291 1.257156 0.524224 -0.757128 
optimization 0.048760 -0.844636 0.532524 -0.545407 -0.871579 -1.436708 -0.296409 0.406544 1.119919 -1.022218 -1.405059 0.133205 0.093474 0.620810 -0.763293 0.433970 1.039864 0.349954 0.614365 -0.710588 0.680801 -0.084244 0.704401 1.559005 0.043735 -0.781568 -0.386383 -1.702396 0.951823 1.206145 0.385739 0.984667 -0.343336 -0.767142 1.214635 -0.058928 -0.535196 0.282520 -1.000317 0.900481 -1.140557 0.024425 -0.032168 -1.381940 1.339357 0.341936 -0.109653 0.980585 -0.947966 -0.028473 0.674061 -1.069839 0.999375 0.108209 -0.355580 -1.501043 0.547507 -0.307390 -0.665272 -0.549741 0.298119 -1.595764 -0.490261 1.267018 0.524739 0.713322 0.069005 0.005611 -0.581168 -0.288435 -0.116829 -0.660697 -1.421204 0.384619 -0.728179 1.046236 -0.181867 -0.582532 0.470635 -0.414003 -1.026391 -0.299938 -2.757342 1.752036 -1.193699 -0.382190 -0.956957 1.106157 -0.481197 0.110317 -0.353891 0.277064 0.692956 -0.307897 -0.407777 -0.556841 0.813203 0.478575 1.107149 0.617088 -0.166694 -0.072982 -0.166586 0.950348 -1.072526 -0.900777 0.594901 -0.369391 -0.558976 -1.674265 0.212492 -0.824093 2.551171 -0.586442 1.347423 -0.664687 -1.096726 -0.109084 0.777447 1.803581 1.088404 0.470663 -0.732735 -0.155326 0.264960 0.878987 -0.996960 1.675379 -0.814933 0.012336 -1.174036 -1.136556 -0.249613 0.699880 1.231328 -0.562198 0.319131 -0.031193 1.248729 -0.580985 -1.258969 -0.271006 -0.366607 1.191953 -0.622691 1.417455 -0.024582 -1.173042 0.750885 -0.394534 0.306341 0.682871 -0.826942 -1.248273 0.618934 -0.604345 -1.377837 0.825747 -0.938261 0.326086 -0.594594 -0.435128 -0.210800 0.255539 -0.043202 0.401332 -0.166054 -1.840003 -0.905251 0.589986 -1.087511 0.217031 1.676703 0.572895 2.168001 -0.689962 2.020535 1.054701 -0.931436 -0.729023 -0.059374 0.875216 -0.438952 0.767967 -0.058200 -0.427965 0.345510 0.329296 1.556970 0.432441 0.949570 0.588493 -2.122584 0.006773 0.047107 -1.051559 0.347734 0.692059 0.833262 -0.546152 
fast -0.278035 -0.912807 1.354447 0.626902 -1.324749 -1.112835 -0.357660 -0.541260 1.845722 -1.085855 -1.774819 0.752333 1.311609 1.630894 1.065621 0.000021 -0.793970 -0.983527 0.111349 -0.524376 0.212976 -1.744186 0.101284 0.282505 0.567172 -0.194552 -0.763166 -0.593043 0.337947 1.641226 -0.026061 -0.599925 1.801542 -0.451368 -0.065340 0.821785 -2.802501 0.095500 -2.189798 -0.181132 -0.233447 -0.920333 -0.936403 0.092105 -0.258874 -0.221454 0.851454 -0.267509 -0.183476 -0.937565 -0.532552 1.499405 -0.667015 0.379977 -0.337194 -0.041327 -0.592887 0.849793 1.143921 -0.186940 0.000236 -0.556807 -0.131670 -1.440333 0.089447 0.313250 0.905916 0.365717 0.130023 -0.216483 0.594518 -0.271215 -0.172999 -0.652292 0.494077 -0.009547 -0.166950 -0.855088 -0.538704 -1.552290 -1.124332 0.047745 0.503311 -0.770975 -0.239822 -1.145985 -0.667325 -0.166845 -0.112618 -1.352221 -0.096973 -0.239491 -0.639554 -0.097916 1.610683 -1.635997 1.462200 0.021042 -0.694610 0.212926 -0.596739 -0.739953 -0.222612 -1.243061 -0.278538 1.529124 -0.862012 -0.933772 -0.971659 0.955554 0.354524 -0.647579 -1.110676 0.306043 0.350678 0.805923 -0.068373 0.052959 0.035192 -0.539662 0.037400 0.337155 -1.974692 -2.186328 0.158147 0.319185 0.122640 -0.705866 1.562928 -0.621201 0.864610 -0.392751 -1.233083 1.671861 -0.401291 -0.855867 0.100646 0.139354 -1.403826 0.955427 -0.645927 -0.097257 -0.714990 2.083459 -0.275070 0.852183 -0.518281 0.784206 -0.079388 0.092837 1.137924 0.563644 0.505360 -0.802250 -0.362730 0.948107 -0.502285 1.099232 -1.863655 0.220025 -0.007228 0.377737 0.297773 -2.107674 0.767309 -0.216425 -0.897624 -0.850866 0.670977 1.296247 -0.906717 -2.047638 -0.486388 -0.016092 0.411144 -0.328295 -0.102656 -0.060894 0.091309 -0.023286 0.415400 -0.203093 -1.285860 0.634584 0.160629 -0.250577 -1.351292 -0.327222 0.016905 -1.001176 0.355558 -1.163024 0.128492 -1.447195 0.148190 -0.069810 0.769216 1.220642 -0.147723 0.898919 
stochastic -1.689847 -0.898483 -0.363312 0.160656 -0.495031 0.102838 0.801280 1.220382 0.656672 -0.749957 0.128598 0.734976 -0.886694 0.805942 -0.947947 0.844799 1.435581 0.174897 -0.692315 -0.378737 1.085353 0.205123 0.059112 0.784517 -0.036585 0.492746 1.201404 2.355804 -0.446325 2.484783 -1.279661 -1.684584 0.104821 -0.091952 1.193478 -1.294797 -1.669637 -1.723917 -0.386227 -0.512569 2.051217 -0.971447 -0.184641 -0.191247 -0.069044 0.464046 -0.319727 0.377267 -0.135056 0.947662 -0.053935 1.004285 0.073986 0.195562 -0.662418 -0.236338 0.150680 -0.284090 0.092648 0.628740 0.862994 0.105455 -0.529743 -2.176269 0.596517 -0.282364 0.074727 -0.369363 -0.581449 -0.520101 -0.205013 1.518498 -0.874250 -1.185076 -1.886683 -1.562774 0.127285 -0.707626 0.058625 -1.517980 0.182780 0.082402 -0.680084 -0.415857 -0.368441 0.399965 -0.560745 2.352437 -1.919081 -1.558805 1.140575 -1.316865 0.272187 -1.466796 1.087257 0.198320 0.557547 0.332968 -0.058211 0.480358 -1.228923 -2.048889 -0.515528 -0.699230 -0.419620 1.119141 0.881192 -1.180812 -0.844469 -0.954687 1.429335 0.532838 -1.403334 0.714041 -0.029387 1.376177 0.754384 -0.562256 0.567808 -1.721390 1.034222 -0.073424 -0.650393 -1.896723 -1.008872 0.302047 1.159335 1.032352 0.242610 -0.075474 1.042752 -1.320327 0.633593 -0.903483 1.066751 -2.281632 -0.607073 -0.575148 0.163989 -0.312205 0.243812 -0.360857 -0.466682 -0.496062 0.160704 0.430809 1.028487 0.540927 1.730057 0.863251 -0.719187 -0.112192 -0.774560 0.098228 0.041863 0.438541 -0.130738 1.602170 -1.036425 -0.411436 -0.453617 1.905255 0.802478 -1.091552 -0.844319 -0.054806 -1.862626 -1.781597 1.034467 0.546456 0.087292 -1.674416 0.583242 0.405385 2.226597 0.549155 1.038340 -0.492257 -1.841714 1.937452 -0.446021 0.238724 0.153179 -0.598565 -0.085034 -0.796028 -0.844581 0.608832 1.084808 -1.544073 -1.153483 0.598983 -0.319555 0.568275 -0.445591 -0.250304 0.083011 -1.235486 0.276747 -1.096932 
kernel -0.379336 1.598977 0.345931 0.196002 0.238504 0.644115 0.616775 0.883932 0.643694 -1.009190 0.726048 0.980367 -0.644132 -0.099375 -0.330585 0.315894 -0.092845 -0.533145 -0.500020 -0.275535 -1.142016 0.677407 0.918169 -0.834251 -0.695192 -0.532431 0.051715 0.786822 0.712885 0.605470 -0.442694 -0.639712 0.537584 -0.887022 -0.586579 0.993314 -1.151953 0.250834 -0.802707 -0.595033 -0.277296 0.093507 0.209153 0.007987 -0.172215 -0.502193 -0.140247 0.000965 -1.914102 0.817064 -1.007648 0.662316 0.199948 0.950143 -0.409225 0.071991 -1.349170 0.461198 -0.657724 1.172355 -0.032267 -0.080419 1.225054 -1.635463 0.911542 -1.409088 0.536817 -0.384461 -0.741970 0.382707 1.087299 -0.459616 1.005785 -0.233033 -0.040724 -0.815955 -0.715123 -0.108995 -0.952106 0.127682 1.981108 -1.079928 -0.772528 -0.768409 1.032111 -0.463899 1.412644 -1.594827 0.139945 -1.604930 0.342284 -1.019966 -1.682945 -1.507721 -1.063319 1.451812 0.528403 2.286225 0.343915 -1.229850 -0.641652 1.779903 -0.399077 0.289018 -0.150849 0.168605 1.955742 -0.143713 0.930868 1.331172 -0.378118 -1.291926 0.239875 -0.084219 -0.318227 0.427362 0.946499 -0.766106 0.494455 0.976825 -0.590723 0.243265 -1.596738 -1.068423 0.628183 -0.745391 0.895376 -0.550265 0.353351 -1.380430 -0.696174 0.382054 -0.335241 -0.110783 1.603602 -1.413468 0.291381 0.759211 0.407431 0.106634 1.072836 0.161878 -1.471283 0.491942 -0.398000 -0.363359 -0.515099 0.610099 -0.738175 0.094268 -1.245402 -0.574558 0.830896 0.127904 1.274663 -0.580912 0.402229 0.123285 0.129022 -0.163897 0.054294 0.616199 -0.748225 -0.270326 -1.232839 1.678231 1.243248 0.000040 -0.399268 0.917219 -1.115151 0.717976 -0.916306 -0.110797 0.892613 -0.521063 -1.035708 -0.180960 -0.412608 -0.651671 -0.051822 0.908720 -0.450320 0.630408 0.039768 0.961752 -0.076603 -0.965569 -1.471898 1.761614 0.708438 -0.722681 -1.896361 -0.579507 -0.542316 0.385645 -0.684894 -0.070528 1.204112 -0.825072 
linear -0.837650 -0.392652 -1.520319 0.220176 -0.746332 0.321128 -0.357547 -0.934958 1.549435 0.469212 -1.141936 0.810632 -1.001026 -0.209574 0.566696 0.557893 0.250710 -0.723604 -0.318909 -0.598092 0.524863 0.654576 0.404686 1.234992 -1.023734 0.520922 0.722915 -0.293358 0.223093 0.499274 0.581448 -0.992695 -0.650916 0.683674 0.179264 -0.326011 0.443489 0.299345 -0.038305 0.836088 1.120836 0.086466 -1.026734 -0.606838 -1.110167 0.412855 -1.013092 0.326054 -0.583948 0.860422 -1.311247 1.576795 -0.854472 0.308068 -0.298404 1.283613 -0.073582 0.269759 0.532231 0.582458 -0.446948 -0.577098 -0.147061 0.221780 -0.545537 0.080538 1.450940 0.015452 -0.338185 1.228623 1.864427 0.144796 0.151826 1.029419 0.085836 0.294685 -0.138180 1.415725 -0.616243 -0.824945 1.141979 0.786499 0.086824 0.316570 1.721654 -0.041569 -0.161364 -0.046583 -0.745718 -1.385671 -0.001417 0.891085 0.183111 -1.541675 0.574971 0.185209 0.490145 0.401732 2.420920 -1.707649 0.396428 0.789848 0.422471 -0.485759 0.578476 0.201975 -0.277556 -1.435651 -1.484242 -1.881552 -0.601134 -0.831060 -0.312284 -2.780648 -1.231860 -0.705100 -0.021629 0.139014 1.026147 -1.249363 -0.561663 -0.662545 -2.219945 -0.154799 -1.713297 0.220870 -0.135851 -0.654459 0.474812 -1.103402 1.327927 -0.835422 0.441536 0.354798 0.918157 1.327184 1.762850 0.397237 0.253369 0.736692 -1.033234 0.360206 -0.820774 -0.575436 1.202517 -0.909998 1.653173 -0.474630 1.387949 -0.617366 0.122990 1.164965 0.868555 -0.463588 0.607970 -1.047480 -0.086474 0.641563 -0.551477 -1.328038 1.299088 0.359602 0.500544 -1.400010 0.794391 -0.972216 -1.253825 -0.663443 0.075295 -0.247472 -0.151125 -1.212522 -1.591184 2.010331 -0.149930 0.876932 -0.391491 -1.055378 -1.380945 -1.121364 -1.579870 0.377214 0.322786 -1.642684 -1.285206 -0.606536 0.362219 0.306979 0.985140 -0.266384 -0.505393 -0.811876 -1.469927 -0.101874 -0.201608 -0.383150 0.151672 0.347474 -0.004333 0.484922 
regression -0.204217 2.044576 0.537763 0.817416 -0.171234 -1.108703 1.802978 -0.066211 0.624893 0.012961 -0.772006 -0.105114 -0.469531 -0.433870 0.938455 0.184856 -0.237068 0.511770 -0.336181 0.100125 -2.377399 -0.299132 0.322424 0.132340 1.026334 1.269152 0.998662 -0.486578 1.352396 -0.043914 -0.517020 -1.315774 -1.075944 -0.863580 -0.403354 -0.078934 -0.904747 1.888207 -0.992097 -0.955532 -0.758011 -1.186396 -0.422059 -0.404774 0.656905 -1.039899 0.116393 1.741221 -0.656073 -1.310974 -0.750444 -0.097121 1.577688 -0.262293 -1.631926 -1.143466 0.144697 -0.054496 -1.356028 -1.704270 -0.827854 -1.064592 0.339283 0.079979 0.856293 0.477242 1.676766 0.383879 -1.696894 -1.174319 -0.314575 -0.895196 1.388510 -0.032507 0.846665 1.738951 -0.017418 -0.415818 -0.163570 -0.225757 -0.497530 -0.147477 0.644147 -0.092865 0.212025 -1.020272 -1.996303 0.874896 -0.846130 0.280010 -0.800940 -1.353323 0.835063 -1.135474 0.151391 0.159433 -1.828560 -0.776385 1.793993 -0.338939 -0.927346 0.116936 -1.129635 -0.779118 0.744239 -0.714259 -1.274527 0.510668 0.666920 -0.861410 0.581120 -0.876285 0.430867 0.365291 -0.122121 0.235035 0.388180 0.609644 -1.086303 -1.629634 -1.054353 0.769736 -1.908097 -1.291340 2.838540 0.643573 -0.591456 -0.096525 1.754472 -0.600889 -1.258112 0.630224 0.404398 -1.267708 0.433402 -0.203455 0.291043 -0.811050 0.563261 0.237750 -0.645201 -0.659776 -0.288312 2.335542 2.245500 1.174998 0.081979 0.738965 0.365130 -0.835489 1.260831 -0.570705 -0.699533 0.396593 -0.167523 -0.407887 0.857119 0.140770 -1.141062 -0.708933 -0.040004 -1.274172 0.884553 -0.120370 0.970150 0.066142 0.995777 0.560256 1.054207 0.125729 -1.226754 0.286394 -0.923113 -0.491802 -0.978449 0.629054 1.033042 0.164589 0.221970 1.004533 0.907010 0.754067 -0.412613 -0.208604 -0.964057 1.135506 -1.519960 0.655092 0.685566 1.353063 1.028112 0.329543 -1.633865 0.431550 -1.857041 1.101521 -0.470428 -0.044980 1.226527 0.489896 
prediction -1.268634 0.176015 -1.502616 0.616503 2.702715 0.436860 0.783884 0.029902 0.622002 0.328973 -1.282011 -0.195001 1.188728 -0.531893 0.252456 -1.363024 0.004221 0.098747 -1.351992 0.152320 -0.417378 -0.044163 0.478312 -1.962142 -0.809854 0.497868 0.563650 -0.251549 -0.829470 -0.113321 -1.107958 2.811731 0.173112 -0.501243 -0.839859 -1.080022 -0.101149 1.753835 -1.160648 0.042556 0.257714 -1.672378 -0.487239 0.218576 1.150138 0.435021 -1.681078 -1.153092 -0.921646 0.427255 0.485893 0.920768 0.601895 2.108045 0.343813 -0.647755 0.209657 0.626406 -1.722328 -1.706080 -0.918046 -0.017643 1.575892 -0.608129 0.159310 0.622028 -0.967219 0.194585 -1.133243 0.188024 0.874790 -1.191743 -1.805139 1.259402 0.990378 -0.337760 -0.602913 -0.014446 1.296450 0.551702 0.600908 -0.879583 0.292328 -0.275668 0.233811 -0.054638 -0.791428 0.512512 0.518644 1.281685 0.068604 1.087141 0.341152 -0.292786 -0.244509 0.025678 -0.616094 0.532782 0.778644 -0.523854 0.995326 0.746147 -0.753443 0.628683 -1.683170 -0.378211 -0.242240 0.473932 -0.404602 1.500115 -0.593818 -0.154904 0.142270 0.008454 0.862465 -1.206974 1.672097 -1.534244 0.731939 -0.866237 2.105122 -0.325237 0.042689 -1.776080 0.974701 0.734977 0.769296 0.538045 1.755209 0.345701 -0.431483 0.672902 -0.124646 -0.989772 0.829280 -1.029117 -0.103220 -1.093547 0.557505 1.585166 0.207918 -0.004081 -0.863479 -0.202245 1.478508 0.717724 -0.094894 -0.037848 -2.475921 -1.339663 -0.824807 -0.347844 1.746098 0.916465 0.963696 0.327686 0.024487 -0.648949 -0.042771 -0.585950 0.604023 -1.277639 -1.203066 -1.067883 0.660274 -0.657799 0.241194 0.071331 0.666474 0.847010 -1.457885 2.140942 -0.333283 1.391725 -0.629060 -0.249642 0.031808 1.661665 -0.608676 1.662424 -0.169280 0.263133 0.532749 -2.177721 -0.189408 -0.421093 0.206292 -1.422183 0.770521 1.414964 0.272538 0.728928 0.024499 0.039072 0.177115 -0.572015 -0.746885 -0.786476 0.865115 -0.309245 
based -1.088997 -1.783076 1.473270 -0.374808 0.741122 -2.473869 -0.808539 -1.369909 -0.229499 1.502728 -1.543934 -0.127431 -2.448442 -0.560568 0.397244 -0.217581 -0.414333 2.154946 0.875683 -1.112572 -0.541494 1.919866 1.451226 -1.071353 -1.272366 1.043743 -0.460399 0.290001 1.837782 -0.949807 -0.331745 0.586549 -1.908570 2.327613 -1.482186 -0.577125 0.396304 -0.165427 1.534033 -0.848991 0.612013 1.638982 0.536397 -3.490599 0.775861 0.645101 -0.421427 -0.689636 -1.332078 0.675339 -0.607354 -0.445490 -0.029690 0.523483 0.254543 0.326269 -1.322590 0.303799 0.374502 2.069252 -0.157869 1.081498 -0.486623 -1.208400 0.700761 -0.797552 0.469586 0.603730 -0.803674 -1.783646 2.188672 1.031766 -1.596283 -2.105803 -0.906457 0.758809 -3.198004 0.780566 -1.468503 -0.388059 2.878486 -2.350520 -1.475336 -0.312329 0.919237 2.314551 3.552453 -1.155914 -0.844877 0.372917 -1.537816 0.964411 -0.297209 -0.302864 -0.246764 -0.100073 -0.772269 -1.563776 -0.158251 -0.611747 -0.995077 0.736463 -0.162187 0.555529 -1.320938 -1.567196 0.479986 0.110897 0.710495 0.030883 -1.034620 0.076786 -2.040137 -0.338541 -0.778040 -1.451249 -1.791013 0.822757 -0.769773 1.005945 0.083283 -0.861327 0.267004 -0.856183 -0.683213 0.867897 -0.992019 -0.348938 -1.396719 -1.913660 -0.266829 0.409036 -0.581927 1.040476 -0.236770 -0.334850 -0.788809 0.073962 -0.876948 0.395401 -0.956696 -1.024540 0.419935 -0.162633 -0.875367 -0.808242 -0.895183 -1.673644 1.514355 1.012277 0.605656 0.346036 -0.017460 0.432336 0.065414 1.718257 -0.224497 -0.529391 -0.248091 0.344438 -1.631180 0.833271 -0.765913 -0.589648 -0.845189 -0.639970 -0.595489 -0.043528 -0.604215 0.888730 1.055189 0.468805 0.426627 0.002262 -0.447264 -0.298114 -1.939529 -0.977680 -1.289033 0.622900 -0.574040 -0.559595 -0.004983 0.761831 -0.532905 -0.605061 0.095467 0.102703 0.520430 -1.151646 0.254006 -1.968314 -0.749460 -1.626671 -2.136053 1.068736 2.367933 0.386040 -0.224588 0.484849 
active -0.346833 -1.226491 -0.290102 -0.079574 -0.364437 1.731051 0.067132 -0.035658 1.744008 -0.074105 0.682315 0.419513 0.249472 -0.661163 -0.197244 0.342958 0.498856 -0.049672 -1.592281 -1.311146 -1.984155 1.069245 -0.032645 0.127943 -1.088265 -0.488911 -0.762356 0.473360 1.831999 0.191782 0.176286 -0.855523 0.012151 0.955727 -0.330517 -0.793874 -0.221984 -0.428306 -0.268974 -0.389084 -0.640890 1.046781 -0.650512 -1.492440 0.073594 -0.977511 0.659074 0.425316 -1.918181 -0.913612 -0.019580 0.964710 0.472463 -0.211779 -1.265820 0.240604 0.429341 -0.893568 -1.407537 -0.526295 0.944809 0.307012 0.255002 1.003596 0.858484 1.968851 0.227306 -0.117069 0.179117 0.035642 0.854088 -0.106323 -0.682589 1.319554 0.314061 0.302264 1.047068 1.022051 1.075978 -0.475621 0.374575 -0.076054 -0.832611 -0.969505 -0.058407 0.425437 0.040511 -1.247229 1.131853 -1.021346 -0.273115 -0.615251 -0.493307 0.336481 -0.564467 0.510694 0.372006 0.441324 -0.207106 0.957268 -0.188989 0.562046 -2.132284 0.186918 -0.193098 -1.594393 0.839968 -1.287121 0.664084 0.236477 0.123634 -0.089621 -0.159840 1.781961 0.244153 -0.971589 0.466638 0.728175 0.632063 1.380924 -1.529083 -0.287512 -1.092780 -0.752601 0.835366 0.265038 0.606185 -0.728501 1.145674 -0.645378 1.262570 -1.067188 -0.741085 0.836574 1.889577 -0.931430 -0.008703 -0.244425 -0.983964 0.824598 -0.399910 1.153597 0.533080 -0.671111 -0.705818 -1.167615 -0.954204 0.168042 -1.321952 -0.209413 -1.609274 -0.524176 0.168880 -1.457314 1.629622 -0.039338 -0.167976 0.728231 0.209735 0.002970 -0.866108 1.002492 0.395682 0.434859 -0.154078 -0.218365 0.663731 -1.327380 -0.168082 0.615950 0.368546 1.408808 0.555343 -0.426365 2.220635 1.805173 0.416991 0.627348 -1.716261 0.188968 -0.863845 0.917107 -0.215757 0.053544 -1.667196 0.460050 0.957110 -0.217780 -0.563164 0.483290 -0.785755 -0.320232 -1.915546 0.152560 -1.350450 0.167387 1.376660 -0.432914 1.394703 -2.389841 
estimation 0.113602 -0.114456 -0.337881 -0.221611 1.201614 -3.109066 -1.172962 1.497708 1.893578 -0.947324 1.196236 0.766008 -0.077670 0.909249 -0.087976 0.938779 -1.726594 -0.302755 -0.541444 -0.119148 0.121626 -0.615974 1.742034 0.278722 -0.173202 -1.283989 -1.175476 0.584306 0.389125 0.137497 -0.094993 -1.338009 0.205790 -0.374749 -1.122670 -0.855950 -0.006127 -0.038278 -0.879342 0.557167 -0.363345 -1.550843 0.054747 1.977639 0.707251 -0.422900 0.327544 0.383843 -1.069177 0.162068 0.724542 0.885492 -0.604811 -0.129203 -0.168620 -1.185777 0.608434 -0.084339 0.935235 1.127410 0.537371 0.230789 -0.340225 -0.150674 0.782745 -1.510192 -0.294764 -1.227656 -0.917417 -0.358649 -0.160548 -0.551789 0.042354 1.506078 -2.403444 0.115923 0.977685 -1.832787 -1.048993 0.519831 -1.846000 0.684054 0.974243 1.428350 -0.520233 0.255850 0.792122 1.011046 -1.252745 -0.487307 0.761843 -0.571312 1.249376 0.009349 -0.458607 -0.720133 -0.873497 0.650810 -0.828799 0.264424 -0.055359 1.081236 0.333136 -0.358921 -0.184711 -0.752619 0.270683 -0.651622 -1.288421 0.725365 0.889099 -2.904023 0.706651 -0.931678 0.480157 -1.599329 2.257312 0.763104 0.122277 -1.077186 1.184817 -0.754709 -1.388010 -0.042307 -0.206553 1.089194 0.190675 -0.882948 1.409415 0.072463 -1.661495 -0.521677 -0.464240 -2.690510 0.817650 -1.286479 1.211881 1.328252 1.066392 1.180009 -0.186307 0.738413 -0.958691 0.987644 1.551140 0.375275 1.434497 -0.759920 -0.202062 1.080874 0.468845 0.738499 -0.037131 0.831818 0.415836 -0.379009 -0.116457 -0.778021 -0.691543 -0.164372 1.706931 0.891517 -1.208042 2.209263 1.158433 -1.006923 -0.549078 0.557446 1.537086 1.251607 0.475766 1.499314 0.045249 0.064341 0.191271 -0.622598 0.208492 -1.190831 -0.038152 0.166647 0.273014 0.324425 -0.027257 -0.047820 -0.141150 0.315916 0.184179 0.894970 0.894428 -0.214517 0.590490 -0.399566 -2.217741 0.804581 -0.557646 -1.050397 -1.071281 1.539764 0.822145 0.790636 
online -1.455114 -1.673929 -0.962626 -0.482490 0.409462 0.235143 0.338490 -0.696103 -0.892262 -1.523936 -1.659044 0.239412 1.323802 0.542848 0.081015 0.871049 1.448161 0.602462 0.058165 1.315213 -0.771433 0.713094 0.024268 0.406981 -0.085842 0.088271 -0.839843 0.866528 -1.079440 1.181093 0.194348 -1.618701 -0.087419 -0.217232 0.697187 -1.210121 0.123833 -1.043875 -0.161101 1.199336 0.891968 0.079443 -0.184539 -0.004808 0.741343 -0.889358 -0.327446 1.408445 -0.643246 0.070358 0.906582 0.690075 0.554779 0.937914 -0.331324 0.431219 1.100717 -0.222401 0.025240 -0.863160 -0.229612 -1.835471 0.507955 -0.296500 0.355332 0.117407 0.220570 1.164012 -0.382922 -0.168527 -1.101112 -0.193939 -0.096075 0.567966 -0.046465 -1.721135 -0.354838 0.806111 0.472220 -0.527737 -0.192613 0.815703 0.574438 -1.376437 0.422464 0.176453 -0.457528 1.168243 -0.898478 -0.242403 0.829539 0.124728 -0.233891 -0.515382 -0.581282 -0.123515 1.245788 -0.869948 0.227643 0.086824 -0.598457 -0.188986 -0.905071 -2.228455 0.129530 0.259531 0.424872 0.149448 2.005830 -1.163169 -0.769017 0.368648 -0.422750 -1.501630 -0.432857 0.483639 -0.204884 0.558136 1.486881 -0.382795 0.151202 -0.411372 0.388740 -0.709543 -0.430121 0.116507 0.972497 -0.006301 -0.196774 -0.035175 -0.097481 -0.397016 0.739786 -0.251428 -0.065589 0.190848 0.643112 1.847000 1.102060 -0.473054 -1.455778 0.709803 -0.484763 -1.111664 -0.246824 0.668550 0.536005 -0.044314 0.872331 -0.185206 0.385254 0.263418 0.360825 -0.720601 0.670650 -1.440556 1.298397 1.495146 -0.151513 0.258660 0.756709 -0.099549 1.607327 -1.146706 -0.253957 0.705971 -1.437088 -0.103144 1.259005 -0.529886 -0.283945 -0.166127 -0.236272 -0.787898 0.634562 0.428667 1.660041 -0.594900 -0.817094 -0.796039 -0.385255 0.186928 -0.848151 -0.268224 -0.658766 0.154803 -0.319135 -0.318607 -0.702397 -0.397012 0.008683 0.633083 -1.205575 -0.030262 -0.293289 -0.694204 1.202480 0.036533 0.261338 0.202259 
search -1.056179 0.447175 -1.330669 0.376355 1.195269 -0.548873 -0.452510 1.118537 0.210300 0.366878 -0.314518 0.618390 0.479888 -0.336369 -1.316466 1.833917 -1.599545 1.389677 -0.172406 -1.988066 -2.031054 -0.315937 -0.868376 0.823946 -0.141617 -0.066381 -0.486978 -0.104326 0.175743 -0.367669 1.546440 0.624141 -0.149817 1.909275 0.604892 0.054692 0.837297 0.161313 0.689781 0.371005 0.320014 -0.948324 0.699377 -0.325371 0.071649 -0.680778 1.417997 -0.599420 -0.632052 0.995825 1.095069 -3.403709 0.617322 -0.273830 0.542459 -0.736934 -0.967417 1.640428 -0.989890 -0.236366 -0.357785 0.523161 0.477394 0.241026 -0.873622 -0.515188 -0.503359 -0.259012 -1.115214 0.252840 -2.242185 0.018097 0.197837 0.282757 0.083174 1.049137 -0.114252 -1.218475 -1.165571 -0.311735 1.096557 -0.701151 -2.338230 -0.352127 -0.806694 -0.426097 0.895962 0.639725 -0.111766 -1.274658 -1.285670 2.207004 1.162433 0.894950 -1.213909 -1.510962 0.902958 -1.178303 -0.998561 0.220861 -0.181156 0.243425 -0.569922 -0.490044 -1.349412 0.518408 1.847270 -0.445598 -0.827311 -2.125109 -0.159090 -1.653887 0.914716 0.557780 1.055127 1.136251 -1.244184 -0.374407 -1.054100 -0.516671 0.932532 -0.807933 0.399765 0.059456 0.728724 -2.019291 -0.701618 -0.579449 1.157520 0.145781 -0.221392 0.286562 0.333042 -0.426600 1.934999 -1.070496 1.135889 -0.090112 0.737875 -0.380751 -0.322046 0.824127 -0.879524 -1.407371 0.778967 -0.031641 0.793312 0.358474 2.187704 0.608035 -0.683701 -0.805543 0.027435 -1.672073 -0.723102 0.141766 0.127929 -0.000425 -1.349053 -0.284747 0.124586 0.658645 0.993531 -1.180477 0.478512 -0.374496 -0.110763 -0.711068 1.050727 -0.034445 -0.766148 -1.030581 0.983473 -0.442880 0.623940 0.757236 1.123518 0.412016 -0.283576 1.571509 1.221260 -0.176234 0.255994 0.592101 -0.898045 0.512099 -2.295363 -1.958346 -1.407086 1.578709 0.951413 0.432473 -1.164158 1.347055 0.396164 -2.365174 1.491880 -1.548354 -0.944032 1.227265 
hierarchical -0.171903 0.070283 1.323319 -0.240934 0.686946 0.348848 0.218204 -1.352174 0.793820 -0.577023 -2.189102 0.204369 0.585852 -0.830167 1.571702 -0.880933 0.147708 1.350229 1.172947 0.039945 -0.188132 -0.373226 -0.622282 0.429124 0.393203 -0.996553 -1.058849 0.563524 1.351634 1.419544 0.312234 -1.400540 0.245617 0.413003 0.473601 0.028524 -0.540527 -0.840630 -1.139590 0.024057 -0.397347 -0.018346 0.347942 -0.608713 0.900856 -0.424906 -0.388704 0.735203 -0.484940 -1.041146 -0.367727 0.563238 -0.120700 -0.609214 -1.338559 0.568659 -0.643800 -0.434592 0.114146 -0.104483 -0.296029 0.344570 0.686247 0.630489 0.042444 0.905494 0.012611 0.421214 0.218746 0.707430 -0.523172 -0.500958 -0.774820 1.094554 -0.671396 -0.730099 0.598155 0.485943 -0.377839 -0.692977 -0.502369 1.229044 0.701089 -0.609335 -0.156132 -0.156004 -1.087526 -0.518467 0.495277 0.035189 0.265288 2.162367 -0.748741 0.401412 0.369336 0.004774 0.835608 -0.989241 -0.946787 -0.866135 0.968109 0.357789 -0.593154 0.463699 0.110233 -0.649061 0.681274 -0.486082 0.998442 0.062827 0.652292 1.352202 -1.771194 -0.744704 -0.848550 -0.034772 -0.632514 -0.011734 -0.556110 -0.194740 0.791616 0.342883 -1.975839 -0.054915 0.540528 -1.387696 -1.795287 0.748535 0.589181 0.608026 -0.660837 -0.346202 -1.444331 0.025327 -1.399959 0.159328 -0.314894 -0.725297 -0.184480 0.086841 -0.803748 0.223041 -1.550026 0.787366 -1.213806 -1.576009 0.410808 0.740085 0.814864 -1.649555 0.534689 0.123034 0.188118 -1.224747 0.772692 0.393556 0.347569 1.626553 0.269661 0.183100 0.684077 -0.970099 0.784133 -0.250001 -0.086597 -1.378940 -1.097214 -0.907985 -0.721087 0.121876 0.050545 -0.232750 0.457528 0.379005 -0.887599 1.049864 -1.043353 0.309374 0.242976 0.639969 -0.395553 1.062924 -1.856504 -0.445216 -1.183648 0.259270 -0.387384 -0.439265 -0.475530 -0.590419 -0.674442 -1.171783 -0.378721 0.844158 -0.583186 1.069581 0.480080 0.636860 -0.212350 0.317636 
robust 0.006948 -0.869667 0.943439 -0.501808 0.442198 -0.520656 0.389041 -0.653467 0.084663 -0.841654 0.119927 -0.053440 0.064661 0.638656 0.666921 -1.008973 -1.122651 0.055112 1.353505 0.669399 -0.864821 0.435939 0.420894 0.169712 0.766826 -0.129871 -1.323498 -0.217772 0.233943 1.262249 0.817810 -0.710592 -1.344666 0.296658 -1.296300 -0.925576 -1.356042 -0.657277 0.419509 1.242827 -0.990498 0.333249 1.009344 -0.881955 0.486993 0.131866 0.877840 0.476445 0.202835 -1.303451 0.633059 -0.881771 0.853470 -2.100146 -0.746296 0.585429 0.376960 -0.613253 1.076386 -0.533907 0.761454 -0.706991 -0.660808 1.060089 0.099633 0.405482 -0.016467 -0.065626 0.310087 0.247216 0.884706 -0.460082 0.942677 0.320249 0.148108 0.033904 -0.098377 0.647955 1.466505 -0.360050 -0.346234 0.452685 0.122211 -0.786242 1.200647 -1.373922 1.141864 -0.004340 -1.622342 -0.879482 1.938344 0.288842 -1.279762 -1.571826 -1.725780 -1.161810 -1.147728 -0.714057 0.266051 -1.497797 0.479700 0.948279 0.558972 0.762672 -0.293897 0.913517 -0.170149 -0.275178 1.184658 0.084676 -1.000418 0.191201 -1.623727 0.745862 -1.471873 0.263046 0.336543 0.138619 1.338196 -1.221093 0.421489 0.222705 -1.332167 -0.321088 0.652113 -1.325346 0.999611 0.963970 0.499358 -1.816405 -0.316089 -0.412512 -0.091920 0.807041 0.190948 -0.364989 1.136803 1.338554 -0.037559 0.067990 -0.017776 0.414491 0.015494 0.050107 0.233326 -1.405695 1.676554 0.341526 -0.583313 0.194142 -0.485278 0.122992 -0.240275 -0.929191 1.035660 0.319893 0.671519 -1.126477 -0.396113 1.401758 -0.275744 1.147464 0.510639 0.159366 0.144121 0.638404 0.309229 1.586658 0.901900 0.371162 0.481152 -0.313415 1.260257 0.138853 -1.056046 -0.058378 -1.787399 0.122117 -0.540545 -1.679109 -1.976461 1.682339 1.257413 0.779951 -0.591232 0.891797 -0.829578 -0.909888 -0.788552 2.098898 0.565105 -1.114731 -1.249613 -0.294402 -1.063804 0.371092 0.509270 0.253296 0.615495 -0.485726 
induction -0.390561 0.708529 -1.336797 0.262684 0.018069 0.486316 -0.944091 0.305635 1.934129 0.009315 0.012546 0.396327 -1.453309 -0.565900 -0.161330 -1.302052 -0.282992 0.104990 -0.502963 -0.196363 -0.467035 -0.562734 2.891603 -1.928780 -1.217475 -1.187714 -0.768928 -0.021291 1.340688 -0.052605 -0.988531 -0.545889 -0.526870 -1.317344 2.180263 0.461890 -0.242541 0.251670 -0.123572 -0.492908 0.594367 0.470172 -1.276898 0.890681 1.022817 -0.021829 -0.631032 -0.702712 -0.948582 0.762593 -0.696456 -0.359045 0.754639 0.997769 0.442115 -1.453313 -0.222772 1.158519 0.464123 -1.018645 -0.261068 -1.778164 -1.078434 1.300914 -0.861141 1.106590 0.059444 0.216749 -0.139589 -0.829246 -0.602129 -0.019209 2.754643 -0.930516 -0.979111 -0.372766 -2.483552 -0.385312 -1.630925 0.235499 1.607729 0.862451 0.010976 -0.624310 -0.489376 -0.128890 -0.627649 -0.666967 -1.894543 1.197919 -1.465593 0.174234 -0.689248 0.941251 -0.194902 0.170158 0.972267 -0.318828 -0.130544 -1.053106 -1.287765 -0.511638 -0.959030 -0.901399 -1.925491 0.559748 1.857753 -0.748722 -0.123005 0.817387 -0.222086 -0.273875 0.957682 -0.037041 1.655477 0.693837 0.110442 0.428684 -0.588991 -0.421406 -0.207470 1.593494 -1.703759 -1.931808 -0.179602 -0.760636 0.075036 -0.109194 1.033571 0.770387 -0.149184 -1.104601 -1.210362 -0.504161 -1.061347 -1.421196 -1.130408 -0.635646 -0.612322 -0.970593 0.872962 -0.839850 0.145055 0.383639 -0.039172 0.903074 0.344718 0.397485 1.729615 -0.687967 1.003767 -0.276791 -0.548675 1.400748 0.103034 0.635775 -0.576474 0.185591 0.163317 0.163490 0.537243 -0.358974 -0.491960 1.049309 -1.109911 -0.682783 -0.233063 -0.522852 0.003653 -0.638750 -0.587353 0.994243 -0.338402 -0.525175 1.970779 -0.821482 0.124570 -0.139851 1.526228 1.642668 -0.547596 -0.545268 -1.495746 -0.270589 0.119851 -0.916285 0.865102 1.186850 -0.198994 -0.484935 0.202965 -0.705398 -0.073676 -0.796076 1.812302 -0.028324 -0.482408 0.060474 -0.306821 -0.748241 
boosting -0.407070 0.281875 0.286142 0.840029 1.349261 -1.116191 -1.282319 1.866327 -0.000381 0.363367 0.430505 -0.452191 -0.780044 0.782252 -0.109164 0.691295 -1.046748 1.083196 -1.503804 -0.175752 -0.316044 0.201587 1.523513 -1.381684 -0.465362 -0.099683 0.216894 0.256915 -0.645678 1.166664 -0.272759 -0.569490 -2.100711 0.419886 1.648358 -0.411784 0.755160 1.827928 -0.125264 -0.476545 1.432113 -0.395595 -2.029254 -0.330711 0.287668 0.201372 0.152127 0.166614 0.353123 -0.363468 0.400707 -1.572605 1.765768 1.554973 -1.637225 -0.161737 -0.145154 0.390772 -0.540298 -0.182759 -0.245753 -0.378105 0.368896 -0.896552 -0.018126 -0.427964 0.473945 -1.149701 -0.035657 -0.107420 -0.456959 0.262685 -1.151454 -0.558689 -0.967384 0.534842 -1.242689 0.690208 0.460081 -1.063676 1.534716 -0.127904 -0.731056 -0.828268 1.390300 -0.641050 -1.208366 0.295507 -1.376273 -0.858052 0.557126 -0.456699 -0.909040 -0.069288 0.871336 1.791663 0.579517 -1.069588 0.574335 0.649161 -1.393131 -0.374116 -0.131848 -0.953253 -0.264324 0.622361 -0.273146 0.119620 0.354761 0.105012 -0.675135 -0.339862 -0.522504 -0.214608 0.211038 -0.522454 1.216297 -0.441749 0.171154 -0.590759 -0.347778 -0.279054 -0.222162 0.247580 -0.993056 -0.260587 0.459606 -0.047410 -0.591538 0.342779 0.886567 0.431608 -0.055078 -1.176109 1.390238 -0.923026 0.081216 0.353660 0.806785 0.931059 -1.202805 -0.871114 -0.235386 -0.883150 1.029135 0.150275 -0.505616 -0.430261 -0.029527 0.071801 0.065435 -0.484784 0.781487 0.407622 0.548587 -0.044123 0.779202 -1.040560 0.368082 0.098835 -0.151208 0.383504 -0.560284 -1.679828 -0.898421 0.142714 -0.072166 -0.095781 0.037096 -0.219777 -0.751794 -0.728624 -0.560874 0.317548 1.609504 -1.148346 -0.103322 0.536583 -0.484818 -0.129354 0.004827 0.619549 -0.641717 0.433436 -1.077787 0.302126 0.916080 -1.401689 -1.007264 0.464398 0.474809 0.852844 -0.359945 0.383119 0.264492 -0.197964 0.781066 0.003938 0.644960 -0.253144 
kernels -0.809691 1.631276 -1.353050 -0.472263 -0.457853 1.985023 -0.304271 0.179395 0.146073 0.427496 1.707691 0.445105 -0.441339 0.128817 -0.146785 0.135847 0.487822 0.813953 -0.572093 -2.014204 -0.706743 -0.950011 1.270523 -1.004560 1.031783 -0.379277 -1.391050 -0.491091 -0.504581 -0.553556 -0.593287 -0.608127 0.884654 -0.475970 0.547331 -0.250008 -1.340995 1.069982 -0.075537 -0.689197 0.814179 0.951619 -0.365061 -2.656225 0.233783 0.211348 -1.712641 -0.967745 -0.891760 -1.433630 -0.327604 -0.727150 1.072490 0.103239 0.490756 -0.188328 -0.601797 0.283282 -1.740471 -0.207594 0.621546 -0.730333 -0.298544 -1.619421 -0.105590 -1.628926 -0.021304 0.108499 -0.930381 0.489552 -1.036670 -0.583830 0.655495 -0.659151 -0.941648 0.088685 0.046040 -0.584108 0.271364 0.102453 0.681901 0.082119 -0.171235 1.530156 0.203130 0.447364 1.093545 0.413662 0.575034 -0.190643 -0.484507 -1.399363 -1.290085 -1.374857 0.131134 0.736110 0.372872 1.524013 0.301147 0.869136 1.078355 -0.067936 0.428584 0.053735 0.512092 -1.170935 2.005226 1.258418 1.318044 1.163445 0.275236 -1.712484 0.116408 1.536642 -0.064693 0.449764 0.071898 -0.432550 0.487749 0.362254 0.620125 -0.272757 0.812646 -0.146839 -0.216682 -0.415289 0.106863 0.080410 -0.296733 -0.759011 0.816328 0.806280 0.090354 -0.386669 0.843716 -1.684339 1.554083 0.664874 0.916261 -0.951006 -0.482052 -0.299475 -0.585866 0.386810 1.541102 0.608308 0.206985 1.689698 -1.689921 0.418815 1.201723 -1.721580 1.236151 -0.528633 0.871954 0.824661 0.333041 -1.177585 1.136355 -0.518267 -0.281514 0.276992 0.211259 -1.576104 -1.382290 1.928945 0.111159 -1.173039 0.747218 0.560832 -1.544123 0.850862 0.606298 -0.612231 1.182767 -0.396986 0.166923 -0.853918 -0.390695 -1.339810 -1.638350 -0.610229 0.264541 -0.153826 -0.094580 -1.342335 -0.055425 -0.552786 -3.032604 1.331818 0.358047 0.217702 -2.415823 -1.507312 0.118064 1.423148 -0.699018 0.510197 1.244833 0.586989 
inference -0.894383 0.729674 -0.006444 -1.627853 1.722502 -1.140315 0.086446 1.462301 -0.208855 -1.601102 -0.529974 -0.542329 -1.585027 -1.876456 0.026118 -1.099583 -0.267170 0.647486 -1.539812 -0.746657 -0.377423 0.296662 0.664481 0.054250 0.743879 -1.912904 -1.360558 1.340709 0.069714 -0.591429 0.350977 -2.241335 0.046667 -0.447682 0.168991 -0.741743 0.726007 0.353204 -0.476075 0.244188 0.188377 1.803513 -0.301047 -0.392096 1.363734 -0.005578 -0.551781 0.519233 -2.942449 1.746342 -0.193925 0.446287 0.308390 0.117770 0.258697 -0.449931 -0.779327 -1.084671 -2.045312 -0.099066 0.357610 -0.411168 0.307597 -0.730160 1.155297 -1.833847 -2.148738 0.767277 0.532716 0.231340 0.035526 0.707315 -0.452164 0.904518 -1.853213 -0.141897 1.095508 -0.528929 0.714913 -0.690576 -0.962013 0.641013 0.021633 -1.411779 0.085260 0.667171 0.829097 0.956836 -0.130994 1.887749 -1.434102 0.823126 -0.755648 -1.333486 0.219830 -0.659898 -1.710587 0.552938 -0.907525 -1.085212 -0.088979 0.777388 -0.068667 0.209771 -0.975419 -1.547755 2.104494 0.202543 1.031955 -1.653924 1.476841 -1.586324 1.001563 -0.575160 0.697783 -0.824680 -1.074002 0.208050 -0.742874 0.775067 1.737716 -0.217135 -0.466058 -1.526022 0.540903 -0.515894 -1.351388 1.543408 0.144811 0.210028 1.179957 -0.443709 -0.181723 -1.448511 -0.814903 -1.487388 -0.507223 -0.343004 0.297948 -0.799934 -1.584407 0.911997 -1.281597 0.704320 1.163652 1.139478 0.821722 -0.148007 0.544659 -0.691727 -0.958447 0.463657 -1.373860 -0.287681 0.200529 -0.130087 -0.856291 -0.003855 0.980928 -0.087032 -0.174463 -0.381731 0.009580 0.768779 0.029359 0.317055 -0.041486 0.184525 -0.272723 0.286258 -0.080790 0.903559 1.220078 0.916707 -0.512662 1.868379 -1.294899 0.522168 -0.270800 0.678651 -0.109954 -1.699359 0.355043 -0.944131 0.004961 1.511717 -1.183891 -1.462324 1.488532 0.443100 0.486788 -1.463254 -0.775879 2.233674 -0.166571 -0.559613 -1.713436 0.611561 -0.455389 -0.423128 
structured -0.463578 -0.056315 0.573569 -0.045814 -0.689428 1.754285 0.182434 0.724663 1.185822 -0.370945 1.036795 1.159968 -0.812031 0.822347 0.860264 1.991707 0.310786 -0.303605 -1.253470 -2.347433 0.495378 1.267815 1.609813 0.517533 0.523239 0.988373 0.761971 -0.382221 1.031820 1.327689 0.125915 -1.067045 -0.686714 0.172340 0.108037 -0.940384 0.179008 0.290938 0.404941 1.431633 -0.911182 0.037344 -1.591956 0.391285 -0.657234 1.523009 1.156487 1.023420 -0.198972 -0.971626 -0.428650 0.919059 -0.158877 1.570330 0.008636 -0.176167 -0.298688 -1.363292 1.121564 0.149800 0.067153 2.216000 -1.018086 0.212849 0.397452 0.747650 -0.585928 -0.221511 -0.851183 -0.182440 -0.482657 1.235028 0.537187 0.742235 -0.133905 -0.601955 -1.985629 1.538299 -0.705515 -1.196744 0.148524 1.859253 -0.376238 0.835168 0.795142 -0.179015 0.060231 -0.414221 -0.294598 0.574552 -1.065498 0.900722 0.798823 1.079363 -1.053553 1.025542 0.272295 0.916149 2.246837 -0.712221 0.404610 0.328667 -0.220358 0.912256 0.571955 -0.858675 0.076094 0.687925 -0.661159 0.081886 0.106017 0.498283 0.376258 -0.304556 1.546964 -0.248308 0.232672 0.411289 -0.134673 -0.680640 -0.246571 -1.224793 -1.365636 -1.374564 -0.747140 0.260075 -0.432501 0.373639 -0.072185 -1.587035 -0.719753 1.452194 -0.846809 0.576402 1.778904 0.944115 -0.966519 0.756420 0.049523 0.199433 -2.060381 -0.043090 0.635130 -0.571774 1.982351 -0.028309 0.665835 0.504603 -0.229936 -1.669416 0.075357 1.143128 -0.675262 -1.165677 2.179206 0.358336 0.214432 -0.864280 -0.699257 -0.334436 0.422074 2.041779 0.421942 -1.300713 0.926826 0.583127 -0.970209 -0.850586 -0.146751 -1.052820 0.574838 -0.348718 -0.205386 0.044342 -1.064613 -0.593306 -0.494934 -1.443872 0.302261 0.252017 -0.019172 0.369130 -0.968651 0.743322 -0.600238 -1.408176 -0.206717 0.305782 -1.234462 0.647485 0.940790 -1.886546 -2.095257 -0.346414 -0.424276 1.610487 -0.570554 0.773323 -0.532732 -1.010602 
method 0.580691 1.315999 -0.877201 1.476618 0.398213 0.559881 -2.119267 -0.291312 0.836689 -0.738838 0.507492 -0.336818 1.998342 -0.878028 -0.019081 0.896452 -0.360604 0.247387 1.035656 -0.490572 -1.025325 1.148328 0.632257 0.060023 1.988759 0.197270 0.114905 0.261670 -0.409661 -0.362531 0.166152 0.490117 0.435526 -0.173214 1.631952 0.385865 -0.385889 1.464640 -0.544608 -0.953720 1.256847 1.214750 -2.040884 -0.616363 -1.343240 -1.629138 -0.442230 -1.527305 -0.342571 0.596414 -0.690288 0.426149 0.794245 -0.085521 -0.521888 1.236331 -1.608030 -0.778346 -0.127383 0.217716 -1.517163 0.335543 0.180928 -1.386638 2.017245 -0.702459 0.931224 1.705870 2.334309 1.410560 -0.540311 1.249409 -0.006793 -1.250152 -0.694341 -1.951415 -0.780212 -0.269005 -0.428094 -0.891789 -0.581309 2.166224 -1.658089 0.007395 1.421753 -0.180069 -0.504622 1.352527 -1.931408 -0.419097 -1.123715 0.014002 -0.684223 -1.053629 0.425985 1.308686 1.376383 -0.355200 -0.029060 -0.867859 -0.870733 -0.108620 1.563571 -0.214262 -0.797678 -0.235697 0.965084 -1.489451 2.220479 -2.148807 0.142061 -2.344274 -1.338902 -1.132109 0.089767 0.153643 0.748004 -0.921117 0.243753 -0.392951 1.038208 -1.274776 -1.099109 -0.056450 -0.135128 -1.104387 1.258262 -0.778456 -0.239510 0.342356 -0.341539 -0.576161 0.782867 -0.455167 0.040775 -1.105820 0.862029 -0.886241 0.900139 -0.155004 -1.247991 -0.266667 -0.069977 -1.116473 -0.631306 1.136049 -0.459881 -0.952193 -2.343988 -1.752982 -0.877100 1.353362 -1.317793 -0.994307 0.330631 -2.320103 0.833494 0.598892 -0.109562 -0.759945 0.570161 1.087708 0.133204 -1.361713 -0.266797 0.376910 0.069626 0.372893 -0.506453 -0.028032 -1.013821 -0.014305 1.827716 0.073982 1.160837 -1.895645 -0.049760 0.794230 -0.347377 0.703209 -0.115656 -1.033881 -0.820843 -0.620773 -1.202338 0.785570 -0.630862 0.102801 1.358716 -1.256013 -0.389463 0.565048 -0.717096 0.303494 0.922697 0.214365 -0.859502 -0.800822 1.280748 0.326043 
