2175 200
</s> 0.002001 0.002210 -0.001915 -0.001639 0.000683 0.001511 0.000470 0.000106 -0.001802 0.001109 -0.002178 0.000625 -0.000376 -0.000479 -0.001658 -0.000941 0.001290 0.001513 0.001485 0.000799 0.000772 -0.001901 -0.002048 0.002485 0.001901 0.001545 -0.000302 0.002008 -0.000247 0.000367 -0.000075 -0.001492 0.000656 -0.000669 -0.001913 0.002377 0.002190 -0.000548 -0.000113 0.000255 -0.001819 -0.002004 0.002277 0.000032 -0.001291 -0.001521 -0.001538 0.000848 0.000101 0.000666 -0.002107 -0.001904 -0.000065 0.000572 0.001275 -0.001585 0.002040 0.000463 0.000560 -0.000304 0.001493 -0.001144 -0.001049 0.001079 -0.000377 0.000515 0.000902 -0.002044 -0.000992 0.001457 0.002116 0.001966 -0.001523 -0.001054 -0.000455 0.001001 -0.001894 0.001499 0.001394 -0.000799 -0.000776 -0.001119 0.002114 0.001956 -0.000590 0.002107 0.002410 0.000908 0.002491 -0.001556 -0.000766 -0.001054 -0.001454 0.001407 0.000790 0.000212 -0.001097 0.000762 0.001530 0.000097 0.001140 -0.002476 0.002157 0.000240 -0.000916 -0.001042 -0.000374 -0.001468 -0.002185 -0.001419 0.002139 -0.000885 -0.001340 0.001159 -0.000852 0.002378 -0.000802 -0.002294 0.001358 -0.000037 -0.001744 0.000488 0.000721 -0.000241 0.000912 -0.001979 0.000441 0.000908 -0.001505 0.000071 -0.000030 -0.001200 -0.001416 -0.002347 0.000011 0.000076 0.000005 -0.001967 -0.002481 -0.002373 -0.002163 -0.000274 0.000696 0.000592 -0.001591 0.002499 -0.001006 -0.000637 -0.000702 0.002366 -0.001882 0.000581 -0.000668 0.001594 0.000020 0.002135 -0.001410 -0.001303 -0.002096 -0.001833 -0.001600 -0.001557 0.001222 -0.000933 0.001340 0.001845 0.000678 0.001475 0.001238 0.001170 -0.001775 -0.001717 -0.001828 -0.000066 0.002065 -0.001368 -0.001530 -0.002098 0.001653 -0.002089 -0.000290 0.001089 -0.002309 -0.002239 0.000721 0.001762 0.002132 0.001073 0.001581 -0.001564 -0.001820 0.001987 -0.001382 0.000877 0.000287 0.000895 -0.000591 0.000099 -0.000843 -0.000563 
for -0.759631 -0.256365 -0.718810 0.818485 -0.222807 -0.260965 0.728514 -0.259280 1.097987 0.866649 0.603714 -0.127307 0.702847 -0.190584 0.158388 0.946309 -0.395542 -0.054811 0.721719 -0.106213 0.537818 0.712277 1.025965 0.491733 -0.325094 0.376120 -0.172914 0.295059 0.603520 -0.171266 0.788050 -0.995091 0.200086 0.412395 -0.692633 0.507157 -0.203242 -0.350098 -0.037192 0.039520 -0.258750 0.344102 -0.220668 -0.831834 -0.069026 -0.219747 -0.364710 0.964202 -0.169622 0.530403 1.501873 -0.592893 -0.526679 -0.355439 -0.183334 -0.476599 -0.158445 -0.655161 0.505448 1.091762 0.044418 0.475258 0.456324 0.838167 0.417061 -0.185770 0.812348 0.110904 1.456825 0.218113 -0.124200 0.451412 0.007532 -0.992188 -0.268161 -0.452069 -1.049109 -0.138848 0.456808 -0.052216 0.035111 -0.437732 -0.191970 0.085140 -0.176587 0.643661 -0.355678 -0.030017 0.764562 -0.579578 -0.018083 -1.330697 1.045519 -0.310908 0.081172 0.537713 -0.490067 -0.548630 -0.086698 0.719631 0.038443 0.699179 0.769481 0.120640 0.851055 0.006823 1.024422 0.301106 -0.283085 -0.073196 -0.178059 0.877922 0.704276 -0.201263 0.403278 1.401927 0.196176 -0.793593 0.267566 -0.486008 1.195269 0.782298 0.721943 -0.814092 1.365960 -0.487459 -0.262437 0.240397 1.266309 0.640551 -0.754910 0.151502 -0.510210 0.710247 0.468036 0.712754 0.112003 0.538028 1.043652 0.709156 -0.103815 1.010000 -0.845321 0.014677 0.001749 -0.687313 -0.147459 0.025344 0.023812 -0.108588 -0.556517 0.492979 -0.100309 -0.606754 -0.042538 0.536229 -0.327247 0.786106 0.437460 -0.662452 -0.052966 -0.597204 0.299629 -0.017026 -0.342089 -0.410538 -0.705716 -0.065346 0.061426 0.369551 0.628146 0.131724 -0.675787 -0.596711 0.173351 -0.007859 1.358110 -0.872003 -0.514952 -0.254935 0.126139 -0.371723 -0.735078 -1.493556 0.032078 -0.251741 -0.181306 0.654681 0.294916 0.549238 -0.542607 0.611052 -1.260493 -0.091912 0.337963 0.132656 -0.500786 0.353435 -0.479848 -0.992100 
of -0.329513 0.212795 -0.083642 0.791834 0.500815 0.281504 0.260199 0.304517 -0.181862 0.197568 -0.291812 0.278024 -0.070513 0.266576 0.278309 -0.208831 -0.216674 -0.475911 -0.621093 0.704792 -0.322540 0.790676 0.507352 -0.178313 -0.085255 -0.116622 0.874600 -0.232836 1.120104 -0.205740 0.513290 -0.716576 0.220677 0.438978 -0.427875 0.021783 -0.528641 0.274751 0.556743 -0.040694 -0.115434 -0.144908 -0.309662 -0.257895 -0.181787 -0.512162 0.294713 0.477652 0.584954 0.403067 -0.553198 -0.084781 -0.445374 0.583955 -0.378590 0.538591 0.207554 -0.176414 1.026157 -0.106265 -0.147816 -0.077584 0.555407 0.685365 -0.841016 -0.388604 0.697001 0.500942 1.433111 0.724023 -0.108686 -0.228091 -0.091458 -0.952296 0.062415 -0.254443 -1.127794 -0.203804 0.703509 0.663959 0.050159 -0.551750 -0.802725 -0.553276 -0.170438 0.956523 0.978441 1.205582 0.895791 0.519837 -0.004835 -0.029350 0.759969 0.320712 -0.010430 1.053409 -0.641365 0.732640 -0.259448 0.767194 0.054168 0.100068 0.087117 0.608362 0.878947 -0.008469 -0.293061 0.853083 0.420839 -0.316350 0.180738 0.614983 -0.183638 0.030751 0.256508 0.296329 0.163766 -0.304220 -0.280413 -0.257499 0.399371 0.145708 -0.563173 -0.865125 0.462943 -0.050325 -0.098357 -0.593419 0.056333 1.238181 -0.424171 0.238755 -0.007352 -0.301205 -0.373545 -0.035133 -0.038117 0.740316 -0.121014 -0.177400 -0.184159 0.173942 -0.308878 0.463546 -0.210456 0.092837 0.464402 -0.293656 0.172249 0.766028 -0.449171 0.529981 0.340443 0.004666 0.527061 -0.163481 0.412970 -0.104118 -0.487404 1.417170 -0.519854 -0.173057 -0.063068 0.550278 -0.219558 -1.290126 0.242745 0.474882 0.438526 0.626426 0.166260 -0.925549 -0.344674 -0.058878 0.128172 -0.589908 -0.633461 0.668912 -0.330994 0.073959 -0.362198 0.206874 0.147884 -0.469315 0.331057 0.777088 -1.354243 -0.072936 0.901165 0.924719 0.365011 0.417451 -0.614000 -0.659323 -0.194406 0.554770 -1.430496 0.846582 -0.276096 -1.059190 
and 0.082128 -0.425656 0.001288 -0.841807 -0.457157 -0.444188 0.107385 0.030474 0.151696 1.098415 -0.482040 0.443748 -0.264855 0.232349 0.089756 0.059398 0.321626 0.855428 0.750594 0.377165 0.166766 0.138165 -0.142295 -0.685224 0.300666 0.440545 -0.363872 1.219768 0.964058 -0.231838 1.164804 0.393143 0.648412 0.425372 0.308554 -0.243323 -0.557278 -0.111309 0.251856 -0.252900 -0.725750 0.045858 -0.237284 -0.202704 -1.145458 -0.086156 -0.352317 0.405660 1.196853 0.306317 0.392303 0.530722 -0.140485 -0.063898 0.321419 0.425606 0.363037 0.020515 -0.197374 -0.131839 -0.847656 -0.018788 -0.529010 -0.565587 -0.572261 0.014931 0.386233 -0.650583 -0.100566 0.835651 -0.110714 1.041782 -0.157320 -0.487044 -0.683897 0.526141 -0.383532 0.684500 0.831105 0.640829 -0.661859 -1.171437 0.071363 0.444654 -0.068518 0.241213 -0.061192 0.518137 1.084245 0.264393 0.369784 -0.165581 0.049483 -0.292350 0.236712 0.791260 -0.565612 0.398303 -0.342083 0.392550 1.612974 1.304016 -0.452264 0.006797 -0.216365 0.462376 -0.470682 -0.051402 0.674583 -0.128447 0.542351 0.010803 -0.533037 -0.227684 -0.337532 0.359674 0.070814 -0.451975 -0.216880 -0.464491 0.638398 0.038705 1.153880 0.058201 0.244401 -0.392165 0.837643 -0.356447 0.376603 0.012855 -0.076975 0.982738 -0.715449 0.287335 0.685102 -0.315413 0.593631 0.124542 0.188014 0.094516 -1.150321 0.369811 -0.658829 -0.011931 0.019857 -0.658695 0.003259 0.208382 0.012847 -0.064981 -0.538582 0.154121 -0.293926 0.189317 0.120303 -0.042505 0.585165 -0.368958 0.509918 0.359268 -0.440852 -0.184686 0.622147 -0.184031 -0.992076 -0.421993 -0.933076 0.403083 0.071956 0.961092 0.332127 0.392134 -0.131140 -0.375403 0.034047 0.365937 -0.437181 -1.125023 0.663646 -0.613523 -0.485516 0.190937 0.197209 -0.107435 0.509052 0.611417 0.608998 0.934225 0.242950 -0.334876 -0.532596 0.333965 -0.879131 -0.118491 0.824597 -0.895733 0.040794 0.453310 -1.209712 0.188870 
a 0.121491 -1.195820 -0.009914 -0.800985 0.217672 -0.384972 0.645041 -0.742089 0.605866 0.508094 -0.875853 -0.916485 0.391825 0.293591 -1.055041 -0.381247 -0.492725 -0.739012 0.504259 0.910227 -0.744689 0.451046 -0.293337 0.053469 -0.380525 -0.625817 0.167176 -0.800244 -0.358258 0.554419 0.375568 1.290032 -0.931955 -0.775096 0.471831 -0.626415 -0.305842 -0.237900 -0.660593 0.343425 -0.563310 -1.178630 -0.281293 1.007007 0.333444 -0.234034 -0.445823 0.010223 0.235807 -0.641082 0.565069 -0.233151 0.057798 -0.563206 -0.222337 -0.592685 0.910907 0.943124 0.008149 -0.706552 0.937536 0.375543 -0.787488 -1.231501 0.255443 0.179938 -0.483867 0.275802 0.426491 0.578901 0.715973 -1.184254 0.062757 0.031569 -1.349582 -1.007582 -1.235571 1.067424 -0.129859 -0.082546 0.267425 -0.192986 -0.288073 0.695987 -0.037281 0.375398 0.773910 0.431511 0.873822 -1.075437 0.070224 -0.182526 0.572076 0.292512 0.532136 1.163043 0.347526 0.678392 0.316473 0.461964 -0.083576 -0.370052 0.475398 0.257916 0.273109 -0.322480 0.032545 0.141660 0.484959 0.197235 0.064522 -0.560330 0.320143 -1.258208 0.163632 -0.067032 -0.002584 -0.253977 -0.337038 0.048512 -1.153488 -0.017175 0.336571 -1.237030 0.045490 -0.998732 -0.328911 -0.343590 0.759496 -0.344063 -0.145594 0.458028 0.804428 0.212784 -0.678184 -0.607682 0.201759 -0.174820 -0.185093 -1.233159 0.081404 -0.015642 -0.716182 -0.612468 0.056093 0.301892 -1.343404 -0.005932 -0.614155 0.289276 0.758013 0.099808 0.371148 -0.122294 0.942733 -0.431814 0.073422 -0.000187 -0.621127 0.098253 -0.853261 -0.327140 0.284160 -0.489060 0.011635 1.105150 -0.068241 -0.513845 -0.505786 0.451145 0.397646 -0.621361 -0.843470 0.961032 -0.157825 0.828658 0.295969 -0.977821 -0.350050 0.063171 -0.364097 -0.910406 0.309289 0.852382 -0.368556 -0.233688 -0.311638 1.156861 -0.288898 0.971842 -0.135998 -0.300671 -0.158803 0.560861 0.166193 -1.056664 0.100977 0.508064 -0.133993 1.015522 
learning 0.584307 -0.602610 -0.341360 -0.209482 -0.345548 0.756216 -0.116511 0.649324 0.078664 -0.444111 -0.458388 -0.195271 0.464076 0.259532 -1.235126 -0.145764 0.568391 -0.290349 0.558566 1.060672 -0.292900 -0.801927 -0.070719 -0.306181 0.532750 -0.385213 -0.130953 -0.016419 0.001281 0.227820 -0.053509 0.653616 0.370943 0.190963 0.284429 0.319830 0.419121 0.063301 1.351417 1.006266 -0.170452 -0.715287 0.730178 -0.139553 0.327820 0.587469 -0.711757 0.828077 0.008285 1.362911 1.246969 -0.852415 -0.369765 0.047879 -1.032756 -0.464797 -0.630847 0.381073 -0.646723 0.697528 -0.490670 -0.281873 0.388244 -0.643442 -0.311524 0.433690 -0.095122 0.786512 -0.216267 -1.186158 1.005728 -0.589407 0.502850 0.003870 -0.687183 -0.146758 0.307811 0.282263 -0.384006 -0.386453 0.736426 0.290538 -0.617259 0.212017 0.410096 -0.410297 -0.094868 0.138989 0.453976 -0.815980 0.551473 0.980575 -0.222285 -0.515500 -0.377668 0.741828 0.279438 -0.365853 0.776151 0.286139 -0.140612 -0.714521 0.455145 -0.309699 0.156275 0.775526 0.476343 0.132838 -0.491595 1.473696 -0.413614 0.112308 -0.395164 -0.048746 0.332089 -0.134526 0.184364 -0.044149 -0.548366 0.047245 -0.049870 0.143962 0.169071 -0.209595 0.093908 0.076260 -0.227574 0.609170 0.107499 0.188784 0.858535 -0.370918 -0.844844 0.553839 -0.416273 0.822104 0.145942 -0.718834 -0.380271 -0.433343 0.530526 0.927557 -0.534130 0.366005 -0.083502 0.058867 -0.166691 0.795041 -0.124763 0.246488 -0.572935 0.195767 0.343907 0.053138 -0.413242 1.098709 -0.980183 -0.291148 0.326143 0.517245 0.130485 -0.353495 0.311093 0.639382 0.073204 -0.753166 0.335809 -0.981642 0.173834 -0.042937 -0.067808 -0.780974 -0.806899 0.301945 0.204524 0.854252 -0.184417 0.599665 -0.663694 -0.624231 -0.692678 0.685852 0.644561 1.127359 0.645201 -0.218969 -0.336132 0.084936 -0.386066 0.385209 0.175988 0.555454 0.327305 0.392617 0.593472 -0.235920 -0.569775 0.797864 -0.085340 0.095306 
in 0.547954 1.194939 1.349595 0.591527 -1.128799 -0.003634 0.002857 -1.236621 0.631296 1.401450 0.127670 0.875477 0.505883 0.110896 0.872719 -0.147629 0.077146 -0.005981 -1.123966 0.742912 0.242857 0.609691 -0.124677 -0.163390 0.649656 -0.411206 0.312073 0.952412 1.091285 -0.594136 -0.187203 -0.175909 0.636129 0.853416 0.304959 0.763160 -0.638225 -0.122283 0.497429 0.162107 -0.015458 0.533297 -0.735404 -1.048477 -1.404135 -0.401077 0.326701 0.192736 -0.313443 0.502911 1.259404 0.446703 -0.534430 -0.706544 -0.393188 -0.714504 -0.040666 0.563213 0.556380 0.615633 0.022805 0.262135 1.145090 0.715352 0.510465 -0.416276 0.179566 0.579785 -0.325489 -0.145584 1.095184 0.865696 0.162781 -1.542386 -0.022688 1.020444 -1.068459 1.212860 -0.049927 0.184107 0.993301 -0.306184 -0.027075 -0.389800 -0.401438 -0.374955 -0.916709 -0.151186 0.668674 -0.230378 0.351362 -0.920401 0.795344 0.331790 0.082155 -0.074242 0.429277 0.062263 0.075122 0.558705 0.503513 -0.078666 0.561106 -0.013781 0.296729 0.076484 -0.221895 -0.107091 -0.503397 -0.913323 0.392927 0.726117 0.429756 0.259357 0.271378 0.153588 -0.123394 -0.289042 -0.889682 0.155671 -0.066807 -0.424049 0.679255 -0.946564 0.228443 -0.841057 0.317550 -0.162884 -0.267004 0.729731 -0.447644 0.488315 -0.612351 -0.171684 -0.884209 0.383747 -0.201435 -0.518666 0.761754 -0.332094 0.643375 0.044541 -0.014218 -0.038656 -0.714542 -0.555324 -0.478688 0.601149 -0.844879 -0.242184 -0.232072 0.031939 0.396696 -0.608231 0.376748 -0.440296 0.461269 -0.054698 -0.331008 -0.730499 -0.445891 -0.424105 -0.438330 -0.615122 -0.712115 -0.056226 -0.711295 0.282337 1.280430 0.225994 0.609856 -1.414302 1.263810 -0.271560 0.180341 0.578443 -0.416084 -0.260822 -0.242526 0.956023 -0.499884 -0.158567 -0.679428 0.103709 -0.132354 0.146804 -0.630287 0.271375 1.349994 0.073731 0.106051 0.424379 0.333504 -1.103332 0.598877 -0.693214 -0.629613 0.284978 0.463992 -1.167055 
the 0.556272 -0.296782 -0.359614 -0.287220 0.170750 -0.746651 0.051308 0.106578 -0.413441 0.039179 -0.114335 0.314777 -0.925015 1.193714 -0.637974 0.894108 -0.863734 0.926708 -0.449950 0.144103 -0.288761 -0.010979 0.221524 -0.188476 -0.314904 0.343798 0.702268 -0.313727 0.048098 -0.835710 -0.095471 1.465249 -0.345497 0.084935 -0.266332 -0.663698 -0.605747 0.607494 -0.463540 -0.423617 -0.025805 -0.462988 0.135498 1.311808 -0.104899 0.386382 -0.460359 0.021086 0.293669 0.119935 0.303456 -0.474306 -0.514827 -0.714494 -0.743136 -0.224398 0.300966 0.467742 -1.001819 0.136772 -0.006756 0.751014 0.448650 -0.937573 -0.193179 0.167569 -0.497289 -1.113580 0.212553 -0.649263 -0.569275 0.159410 -0.091117 -0.162969 -0.779760 -0.364997 -0.282274 1.112273 0.024899 -0.392880 0.496929 -1.481622 -0.532431 -0.423226 0.301252 0.037054 0.262150 0.294250 0.101729 0.808179 0.531713 -0.595993 -0.617983 0.081905 0.120387 0.527081 -0.343113 0.387558 0.007648 -0.115818 -0.051755 -0.739074 0.726151 -0.644040 0.461959 -0.025048 -0.233708 -0.136931 -0.084198 0.444723 -0.945008 0.947363 0.034505 -0.291399 0.348671 0.592330 -1.053171 0.178522 -0.000824 0.764777 0.275032 -1.480287 -0.014274 -0.462169 0.411811 -0.278467 -0.684658 -1.031654 0.008312 0.872738 0.268844 0.606899 -0.350083 1.341517 0.130194 -0.380186 0.264980 0.202507 0.422628 -0.225655 -0.333565 0.218871 -0.105966 0.669070 -0.177425 -0.079766 -0.081930 0.538572 -0.679578 -0.347345 -0.133676 -0.074356 0.283600 0.528219 0.704717 -0.803155 -1.131256 -0.079443 0.158165 0.206076 -0.202834 0.050547 -0.559359 -0.711086 0.565070 0.047274 -0.673955 -0.518194 -0.788122 -0.124474 1.017926 -0.121410 0.421280 0.246793 0.166281 0.365065 -0.235836 0.600655 -0.401003 0.280004 0.018385 0.113380 0.277118 -0.247549 0.032152 -0.070602 -0.883034 0.539041 0.579488 0.121356 -0.305990 1.012862 -0.439502 -0.133204 -0.163441 -0.546209 -0.528584 -0.644602 0.712577 1.221486 
with -0.266737 0.998702 0.012434 0.343205 -0.108778 -0.362330 0.563338 0.678182 0.148636 1.225448 -0.469545 -0.653657 1.005689 0.012015 -0.319292 -0.454251 0.033340 0.847487 0.907299 -0.315095 -0.012276 0.246119 0.004915 0.639620 0.513919 -0.068318 -0.093585 1.024928 1.039539 -0.441025 0.667080 -1.088740 0.765785 1.524780 0.479489 0.228327 -0.155723 -0.129706 0.796356 -0.175065 1.009788 0.095834 -0.127183 -1.741379 -0.355821 -0.976023 0.714863 -0.634998 -0.293230 -0.069024 0.707670 -0.228502 0.677169 0.026262 0.187100 0.430339 -0.077611 0.388776 -0.073114 -0.713286 0.703886 -0.371577 0.085385 1.164202 0.494528 0.209684 0.114372 0.451710 0.105009 0.582753 -0.219412 -0.054087 0.038046 -0.869543 -0.547351 1.135052 0.159288 0.145131 0.180107 -0.345969 -0.288370 -0.822333 -1.291203 0.327921 0.011527 -0.260582 0.608585 0.048204 -0.337329 0.139991 -0.149939 -0.833000 0.548724 0.045846 -0.384638 -0.446792 -1.729220 -0.485687 -0.446323 -0.261972 0.519344 0.176539 0.257533 -0.064790 -0.584090 0.193513 0.611082 1.035277 0.609307 1.016456 -0.084747 1.058853 -0.351929 0.070515 0.543956 1.634282 -0.277558 0.606401 -0.926324 -0.772136 0.904141 0.496957 0.724996 -0.828529 -0.524234 -0.481582 0.067530 -0.792942 0.423115 0.818452 -1.077808 0.237795 -0.760059 -0.549551 0.481608 -0.661780 0.602074 0.291534 -0.085908 0.430730 0.399637 1.057748 -0.636426 0.433518 -0.651113 -0.492189 0.203715 0.113189 -0.325408 0.750765 0.449834 -0.103476 -0.429233 0.333887 0.495501 -0.164015 0.765174 0.061132 -0.147858 -1.199617 0.332498 0.044450 -0.083012 0.031421 -1.010570 0.043444 0.057675 -1.450275 -0.252034 0.439069 0.914586 -0.738689 -0.796117 -0.458690 0.421950 0.800343 -0.106820 -0.196744 -0.295834 0.991549 -0.210212 -0.216578 0.278204 -1.505806 -0.860364 0.615549 -0.005264 -0.234833 1.004099 0.254527 -0.011143 0.238971 -1.947592 -0.515678 0.602526 -0.857288 -1.025442 -0.107074 -0.397916 0.483324 
to -1.318019 -0.754010 -0.830506 -0.059173 -0.284843 0.212146 0.570497 0.212744 0.446389 -0.122640 0.858397 0.571986 0.062975 -0.865569 -0.092587 0.228195 -0.521268 0.858388 -1.219680 0.068211 0.893869 0.159973 0.491931 -0.713656 0.587352 0.050968 0.787129 0.032293 0.111716 -0.307778 0.540169 1.418851 0.112857 -0.074646 -0.061756 0.665677 0.369066 -0.015462 -0.850427 0.177216 0.235484 1.197817 0.119136 -0.823139 0.668570 -1.208315 0.062794 0.363659 -0.460691 0.427231 -0.895738 -0.301760 -1.339646 -0.171213 -1.358452 -0.304070 -0.003522 -0.103060 1.952170 0.209995 -0.375501 0.949294 0.921149 0.189115 0.448146 -0.098922 0.691667 0.183823 -0.216311 -0.404739 0.388358 0.145152 -0.605790 -0.725293 1.259411 0.562914 -1.049833 0.639150 -0.543886 -0.037051 0.518580 -0.806301 0.142799 -0.892697 -0.132524 -1.177509 -0.855193 0.918501 1.371737 -1.279480 0.327011 -1.066019 0.098441 -0.145373 0.399863 1.153540 0.045879 -0.996596 -0.900360 -0.425868 -0.677359 0.090129 -0.859484 -1.324806 -0.127049 0.582069 0.104107 -0.538393 -0.475204 -0.245169 -0.220164 0.215067 0.467841 -0.348497 -0.550773 -1.289693 0.176329 1.038609 -0.923124 -1.132963 -1.500449 -0.471148 -0.192889 -0.617157 0.234718 0.082943 -1.056334 -0.377964 0.573053 0.583206 -1.319719 -0.388270 -0.644404 -0.660565 -0.838621 0.455118 -0.937524 0.756297 -0.381670 -0.416198 -0.397406 1.996666 0.948534 -1.263879 -1.536465 0.576088 -0.621215 -1.566747 -0.007100 0.960921 -0.219778 -0.420521 0.679720 -0.360110 0.087747 -0.298386 -0.575556 -0.805305 0.838838 -0.655941 0.384802 -0.764187 0.410137 -0.384780 0.470944 -0.345257 -0.848396 -0.607081 1.200923 0.629702 -0.991707 0.935253 0.693914 -1.267993 -1.180244 -0.461492 0.402025 -0.012050 -0.446802 0.019806 -1.171506 -0.726248 0.375510 -0.625076 0.969684 0.061132 0.615169 0.709208 0.077790 0.352284 -0.613744 1.031156 -1.501657 0.334375 0.023435 -0.463427 -1.018720 0.757006 -0.343733 -0.311097 
using -0.170682 -0.500561 -0.392533 0.055196 -0.099374 0.002665 1.576238 -0.446791 1.036045 0.162992 -0.192055 0.180985 1.705886 -0.891137 -0.207941 -0.907550 -0.337457 0.137543 0.453803 -0.263261 -0.503110 -0.143119 0.520533 0.508471 -0.266489 -1.273869 -1.410104 0.918441 2.199822 -0.819241 1.494166 -0.846062 1.323826 1.550696 -2.071078 1.186269 -0.876389 -0.384200 0.062702 0.123600 0.468463 0.675005 0.135307 -1.567495 0.442426 -1.260535 0.289860 1.026760 0.020470 -0.835030 1.161090 0.265548 0.305936 0.784039 0.420102 -0.186409 0.746317 0.611915 -0.011605 -0.456012 0.465260 -0.686185 -0.182306 -0.706480 -0.156119 -0.386610 0.227594 0.804330 1.371660 0.780183 1.259667 0.278421 0.759455 1.324307 -1.542023 -0.373614 0.952436 -0.239246 0.346465 -1.186613 -0.853112 -0.055301 -0.769309 -0.607773 0.101215 0.135411 -1.417228 -0.844661 0.233396 -0.714089 0.845812 -0.270803 0.278091 0.529430 0.861715 0.860058 0.019829 0.777991 -1.959908 0.911875 0.178909 0.920621 0.467724 0.019929 1.459897 -0.200896 0.621004 0.724316 -0.293445 0.768036 0.648552 1.427014 -0.096827 0.145704 -0.240809 1.069644 0.295144 -0.409248 -0.349824 1.234073 0.692467 -0.470698 -0.195270 -0.829688 0.371995 -1.050387 -0.025792 -0.405447 0.342993 -0.167811 0.805868 0.229054 0.566306 -0.581478 -0.137064 -1.386793 -0.010036 -0.307133 0.247134 0.533618 -0.710222 1.314109 -1.585740 -0.243975 0.007414 -0.332089 0.724940 0.457433 -1.100479 -0.169731 -0.194197 -0.673339 0.375437 -0.276626 -0.391927 0.501518 -0.710500 -0.094467 -0.165601 0.133673 -1.827367 0.846397 0.006149 -0.425884 -0.509327 0.351098 -0.410832 -1.304889 1.509391 0.996216 1.547246 0.383850 -0.288428 0.354533 -0.345304 0.013760 0.564659 -1.056749 0.780341 0.301809 -0.046613 -0.017636 -1.707592 -0.921430 -0.122027 -1.380642 0.087678 -1.232573 -0.180236 0.377799 -0.550174 -0.048892 -0.600562 -1.491737 0.469765 0.664233 -0.883460 0.538164 -1.075688 -0.548652 
on -1.014041 1.133089 -0.499281 0.677577 -1.194154 0.167358 0.602971 -1.772533 0.927978 0.201858 0.695526 0.235593 -0.916193 0.006970 -0.235531 -0.443729 -1.304604 1.236948 0.029041 0.617761 -0.017376 -0.221059 0.205378 -0.093655 0.271700 -1.415170 0.855059 -0.416719 0.841768 -0.618400 0.419729 1.159631 0.802985 -1.917170 0.249153 0.099683 -1.553898 1.039827 1.501153 0.617017 0.103669 -0.053810 0.610040 0.346907 1.037311 -0.407191 0.500401 -0.547170 0.933937 -0.246538 1.737962 -1.174392 0.454228 1.344679 -0.294189 -0.947195 -0.189508 -1.635869 0.602726 0.035657 1.110672 0.802972 -0.307547 0.632614 0.826311 1.721093 2.222706 0.019132 -0.242557 0.992331 -0.588223 0.557956 -1.471390 -1.085862 0.633558 0.477471 0.461164 -0.812940 0.770443 -1.262341 -0.408027 -0.847670 -1.349670 0.048329 1.163210 0.197106 0.396983 -0.952304 0.106212 -0.027931 -0.638107 0.058872 -0.064728 -0.553976 -0.314900 0.935452 -1.433836 -0.119985 -0.812746 -0.075210 -0.158646 -0.041459 -0.916869 -0.210797 -1.405129 -0.717290 1.001531 0.356920 -0.543896 0.564615 1.174411 0.210971 0.353142 -0.013768 0.771868 0.405893 0.599461 -1.532595 0.661996 0.578831 0.340152 0.344194 -0.141854 -1.158745 -0.420215 -0.186996 1.406141 -0.998699 1.465743 -0.152002 -0.329677 -1.541980 -0.146295 0.293395 0.455256 0.584755 0.881910 -0.326711 -0.018015 -1.216646 0.083367 -1.655498 -0.946159 1.253022 0.066000 -0.187949 -1.052971 -1.605387 0.328465 -0.555955 -0.348291 0.443406 -1.123758 -0.235327 -0.389524 -0.551810 -1.006886 0.110370 -0.230098 0.901489 -1.230239 -0.774472 -0.524334 -0.075311 0.158770 0.118597 -0.752281 0.778868 1.452680 0.730953 -0.305368 -0.267805 0.512433 0.991020 -0.334826 0.520280 1.228752 -0.616415 -0.457162 0.721867 -0.498588 0.405016 -0.197545 -0.806514 0.079157 1.425128 0.407619 0.145098 -0.660414 -1.686034 -0.100531 0.893309 -0.649469 -0.700979 -0.344145 0.608398 -1.015625 0.608363 0.257989 -0.210741 
models 0.546983 -0.005565 0.570728 1.079953 -0.048288 -0.196092 1.357597 0.631189 -1.230044 -0.390414 -0.435907 0.974239 -0.873305 -0.695589 1.156798 -1.202120 -0.289084 -0.136825 0.602343 -0.663550 0.293012 0.324229 0.186028 -1.270595 -0.475417 0.010135 -0.149350 0.374747 0.537548 0.491189 -0.578780 1.609401 1.692480 -1.607043 0.047559 -0.397088 0.674007 -1.219067 0.949617 -0.504060 -1.977266 -2.174788 1.360259 0.665986 -0.056254 -0.573285 0.069790 -0.904705 -0.212128 -1.165108 -1.112753 -0.208274 -0.883630 -1.041191 0.809671 0.287294 -0.251597 1.094573 -1.033554 -0.808870 -0.914759 -0.794869 -1.374335 0.217198 -0.868773 1.794075 -1.377133 -1.518725 0.190492 -0.571612 0.296343 -0.610512 0.435853 -0.196333 -0.326642 1.230659 -0.200712 -0.161831 1.286753 -0.912175 -0.670186 -0.780320 0.208117 -0.644327 -0.091941 -0.496873 -0.999693 -0.920330 0.969844 0.070075 0.307361 0.003913 -0.852551 0.016987 1.257197 -0.948109 1.484885 0.909746 0.465367 -0.168208 0.508598 1.027913 0.103328 -0.939689 -0.160006 -1.065726 0.810492 -0.068432 1.200066 -0.773216 0.762260 0.609781 1.264940 -0.338638 1.687275 0.893445 -0.497131 0.287021 0.147466 2.711466 1.085784 1.343557 -2.025919 -1.191520 0.071666 0.669932 -1.297087 0.433266 -0.361476 -0.087542 -1.140391 -0.792910 0.349635 0.085871 0.603564 1.047224 -0.642642 -0.367896 -1.056475 -2.250206 -0.126561 -0.339333 -0.191584 -0.295968 1.010691 1.497363 -1.248989 1.024488 0.554019 -1.152802 -0.132639 -0.911300 2.073883 -0.776837 -1.107190 -0.068557 0.044339 -0.631813 -0.435536 -1.769695 0.787274 -0.081035 0.855040 0.306136 0.789817 -0.280862 1.150230 -1.544480 0.674885 -0.074806 -0.353942 -1.187521 -0.332800 -0.258531 0.737731 -0.667272 -0.532755 1.473109 1.692116 -0.711345 0.951825 -0.358549 0.564413 -0.266067 0.423203 -1.338054 1.734011 0.160144 0.453871 0.388305 0.757746 -0.360317 0.520568 0.804722 -0.442939 0.380573 1.336881 0.740442 0.067124 0.906512 
model -0.987782 1.324507 1.101308 0.209169 -1.013487 -1.291205 0.299042 -0.143616 -0.285887 0.979952 -1.464816 0.231211 -1.847289 -0.905526 0.589745 0.533078 0.954272 2.946104 0.421921 -0.104194 -0.881519 -0.379629 -1.127962 -0.039712 -2.404233 -1.806423 -1.102139 0.133862 -0.762609 0.954675 -0.890946 0.516262 0.600626 -0.536534 -0.208713 0.238616 0.879038 0.856418 0.107769 0.540258 0.297338 -0.410267 0.658584 0.659642 -0.180964 -0.158440 -0.555396 -0.889533 -0.381100 -0.906211 0.231639 -0.410735 -0.301322 -1.247771 1.928247 -0.208966 -1.041528 0.213083 -1.513862 0.627961 -0.013948 0.366700 0.411407 0.455121 -0.304976 1.134220 -1.015344 -2.032414 -0.333829 -0.997781 0.838555 0.557981 1.422698 0.560822 -0.795159 -0.491257 -0.237547 -1.327646 0.668729 0.649114 0.397618 0.083519 0.744074 0.417113 -0.950124 -0.037194 -1.288399 1.114298 -1.299214 -0.950477 0.581668 -0.342736 -0.215688 -0.675523 0.411708 -1.294432 -0.535986 2.562771 -0.832012 -0.117225 0.828757 -0.121609 -0.894276 0.481132 1.187903 -0.350158 0.106063 -0.613810 0.382531 -0.616145 0.889210 -0.861217 0.372457 0.419608 0.952445 -0.878804 -1.831660 1.451983 -0.269522 0.942761 -0.005334 0.569522 -1.743128 -0.592791 -1.112496 1.345573 -0.546656 -0.163101 0.034049 0.708838 0.617545 -1.048824 1.742484 -0.724146 -1.302471 -0.866202 -0.153262 -1.581714 0.651080 -1.251453 0.751570 -0.771911 -0.225664 -0.355179 -0.292697 0.179423 1.132003 -0.987421 -0.508525 -0.434130 -0.135220 0.060303 -0.759191 -1.736777 -1.322328 -0.083162 0.668333 -0.545964 -0.798512 0.352529 0.285504 0.828334 -0.317580 1.610333 0.652114 -0.922351 -0.217004 -0.579198 0.420028 0.216199 1.503804 -0.842859 0.411539 0.083769 -0.320109 -0.656342 -0.857449 0.923213 0.325020 -0.508342 0.546373 1.199233 0.721020 1.152791 0.979127 -0.399920 1.500920 -0.980754 0.378741 -1.337679 0.751836 0.356304 0.431061 0.489845 1.271486 0.064975 -0.457474 1.217282 0.451253 -0.716347 
from 0.542824 0.235826 0.039344 0.043192 0.223453 0.381391 -1.075013 1.344391 -0.019592 0.205311 0.675412 1.050084 -1.071157 -1.141429 1.432358 1.298581 -0.695880 -1.485568 0.448482 -1.482334 0.405927 0.436484 0.538343 0.056799 -1.206387 -0.878611 0.441382 0.292184 1.081029 0.165940 0.781195 -1.182711 -0.180516 0.027713 -1.124710 0.837340 -0.896823 -0.164891 0.639468 0.166526 -0.361714 0.109589 0.304143 -1.725338 0.117871 -2.306460 0.780008 1.955306 1.105207 -0.434067 2.385692 0.878536 -0.601923 2.226254 1.574408 -0.591009 0.918120 -0.387442 -0.536451 1.662901 0.763917 0.094375 -1.844021 2.533475 -1.076948 -0.330523 0.555955 -0.530578 -0.976432 -0.244031 0.892581 0.900595 0.067961 -0.047680 -1.317471 1.328514 -0.812362 0.954312 0.955774 0.504087 0.702287 -0.625746 0.148885 -1.180780 -0.942429 0.144618 0.682287 0.795474 -0.835082 -0.029234 -1.708020 -1.009254 0.264704 1.188758 -1.004452 -0.477327 -0.030800 -0.366610 -0.720402 0.303471 2.701782 0.745505 0.504759 -0.739613 -0.005326 -0.399877 0.616627 0.839161 -0.990180 -0.131794 0.532942 -1.608904 -0.593056 0.623492 0.542697 -0.334407 0.576793 0.943246 -0.219690 0.024172 0.640079 -1.776832 0.091942 1.172445 -0.363379 -0.211962 0.512970 -1.269633 -2.146923 -0.143996 0.417217 -0.626967 1.316699 -0.561182 -0.136578 0.748706 0.098232 -1.288292 0.875698 0.201479 0.087920 0.802424 -0.915979 0.183110 -0.070588 -0.449083 0.816946 -0.031104 -0.353418 -1.928012 0.238778 -0.210104 0.746639 0.395995 0.469943 0.954917 -1.511326 -0.554892 0.775633 -1.415152 0.503819 -0.656072 -1.013831 -1.664627 -0.025240 -1.127753 -0.225222 -1.042470 -1.144220 -0.135428 0.514077 -0.712735 -1.191432 0.914229 0.086184 1.504763 0.018020 -0.387939 -0.236406 1.295679 -1.439973 -0.760787 0.426929 -0.583165 -0.706424 0.801075 1.825297 -0.779927 0.087925 0.906659 0.250239 -0.071070 0.080893 1.006495 0.058727 -1.096326 0.138224 1.007806 -0.166123 -0.771385 
an 1.221410 -0.787942 -0.375771 -0.616342 -0.485775 -0.665962 0.355862 1.153820 1.164361 -0.340095 0.356628 -0.850921 -0.509421 0.020104 -1.765438 -0.923423 -1.587354 -0.954301 1.072670 0.653319 -0.281943 -0.659532 -1.470124 -0.161386 0.708146 -0.123327 1.268978 0.287433 -0.730414 -0.755806 -0.346867 -0.846708 -0.716595 0.230122 0.231546 -0.502821 -1.853176 0.121334 -0.634907 0.781918 0.385796 -2.243979 0.319331 2.372276 -1.301038 0.571258 -1.032624 0.147487 2.378452 -0.918376 -0.272593 -0.100039 -1.808820 -1.437735 -1.910172 -0.993298 -0.212101 0.683598 0.146513 -0.682281 0.738190 2.320810 -0.434922 1.846214 -0.147537 -0.712396 -2.122702 -0.752556 -0.152794 0.951142 0.503101 -0.650006 -1.526473 0.177153 -2.282656 -1.289168 0.097786 0.702656 0.074389 0.396263 0.211631 0.964508 -0.783395 1.049436 1.994501 0.433164 0.011434 -0.220027 1.803743 1.065886 1.385938 -0.015967 -0.086110 -0.644448 0.538128 1.659871 0.047773 -1.640428 1.754624 -0.012864 1.528629 0.312392 0.508444 -1.428409 1.814822 -0.698688 0.407170 -0.318376 0.098319 1.030560 -0.128349 0.185983 -1.067251 -1.065686 0.735633 -1.162949 1.695766 -1.031862 0.098606 -0.306816 -0.186808 0.579628 -0.650494 -1.186059 0.563127 -1.585441 -1.073977 -1.876620 -0.259791 1.223811 -0.572107 0.367311 -1.405563 -0.615828 0.487101 -0.510159 0.136550 -0.640184 0.215826 -0.055056 -1.032298 -0.358504 -0.088239 -0.005759 0.890476 1.926445 -0.383293 0.380358 -0.065502 0.208750 -0.666455 0.082525 1.059822 -0.755320 2.128822 -0.666524 0.349381 -0.043069 1.213359 -0.977517 -0.154999 -0.920650 -0.558405 0.847229 0.899991 1.097036 1.120263 0.215633 -0.913366 -0.370609 -0.201875 -1.362590 1.277503 0.597105 0.555235 -1.938538 1.206985 -1.607825 -0.018185 -0.060065 -0.254929 -0.594486 0.933765 0.665160 -0.460195 0.503722 -0.109379 1.626750 -0.745881 -0.178338 1.184657 0.954507 0.959494 1.586571 0.028405 -0.510523 -0.620855 -0.778431 -0.338398 -0.590652 
by 0.372216 -1.418753 -1.061558 -0.032749 -1.060420 -0.385783 -0.424218 -1.037344 -1.089731 2.415718 -0.230017 1.126595 -0.305897 -1.160408 0.885482 -0.541561 -1.242020 2.541760 -2.453067 -0.230853 -0.564775 -0.772800 0.444355 -0.859631 -1.334657 -1.866048 -2.118965 0.137227 -1.121237 -1.170626 -0.410706 -1.302312 -0.630409 1.911469 -0.529023 0.304002 -1.266000 -1.021990 -0.181626 0.290047 -0.286471 1.461687 0.854739 -0.027032 -0.588538 -1.062115 0.656232 0.852294 -1.197612 0.366588 1.663256 0.129994 0.102743 0.005741 0.581635 1.022132 -1.624714 -0.406867 1.012120 -1.044989 -0.057326 0.080913 -0.063887 0.688057 0.925521 0.132474 1.401778 0.098645 0.212955 1.579854 0.523657 -0.420711 0.203925 -1.069239 -0.826306 -0.464351 1.316296 -1.040397 -0.844483 0.503897 -0.889954 -0.767949 1.710245 -0.585673 -0.505302 0.477688 0.708183 -0.367512 0.226544 0.533349 0.408600 -0.231861 0.580506 1.952168 -0.781372 -0.425956 -0.809591 0.094824 -0.317430 0.695644 1.114644 0.078927 -1.681268 -0.410044 -0.540688 -0.074037 -0.410017 0.994986 1.106449 0.719932 0.128952 2.515790 0.255971 0.631352 0.755020 0.234424 1.486148 -1.420884 -0.205270 -0.456354 -0.596125 0.804714 -0.756919 0.355612 1.190414 0.467988 -0.019583 -1.010023 0.734220 1.719955 -1.070623 -0.162538 0.497985 -0.350297 -0.234945 -0.257694 -0.423322 1.151215 1.480090 0.486156 -0.078767 0.704556 -1.777782 0.311303 -0.098317 0.641802 0.098024 1.544132 1.597471 -1.580233 0.950113 0.008260 0.501075 -1.130208 1.085310 1.539643 -0.685512 0.891472 -0.198095 -0.998687 0.544854 -1.470475 -1.066266 0.530879 -0.018897 1.445859 0.469627 -0.672422 -0.376816 0.487727 -0.057357 -0.099730 0.611007 0.804045 -0.000953 0.220973 -1.930915 -0.976140 0.501338 -0.369516 -0.886766 -1.178054 0.329447 -1.284433 -1.608760 -1.654060 -0.004198 1.496292 0.672156 0.124287 -0.485134 0.234861 -1.186980 0.552982 0.072382 1.328596 -1.159637 0.287058 0.467474 -0.149284 
neural 1.220511 -0.339443 0.455969 -1.055196 1.157107 1.509902 -0.930696 -1.570024 -0.658562 0.106633 0.018693 -0.474003 0.583836 -0.557597 2.114316 0.412018 -0.892517 -0.180232 -0.081201 1.548019 0.473431 -0.921893 0.188313 0.301202 0.080594 0.007789 -1.503625 -0.727094 -0.995583 0.342905 -1.228398 0.853246 -0.571673 1.624517 0.316642 -0.081006 -0.333928 0.773979 0.984668 0.796816 1.736278 0.087250 0.871529 0.816488 0.947750 0.477818 -1.568383 -0.280975 0.322978 0.411161 0.577237 0.021510 -0.034596 0.858160 -1.165788 -0.454370 2.328940 0.696609 -0.709119 -0.021019 -0.493364 1.237375 0.317723 0.038782 0.575176 -2.399273 -1.176124 -0.613736 0.050382 -1.200805 0.517065 0.959958 -0.590197 -0.236925 -1.291037 0.510821 0.138347 0.017722 1.585394 0.426759 -1.050193 -0.681431 -1.105922 0.267704 0.180406 -0.231452 0.138648 0.556218 0.069419 -0.011199 -1.438527 0.296198 0.852441 2.438407 0.165258 -0.062077 -0.323902 -2.017833 -0.575629 -0.083135 -0.404256 -1.218792 0.524545 1.088111 1.395602 0.888718 -1.613404 -1.236343 0.710889 0.870777 0.422081 0.299693 1.520289 -0.269214 -1.056461 -0.887228 -0.275111 -1.222207 -1.884230 1.020232 0.220144 -0.134566 -0.709086 2.089383 -0.907452 -0.146455 -0.521989 -1.460874 -0.130270 -1.140373 -1.147291 -0.481815 0.619179 -0.910650 1.358398 1.414221 0.521601 0.505930 0.451003 -0.027642 1.507941 0.882187 -0.446806 0.483916 -0.100073 2.084146 -0.330254 -0.729090 -1.639964 -0.974567 -0.849625 0.846901 0.456001 1.276607 0.237008 -0.790866 -0.379328 -0.499453 0.771935 0.708604 0.198945 0.174414 -0.274286 -0.147558 -0.217334 -0.087348 0.766554 0.977252 0.823710 -0.565603 -1.674616 0.112399 1.102677 -0.810720 0.034307 -0.457861 0.476547 -0.861430 1.079345 -2.077076 -0.403246 -0.661367 1.410165 0.053791 -0.564607 0.276645 0.472682 0.784504 1.299527 -1.923304 -1.367522 0.260305 -0.216089 0.293200 0.131243 0.740188 -0.374680 0.660291 0.322574 -0.575521 
networks -0.832032 -0.372014 0.536357 -0.606158 1.216298 -0.339203 0.399094 -0.214036 -0.679273 -1.874377 -0.708551 -0.686811 -0.024231 -1.489499 -0.367733 -0.137933 1.070637 -0.242404 0.233640 -0.378037 -0.546070 0.941519 0.211531 -0.943595 -1.904652 0.936268 -0.393585 -1.022380 -2.014485 -0.504532 -0.850357 1.056803 0.286440 -0.530197 0.614932 -0.750540 -0.327909 0.586720 -0.185424 0.429342 0.591840 0.206469 0.153092 0.754308 -0.588995 0.278252 1.505043 -0.057888 0.939348 0.279124 -2.260870 -0.021533 1.358160 -0.616412 -0.035525 1.635839 0.286711 0.038780 1.552502 0.436669 -0.043167 1.227692 0.289353 0.529493 -0.309263 1.799245 1.287782 0.345398 -1.420655 0.406846 0.365338 -1.174777 0.981604 0.514860 -1.125690 -0.930395 0.621252 0.032054 -0.678549 -0.997351 0.476442 -0.322532 -1.502909 0.618395 1.327451 0.984066 -1.302210 1.018813 1.149877 -1.082347 0.371645 0.346816 -0.516239 0.296403 -0.560477 0.244189 -0.553330 -0.554571 0.145912 0.081948 -0.706145 2.564134 0.432106 0.374856 1.663578 0.676227 0.775092 0.257500 -0.402339 -0.357104 -0.431198 1.020531 -0.962590 0.054883 -1.935596 -0.146552 0.268151 0.044153 1.592836 0.602667 0.679888 1.474829 -1.560154 -1.508849 -1.648674 0.522936 -0.024016 -0.402532 -1.522959 -1.114280 -1.285844 -0.770482 0.291731 -0.584171 -1.639208 0.841187 0.605799 -2.643947 -0.400384 -0.389477 -0.024170 -0.081907 0.271713 -0.939923 0.131310 -0.312540 -0.847607 0.775192 -1.474350 -0.817991 -0.426884 0.733726 0.005853 -0.346447 0.105976 -1.224705 -0.536719 0.873722 -1.088961 1.704644 -0.339746 1.154741 1.788587 -1.422293 1.370088 0.025162 0.244479 1.671022 0.098796 -1.056696 -0.053771 -1.743439 0.561239 1.557541 -0.405319 0.197676 0.957244 0.948352 -0.343969 -0.521163 -0.178294 -0.303583 1.697449 -0.007447 -1.741370 0.066284 -0.830415 2.065633 0.468978 -1.449417 0.346297 0.399585 -0.638513 1.335913 0.088918 -1.654730 1.000057 -1.532799 -0.534794 0.383731 
via -2.004367 0.383160 -0.341539 0.157701 3.250165 -1.122052 0.434518 -0.947655 -0.061592 3.542345 0.581832 1.117102 -0.502564 -1.659808 -1.177704 0.657307 0.721684 2.227678 0.096751 -0.447744 0.324250 -0.246494 -0.116603 0.654970 -0.874709 -1.152696 -0.085412 0.447535 0.891248 0.448920 -0.122611 -0.965373 -0.952345 0.084104 -0.905482 2.019381 -1.002079 -1.960186 0.339180 -0.402844 1.195974 -0.708672 0.666362 -0.267900 -0.471206 -0.018011 -0.088572 -0.472914 0.804934 0.521770 0.037253 -0.244105 0.135431 -0.848503 0.227121 -0.810892 0.004411 -0.561109 0.246534 -2.202702 0.824809 0.436130 -1.495733 0.995090 -0.950211 -0.224624 0.699522 1.673530 0.144702 1.086711 0.356808 -0.879944 -1.324275 -1.319464 0.589954 -0.000530 2.276706 -0.206867 1.158708 0.131364 -0.317798 -1.787474 0.298372 -1.363562 -1.040513 1.911435 1.036893 0.122320 1.264487 -1.407012 -0.118807 -1.677250 0.691289 -0.768575 0.736300 -1.576900 0.251229 -0.807510 -1.409362 0.291755 -0.733869 0.734825 0.169581 0.318332 0.357528 0.515665 2.268889 1.298009 -1.015362 -0.369707 0.395330 0.715321 0.480814 0.526503 0.578927 1.650583 -0.237255 -0.397246 1.221321 -0.358906 -0.602028 -0.418909 1.610649 0.003791 0.810760 -0.357219 1.369356 0.549435 0.247885 0.583835 -0.754265 -1.008634 -0.947688 0.661799 0.632726 -0.012875 0.953932 -0.986189 1.336383 1.557252 0.212831 0.790556 0.459078 0.734975 0.960030 -2.589725 -1.248656 1.164465 1.534539 0.427231 -0.620638 -1.643123 -1.402867 -0.828119 0.546724 1.270278 0.285217 -0.446004 -1.201057 -0.782195 -0.721611 -0.452413 -0.330357 0.269430 -0.693752 0.092369 0.500647 -1.679184 -0.185434 1.543175 0.411378 1.881791 0.797248 -0.770519 1.136757 -0.119667 -0.647443 0.166008 -0.437226 0.378000 -0.635046 -0.052859 0.541279 -1.507700 -0.068858 0.312279 -0.839039 1.466801 -0.411680 1.050570 -1.234882 -1.256948 0.029961 -0.716799 -0.445470 0.019858 -1.993600 0.952394 -0.021305 -0.643488 
data 0.394711 0.437636 0.640155 0.119493 0.613690 -1.085249 -1.149169 -0.664797 -2.236000 -1.924264 1.257616 0.147377 0.602988 -0.191334 -0.525513 0.789820 0.613842 -1.179196 -0.598493 1.817595 -1.098367 0.359052 -0.265277 -0.085320 0.513352 -0.398121 0.426053 -0.680295 -0.300371 1.714012 0.514162 0.064839 -2.199938 1.159663 0.496322 0.272945 1.291267 -0.235553 -0.561221 -2.255561 0.957603 0.230166 -1.508382 1.132743 -1.373508 1.587807 1.161656 0.005451 -0.214139 0.906592 0.254980 -0.923057 1.165854 0.589398 -0.479384 -0.597475 0.351331 0.800777 0.504020 -0.424057 -1.536198 0.989757 -0.543727 0.416144 0.851409 -0.081621 0.730944 -0.374789 0.163294 -0.981884 -0.768592 -0.684063 -0.495514 0.968135 -0.919965 0.777397 0.414958 0.782268 1.255774 -2.321558 0.346134 -1.782679 0.012947 -0.254551 -0.322241 -0.648227 -0.329637 1.283168 1.505544 -1.032580 1.533593 0.914236 0.135625 -3.123272 -1.274106 0.733189 -0.355564 -0.542823 0.001750 0.433449 -0.950320 -0.574674 -0.046228 -1.337561 -0.331193 -1.531117 -1.357010 0.715142 0.679456 0.622597 -1.101372 -1.453112 0.493800 -0.972593 0.203941 0.685862 -0.390414 -0.028096 -0.981010 0.086528 -0.979960 -1.100693 -0.326305 0.378106 -0.721156 1.754939 0.901442 0.787505 -0.169087 0.397530 -0.335962 0.106645 -0.441897 0.188845 -0.816960 -0.418274 0.281060 -1.432719 -0.924733 -0.574355 -0.192472 0.498403 -0.197781 0.406745 -0.790334 1.447184 -0.728891 0.155078 0.092680 0.826216 1.260751 1.230397 0.649248 1.876510 -0.614943 0.695597 -0.610051 0.388417 0.188963 -0.753959 0.711785 2.332278 -0.662840 0.480519 1.687975 -0.819319 1.190355 0.097624 0.275190 3.442174 -0.151259 -1.566535 1.267894 -0.280180 0.386670 -1.379380 0.805562 0.271475 1.693406 -0.766800 0.776509 -0.777750 0.191404 -0.557693 -0.282002 0.414434 0.498988 -1.205774 0.680193 -0.821479 0.673958 -1.873029 0.040448 1.391067 0.470536 -0.737388 -1.111765 -1.562413 0.264516 0.232303 
sparse 0.170594 0.026592 0.087399 -3.041545 1.103249 1.356479 0.192558 -0.610918 0.370916 -0.433923 0.551262 0.861174 1.099128 -0.655495 1.085148 -0.317473 0.296029 0.235758 0.499054 0.496499 -0.714385 -1.315012 0.209709 0.367358 0.089039 1.463195 0.609141 -1.728021 -0.056614 0.509730 0.038451 -0.219993 -0.367280 -0.063928 0.485153 0.762844 0.697019 0.747404 0.444602 -0.628444 0.362293 0.129750 -0.997813 -0.298259 1.015829 -0.703143 -1.482644 -0.173249 0.316400 0.048211 0.450627 1.258438 1.415245 1.356397 -1.051130 -0.258078 2.067673 -0.403300 0.208308 0.850212 0.633460 0.677815 0.879090 0.385139 -0.687638 -0.513304 -0.615247 0.574787 0.301414 0.254088 1.439709 -2.163395 0.673656 -0.499992 1.382367 1.137041 -0.451370 0.090539 -0.943980 0.214620 -1.176314 -1.117455 1.885074 0.808070 -0.655670 -0.755564 -0.913561 1.056726 0.827492 0.206911 0.114149 -0.512879 1.333021 0.693884 -0.217092 -1.164009 0.009126 -0.054515 1.887621 -0.165568 0.117044 -0.075168 0.554637 0.624529 0.415955 -0.529067 0.307187 -0.077960 -0.452773 1.003837 1.354441 -0.796994 -0.412127 0.198739 0.148643 -0.901837 -0.826905 0.278582 0.504261 1.001031 1.310116 0.505709 1.141639 -0.368953 -0.506416 0.598737 0.213919 0.550015 0.357204 -0.822614 -0.858753 -1.000553 -0.034448 0.937715 0.379225 -0.240166 0.285346 0.887596 0.097615 1.023573 -0.335264 1.915969 0.938134 0.570529 1.728404 0.736428 -1.113004 -1.944922 0.426126 1.283916 0.465200 -0.296928 -1.525963 0.635456 0.822672 -0.607245 -0.513005 -0.655821 0.114288 1.107247 -0.623688 0.408266 -2.111660 0.296876 0.187491 0.862762 -0.587131 1.512070 -0.590208 1.112166 0.818897 0.371210 0.979444 -1.343772 0.646910 -0.079913 -0.635871 -0.957174 0.608579 2.129959 0.793385 0.000032 2.278572 0.196992 -0.321061 -0.457577 -0.363157 -0.593398 -1.010171 -0.828273 0.643181 0.561568 0.683210 0.602773 -0.670934 0.397014 0.362969 -1.429265 0.402548 -0.622113 
neural_networks -0.349355 0.065827 1.385022 -1.309195 0.766901 -0.086927 -0.671422 0.779084 -0.078468 -1.445959 -0.799185 -0.391768 -1.443657 -0.823713 -1.839064 0.260101 -1.159358 -1.853221 0.278313 -0.624916 -1.989420 -1.519990 0.229311 -1.099982 0.993724 0.668523 -1.414559 -0.067742 -0.636856 0.691423 -1.304396 0.891839 1.103410 0.628513 1.799612 -1.254732 0.559099 1.078931 0.068823 0.642076 -0.804364 0.785685 0.621059 0.730636 -0.992839 0.473571 -0.546431 -1.714764 0.815173 -0.657363 -0.896731 -0.105636 -0.117260 0.646258 -0.640582 0.932014 0.657191 2.719258 0.950449 0.739672 0.325611 0.853314 0.087468 -0.854154 -0.184998 1.059320 0.310216 -0.403029 0.760391 -0.617364 0.811503 0.140879 0.184537 1.056479 -0.219425 2.062561 0.737292 -0.679508 -0.521509 -0.179735 -0.267324 1.044779 -0.866403 -1.095668 1.134579 1.344627 -1.028037 -0.874209 0.852382 -1.431639 0.422182 2.873047 2.159620 -0.144256 0.270220 0.336578 -0.514820 -0.467907 0.898296 0.410906 -0.700364 -0.139526 -1.006060 1.335687 1.400700 0.721640 -0.780886 -1.087698 0.121989 0.569247 -0.312165 0.400591 0.053047 -1.176554 -0.481253 -0.011425 0.259184 -0.258006 -0.361796 0.192406 0.542557 -0.281163 -1.263708 -1.278935 -0.247681 0.455033 -2.288411 -1.013842 -0.270579 -0.911950 -0.928582 -0.598341 0.804089 0.525504 -0.008497 1.522640 0.821171 -0.309538 0.126320 0.255391 -0.303753 0.102200 0.530900 -1.519525 0.374814 -0.000817 -1.238164 1.699837 -1.809700 -0.645179 -0.806015 -1.310438 -0.819012 -0.171334 0.117348 -1.522080 -0.270289 0.342356 -0.874344 0.664417 1.188310 0.832348 1.933139 -0.278721 0.795355 -1.344095 0.517693 1.831395 -0.706262 -1.611732 -1.454417 -0.218301 -0.367216 -0.751984 -0.529641 1.139595 1.689048 0.099888 -0.224336 -0.134404 -0.013668 0.589723 1.260643 -0.555688 -0.676738 -0.630532 0.031019 1.001673 -0.902095 0.758492 0.626362 -0.707061 1.171110 0.093744 -1.576903 0.188040 0.011104 0.317875 -0.397172 -0.190247 
analysis -0.292229 -0.087477 0.229634 -0.038054 0.621870 0.008802 -0.336131 0.406222 -0.420976 1.917578 0.350005 0.046929 -0.413889 -0.210590 0.390948 -0.243843 -1.068558 0.692874 -0.613108 -1.138059 1.349388 0.837412 0.509512 -0.559518 -0.222996 0.900918 0.397315 -0.683299 -1.855650 2.534281 -0.139507 1.239310 0.040804 -0.575464 1.099992 0.240254 -1.808593 0.261325 1.370736 -0.180327 0.697399 -0.958890 0.909298 0.710470 -0.130762 1.498581 -1.342928 -0.690233 -1.969665 0.999702 1.193739 -0.425339 -0.117022 0.870804 1.312714 -0.814292 0.712395 0.940614 -0.657810 1.377680 -0.256277 -0.796211 0.052706 -1.002997 -0.724233 0.479400 1.632199 0.012341 -1.439559 -0.470137 1.810930 0.069118 -0.942813 -0.487673 -1.305738 -0.334957 -2.106989 -1.119511 -0.877677 0.572769 -1.572788 -0.427575 -0.211020 -1.281551 -0.987538 -2.046312 0.385998 0.101223 -0.611642 -0.773220 0.933378 0.259702 -0.305555 0.754376 -0.304751 0.261581 -0.845713 0.814970 1.454647 -0.496415 -0.308394 0.173610 0.343016 -2.160725 -1.598049 -0.439634 -0.464138 -0.308168 -0.554829 0.484951 0.495921 -0.561096 -0.174615 -0.461724 -1.173875 0.782889 -1.809101 0.409391 0.781126 0.624768 0.217159 0.731273 0.684225 0.444517 -0.376229 1.215611 1.060489 1.710109 -0.210898 1.462743 0.800384 -0.270555 -0.718240 -0.483801 -0.334522 -0.103598 0.866816 -1.197412 -0.684861 1.909148 -1.094395 -0.926474 0.773040 -1.710147 0.411904 1.344621 1.232316 -0.792077 -0.750764 -0.093881 0.721480 -1.128837 -0.638498 -0.209985 -0.639612 -0.194287 -0.087476 -0.225199 -0.845000 0.496557 0.153081 -0.491081 1.313254 1.132813 1.227271 1.080449 -0.261398 0.988956 1.215186 0.095082 -1.287276 -0.982954 -0.541695 -0.330994 -0.009134 0.807450 0.289468 1.090899 0.395134 -0.177122 -0.345079 0.769736 0.826239 0.070006 -0.938920 -1.356444 0.523376 -0.023164 0.113875 0.323074 -0.159310 -1.835523 -0.321120 -1.655003 0.062262 -0.075559 1.522091 0.046136 0.071459 -1.230964 
classification 1.413461 -0.792390 -1.712765 -0.222645 -0.813884 0.932718 -0.660030 -0.283283 -0.239290 -2.316441 -0.205828 -0.430156 -0.330814 1.016485 -1.101399 -1.407442 0.323328 -1.059363 0.873238 -0.362864 1.201581 -1.131244 -0.629093 -0.892983 -0.190693 0.208257 0.044233 -1.653159 -2.526826 1.234126 -0.924475 0.904982 -0.306096 -0.179527 0.385294 -0.597035 0.951764 -0.516986 -0.990042 -0.593445 -0.686703 -0.706291 -0.643212 -1.252397 1.155411 0.147645 -0.561159 -0.016891 -0.953272 0.330413 1.269738 -0.163081 0.802643 -0.607942 -0.347762 -0.866932 0.488553 0.043094 -1.629121 -1.018760 0.119761 -1.389475 0.401132 1.346537 -0.184632 1.414749 -0.199285 -0.067340 -0.498259 -0.368959 -0.592228 -2.065088 0.664652 0.371427 -0.165110 0.089148 1.976347 2.635903 -1.983657 0.351130 0.934064 -0.568906 0.473496 0.329778 0.545092 0.538971 -0.144135 -0.571221 0.822089 -0.227223 1.642795 1.191888 -0.242778 0.822959 -0.537282 -1.079512 -1.390435 1.580363 1.476550 2.045683 -0.280599 0.360744 0.294456 1.056219 -1.184284 -1.933397 0.096988 -0.944740 -1.311475 -1.915793 -0.114113 -0.346828 -0.763445 -0.619846 -0.039189 0.421566 1.099406 0.698113 1.061815 -1.090601 -0.774685 -0.423503 -0.636260 -0.226172 -0.348676 -1.228525 0.460856 0.692862 1.337501 0.052737 0.630649 -0.041947 -0.399723 -0.647793 -0.048423 1.010609 -0.030184 -0.582388 -0.562301 1.126318 -1.018456 0.695461 0.740869 0.279209 0.113955 -0.393057 1.755160 0.801375 0.444770 1.287349 -1.165579 -0.134245 -0.778796 -0.561180 0.523796 -1.393225 0.294313 -0.375312 -0.968280 0.705056 -0.550929 1.558257 0.538241 -0.557277 -0.771887 -0.983197 0.832504 -0.502526 0.429075 -0.513657 0.525517 -0.302195 0.256088 0.076786 -2.516432 -1.230127 0.075598 2.009105 -0.373849 0.901979 -0.148457 1.735083 0.430051 -0.171051 -1.758643 -0.726646 0.975973 0.793886 -1.781955 0.714926 0.534835 -1.617554 -0.499038 -0.082269 -1.017604 0.194030 -1.259477 -0.442518 0.044879 0.620843 
estimation 0.440483 1.588549 -0.070577 0.589656 -0.124320 -0.968995 0.930984 -0.033372 -0.553171 -1.561518 -0.530279 -0.601592 0.016863 0.686395 -1.506116 -0.059905 0.382006 -3.381416 0.380206 0.705946 0.147514 0.005933 -2.291139 -0.495758 -1.320692 1.316515 1.675063 -2.322277 -2.333930 0.233604 -0.608409 0.326182 0.787703 -0.275716 0.375687 0.106474 0.726204 0.740785 -0.726961 -0.458839 0.212666 -1.595442 0.392562 -0.845467 0.659445 0.719246 -0.075534 -0.860910 -0.846137 0.653063 0.878697 -0.531533 -0.186359 0.667810 -1.008320 0.262601 0.788858 1.676724 0.420254 -2.080527 -0.158995 -1.249169 0.814481 -1.656406 0.047971 1.233201 0.430976 -0.653322 -0.138685 1.008632 0.414887 -0.160421 -0.154534 -0.408680 0.276481 -1.048471 -0.119251 -0.301983 3.286565 -1.293624 -0.167824 -1.281696 0.313426 1.021536 -1.686183 -0.297984 1.169032 0.171044 -0.200476 0.197337 0.672301 -0.005897 0.310158 -1.343564 0.481310 0.218813 -0.834581 0.232409 0.042274 -0.933039 -0.442957 -2.404555 -1.476540 -0.061268 -1.681729 0.162648 -2.119196 -1.218397 -0.298207 -0.266065 -1.298144 0.604317 -0.430066 -1.745594 0.385423 0.035087 1.658279 0.022613 -0.162513 0.497170 1.600130 0.368374 -2.142128 0.405763 0.718984 0.751790 1.449753 -1.337936 2.134453 -1.489992 0.332647 -1.521204 -1.382403 -1.171196 1.686196 1.240146 1.240491 -0.258265 0.424378 -0.606145 0.770303 -0.983436 0.007939 0.979297 0.083251 -0.289225 -0.893541 1.161272 -0.995906 1.152410 -0.339396 0.068928 -0.254438 -0.995214 -1.102457 0.031505 -1.010341 -0.894921 0.153743 -0.556644 1.189453 0.364877 -0.970247 1.348461 2.498478 0.197936 -0.433995 0.622564 -0.204963 0.893040 -1.810061 1.022589 -0.477083 -0.499117 -3.027242 2.279766 -0.341782 1.243186 -0.674078 -0.352844 -1.032239 2.167134 -0.783839 1.886085 0.646568 -0.609817 1.349007 -0.254092 -1.891466 1.226440 -0.388202 -0.094031 0.865329 1.070074 0.153389 -0.251035 1.354823 -0.055229 0.526277 0.106417 
bayesian 0.175446 -1.061266 0.180913 0.860569 -0.374379 0.672889 -0.183586 0.341237 -0.945027 1.517169 1.899710 -0.686513 0.805347 0.792965 -0.402406 0.191839 -0.440644 -0.112643 1.165648 -0.084930 1.045021 -0.249416 -1.391772 -1.245101 -0.327856 0.278395 -0.277974 -0.205456 -1.143728 0.541634 0.029755 0.577335 -0.949305 0.535712 -0.145346 0.467347 0.301577 -1.931038 -0.485987 -0.865212 1.189470 -0.375568 0.091593 0.303441 -0.523804 1.635568 -0.951886 0.460702 -0.265296 0.541915 0.181033 -0.731790 0.089924 -0.180384 1.029215 -0.329537 1.390038 -1.305813 0.591061 -0.859344 1.266966 -0.548065 0.702515 0.201770 -1.125331 1.128106 0.040405 -0.007192 0.133481 -1.724158 -0.067402 0.808751 0.081192 0.115866 -1.493428 -1.005516 0.004514 0.872266 0.591335 -0.708597 -0.266199 -1.349925 0.525809 -0.625653 1.103859 0.195255 0.244669 -0.467186 -0.690653 -1.520815 0.054112 -0.804890 -1.255450 -0.515969 0.980555 -1.522393 -0.681495 0.173126 -0.523544 0.293461 -0.133145 1.323974 0.499299 -1.310213 -1.670170 0.296852 0.654578 0.644353 0.058143 0.627830 0.776601 -0.507402 -0.875839 2.384238 0.531234 -2.978662 -0.416484 -0.162347 -1.121535 0.007586 -0.501749 0.985508 -0.021754 0.187782 1.434547 0.679899 0.100985 -0.447989 -0.938889 0.923476 -1.669244 0.456163 0.769809 -0.404747 1.071432 0.271744 -0.298145 -0.631974 0.924024 0.832403 -0.260167 0.365905 -1.540995 0.328083 -0.003028 -0.204531 -1.522706 0.269335 -0.620099 -0.552997 0.548351 -2.056692 0.278963 1.214696 -0.590163 -1.047314 0.448293 -0.621711 1.962383 0.772654 0.264719 1.100619 -0.601943 2.157491 0.954526 0.828960 1.119983 0.030405 0.244965 0.297033 -1.119942 -0.955064 -0.209159 -0.299175 -0.616946 -0.128329 -1.606418 1.298394 0.266514 0.113056 1.765604 1.542048 0.361040 -0.933391 0.286261 0.606781 -0.907200 0.945996 0.262146 -1.260596 1.046766 0.392150 0.541369 -0.820974 -0.088940 1.576266 -1.348679 1.105624 -0.124632 -1.338265 
optimization -1.118559 -1.790813 -0.562167 1.046822 0.439354 0.093035 -1.603247 1.196280 -0.484042 0.711483 -0.962039 -0.492069 0.801296 0.311100 -0.830620 -0.358210 -0.173550 -2.033528 1.006088 0.834647 -0.311982 0.547970 -0.786970 0.477233 -0.412725 0.422287 -0.357212 -0.614709 0.142394 1.043004 -1.001539 1.486410 1.926783 -0.151704 0.872325 -1.657087 -0.481673 -0.274643 1.078801 -0.131763 1.524357 0.140682 0.631824 0.885370 0.068835 0.317300 -1.270735 -1.145395 -0.340636 -0.855216 1.608264 -0.516974 -0.938350 -0.597917 0.273625 -0.402486 -0.888627 1.204908 -1.826704 0.508510 1.081203 0.115116 -2.116743 0.334681 -0.761746 0.379746 -2.252501 -1.353449 -0.902190 1.264896 0.208244 -0.540432 -0.659127 0.419594 -0.230160 -0.639674 1.037562 -1.523290 0.548590 1.891394 0.974397 1.614160 0.304232 -0.510968 -1.095782 -0.137126 -0.566265 -0.562477 0.894089 0.252649 -0.348129 0.439437 0.652622 -0.402175 0.758458 1.512877 -2.042459 -0.406419 0.584125 -1.485816 -0.977218 -0.736977 -1.186797 -1.868747 -0.610362 0.647595 -0.196691 -0.441477 0.356044 1.354629 -0.722231 0.163602 -1.047661 0.070281 -0.451823 1.255482 -0.748378 -1.691560 0.415823 0.595123 2.683289 -1.125360 -2.279360 -0.190080 0.198805 0.703311 0.426883 0.810132 1.671273 -0.073559 0.996636 1.343086 -0.034689 1.185076 -0.587978 -0.069215 -1.113151 0.324184 -2.024738 0.030647 1.133940 0.568827 1.304416 -0.891152 -0.709283 -0.230961 -1.422430 0.098506 -0.095470 0.461746 -1.773381 -0.039791 1.198809 0.536443 -1.028010 1.148114 -1.904381 -2.476094 -0.818842 0.084275 -1.005506 0.070552 0.711891 -1.346955 0.623344 -0.040824 1.537171 0.065116 -0.439703 -0.463789 -0.863112 -0.257148 0.819920 -1.427218 -0.164955 0.031640 -0.467285 0.457078 -0.496792 -1.155099 -1.910748 -1.184800 0.932874 0.289841 -1.691777 -0.493144 -1.926061 -1.334999 -1.505978 -1.384163 -0.694270 -0.936900 0.619382 0.310978 -0.366592 0.005819 1.252912 1.504041 -0.172651 0.071345 
efficient 0.400338 -0.466411 0.510992 -0.715531 0.858028 -3.338887 -1.605377 -1.105463 -0.481215 0.113442 -0.735768 -0.263078 1.970726 -0.843175 0.144136 -0.354452 0.172285 0.984442 0.914175 1.031108 -0.075413 0.182790 1.429676 0.412547 -0.214495 0.946535 1.324452 0.435451 1.506056 1.668435 -0.066548 0.904413 0.107120 -1.640912 0.949293 -1.376323 -0.469902 0.869777 1.032188 -0.700660 -0.866356 -1.583669 0.936111 1.749349 0.476885 -0.331668 0.411957 1.166203 -1.125276 0.014993 1.665301 -1.597950 2.347291 0.135713 1.488934 -0.347529 -0.013265 -0.680987 0.113787 -0.846715 -0.735738 0.603445 0.380199 -0.584073 0.376299 -0.315914 0.869141 0.913000 -0.544999 -0.107311 -0.818108 -0.455786 -2.570624 -0.749919 -1.452716 -0.366566 -0.272008 -1.304889 -0.273099 -0.091555 0.037410 0.306552 1.191953 1.029899 -1.128076 -1.773845 -0.544714 -0.490130 0.286872 -2.549223 -0.774901 0.022038 0.403417 0.678043 1.081362 -1.702448 -0.841160 1.454034 -0.507650 1.206041 -0.503050 1.467964 1.933246 -1.000191 -1.602347 -1.340900 1.426373 -1.646471 0.272845 0.581925 1.160784 -0.178422 -1.360402 1.916118 -2.201649 -0.171903 -0.174886 -1.095477 -0.352016 2.217145 -0.942310 0.264775 1.794975 -1.454682 0.117310 -0.958189 1.410711 1.140599 1.024092 0.822036 -0.165876 -0.202821 -1.159096 -1.273803 0.097307 0.354744 -0.154121 0.078729 0.306872 0.638507 0.187014 0.203009 -0.844506 0.365800 0.962141 -0.467858 -0.837674 -0.513490 -0.428094 -0.246946 1.730798 1.393492 -0.247161 -0.120376 0.420563 0.660235 -0.701752 -2.025360 0.836491 -0.308407 1.275120 0.241097 -2.007188 -0.798622 0.486921 -0.684292 -0.099125 -0.859693 0.486969 -1.102005 -0.394998 0.266789 0.030361 -0.214416 -0.397897 -2.295198 -0.413717 1.323242 -0.623951 2.168664 -0.027499 -0.196304 -0.308871 1.332654 0.776430 -0.769072 -0.046486 -0.518292 0.405994 -0.382727 0.179566 -0.412777 -0.184789 -0.905898 0.077908 -1.042145 0.884883 0.274497 -0.277002 -1.351018 
visual 1.984696 -1.612196 0.729393 -0.384689 -0.262578 -0.839510 -0.404626 -1.193222 1.214820 0.110146 -0.657348 -0.410547 -0.355249 -0.471602 1.250166 -1.547185 -1.331997 -0.652911 0.256854 0.780437 0.066869 0.335246 -0.720689 -0.154180 -1.338351 0.007048 -1.741228 0.088654 -0.264354 -0.171275 -1.294789 0.115619 0.218466 -3.355493 -0.235968 -1.402998 -0.716385 -1.453926 -0.594524 0.933718 2.205191 1.244381 -1.201525 -0.073798 0.354626 0.086927 0.598491 -0.619228 -0.457976 -0.206174 1.281912 1.335353 -2.049735 -1.126905 1.226709 1.625800 -0.629815 -0.379369 -1.076027 -0.924698 0.310509 -1.374113 -1.193520 -2.136485 -0.126942 0.950669 -0.036261 1.106081 -0.240815 -0.235716 1.471746 -0.050566 -1.004933 -0.855285 1.008082 -0.370755 0.773198 -1.106446 0.067589 -1.541408 -0.158769 0.933617 -1.694420 -0.682562 1.204183 1.302341 -1.090800 0.128612 0.351352 -0.709131 -0.940854 -0.984104 -0.389117 0.180179 -1.998456 -0.909536 -0.102732 0.043360 -0.296541 -2.200507 1.835521 -1.487400 1.368696 1.005665 -0.169717 2.948030 0.894865 -0.069210 -0.676094 -0.325148 1.003443 0.608068 -0.887381 -1.661638 0.701936 -1.042697 -0.878958 -0.835547 1.739526 -1.678543 0.318349 -1.064128 0.468106 1.611906 -1.154965 0.517346 0.800298 -0.744974 -0.782965 -1.740316 0.025953 0.018832 -0.325540 0.835855 -1.268443 -1.318748 0.045612 -2.553104 0.592914 -1.320671 -0.725066 0.156717 -0.900131 -0.397313 -0.221560 -0.272962 -0.592413 -0.792106 0.105757 -1.014505 -0.672533 -0.823761 0.141117 1.424025 -1.136237 -1.776384 0.760794 -0.540001 -0.285393 2.058958 0.947409 1.191266 -0.390222 -0.994875 0.044583 1.873429 -0.623939 -0.780888 0.749885 -0.469048 -0.828734 0.980727 0.605373 0.101490 -1.240132 -0.675404 -0.470174 0.531522 -0.251733 -0.850279 0.117124 0.152758 -0.617989 -0.619943 0.924324 0.298845 -0.051951 1.106428 1.959004 -1.479533 0.563579 1.943668 -0.103805 0.367460 -1.241962 -0.588945 -2.896260 1.144094 -0.880021 1.052032 
algorithms 0.046382 -0.235351 2.235099 -1.585885 -1.341614 1.231669 0.584185 -0.394924 -1.031213 -0.329234 -0.151158 -2.807941 0.398934 -0.271345 0.160352 -1.026799 2.353261 1.084531 0.073112 -0.030007 0.511967 -1.033905 -1.438959 -2.030266 -1.112223 0.763924 0.105734 0.198312 0.669652 0.092131 -0.404441 -2.310709 -1.255251 -0.297629 -0.705152 -1.292254 -0.134450 0.338946 0.244685 -1.611182 0.438269 -1.422601 -0.977614 -0.511020 0.006513 0.574454 0.732600 0.514569 0.360270 -0.635601 0.032032 -0.193387 1.423969 1.445130 0.683541 -1.546512 1.430158 -0.164475 1.207939 -0.078116 0.547138 -0.076253 -1.062513 0.744763 -0.846874 -0.125806 -0.215851 -0.662193 0.148516 0.634105 -0.719618 -1.428625 1.150736 0.217051 -0.814610 0.734681 0.579403 0.081644 -2.127003 0.481539 -0.055544 0.293199 1.237320 0.387443 -0.682288 -2.438270 -0.144432 -1.187059 0.000355 3.649036 -0.998090 -0.606649 0.052598 -1.973855 -0.598532 0.800093 0.222890 -1.783182 -0.644323 0.944034 -0.788780 -0.053767 -1.073517 0.381102 -0.133058 -0.993763 0.326465 1.413103 0.294574 -0.170921 0.288482 0.268734 0.459675 -0.838843 1.553050 0.949612 0.874520 0.970698 1.457729 0.596797 -0.025205 0.020345 -0.053862 0.578274 -0.306137 -0.130099 -0.716897 0.684030 1.305572 0.438481 -1.031231 -0.283121 0.868666 0.416639 -0.201257 0.536604 0.063056 -0.810815 -0.952445 0.536467 0.245506 0.102985 2.317938 1.790713 -0.587220 0.193521 -0.047231 -0.014619 0.859421 1.103838 -0.704739 -0.998923 0.379741 0.455474 -0.578518 0.436664 1.658575 0.527525 0.521511 -2.531955 -1.794759 -1.165215 0.115695 0.683365 0.583288 -0.371831 1.471587 0.108874 1.127203 -0.621229 -2.363591 -2.237471 -0.197710 0.643985 0.405831 0.812080 0.118980 -0.288430 -1.418980 -1.219996 1.475595 0.050948 0.125954 -0.768996 -0.880282 1.296628 -0.614270 1.000373 -1.437096 -0.945283 -0.748636 -1.735076 0.646835 -0.509096 0.116672 0.729292 0.605299 -0.232023 -0.111705 2.567421 
algorithm -1.886849 -0.787220 1.045440 -0.187351 -1.697979 0.121147 0.117742 0.314086 -0.218858 -0.515883 -1.011825 -0.995679 -0.454400 1.953162 0.637498 1.233143 1.880042 3.177447 -0.329230 2.035991 0.106523 2.500822 -0.275818 -2.081150 0.908023 -1.040263 -1.691405 -0.203728 0.365491 0.724212 2.075603 -1.599746 -0.088926 1.336199 -0.637318 -0.068413 -2.435745 0.823728 0.402319 -1.153015 1.950604 -2.793549 0.797279 -0.113966 0.419264 0.171566 -0.642994 -0.467319 0.513841 -0.316294 -0.306169 -0.870467 1.645322 -0.919662 0.869933 -1.329557 0.743541 -0.353741 1.006383 -0.002413 -1.258481 -1.099934 -1.583204 0.902763 -2.213957 1.437469 0.998851 0.560670 0.424544 -0.777743 -1.477243 -1.215098 0.236654 2.465438 0.385139 1.348503 -0.053306 1.305284 -1.110441 -0.792267 1.899014 0.431883 -0.638779 -0.091323 0.477577 -0.258416 -0.362877 -0.709106 -0.011692 1.712639 -1.642222 0.982541 0.369221 0.598740 0.341142 -2.103870 1.318526 -1.224915 -0.185003 0.332425 -0.244466 -0.230462 -0.625125 -0.173420 -0.242047 -0.038920 0.547031 0.836313 1.056164 0.016131 -0.359840 -1.667879 0.156125 -0.096122 0.883537 -0.095352 0.921657 1.542713 -0.297269 1.151691 1.127389 1.042772 -0.324952 1.354954 -1.669459 1.624000 -0.477276 -0.171583 1.829145 -2.426176 0.173933 0.894919 0.975110 -0.652290 2.499289 1.325716 1.043047 -0.845839 -1.585431 1.792443 -0.007104 -1.583354 2.310464 0.113355 -1.974460 1.287500 0.481469 -1.048128 -0.043740 0.757059 -0.196315 0.131629 -0.155057 -0.925674 -1.656017 0.841495 -0.547521 -2.309944 -0.272053 -1.283182 -0.153060 -0.690368 -1.489121 0.929996 -1.180411 -1.514606 0.807553 1.451661 -0.094249 -0.575483 -2.326046 -0.906255 0.534521 1.304596 -0.582178 -0.385809 -0.335349 1.557688 -0.753790 0.051258 1.401433 -0.357022 -0.076553 1.631952 2.462986 -1.009701 -0.107505 -0.050735 -0.199951 -0.243948 -1.099627 0.016049 1.901577 -0.035227 0.604168 0.452361 -1.367669 0.870288 -0.610536 -1.887612 
fast 1.049656 -2.351256 0.169262 -0.091619 0.323758 -1.105125 -1.646723 -0.575284 -1.200193 0.601536 0.580157 0.877044 2.654360 0.691339 -0.625562 -0.530705 0.455754 0.204618 0.489370 1.838723 2.570400 1.450800 -0.228485 1.331896 0.316796 2.437413 1.545179 -1.349125 -0.339374 2.003522 0.250753 0.400986 -0.899215 0.478969 0.358580 0.733218 -0.675222 -1.036613 -0.643048 -0.545725 -0.980972 0.558786 1.516749 -0.953987 0.510431 1.430124 1.021518 1.243550 -0.999783 2.094415 0.598195 -1.440296 -0.804651 -0.794740 0.552692 0.080351 -0.246652 1.597094 0.062299 -1.544375 0.579566 -0.806044 -0.204409 1.981493 0.008288 -0.002809 0.808509 -0.261396 -0.391108 -1.142837 -0.506312 -0.794076 -0.816382 0.256946 0.583484 1.102615 -0.883375 0.462104 -1.256931 0.763380 -0.653312 -1.358338 0.947186 -0.935153 1.577423 -0.063099 -0.840827 -0.065741 -0.734967 -1.034745 0.655720 -0.159389 -0.500729 -0.075276 -0.867405 -0.295263 -0.120859 -0.156312 -1.508824 0.113963 -1.743259 1.657201 1.188835 -0.168554 1.013149 -1.430299 0.381283 -0.348330 1.581608 0.295672 -0.853861 -1.007125 0.714019 -0.217455 -1.210715 -0.965601 0.624937 -0.561559 1.924560 2.317754 1.012361 -1.264607 -0.684803 -0.344470 1.564788 0.592909 0.938921 1.618662 -1.472506 1.200418 -0.055590 0.320477 -2.483469 -0.035657 1.441507 -1.133584 0.935776 1.159204 0.614946 -1.883452 0.741492 0.218617 -0.634282 0.850698 -0.731457 1.883102 -0.535013 -0.525580 0.981965 0.963243 1.524618 -0.150620 -1.378600 -0.961554 0.829210 -0.742271 -0.496925 -0.772925 0.116440 1.131536 0.854065 -1.108930 -0.400995 -0.038661 0.439688 0.588923 1.133244 -1.384877 -0.515596 -2.694690 0.693933 1.356724 0.339617 -1.089713 0.949868 -1.546207 1.411376 0.933156 0.334650 1.181274 -0.854799 1.705885 0.826053 0.960616 -0.805513 1.102788 -0.750604 -0.650598 -0.062366 0.117115 -1.536993 0.838431 0.724335 2.182110 1.061431 0.132325 1.804434 1.253440 1.190088 -0.202395 
inference 0.976853 0.272012 -0.247783 -0.445097 1.126667 2.193854 -1.332741 0.469823 -0.658573 -1.678984 -1.255883 -0.942225 2.655747 1.932584 -0.823621 -0.011770 -0.230739 -0.894610 -0.916945 -0.749837 -0.230742 -1.848091 0.065250 1.817955 -0.590556 -0.807518 1.064552 -2.193207 -1.389115 2.143133 -0.201921 -0.604463 2.251609 -1.272389 0.710676 -0.140193 -0.897661 0.429516 -1.669519 -0.662191 -0.405750 -2.187188 -0.257611 1.312622 0.885602 1.288538 0.572641 -1.402139 -0.653568 -0.619367 -0.501439 1.177001 -0.662647 -0.184299 -0.443483 -1.187501 -0.156886 1.029845 0.727277 -0.244306 1.000819 -0.262911 -0.187015 -1.821322 1.356253 0.501536 -0.123952 -0.466958 0.828787 -0.597038 -0.009763 -1.339795 1.251004 -1.594993 0.581281 1.005005 0.754798 -1.210270 0.717058 -1.049587 -1.070630 0.311784 1.466704 -0.273858 -1.201784 0.745540 0.065623 1.322529 -0.602207 -0.339208 0.503847 0.725510 -0.240967 -2.377720 0.994568 -0.303658 1.324184 0.420379 1.724745 0.743698 -0.254991 -1.414840 -1.949577 0.321966 -1.228131 0.517831 -0.623971 -0.086700 -0.207601 1.612836 -0.660254 -2.007541 -1.108467 -0.418874 1.635857 -0.848262 1.283009 0.464795 0.166478 -1.833506 0.728528 -1.029860 -0.282014 0.095923 -0.314886 0.152022 -1.041751 0.202882 1.302871 -0.109820 0.657317 -0.653125 -1.156839 0.531386 0.153697 0.735097 0.016739 -1.265098 -2.012912 1.747155 -2.062116 -0.225915 1.451593 0.861486 -1.313908 2.031066 -1.126783 0.180799 -0.420860 -1.039358 -0.113856 -0.851549 -0.715355 -0.304938 -0.744300 0.062067 2.720178 -0.420771 -0.592205 -0.357072 -0.985718 -1.455424 0.848822 -1.119047 1.731357 -0.627326 1.265952 -1.862954 -0.482332 2.633903 -0.848930 -1.160882 -0.165088 0.289353 0.412591 0.716913 -0.484778 -0.617050 1.004458 -0.309172 0.663943 0.369258 0.169224 -0.640527 0.360077 0.707170 -0.393514 0.330583 -2.110323 0.715892 0.077266 -0.253354 0.807012 -0.719283 0.907159 1.256457 -0.880430 0.765265 -0.153431 -0.249823 
adaptive 0.252392 0.058210 -0.473377 -0.741217 0.204064 -0.640252 -0.386838 -0.852196 -1.152323 -1.968618 0.570779 -0.660254 -0.125703 1.326501 -0.645364 0.674724 1.750751 -0.573189 0.732627 1.151308 0.981927 1.826528 -0.533474 -2.037559 -0.800090 0.586349 0.409578 0.234453 1.522808 1.049534 -1.095285 -0.735756 -1.233235 -0.368980 1.139225 -1.662777 0.242752 -1.019477 0.624119 -0.182451 0.641924 -0.982318 -0.483550 -0.337148 -0.789978 -0.366459 0.022463 -2.212770 -0.085910 -1.408706 -0.101638 -0.113518 1.167606 0.208226 0.628393 -0.999247 1.686471 0.629107 0.983581 -1.871406 0.338295 -0.541294 0.431406 -1.686560 -1.746784 -1.137309 -1.575941 -0.910054 1.066670 0.425176 0.326199 0.539073 0.322752 -0.816931 -0.918520 -0.795718 0.532310 -1.042635 1.427182 0.091261 -0.144285 -0.087492 0.528125 2.195237 1.430720 -0.101839 -0.334972 0.634383 -0.612625 -2.261659 0.709402 -1.245730 -0.626413 -0.551223 0.321062 -0.169838 -0.063014 1.169586 0.464789 0.306796 -0.455147 0.373951 -0.252370 -0.695519 0.581131 -0.679450 0.176907 -0.336019 -0.279891 0.507932 0.892140 0.729585 -0.961329 0.859540 -1.512241 0.368782 1.890739 -1.310372 0.401239 0.834806 -0.550330 0.334791 0.472999 -0.528870 -0.083514 0.173223 0.862162 2.474522 0.014250 0.843886 0.955243 -0.095701 1.097523 -0.077620 1.327362 -0.055987 -1.304592 1.730803 2.526025 -1.682271 1.139612 0.281929 1.014802 -1.122771 1.581530 -0.212489 -0.101579 -0.941484 0.870810 -0.437568 -0.561118 -1.559488 0.947773 0.334022 0.966314 -0.417416 0.412565 2.132193 -0.695464 0.382206 1.079206 0.888430 -1.900087 -0.078823 -0.733477 -0.352409 -1.145073 -0.786284 0.566694 -0.426544 -1.823618 0.349830 1.506806 -0.226528 2.061097 1.164495 -0.236154 -0.852510 -2.595290 1.249603 0.687845 -0.625962 0.398528 1.567128 0.691938 0.191474 0.243125 -1.580682 0.934974 -0.542130 -1.027933 1.761952 -0.757338 0.544040 0.430637 -0.063229 0.135682 -0.439403 0.264604 0.181146 
optimal -0.600630 0.272747 2.880286 -1.393694 0.011178 -0.936194 0.111204 0.557172 -0.881097 -1.707571 -0.055476 0.115885 -0.912444 0.102012 -0.419726 1.520254 -1.149793 1.495564 0.807488 -0.414413 0.094357 2.182560 1.684530 0.704868 -0.545325 2.750487 3.425148 0.269780 0.649641 0.559115 -1.377610 0.084744 1.403730 0.096063 -0.276987 -0.595059 0.884826 0.202553 -1.278738 -1.064997 -0.255017 0.412304 0.703302 -1.427681 -1.343987 -2.129358 0.091631 -0.213037 -0.720847 1.128592 1.592427 -0.540421 1.437023 0.067198 -1.293687 -0.746907 -0.284093 0.833484 0.559954 0.452364 0.200456 -0.701363 1.433739 -1.183872 0.896814 -1.415331 0.502780 -0.566707 0.397612 -1.385029 -2.509293 0.677194 -0.564581 -1.421293 0.989355 -0.760291 -0.012569 -1.421836 -1.116568 0.374633 1.038837 -1.418907 -1.945608 -0.360162 -0.624484 -0.729202 0.776583 0.474447 0.774923 -0.582165 -2.017727 -0.440970 -0.224234 -1.516161 -0.323862 1.702649 -1.118533 1.452034 0.648852 -1.038149 -0.007980 0.133287 0.134713 -0.715598 -0.017189 -0.276793 1.750061 0.065844 -0.212293 0.475945 2.247036 -0.147680 -0.112314 1.740877 0.049176 -1.842330 -0.366999 -0.936097 -1.061625 1.114702 -1.136016 1.158719 0.351353 0.483716 1.642867 -1.281231 0.463295 0.271137 -1.556534 -0.496052 2.330325 -2.185064 -0.106606 0.785160 0.870336 0.238773 1.090946 -1.619153 1.456084 -0.953244 -0.197916 0.854712 -1.392866 0.150227 -0.162484 0.006656 -1.125724 -0.951513 1.028583 -0.423927 -0.928804 2.013483 -0.729342 1.630116 -0.575030 0.076198 -0.068495 -0.192124 0.334121 1.407632 -0.389820 -0.537030 -1.399733 -1.858919 -1.041418 1.574516 0.526143 -1.838318 0.072048 0.023267 -1.311739 -0.380173 0.020684 0.264818 0.250289 -2.579694 0.204146 0.313955 1.507459 -0.663666 -0.344784 0.953682 -1.417074 1.019345 0.878466 0.499757 1.019867 0.479059 -0.086300 -0.755234 0.865753 0.362377 0.033833 -0.635511 -1.400867 -1.255313 0.814419 -1.423705 -0.717797 -1.356565 
approach 1.244470 -0.682379 0.657650 1.489665 -0.733126 -1.289780 -0.982116 -0.100056 -1.080929 0.055590 0.495036 1.374282 -0.376515 1.259910 1.642402 -0.545101 -0.096961 1.437776 -0.969827 -1.485957 -1.028442 -0.491995 0.046916 0.560184 -2.209774 -2.891763 -1.301684 1.059088 1.261890 -0.704181 0.745787 0.195141 -0.823753 0.643273 -1.060877 -0.925614 0.745757 1.479579 1.328817 -1.524997 -1.514961 0.651378 -1.341211 -2.808710 -1.534308 -0.203193 -3.185757 0.700906 -1.535020 -0.999578 -0.293915 1.987652 1.166968 1.905514 -0.164180 -1.486876 -1.876653 -0.326184 0.585516 0.267787 -1.016414 -1.522172 -3.035791 1.803078 -2.613477 -0.330901 0.826096 0.539783 -0.485232 -0.002809 0.596374 -2.625488 0.333373 1.115273 -1.664477 1.100456 1.262934 -2.396603 -0.682475 -0.121234 1.195194 -0.587355 0.343617 0.447796 0.610197 1.650939 0.142608 -2.433829 -1.778922 -0.184438 -0.771592 0.243376 -0.320020 -1.385668 1.994925 0.233286 1.186791 0.288503 0.121816 -0.140218 0.823942 1.768427 -0.721772 -0.290000 0.110979 -1.374558 -0.761493 0.323925 -1.681113 1.082607 1.762283 0.583395 3.297958 0.583256 1.010320 -0.701008 -0.902195 1.784246 0.647984 -0.025782 -0.076364 -0.700542 -2.705105 0.750641 -0.848335 1.608449 1.690342 -0.934882 -0.918230 -3.406177 0.677764 -1.254673 0.395840 -1.258875 1.352496 -1.217967 1.535999 -0.612118 0.951024 0.607249 0.126190 -0.913365 0.471273 1.311519 0.713169 -1.471323 2.158386 -0.810212 2.286292 0.480446 1.028343 1.086699 1.861599 -1.003909 -0.544471 -0.791708 0.404028 -0.478873 0.934356 -1.912287 0.126972 0.838416 -0.300824 1.351525 -0.659289 -1.439966 0.734138 0.387570 -1.745743 0.281864 -0.006229 -3.448884 -1.769940 1.054896 -0.302012 1.101519 -1.799263 -1.587713 0.689742 -1.355441 -0.340933 -2.379912 -0.799864 1.526080 -0.393797 -0.830841 -0.935000 -0.660650 -0.977513 1.526104 1.266445 -0.908576 -0.476128 -1.882289 0.705127 1.501186 -0.889358 1.191322 1.097314 0.964702 
stochastic 0.859183 1.335061 0.479416 1.015249 0.140501 0.565617 0.189594 0.604812 -0.236883 -1.388062 0.658287 0.006481 2.309379 0.938726 -0.959619 1.760441 0.166387 0.248346 -0.397047 0.616823 -0.339443 -0.385771 -1.990890 -1.591440 1.502172 0.772143 1.913671 -1.160586 -0.475256 0.231176 -0.575187 0.201565 -1.339258 -1.512174 -0.307617 0.652007 1.128154 0.381320 -0.870977 -1.199957 -0.433368 -0.943074 0.709766 -0.828203 -0.837637 1.059655 -1.304828 1.062203 -1.644083 0.192467 -2.544188 0.261529 0.809730 -1.127828 -0.317546 -0.177542 -1.783410 -1.209838 -0.539025 0.455600 -1.811859 -0.050270 -0.697140 -1.079308 -1.241189 1.380913 1.429412 -0.646942 -0.809079 -2.590831 0.595219 1.089392 0.375120 0.723389 -0.454225 0.352966 1.759578 0.640070 -1.076816 1.636591 0.352818 0.805757 0.976315 0.593933 -0.329472 0.217183 -0.341819 -1.177407 1.143323 -0.756420 0.165645 -0.651454 -0.121954 -0.402434 0.967098 0.658126 -1.536004 0.247249 0.724474 0.710940 -2.018751 0.786596 -0.458433 -0.376633 1.233681 0.998161 -1.460406 -1.615368 0.821263 0.879553 0.972695 -0.050590 -1.434658 1.193791 -2.362320 1.042996 2.683286 -0.069678 -0.529428 -1.113422 -1.798764 -1.120861 -0.646860 -1.782193 0.223864 0.986794 -0.566108 0.118836 0.632502 0.621574 -1.207111 1.400356 0.787988 0.108453 1.124916 0.110385 0.571194 0.484558 2.256476 1.462556 0.159843 -0.605586 0.277143 1.670483 1.849904 -0.949773 0.194682 0.863595 0.133211 0.132003 -0.254288 -2.281942 -1.508962 0.808542 -0.088112 -0.077964 -1.062461 -0.508924 -1.317155 -0.489442 0.822071 0.037004 0.263756 -1.320205 -1.550074 1.051554 1.345717 -0.311863 1.226766 1.016240 0.038401 1.236969 -0.569616 -0.572236 -1.405686 0.221338 0.028093 0.292086 0.251396 0.418848 0.915599 1.335193 1.180629 -0.939195 -0.945368 0.786237 -0.830751 1.492468 0.472046 0.473586 0.765828 0.860001 -0.855936 0.743341 0.653669 1.880632 -0.125085 -0.331108 1.109012 -0.065385 
reinforcement_learning 0.844345 -0.887056 -1.509194 0.547134 0.455572 0.470753 -0.380352 -0.323326 -1.573298 -2.975796 -1.626816 -0.210788 0.797860 0.783656 -1.839416 -0.847681 -0.082695 -0.415048 -0.512831 0.985605 0.690274 0.404432 -1.968412 0.319572 -1.891877 0.979222 -0.959817 1.256702 -0.847245 -0.213308 -1.541994 0.597927 1.358539 -0.536873 0.351735 0.392653 0.822542 0.429862 0.363735 -1.207844 -1.765183 1.983478 0.788582 0.160063 1.966920 -0.086818 -1.617300 -1.255799 -0.405564 -0.839021 1.065451 0.946481 0.707931 0.304442 -0.877683 0.410581 1.931810 0.361830 -0.946861 -1.686260 0.826673 2.656121 0.923769 0.556019 -0.734098 0.463744 -1.566992 -0.181985 -1.347582 1.263539 1.699580 -0.406971 0.163383 -0.112488 -1.084799 -0.078521 0.255747 0.423517 0.953762 -1.003786 2.105952 -0.183053 1.763182 -0.290837 1.420737 -0.498410 -1.674864 -0.382222 0.447757 2.264384 -0.411667 0.507066 0.842173 -0.022850 -0.864914 1.544254 -0.016088 -1.208509 2.219982 -0.249991 1.113644 0.252438 -0.957813 0.294059 -0.638788 -0.864120 -0.598196 -1.469416 -1.348079 0.730898 -1.794954 -0.470624 -2.106321 0.804839 1.261498 0.335855 0.404112 -1.157203 1.056146 -0.465893 0.202669 -2.395263 -1.130812 1.798568 -0.455631 0.617666 -1.005546 -0.249814 0.661038 -1.523461 -0.356099 0.588129 0.330295 1.141754 1.090349 0.169755 -0.386561 -0.555385 1.237773 1.804660 1.566615 0.392701 0.078593 0.320155 -0.312286 1.380616 -0.473085 -0.568688 -1.640362 -0.584641 -0.108953 -0.555995 -0.117541 -0.237801 -2.371293 1.121499 0.923740 -1.148872 -1.083458 0.631656 0.673408 0.244560 0.192951 0.031932 1.319493 -0.969887 2.146758 1.945399 -0.584970 -0.459251 -1.366358 1.869521 -0.627507 0.281378 0.081924 -0.718170 -1.310018 2.032886 -0.032085 0.540440 0.554040 0.041407 1.402556 -0.066100 -0.551383 -1.485298 0.560617 0.360172 0.632790 0.633481 -0.874455 -0.412362 1.909466 -0.069543 -0.210472 0.533833 0.307248 -1.216118 0.768921 0.619704 
neural_network -0.602702 0.234840 0.171416 -0.968864 -0.492691 -1.147151 -0.502706 0.188425 -1.029486 -0.794577 -0.230802 -0.232392 -0.571583 0.049574 1.188500 -0.334482 -1.102297 -0.037975 -0.152063 -0.384107 -0.545718 -0.412806 0.427537 -1.482418 1.154613 -0.353967 -0.687705 -1.241379 0.555099 0.988068 -0.989086 -0.575678 1.535067 0.768050 -0.380445 -0.159614 1.036599 -1.360256 0.328284 -0.081705 -0.718626 1.795254 -0.438891 0.374800 -0.851526 0.963559 1.182703 -0.250346 0.046470 -1.123095 -0.834643 0.582594 -0.696120 -1.221371 -1.777582 -1.592786 1.135325 -0.530540 0.478795 0.686235 0.927080 1.189019 -3.252993 -0.186864 0.160529 -0.142770 -0.552082 -0.028982 2.044381 -0.471017 -0.867940 -0.368874 -0.717351 -0.895515 -1.417894 0.427802 -0.852185 -0.253649 -0.312144 -0.533798 1.154162 0.919418 -1.079012 0.765772 1.697515 -0.113933 0.101742 -0.716489 0.380324 -0.956858 -1.299395 1.848373 1.065568 0.562524 -1.483630 0.630284 -3.270476 0.052730 0.544119 0.148059 0.496252 0.290497 -1.066023 1.186702 0.329506 2.061269 0.461130 -0.220731 -1.021729 1.859034 0.116940 0.942201 0.096747 -0.024739 -0.107559 -1.767604 -0.687001 0.401470 -2.327945 1.850979 -0.739879 -2.125502 -1.100884 1.007062 -2.702869 0.048923 -0.940772 -1.473047 -1.457502 -1.530937 0.977410 -0.588049 -0.187829 1.717988 0.960057 1.382009 0.409085 0.619191 0.824646 0.076011 0.928545 1.168093 2.158277 -1.277066 -0.057230 1.976294 -0.720636 -1.203675 -1.511332 -2.529529 -1.324988 -1.643537 -1.272636 -0.326416 0.026709 -1.009034 -0.096199 0.906630 -1.864827 0.831273 -0.386768 0.659435 0.853944 0.366417 0.781467 0.631545 -0.726431 1.818807 -0.840041 -0.199987 -1.090809 1.471168 0.316489 -1.078881 -0.735407 0.039464 -0.698086 0.050768 0.137771 -0.584027 0.340552 0.557190 0.479175 1.267367 -0.780146 0.182358 -0.384864 -0.796117 1.687862 -2.160203 -0.690917 -1.074811 0.482685 0.763851 -1.301946 -0.048250 0.280835 -1.113576 1.025076 -0.606327 
kernel 0.483729 -2.313394 -1.108672 -0.951067 -0.544120 -0.214099 -1.899982 -0.886218 -0.419311 -2.325326 -0.473277 0.605885 1.469927 -0.205428 0.133227 0.035242 1.722393 -0.159532 0.944809 -0.479277 0.079769 1.376473 -0.283626 -1.266409 -0.155120 1.028004 -1.922604 0.184613 0.740223 -0.680961 -0.290058 -0.186164 0.248321 0.690886 1.307916 0.981516 -1.586782 0.436229 0.773012 0.976597 0.331205 0.514540 -0.584537 0.069765 0.558664 0.389884 -0.166223 0.363879 -1.339017 -0.054364 -0.698369 1.344478 -1.128078 0.036930 -2.114630 -0.364121 2.009499 0.770853 -1.723502 0.318322 0.515735 0.444667 -1.283971 1.784224 -1.386578 1.130038 -0.231642 0.642675 -1.420176 -1.254338 -0.097743 -1.878648 0.728262 2.580820 1.587093 0.901675 0.686181 -0.321878 0.869464 0.958240 -1.099212 -0.308296 1.071104 0.466473 -0.305735 -0.483606 0.896691 -1.396032 -0.109104 0.677918 1.265026 -0.493156 1.287593 0.780612 -0.907529 1.169650 -1.168710 0.416737 0.683205 -0.877959 -1.217218 0.262115 -0.474077 1.994054 0.661072 -1.172737 0.628410 -2.251278 -0.168659 0.109905 0.495939 -0.064050 -0.741569 0.853330 0.817102 0.128118 -0.250784 -1.307708 0.425047 0.852125 -0.557022 1.658544 -0.702623 2.211692 0.323573 2.954163 0.212804 -1.752943 0.926148 -0.942422 1.070602 1.107359 -1.449926 0.743714 1.736991 -0.972995 -0.980501 -0.974755 -1.317835 0.608385 -0.846858 -0.491494 1.621529 -1.324047 -0.516525 -0.480111 -0.908612 -0.178682 1.016921 -0.341638 0.120082 -1.920858 0.426062 0.497267 0.903859 -1.278151 -2.522463 -1.266618 -0.261475 0.695548 -1.200533 0.798846 0.346695 -0.943168 0.207992 -0.159679 -0.958328 -0.550548 0.171974 1.266361 0.873947 0.718999 1.099983 -1.124803 0.984574 -0.664105 -0.812989 1.370531 -0.765309 -1.570614 0.290240 0.172808 1.852391 2.136285 1.042081 2.055266 0.759851 0.839182 -1.410522 0.197544 -0.529768 0.642350 -0.577568 1.493954 1.002576 1.178468 0.746278 0.475990 0.741967 0.349117 
clustering -0.042971 -0.411941 -1.507745 0.195954 1.580619 -0.408375 -0.181179 0.670958 0.609234 -2.371507 0.185878 -1.725682 0.288342 1.410919 -1.707109 0.813741 -0.540344 -2.652097 0.683917 0.772768 0.609681 -0.674828 -0.519711 0.958405 0.304315 3.992828 1.833548 -1.370983 -0.987509 0.034065 -0.931129 1.690823 -1.127954 0.521116 -1.558750 -0.926969 0.099132 0.470434 -0.601259 0.027165 -0.496688 -1.624030 0.419134 0.382497 0.750021 -0.212715 0.061352 -0.757648 -2.334188 0.361528 0.035297 -0.330719 0.637661 1.106467 -0.396210 -1.304251 0.376032 0.186977 0.863409 0.212480 -1.738474 0.175549 -1.470618 -0.899806 -2.309339 0.994778 1.026780 -0.160268 -2.029565 -1.793716 0.476312 1.342442 0.501078 0.455140 0.206419 0.240790 -1.202572 -0.388479 -1.101226 0.107801 -1.841546 2.098968 -0.459350 1.171569 -0.545237 0.040245 -0.001599 -1.414355 -0.192859 -0.007464 1.373903 -0.652553 0.735878 0.263091 -1.500404 -1.596462 0.787898 1.049611 1.442994 -0.703130 -1.054798 -0.757231 -1.315940 1.193887 -0.440048 -0.529331 0.388334 0.113449 0.646415 1.334258 -0.779846 -1.817794 -0.388041 -1.428091 -0.154210 -0.866173 0.179737 0.532733 1.780697 -1.960403 1.073142 0.004557 -0.862737 1.207375 1.066418 0.782345 0.637254 0.357725 0.010485 1.098078 -0.958294 1.055514 1.099132 -0.899975 -0.332585 -0.021492 0.337575 -0.438872 -0.510514 1.679084 -0.569755 0.739128 -1.254029 0.133404 0.249544 2.161638 0.117030 0.850746 -1.419340 2.217957 -0.132923 -1.062657 -0.270118 0.064925 0.218952 0.419828 -0.453660 0.960342 -0.993090 1.322767 1.490128 -1.324851 -0.480000 -1.002639 0.382290 -1.845097 0.727241 -0.836089 -0.669274 1.576485 0.186385 -0.480386 0.710091 -1.051574 0.390665 -0.812999 0.668702 0.306786 -0.989021 -0.667191 1.954958 1.061659 0.137401 0.030044 -0.377905 -0.241607 -0.486594 -0.634467 -0.630547 0.069707 -0.004153 -0.805013 -0.284647 0.194844 -0.365537 -0.380040 0.951661 0.969042 1.744857 0.523627 
linear 1.023772 1.289444 -0.587653 0.724013 0.638832 0.111791 0.489465 0.638921 -0.951928 0.376899 -0.843988 -0.241564 -0.756596 -0.438036 -1.111133 -1.266179 0.228923 0.148420 -0.489718 0.540471 0.760060 1.046822 1.445558 1.147436 -1.165225 -0.114779 1.116101 0.077465 -0.400065 -0.272242 -0.680141 -0.626475 -0.726413 -0.582564 1.217957 0.495494 1.085609 0.564423 0.757070 -0.177643 0.713427 0.846117 0.164885 0.529019 -1.092515 -0.157980 -0.318735 3.140972 0.882170 1.077826 1.556533 0.936441 1.513004 0.788408 -0.211429 -1.424495 1.461470 -0.280942 -2.202646 -0.525131 1.474807 -1.823320 -0.147475 1.705711 -0.460757 2.128778 1.332438 0.336751 -0.360320 -0.884409 -1.228665 1.748525 0.664037 0.848130 2.121941 -1.155020 -2.556812 0.498403 -0.756227 0.215752 1.864997 1.130067 0.558840 -1.625594 0.789541 1.796039 0.824020 -0.639334 -0.707197 0.712750 0.188173 0.495247 -1.924266 0.337369 -0.259655 0.498135 0.638237 -0.750748 -0.306878 1.880129 0.068884 0.471266 0.785736 -0.635381 -0.988793 0.713244 -2.142473 0.046596 1.572061 -0.271532 -2.501743 0.846343 0.792183 1.450216 0.769502 0.017268 -0.557346 1.990982 -0.563466 1.081692 -1.654267 -0.971336 -1.634131 -0.206457 0.183954 1.518866 0.277849 0.713678 -1.090421 0.096371 -0.503634 1.289134 0.880597 -1.315811 0.427129 1.329993 -0.831932 0.639027 0.249117 1.726965 2.279819 -0.260548 0.771422 -2.867986 0.819313 1.927995 -1.401504 1.423289 -0.268731 -0.105283 -0.877845 -0.463729 0.614980 -0.946696 0.806998 -1.532284 -0.271383 -0.224482 -0.082138 -0.924099 1.086705 -0.749731 2.213033 1.081500 -0.117892 2.638016 0.616776 0.893214 1.100787 1.015925 -0.925370 0.377302 -0.190095 0.073801 0.107464 0.579579 2.153994 0.361897 -0.102819 -2.986507 0.375082 -1.775012 -0.449129 -0.132649 -0.009272 0.048202 -0.553223 -0.383833 -0.687061 -0.465739 0.442142 1.978670 -0.047273 -0.643872 -1.036121 -1.457217 0.511859 -1.914188 -0.741327 -0.974938 
regression -2.744270 -0.504560 0.452855 -0.069076 2.204449 0.164602 -0.380944 1.393573 -0.485818 -0.717181 -1.306295 0.184949 1.512723 -0.457043 -2.899811 1.227266 -0.654154 -2.015065 1.317536 0.826454 -0.321893 0.051516 -2.072998 1.230020 -0.267185 1.585319 0.291375 -0.006957 -0.027784 0.567255 1.291888 1.055665 -0.905637 -1.276118 0.668857 1.565567 1.007658 0.615429 0.178702 -0.376789 -1.223647 0.034626 -0.604646 -0.844101 0.099344 0.788996 -0.869192 -0.465755 -0.181552 -0.043298 0.360511 0.060566 -0.243712 -0.552778 -0.256903 -1.516359 -0.911920 0.868774 -1.695680 -0.171756 -2.340712 -1.475314 1.142030 -0.257666 -2.131190 0.815077 -0.924439 0.563276 -1.317995 -0.686524 -0.925945 -0.543553 0.517117 -0.711242 0.246944 0.994416 1.228369 0.524375 -2.774888 -1.359634 2.508589 -0.972437 0.639562 -1.134822 0.164709 -1.595732 -0.123551 -1.171988 0.144383 -0.597271 -1.109073 1.934486 1.966681 -0.643397 -0.273962 -0.785308 1.163361 -0.283607 0.549892 0.511350 -0.319095 -0.091525 0.919702 -1.210661 -1.877811 0.151730 1.740213 -1.273491 1.089115 -1.098303 1.026954 -1.411706 0.499569 0.328540 0.021992 -0.439921 -1.151358 -1.539269 1.156245 -0.189150 -0.264130 -0.848552 0.468822 -1.310381 2.625453 -0.217208 0.301699 -0.635367 1.187216 -0.260528 1.539587 -0.189053 1.389780 -0.111327 1.341489 1.123971 1.406986 -2.062651 0.851118 -0.268598 -1.539000 1.439921 -2.980205 -1.156849 -0.169880 0.869322 0.566140 1.082654 0.434152 2.148974 0.169134 0.448976 0.517004 -0.814750 -2.273872 -0.511343 -0.161701 -0.861569 -1.422074 1.446877 0.660465 -0.181192 -0.481307 0.271348 0.807206 -1.644148 1.151606 -0.260554 1.214551 -0.298572 -0.557075 -1.716965 0.671248 -0.803371 -0.056548 -0.362281 0.779472 2.042882 -0.306404 1.115808 -0.364700 1.566095 -0.750812 -0.739376 -0.799959 -0.280089 -0.856345 -0.566516 -0.470513 1.293945 -0.411062 -1.787165 2.322846 0.898534 0.280857 -1.479710 1.646763 -0.427586 -0.528662 0.723935 
feature 0.021593 -0.372416 1.144006 -2.163183 -1.154120 0.062991 0.215732 -0.095118 0.737807 -0.926590 -0.799424 -1.416701 -0.800479 -1.048243 1.488321 -1.886992 -2.141813 -2.290211 0.618168 -0.964948 -1.795031 -0.610833 -1.318319 0.830113 -1.296503 1.446962 -1.233014 -1.522741 1.617705 0.848733 -2.309861 -1.013508 0.080553 0.255119 -0.013702 -1.458383 1.090072 -0.342906 -0.192873 -1.016968 -1.756439 -0.920445 0.903309 -0.300600 0.976630 -0.729976 0.234763 -0.576079 -1.166532 -0.837843 -0.735735 2.002632 0.698714 -0.457659 0.001738 -1.204604 1.027194 -0.977998 0.209048 -0.075721 0.466353 0.656016 -0.287588 0.534390 -1.825671 0.955882 0.198936 -0.945091 -0.798213 -1.218983 -1.342097 -0.875738 -1.013872 2.924563 -0.636337 0.212996 0.785513 -0.658815 1.447445 -2.308086 -0.777154 0.212390 1.293795 0.827232 0.270781 1.276266 -0.383204 -0.800995 0.457026 1.363107 -1.049158 0.507562 -1.015136 -1.147173 0.716406 -1.362717 0.117466 -1.082171 0.881048 0.985403 1.209514 -1.571042 -2.453975 1.655637 -0.554464 -1.666625 -0.280965 0.375224 1.601313 -1.401011 0.634663 1.135885 -1.536370 -0.437324 -1.184876 -0.235989 1.693976 0.897606 1.106042 1.448764 -0.405039 -0.622255 -1.301568 0.776341 0.090925 -0.947031 -1.168521 -1.207407 2.303921 1.237453 -0.096512 -1.215956 -1.096949 -0.099258 -0.723346 2.141257 1.741236 -0.471044 -0.290162 -0.151596 -0.597664 0.423864 0.302767 -0.227281 -1.693683 -1.619892 0.922314 0.933899 0.602592 0.963221 0.571203 3.946037 -0.036738 -2.075770 2.146839 0.114818 0.329984 0.183924 -0.481830 0.481559 0.760872 -2.018974 1.320083 -0.844613 -0.016478 0.510072 0.246653 -1.089562 -1.759237 0.867270 0.987551 0.431472 0.460698 -1.526340 0.735823 -0.335320 0.157420 0.327588 0.253629 0.288592 -1.730295 1.275984 0.756386 -0.379632 2.585206 0.533053 0.896203 -0.080463 -0.849656 -1.798753 -0.923295 -0.490068 -0.473799 2.474355 -1.977308 0.015721 -0.778334 0.999733 -0.519202 1.308238 
deep 1.873501 0.396664 -1.288524 -0.942619 0.628065 0.931171 -0.857335 -0.321087 -0.296281 1.233424 2.407086 -0.242060 0.140837 0.055581 0.569684 -0.664849 -0.360009 1.283379 -0.337976 1.408433 -0.787546 0.405560 -1.246802 0.723954 0.376063 -0.581596 -0.909924 -0.723797 -0.284937 1.382790 0.922379 1.031027 0.071574 0.733737 -0.590270 1.404564 -0.718057 0.581051 -1.701757 -0.467930 -1.213106 -0.326949 -0.323015 -0.228015 -1.206802 -0.127949 -0.933935 -0.684908 -1.156561 1.909875 0.211014 -1.674430 0.403015 -1.736453 -0.843132 1.084324 -0.084868 -0.963631 0.921497 -0.033245 -1.602180 0.081203 -1.046673 0.735676 -0.810260 0.038654 0.062781 0.930859 0.677714 -0.089881 0.729502 -1.685581 -0.990050 -0.939463 2.127762 -0.959685 1.497813 1.007424 -1.037446 -0.207832 0.441012 -0.378124 -0.516605 0.605273 2.534536 -0.844410 1.468260 0.477197 -0.112877 -0.128097 0.098880 -0.582559 -0.940477 -2.726314 -1.744953 -1.100437 1.714391 -1.301598 0.110273 -1.471850 0.511404 -0.202552 1.331960 -0.690861 2.134261 -0.928793 0.060714 0.213845 1.644345 1.787825 -0.133900 -0.464732 -0.427931 -0.025822 -1.293806 -0.108438 0.832666 1.469868 1.377402 -0.317863 -1.124354 -0.032711 -0.046945 1.779390 1.618224 -0.056713 -0.107061 0.486594 0.471357 -1.086779 0.532696 -0.410514 0.395750 0.203944 0.045831 -1.350465 -0.997379 -1.376477 0.616064 -1.332013 -0.082516 1.671461 -0.106374 1.323510 -1.989533 -0.325540 0.888586 0.621311 -2.028703 0.582849 -0.748891 -0.080238 -1.021757 0.512805 0.733658 0.076763 1.621355 -0.088152 1.656463 1.548031 0.607216 0.852085 -0.428233 2.235168 1.121007 -0.108893 0.871256 2.059387 -0.418523 0.999734 -1.367561 -0.426873 0.276876 -0.593094 1.225150 -1.555194 -0.610474 -0.331404 0.840244 0.870989 0.084201 -0.588502 -0.676865 -0.646971 -0.714878 -0.773418 1.754630 -0.828547 -1.769746 0.000686 0.445471 -1.613973 -1.018650 1.477861 0.069643 1.300235 0.387979 -1.150066 0.103958 -1.092314 
modeling -0.033982 0.925584 -2.008204 0.533456 0.318920 2.024681 -0.107816 2.065215 1.354917 -0.481453 0.099179 1.026678 -1.787067 -0.078733 -1.386723 -1.443329 -0.693007 -0.114111 1.009506 0.005864 -1.069847 -0.117235 -1.146817 -2.333113 -0.979093 0.880811 -0.002304 -0.689621 -0.426549 1.150747 0.005757 1.074428 0.792306 -1.641438 1.002709 1.911718 -0.498234 0.681920 1.699553 -0.910736 1.026231 -1.661748 -0.924534 -0.423547 1.050107 -0.190044 -1.740793 -2.535275 -1.080553 0.362354 -0.825482 0.992907 -0.638349 0.474566 1.878443 -0.320765 -0.937889 0.183041 -0.802536 0.817045 -0.050823 0.853350 -0.500085 -0.607445 -2.153284 1.310103 -1.505449 -2.246669 0.134424 0.009375 -1.463661 -0.212102 2.331751 0.442926 -2.400405 0.154083 -1.539335 -1.163778 1.438991 -0.485179 0.458470 1.011718 0.222677 -0.702362 -0.636052 -2.104401 0.441882 1.305091 -0.827612 1.590393 -0.234176 0.119265 1.153239 -0.261478 1.022989 -0.051537 -0.953697 -1.036206 -0.989600 -0.278205 1.235542 0.195337 -0.540697 -0.099348 1.144425 0.193102 0.635135 -1.378490 -1.533986 0.434629 2.066064 -1.166848 0.821781 -0.663334 3.274325 -1.368497 -1.050669 -0.311885 -2.405708 -0.264496 0.691679 1.448662 -2.076715 -2.188924 -0.805506 0.227214 0.010311 -0.257242 0.272801 -0.553367 -0.110591 0.083385 -0.584795 -0.660003 -2.415757 -0.239891 -2.010728 -0.847695 -0.798569 -1.341110 0.574027 0.102035 -0.085043 0.561531 -0.018835 0.924030 0.642554 1.044524 -0.278047 -1.887832 1.036574 -1.609664 -0.428889 0.123446 -0.983349 1.586099 0.104001 -0.140178 -0.286532 -0.201534 -0.029989 -0.417180 -0.345098 -1.259942 -1.315687 -1.237273 0.547412 -2.627259 0.366929 -0.199374 -1.408366 -0.263089 1.681159 -0.151499 0.850507 -1.012917 -0.173621 0.822921 0.737420 1.948903 -1.460144 -1.098679 1.627676 0.614110 0.096421 -0.654991 1.537401 -1.693821 1.443827 -0.298748 0.356144 -0.440755 0.250443 0.661859 1.376613 0.146674 -0.055021 -0.086472 -0.937147 -0.005064 
application -0.082774 0.756068 0.634034 0.025308 -0.569866 -0.791798 -2.200527 -0.014643 1.384577 1.214840 1.125547 0.031031 -2.234985 1.838076 2.031814 2.610189 -1.206455 0.284729 0.824789 0.203031 1.524916 -0.113836 -0.743070 0.731173 -1.166237 -3.029616 -1.422543 0.798478 -2.957945 0.962305 -1.042354 -0.758710 -1.572705 -1.901283 -2.451699 -0.937259 1.251157 0.732269 1.918764 -0.782568 0.047954 -2.460303 -0.117532 1.108248 0.800419 0.455270 0.453112 0.947604 -0.490534 -1.890513 1.750487 -1.237425 1.325506 1.486164 -0.359906 -1.642093 0.107519 1.267087 1.066266 1.631998 -0.188846 -1.982374 -1.278760 -2.984393 -0.206126 -2.559523 -1.370571 -2.473398 -0.531124 -1.557213 1.949932 -0.459198 -2.445463 2.958394 -2.176893 -0.193963 1.876607 -0.278930 0.009994 -0.969156 -0.030152 0.232380 1.846410 1.174720 0.987606 0.147060 -0.433181 -2.574787 -1.311121 -2.022474 0.632654 0.213661 0.867805 -1.066236 0.476209 -0.707035 1.159241 2.449405 0.402570 0.050441 -0.367319 2.446416 -0.315253 -0.224494 -0.430285 -2.077679 -0.496660 2.881670 -0.486201 0.847945 -0.469884 -2.134423 0.848040 0.123423 0.617114 -0.134891 -0.472343 0.375444 1.629746 0.878170 0.634362 -0.753619 0.352140 -0.580084 0.457568 -0.730013 0.454003 1.899642 -0.287036 0.210361 2.299954 0.447929 -1.102725 -1.351241 0.790976 -0.858230 -0.797473 -0.744921 0.421699 1.464641 -0.227590 0.234242 -1.014461 1.455175 1.887276 -1.172690 1.350477 -1.017213 -1.427891 -0.078327 0.181482 -0.554898 0.516439 -0.341837 -1.650685 1.905996 1.591424 -3.267843 1.077534 1.494449 0.650513 2.695037 -1.865204 0.566848 -2.661627 -1.857383 -1.364154 0.912036 0.502222 0.371396 -0.743459 0.000306 -2.207072 -0.652575 1.749512 -0.950122 -0.291398 -1.145371 -3.750215 -1.376120 -2.427750 1.623045 -1.005797 0.766617 -1.412350 2.166873 2.267794 -1.571483 -1.054507 0.208052 0.270589 -0.471965 -0.288906 -1.220546 -1.282398 1.238236 2.607193 2.379945 -1.137853 -0.731401 
information -1.238600 1.853257 -1.127988 -1.204536 -0.654652 1.376342 0.312495 -1.447460 -2.575139 -0.022682 -1.156693 -0.735863 0.039075 -0.960928 -0.895851 -0.379861 -0.031507 -0.144314 -0.217745 -1.388695 -0.023687 -1.952827 0.445055 -0.643316 -0.815858 0.045763 0.166382 -0.595980 -1.785183 0.487898 -1.795926 -0.804323 -0.036026 -1.013865 -0.623516 -1.996226 -0.517116 -0.760304 -1.693993 2.904081 2.134446 -0.176328 -1.444353 0.535005 -1.938380 -1.373456 -0.847154 0.323147 -1.584220 -1.365539 -1.126797 -1.300870 -0.675580 1.010907 2.009019 -0.959386 -0.586677 -1.554899 -0.439293 -0.631600 -0.618620 2.231194 0.521623 1.642005 -0.699029 -1.303423 0.717547 -0.791544 -0.101384 -0.081216 -0.585420 0.105843 1.662921 2.251099 -1.266791 -0.436489 1.669529 0.541728 -0.120037 0.648598 1.924383 -0.557079 -1.448328 4.203253 0.012270 -0.797831 1.772810 1.157409 3.348475 -0.561056 -0.145116 1.684362 -0.699830 0.332638 0.011694 2.036525 0.107634 0.192314 -0.132909 -0.437927 -0.247116 -1.553627 0.058065 1.241114 1.539387 -0.086797 -0.860373 1.440656 0.056551 -0.636163 1.009150 0.521901 -1.283812 0.708865 -1.890674 -1.567945 1.600197 -0.549253 0.078862 -0.500127 1.108022 1.304693 0.731114 -0.620908 -0.422402 -0.751839 -0.807394 0.944430 -0.269593 -0.934038 -0.257461 -0.829408 2.037583 -1.011732 1.516236 -1.287403 1.133595 -0.638944 -0.120969 -1.605771 -0.694536 -0.351453 0.456747 -0.419491 0.482694 1.379980 -0.182160 1.154923 -0.829569 -0.123796 0.692460 -1.489401 1.133456 0.836598 -0.191475 -0.112850 0.830897 -1.238195 0.158479 -3.248699 0.140184 1.315442 -1.020187 -0.347690 0.659364 2.040804 -2.436553 -0.534514 -0.669087 0.915643 -0.348160 -1.273506 -0.910922 -0.117122 1.279594 3.143614 0.216103 1.688048 -0.113447 -0.879950 -1.343744 0.218122 -1.072767 -0.061497 0.559387 -0.037375 -0.247706 -2.280999 -1.084484 1.166344 1.196043 -1.292782 0.492681 -0.443204 0.322115 0.803554 -0.619815 -1.696692 2.217680 -0.518815 
prediction 0.944760 0.054364 0.976122 -1.239435 0.412064 0.619068 -0.141197 0.890105 0.571515 -0.066506 -1.259604 -2.739222 -0.160243 1.125952 -1.555297 -0.326440 0.037291 -1.805456 -1.563050 0.045988 0.348031 -1.709132 0.323997 -1.059384 0.428829 0.300089 1.273173 -2.619504 0.663634 -0.481062 -0.801572 1.287480 0.147876 -0.740514 0.751077 0.232771 0.541055 -0.902479 0.286008 -0.751359 -1.747019 0.025246 1.043166 0.436424 0.612135 2.137587 1.150356 -0.095593 -2.519780 -0.721284 -0.080826 -1.531358 -1.607801 -0.331124 1.207900 -0.840643 0.350172 -1.454837 -0.885328 0.063629 -0.642922 0.166935 0.438511 -0.105474 -0.624698 0.672042 0.047537 0.476260 0.753380 0.510536 -0.544256 -0.041537 -0.800251 0.811095 -0.353917 -0.869148 0.440347 2.040820 -1.083249 -0.419347 -0.281583 1.014124 -0.489522 2.190515 0.524529 -0.175915 0.108756 0.390269 0.155985 -0.442911 0.194848 1.246438 0.123120 -1.024481 1.016789 -0.669332 0.223183 0.360827 1.031673 -0.132415 0.863764 -1.137057 0.330743 -0.850538 -1.634195 -1.216232 1.136466 -1.050572 -0.144247 -0.670281 -0.792952 -0.023157 -1.136935 0.189344 0.811406 -0.283598 -0.350997 1.724429 -0.569409 -0.575274 -0.443840 -0.674972 -0.644165 0.670896 0.517249 0.068644 0.559485 -0.412508 1.421998 0.430300 -0.390351 -2.047055 -0.289512 0.060877 -0.969720 0.724331 -0.662985 1.383158 -3.163803 0.055532 -1.130987 -0.327366 -0.744141 0.468916 1.465761 0.382731 -0.545877 3.194741 0.120498 -0.483101 -1.994172 -0.001711 -0.214548 -0.647445 1.777027 -1.908071 0.275777 -0.384146 -0.594587 0.731845 1.578441 0.258288 0.265891 0.497021 0.995359 -1.519799 1.067595 -0.556022 -0.459346 1.324422 -2.800920 -0.549882 0.867797 0.053747 -1.234065 0.985741 -0.138355 1.457773 -0.311789 -0.649723 -0.505952 0.385389 -1.185955 -1.017637 -1.566363 0.819217 0.407989 -1.985764 -0.023200 1.052976 0.293647 -0.645251 -0.323165 1.553285 0.060455 -0.554338 0.480003 0.916715 0.168005 -2.513013 
network 0.934545 -0.408754 1.712176 -2.194287 1.319402 1.007560 -2.075066 -1.877463 0.078814 -1.268166 -1.130213 -0.610348 -0.494314 -0.243980 -0.530550 2.012770 0.284653 0.163912 -1.796138 -1.091021 -0.785863 0.659538 0.873046 1.075570 0.189687 -0.401261 -0.767659 0.215235 -1.041435 0.531760 -0.946405 -0.749903 0.240978 -0.362070 1.773461 -1.876075 2.155213 -0.362497 -0.674506 0.973725 1.335262 1.433492 -0.484452 -1.596743 -0.247157 2.257718 -1.281613 -0.513240 0.967891 -1.349825 -0.387051 -0.051546 -0.392476 -1.811082 -2.118747 1.263688 0.533529 0.547356 1.467009 0.471930 0.244596 1.016541 0.604827 -0.829410 -1.350707 0.908984 -0.269890 0.572543 -0.138241 -0.512455 0.086878 0.200568 0.557971 -0.563250 -1.383140 0.624710 -0.732260 0.444333 -0.465758 0.582565 -0.902169 0.876998 -2.104296 1.752072 0.681819 0.777907 -1.144828 1.037683 -0.393470 -1.564763 0.173859 0.969885 0.282170 0.037404 -0.420777 1.142542 -0.754926 0.927231 -0.106023 -2.552053 0.009638 -0.966634 -0.741103 1.068763 2.499745 -0.592935 0.727649 0.114953 -1.909887 0.644510 -1.845195 -0.483415 -0.148566 -1.746637 -0.685945 -0.296569 -2.188680 2.299816 -0.796798 0.649355 -0.154964 -0.539194 -1.292590 0.289619 -1.553046 2.829855 -1.108649 -0.228950 -2.487719 -2.717542 -0.069635 0.948270 0.052732 -0.610289 -0.013966 -0.192308 -0.240309 -1.337067 -0.060542 0.010962 -0.775652 -0.840335 0.549525 -0.968675 0.913253 -0.067095 -0.569545 0.300257 -0.741590 -0.618630 0.146337 -0.170062 -2.461194 0.892998 -1.729539 1.666274 -0.443814 -0.380040 -2.616922 2.260928 1.489740 2.361145 -0.217248 -1.897603 -0.045758 -0.664468 1.175978 2.171620 -0.410946 0.038977 -0.747172 -1.026778 -1.821808 0.717186 -0.911452 -0.480702 -1.800747 0.143301 0.734212 0.884700 0.832821 -0.643322 -0.377332 -2.985270 0.105443 0.221224 -0.624090 0.487951 0.495531 -1.158785 1.750214 0.482129 -0.208504 1.474718 -1.334432 0.363451 -0.165054 0.576778 -0.211035 -1.316879 
based -1.124892 0.243061 0.196501 0.414070 -0.658620 0.606375 0.161856 0.007108 -0.986718 -1.576071 0.174924 1.071430 1.433458 0.405787 0.280801 0.585567 0.942586 -0.013270 1.486393 -0.570661 -0.336739 2.430542 0.325168 0.428341 -0.590445 1.366504 -0.254591 -1.277255 -1.226995 -0.461804 -0.378217 1.251908 0.529716 1.414519 -0.409469 0.550599 -0.531216 0.927621 2.524704 -2.039244 2.482018 -0.419068 -0.454334 -0.234017 -2.829302 -0.185247 -1.059713 0.559084 -2.077784 -2.610826 0.114546 0.376681 0.322891 1.134756 0.129107 0.473180 0.514811 0.745020 0.212513 1.151097 -1.403439 -0.202989 0.400210 -2.078227 1.582386 -1.648071 -0.682641 1.505333 0.549821 -0.390213 -0.421566 0.902996 0.847465 -1.184256 -1.565678 -1.041175 -2.310341 1.050251 -1.538156 -0.581788 -2.582974 0.151184 -1.550019 -1.051315 1.781719 1.987087 0.900307 -1.575029 0.782360 -1.392654 -1.361210 -0.691970 1.532736 -1.849630 -0.209908 0.435279 0.964410 -0.511408 -0.614265 -0.041799 -0.445644 1.930894 0.692164 -1.356259 -0.070825 0.038970 1.569372 -0.154923 0.011806 -1.267893 -0.829457 2.366064 -1.538562 -1.710573 0.801423 0.011960 -0.188899 -1.635460 -0.614264 0.586053 0.211514 -2.457735 0.334037 0.216484 0.684066 -1.894416 0.544725 0.181799 1.350579 1.871511 1.022212 0.783108 -0.135896 -2.947111 -0.164043 -1.002176 -0.937399 0.784869 1.545414 0.374562 -1.060654 -1.108154 0.888632 0.029825 0.817674 -2.600845 -0.412938 -1.218699 1.446261 -0.430313 1.796880 0.044138 -1.214176 -0.707064 -0.183039 -0.866736 0.014367 1.029619 0.115475 -0.730741 -1.446754 0.452313 -1.359379 -0.607894 -2.106506 -0.027107 1.378529 -1.881617 0.294316 -0.472771 1.014389 0.496725 -0.197705 -0.852240 0.861329 -2.611406 0.741817 -0.210164 -2.250124 -2.679508 -0.377095 0.426257 0.439587 -1.344627 -1.566311 0.820340 -1.645157 0.625409 0.906743 0.369059 -0.198736 -3.162931 -0.902731 -0.948864 0.327677 2.376516 0.315453 0.479489 0.266431 0.170245 
