2040 200
</s> 0.002001 0.002210 -0.001915 -0.001639 0.000683 0.001511 0.000470 0.000106 -0.001802 0.001109 -0.002178 0.000625 -0.000376 -0.000479 -0.001658 -0.000941 0.001290 0.001513 0.001485 0.000799 0.000772 -0.001901 -0.002048 0.002485 0.001901 0.001545 -0.000302 0.002008 -0.000247 0.000367 -0.000075 -0.001492 0.000656 -0.000669 -0.001913 0.002377 0.002190 -0.000548 -0.000113 0.000255 -0.001819 -0.002004 0.002277 0.000032 -0.001291 -0.001521 -0.001538 0.000848 0.000101 0.000666 -0.002107 -0.001904 -0.000065 0.000572 0.001275 -0.001585 0.002040 0.000463 0.000560 -0.000304 0.001493 -0.001144 -0.001049 0.001079 -0.000377 0.000515 0.000902 -0.002044 -0.000992 0.001457 0.002116 0.001966 -0.001523 -0.001054 -0.000455 0.001001 -0.001894 0.001499 0.001394 -0.000799 -0.000776 -0.001119 0.002114 0.001956 -0.000590 0.002107 0.002410 0.000908 0.002491 -0.001556 -0.000766 -0.001054 -0.001454 0.001407 0.000790 0.000212 -0.001097 0.000762 0.001530 0.000097 0.001140 -0.002476 0.002157 0.000240 -0.000916 -0.001042 -0.000374 -0.001468 -0.002185 -0.001419 0.002139 -0.000885 -0.001340 0.001159 -0.000852 0.002378 -0.000802 -0.002294 0.001358 -0.000037 -0.001744 0.000488 0.000721 -0.000241 0.000912 -0.001979 0.000441 0.000908 -0.001505 0.000071 -0.000030 -0.001200 -0.001416 -0.002347 0.000011 0.000076 0.000005 -0.001967 -0.002481 -0.002373 -0.002163 -0.000274 0.000696 0.000592 -0.001591 0.002499 -0.001006 -0.000637 -0.000702 0.002366 -0.001882 0.000581 -0.000668 0.001594 0.000020 0.002135 -0.001410 -0.001303 -0.002096 -0.001833 -0.001600 -0.001557 0.001222 -0.000933 0.001340 0.001845 0.000678 0.001475 0.001238 0.001170 -0.001775 -0.001717 -0.001828 -0.000066 0.002065 -0.001368 -0.001530 -0.002098 0.001653 -0.002089 -0.000290 0.001089 -0.002309 -0.002239 0.000721 0.001762 0.002132 0.001073 0.001581 -0.001564 -0.001820 0.001987 -0.001382 0.000877 0.000287 0.000895 -0.000591 0.000099 -0.000843 -0.000563 
for -0.333893 -0.160373 -0.107115 0.031208 0.582294 -0.494365 -0.223365 -0.014053 -0.079227 1.282108 0.289311 0.155161 -0.088805 -0.227716 -0.499621 0.364812 1.282285 -0.213657 1.156240 -0.489107 -0.740986 0.803600 0.200644 -0.021792 0.107331 0.522581 -0.214841 -0.016511 0.020051 0.811206 0.640354 -0.558449 -0.535939 0.705777 -1.150868 -1.468697 -1.065948 0.301388 0.051604 -0.488267 0.058130 0.634712 0.193654 -0.323631 0.300249 -0.014293 -0.395732 -0.532109 -0.339603 0.653821 0.320579 0.538003 -0.007485 -0.185081 0.537384 -0.699006 0.101207 -0.414317 -0.298012 -0.657160 0.069756 0.217432 -1.040861 0.483758 0.884072 0.234968 0.779228 -0.390040 0.082933 0.546835 -0.301056 0.045675 -0.264156 -0.581424 0.317323 -0.250542 -0.519651 0.348394 0.136726 -0.078938 0.742139 0.554894 -1.528122 0.337677 0.263970 0.296386 0.023971 0.435734 0.683989 -0.219919 0.303111 0.729759 0.645975 -0.071715 -0.573471 0.325749 -1.379868 0.502660 0.829231 0.882123 -0.301013 -0.036739 0.277333 0.212713 -0.592505 0.240686 0.646225 0.070883 -0.985714 0.218777 -0.065623 1.286899 -0.056654 -0.712102 -0.315883 0.785389 0.904084 -0.399022 0.697967 -0.998633 -0.938462 -0.442497 0.551349 -0.599431 -0.033532 -0.235228 -0.348289 -0.585628 0.946758 0.177097 -0.283453 0.091174 -0.320880 0.655865 0.187622 0.495166 -0.278514 0.934612 0.908529 0.331612 0.583925 -0.128360 -0.515827 0.018290 -0.135356 -1.207468 0.655097 0.029752 -0.160910 -0.236991 -0.262113 0.367727 0.133331 -0.751391 -0.682901 -0.275141 -0.319132 0.326649 -0.529596 0.265179 -0.558606 0.261154 -0.057925 -0.575913 0.211430 0.111100 -0.448716 -0.251190 -0.873922 -0.211249 0.333767 -0.146009 -0.377214 -0.533004 1.014545 0.216519 0.806037 -0.712776 -0.970516 -0.543058 0.832378 0.736726 -0.229232 -0.909381 0.369187 0.956951 1.298966 0.782934 -0.373896 0.210000 0.275426 -1.297303 -1.488970 0.427445 1.267013 0.623505 -0.121347 0.245731 -0.005050 -0.020464 
of 0.098199 -0.508113 0.357139 0.042435 0.836450 -0.385379 -0.026904 0.364135 -0.079937 0.205612 0.624201 0.655294 0.139242 -0.031380 -0.439326 -0.151682 0.349735 1.117563 0.800205 0.414431 -0.159233 1.517913 -0.455864 0.084301 0.672933 -0.611003 0.425214 0.013271 0.150595 -0.654950 -0.055966 0.170017 -0.455344 0.776832 -0.624352 -0.964142 0.615085 0.859751 1.349548 -0.478511 -0.007802 -0.235777 -0.597479 -0.060769 -0.915516 0.004495 -0.214508 -0.602832 0.262450 -0.222424 0.326969 -0.469671 -0.498965 0.614825 -0.899199 -0.539537 0.792852 0.278578 0.399129 -0.759159 1.288948 -0.700563 0.085213 2.136429 0.400113 -0.192921 0.262219 0.029997 0.446159 0.681254 0.405150 -0.292296 0.255279 -0.021718 0.050134 0.046214 -0.461305 0.184219 0.750099 -0.584390 -0.209177 -0.246629 -0.557818 0.626131 0.678819 0.193172 0.141009 0.549278 0.035739 -0.010242 0.046679 0.119209 0.213532 -0.203977 0.146109 0.182738 -0.237206 -0.427031 1.065597 0.039660 0.208499 -0.113719 -0.673847 -0.001997 0.374228 0.465232 -0.027126 0.932904 -0.196266 0.079393 -0.276726 0.877506 -0.127727 -0.808990 -0.275031 -0.374654 -0.490758 -0.329828 -0.875205 -0.740117 -0.208433 0.414294 -0.337481 -0.300767 0.088101 -0.093114 -0.697688 -0.402757 -0.501954 0.385412 0.597016 -0.193409 0.042637 0.325838 0.218042 0.490938 0.764053 1.337352 -0.410061 -0.893306 -0.346215 -0.184532 -0.539934 -0.243621 0.016410 -0.280797 0.380918 0.128253 -0.168641 0.006129 0.396373 -0.197796 -0.322411 -0.125190 0.188619 -0.358195 0.415233 -0.040090 -0.505184 0.040212 -0.074439 -0.357483 0.290228 0.545568 -0.200208 0.334794 0.567553 -0.102872 0.621439 -0.365286 0.006536 -0.443813 -0.165495 -0.491287 0.566545 0.150271 0.494527 0.804122 -0.252057 -0.559343 -0.812885 0.229105 0.533159 -0.179978 0.263857 -0.076151 -0.046246 -0.416640 0.705381 0.306940 0.091467 -0.408184 -0.916502 0.035797 0.230049 0.704223 0.235398 -0.750321 -0.189519 -0.137655 
and 0.068775 -0.151524 0.642301 -0.950254 0.247288 0.361865 -0.836638 0.503983 0.599680 1.130517 -0.525293 0.047913 -0.349014 1.157434 0.418062 0.596456 0.067827 0.526143 0.764705 0.615331 -0.586907 0.896241 0.759950 0.366168 0.774777 0.779200 0.124736 -0.025370 -0.686388 0.342077 0.421028 0.528674 0.106783 0.855239 0.615234 -0.060904 0.317479 1.021041 0.488610 -0.151035 0.334630 0.022123 -0.049072 -0.812454 0.734868 0.284829 -0.570030 0.004767 0.653829 0.496093 0.818382 0.918838 0.585584 1.320019 0.569938 0.092971 0.567991 0.391309 0.470686 -0.106253 -0.533304 -0.160425 -0.612529 -0.166857 -0.520083 0.632556 1.472771 -0.015094 -0.121861 0.264699 0.255467 0.474844 -0.197223 -0.453939 0.354371 0.392347 -0.332071 -0.043486 0.586605 -0.432669 -0.967585 -0.075621 0.362548 0.480981 0.327567 -0.668483 0.523427 0.952982 0.464309 0.371140 0.043149 0.432996 -0.419876 -0.387937 -0.007744 0.371918 -0.725633 0.503404 -0.358982 0.445589 0.545670 -0.268271 0.322977 -0.056077 -0.095001 0.559852 -0.473309 -0.281655 0.502375 -0.243045 0.063664 0.524747 0.624093 -0.158849 0.119679 -0.978540 0.445008 -0.914797 0.162768 -0.457467 0.037281 -0.229995 1.048400 0.613331 -0.480145 -0.048754 0.141056 -0.935657 0.979461 0.211212 0.184037 1.226358 0.262519 0.776725 -0.639021 0.770228 0.026627 0.862548 -0.057928 0.118907 -0.375549 0.436057 -0.386108 -0.208886 -0.114063 0.587964 0.378634 0.228843 -1.090074 -0.869340 -0.086010 -0.117208 -0.481383 -0.751502 0.143691 -0.414613 0.005832 -0.249021 0.405145 -0.460662 -0.222222 0.102651 0.112120 0.060909 0.207439 0.405366 0.416728 0.000681 0.294491 -0.163861 -0.345807 0.558024 -0.928264 0.200399 0.377685 -0.325186 -0.017228 0.284272 -0.342532 -1.101153 -0.260985 -0.319710 -0.253128 0.141205 0.592077 0.408842 1.244051 0.455906 0.108567 -0.381660 -0.585668 0.213321 -0.430347 0.431727 0.013318 -0.409197 -1.174399 0.475600 -0.257656 -0.023848 
a 0.466203 -0.099983 -0.241777 -0.502521 -0.643778 -0.117467 0.402720 -0.045763 0.564333 0.631946 -0.631808 -0.664730 0.352532 2.284238 -0.216191 -0.438487 -0.476360 0.350290 0.536566 0.690501 -0.030382 0.765195 -0.207123 -0.558437 0.048207 0.666495 0.146393 0.066350 0.270109 1.000587 -0.343062 0.180859 -0.586741 0.846823 0.538841 0.549868 1.194637 -0.618540 0.250019 0.732421 0.221657 0.582977 -1.018212 -1.223188 1.214528 -0.733548 1.220304 -0.514649 0.010407 0.308358 0.627183 -0.950716 0.510688 0.094168 0.027147 -0.124749 1.370181 -0.480817 0.109728 -0.690246 0.489546 0.712417 -0.634696 -0.160074 -0.822035 -0.600937 0.600929 -0.786963 0.864211 -0.633066 0.288068 -0.175594 0.130594 -0.918978 0.407212 0.087974 -1.037865 0.538356 -0.764096 -0.385934 -0.008234 -0.353513 0.965065 -0.257778 0.556916 0.530386 0.364525 -0.514107 0.772336 -0.207846 0.530928 -0.502127 0.190172 -0.007796 0.146154 0.772938 0.267764 0.617150 0.737399 0.403796 0.362037 0.573104 -0.480970 0.090859 0.325540 0.147354 0.774029 0.536375 1.421723 -0.166104 -0.023997 -0.628136 -0.258875 -0.384893 0.604010 -0.841884 -0.108495 -0.690187 -1.134600 -0.165587 -1.567636 0.844859 0.796644 -0.514016 0.185906 -0.605183 0.089194 -0.173333 -0.497317 -0.808734 -0.609918 0.318907 0.513587 0.244224 0.574336 0.048527 -0.028296 0.666401 -0.391133 -1.178506 0.481013 -1.563913 -0.393638 -0.087012 -0.585997 0.015071 -0.241939 -0.351796 0.360469 0.967391 1.438494 -0.519193 -0.187678 -0.231265 -0.180310 -0.687046 0.132939 0.383891 0.156801 0.462635 -1.145198 -0.031678 0.564311 -0.501441 0.346252 0.503497 -0.603779 -0.115632 -0.944500 0.259085 1.079916 -0.357677 -0.689611 0.318520 -0.110651 0.106304 0.077183 -0.283123 0.472759 0.043342 0.330297 -0.752256 0.218755 0.390882 0.456667 -0.423974 -0.392781 0.519886 -0.776318 0.990048 -0.471832 0.917801 0.236960 0.624235 -0.102890 -0.170124 0.173732 0.684576 0.545563 -0.120725 
in 0.261648 0.015524 -1.567084 0.777153 0.086872 0.078361 0.122853 0.201241 -0.017071 0.184232 -0.121387 0.255835 0.071936 -0.775581 -1.073791 0.520920 0.663099 1.418037 -0.405083 -0.755568 -0.136432 0.309044 0.091569 0.180890 -0.727849 -0.384708 -0.562099 0.100781 -0.491653 1.013532 0.617736 -0.361536 0.327564 1.321861 -0.963556 0.155913 0.486624 0.170930 0.396288 -0.431329 -0.628586 0.632911 0.677854 -1.134820 -0.017674 0.621345 -0.069947 -0.435374 -0.156687 0.017042 -0.054992 -0.136072 -0.904942 1.186075 0.287747 0.590791 0.524932 0.523919 -0.529303 -0.631528 0.295823 -0.427663 0.351731 0.749950 0.147116 0.672243 0.119769 -0.141958 -0.769439 -0.380296 1.384730 -0.234182 1.430629 -0.524331 -0.155806 0.909147 -0.746325 -0.259031 0.061528 -1.100303 0.311520 -0.322127 -1.091367 1.184761 0.979537 1.057925 -0.607467 -0.234247 0.100075 -0.788527 0.622865 0.413778 0.651611 0.483301 0.304557 0.167329 -1.228562 -0.462162 1.433722 -0.108392 0.129065 -1.097877 -0.294279 0.108963 -0.020493 1.556593 -0.060122 0.194077 -1.076462 0.120028 -0.139730 0.698495 1.201266 -0.797592 0.339506 -0.338175 0.476798 0.533790 -0.641521 0.321712 -0.163437 -0.257459 0.685003 -0.545662 0.024174 0.190629 -0.073176 0.195087 -0.000809 0.260121 0.907972 -0.482219 0.211709 0.732905 0.255046 0.632673 0.583805 -0.918908 -0.615110 0.319746 1.887602 1.231605 -1.139018 0.188295 -1.042017 0.522662 0.074223 0.279808 -0.364599 -0.283263 -0.154977 -0.135328 -0.267181 -0.861481 -0.137283 0.577712 0.361388 0.179619 1.062810 -0.116376 0.286044 0.286270 -0.248676 -1.326638 -0.768610 0.132506 -0.640450 -0.807957 0.655635 0.361910 0.279175 -0.191678 -0.388328 -0.140509 0.515988 0.288983 -0.695206 0.348395 -0.667485 -0.501258 -1.061214 -0.113850 0.378396 -0.584573 -0.037734 -0.342592 0.851157 -0.243937 -0.179733 0.262279 0.236263 0.046989 -0.105965 -0.048129 0.297574 0.257869 -0.459778 0.587417 0.174162 -0.525864 
learning -0.810049 0.225339 0.243769 0.862488 -1.193782 0.531143 -0.382896 -0.506633 -0.256015 -0.167891 -0.542072 0.439412 0.962405 -0.019150 0.835888 -0.546254 -0.011739 -1.514233 -0.222401 -0.433902 0.367317 -0.491279 -0.267773 -0.531005 -0.324519 0.153186 0.905728 -0.221872 -1.458613 -0.467273 -0.155575 0.371257 -0.231876 0.181718 0.716207 0.420899 0.034207 -0.921837 -0.389353 0.266011 0.745379 1.111387 0.201508 -0.847659 0.809804 -0.291058 -0.461669 -0.888743 0.303535 0.317641 0.338711 -0.662013 0.021185 0.231084 1.243653 -0.525911 -0.050093 -0.493693 0.259033 -0.079368 0.019532 0.345359 0.693861 0.320766 -0.382100 -0.024239 0.667925 -0.995143 0.643890 -0.332426 0.553381 1.102528 0.168265 0.929131 -0.370115 0.297227 -0.206635 0.762423 -1.188311 0.081771 0.007714 0.555417 0.571211 -0.966216 -0.280090 -0.361421 -0.166282 -0.292018 0.019711 -0.272206 0.251180 1.028548 0.181953 0.681305 0.012404 -0.674693 0.124254 -0.337636 0.339826 0.657321 -0.227106 0.410301 0.128673 -1.174147 -0.184461 0.290730 -0.600034 0.259661 -0.147033 -0.209404 -0.862204 0.194380 0.032695 -0.758695 0.912848 -0.424044 -0.755066 -0.306923 0.337733 -0.005770 0.150369 0.082603 -0.446970 -0.570942 -0.609871 -1.297047 0.102523 0.171469 -0.549676 -0.411200 -0.385880 -0.018341 0.311758 -0.064945 -0.534266 0.617374 0.742400 -0.261980 -0.116342 -0.677729 -0.055306 -0.173731 0.415574 -0.067829 -0.445457 -0.361932 -0.695892 0.628091 0.134188 -0.409795 -0.186418 0.695137 0.410103 0.057353 0.057880 -0.271767 0.359690 -1.037494 -0.545580 -0.238180 -0.768310 -0.593656 0.937722 0.595701 -0.294406 -0.065761 -0.828017 0.525772 -0.064916 0.072453 0.647593 -0.346150 0.124974 0.209188 -0.730920 0.785216 -0.567806 0.134973 -0.418583 -0.066008 -0.591992 0.270333 0.484773 0.275648 0.322885 0.353945 0.027173 0.135837 1.169030 0.107171 -0.923943 0.054644 0.178046 0.295265 1.630459 0.213084 0.511184 0.290299 0.210004 -0.350389 
the -0.021174 -1.192999 -0.108808 -0.957027 -0.026601 -0.397758 -0.423274 0.880638 -0.304695 -1.048066 -0.856154 -0.684884 -0.565323 1.153508 0.751022 -0.335330 0.503748 0.655127 0.343761 -0.289741 -0.065933 -0.318733 -0.392042 0.551169 -0.247229 0.114217 -0.327485 -0.074787 0.201833 0.609752 0.209690 0.827089 -0.516775 0.161919 0.306295 -0.120136 -0.191434 0.333529 0.855460 0.227950 0.130534 -0.349145 -0.316434 0.706640 1.173234 -0.384526 -1.207097 -0.009417 0.174042 -0.294513 -0.330266 -0.128252 -0.082631 0.445048 -0.075650 0.271395 0.201038 -0.472688 -0.728422 0.051573 -0.519714 0.317144 0.447861 0.461849 -0.474365 -0.165916 0.340704 0.203746 1.284234 -0.403990 -0.164340 0.543734 0.218392 -0.419265 -0.485830 0.912290 -1.111558 0.083982 -0.569393 -0.497501 1.024642 -0.439061 -0.408920 0.075152 0.225283 0.654535 0.034698 -0.058777 -0.125842 0.348724 0.568190 -0.887088 -0.050281 0.183886 0.784546 0.229943 1.061904 -0.487753 -0.214038 0.557840 0.412200 -0.021029 0.028236 -0.837110 -0.168135 -0.480807 -0.286645 0.531790 0.219370 -0.403273 -0.227656 -0.075780 -0.487697 -0.224074 -0.593808 -0.320694 0.246766 1.027859 -0.630909 0.637551 -0.895903 -1.012519 0.461130 -0.151761 -0.092757 -0.235602 -0.129193 0.377338 0.567723 0.836299 -0.124794 0.122922 -0.469167 -0.985012 -0.904871 0.188825 -0.179771 0.502448 0.385899 -0.706434 0.537998 0.167366 0.057930 -0.303438 -0.993387 -0.386833 0.351558 -0.613518 -0.575670 0.269237 0.814152 -0.132658 0.501176 -0.613327 0.178461 -0.498379 -0.780431 -0.488656 0.120654 -0.453190 -0.295628 0.077713 -0.350074 0.752011 -0.014527 0.154450 -0.558249 -0.152539 -0.511006 -0.112531 1.170758 -0.377183 -0.009320 0.233817 0.112075 0.407138 -0.125166 -0.180106 0.071115 -0.523201 0.638647 -0.045301 -0.275066 -0.029633 -0.036747 -0.377579 0.595747 -0.774402 0.685801 -0.122945 -0.033612 0.267246 0.455430 -0.213240 0.799955 -0.308913 -0.768543 -1.026504 0.462506 -0.042550 
with 0.757390 0.158107 0.394954 -0.786465 -0.662067 -0.574665 0.100828 0.863194 -0.539243 0.958436 0.384214 0.125477 0.238631 0.153478 -1.509653 0.481042 0.686289 -0.256510 0.956925 0.336111 1.166489 0.251712 0.864050 -0.160411 0.093025 -0.185675 -0.174857 -0.657531 -0.734367 0.129657 0.328498 -0.499673 0.178593 0.690215 -1.528819 -0.915660 -0.142691 0.260213 0.152408 -0.233777 0.454929 0.559273 0.351320 -0.969032 -0.053987 -0.415056 0.363934 0.568973 0.407331 0.068025 -0.122729 -0.276655 0.181303 0.225857 1.222575 -0.309287 0.390191 -0.091022 -0.579690 0.695662 -0.673649 -0.563689 0.232284 0.926377 0.798856 0.224179 0.447561 0.345496 -0.141434 0.682247 -0.553922 -0.109868 -0.185002 0.243574 -0.101148 0.264751 -1.076210 0.504333 0.365045 -0.388468 0.478541 0.634402 -0.971847 0.496596 0.546359 0.195590 0.225688 -0.524441 -0.186999 0.271403 -0.673542 -0.791040 0.168643 -1.095991 -0.296673 -0.457402 0.003692 -0.382034 0.592059 -0.088445 -0.199593 0.291645 0.091633 0.058988 -0.798687 -0.066015 0.468631 0.022951 -0.214297 0.277165 0.023173 0.349133 0.022860 -0.091962 -0.161926 0.021501 0.590652 0.723692 0.303658 -0.486231 -0.901603 -0.187242 0.364760 -0.717051 -0.032342 -0.144056 -0.745379 -1.367646 0.657614 0.548803 -0.626274 0.758410 -0.937219 0.021583 -0.006979 0.149182 0.603339 0.614395 -0.668315 0.764370 0.469606 0.387090 -0.387768 1.272299 -0.882036 -0.648252 0.984311 -0.035469 -1.477627 -1.066983 0.236406 -0.655483 0.033722 0.306242 1.544996 -0.576559 0.802318 0.626147 0.605757 -1.660151 0.159401 -0.335609 -0.767408 -0.534319 -0.871211 -0.074336 0.378357 0.106410 0.773997 -0.477167 -0.806106 -0.391999 -0.421362 0.275360 1.203553 -0.906736 1.599264 -0.362617 0.599330 0.690350 0.175243 -0.023543 1.578708 -0.183594 0.077940 0.205029 0.317323 0.404847 0.056806 0.599657 -0.012627 -1.102876 -1.661658 0.471069 0.550330 0.439407 -0.298367 0.088009 -0.248342 -0.097383 
to 0.008142 -0.253956 -0.425285 -0.361071 0.553064 -0.470823 0.827829 0.581061 1.114225 1.008723 -0.113182 -0.500323 0.617695 -1.401071 0.272018 0.215286 0.532888 -0.640650 -0.000334 -0.313199 -0.035746 0.651680 0.624543 -0.721460 -0.828217 0.752228 1.087987 -0.256243 0.826321 -0.392625 0.789638 0.047610 1.251316 1.127636 0.056749 -0.180548 0.296552 0.235921 -0.100379 -0.501817 1.298756 0.688335 -0.139761 0.450631 -0.580291 -0.637503 -0.535161 -0.594575 -1.293775 0.100660 -0.914190 -0.366654 -1.811331 -0.461064 0.101769 0.088778 0.155229 0.897662 -0.413839 -0.587884 0.309823 1.104442 -0.184395 0.864339 -0.256098 0.682857 0.910886 0.061242 -0.383024 -0.144505 -0.243881 0.174265 -0.707102 -0.000912 1.369045 1.214486 -0.179057 1.299603 0.608043 -0.780335 1.232891 0.892179 -1.016969 -0.037279 0.838584 -0.580099 0.047176 0.160399 0.309774 -0.629430 0.644796 -0.456021 -1.168696 -0.816976 -0.532222 -0.009400 -0.797748 -1.129748 0.247096 -0.683861 1.120858 0.189635 -0.657159 -1.127110 -0.659236 -0.438613 0.884183 -0.016260 0.418232 0.656836 -0.130406 2.266013 -0.652461 -0.555566 -0.482706 -0.952755 1.299105 0.632529 -0.258256 -0.496923 0.246457 -0.036415 1.468679 -0.599901 0.488800 0.169405 -1.095172 0.190372 0.441805 0.683548 -0.253798 0.849893 -1.063617 -0.574639 0.092871 0.655382 -0.802817 0.198541 -0.315895 -0.115524 -0.910938 1.419225 -0.478185 -0.645372 -0.580150 0.525152 -0.565726 -0.243443 0.276426 0.160137 -0.946498 0.057948 0.949455 -0.559776 -0.123002 -1.338766 -0.678035 0.178997 0.076178 1.111592 -0.253718 0.595461 0.008275 -1.157704 -0.900652 0.836823 -1.468638 -0.359772 -0.064913 0.877047 0.301530 0.692882 0.257003 -1.059426 -0.720924 0.062747 1.119475 0.149659 -0.651594 0.686668 0.298501 0.326795 0.302842 -0.957185 0.810791 0.677377 1.520945 0.951338 -0.710276 0.817496 -0.131889 0.306843 -0.879295 -0.800165 -1.433412 -0.173170 -0.235836 1.343536 0.020028 -0.748621 
using -0.336497 1.060019 1.893104 0.158058 0.161198 -1.416632 0.009300 -0.390797 0.759310 1.221722 0.590034 -0.233667 0.791197 -0.510542 -1.773817 0.539258 -0.091538 -1.012496 1.951005 -0.845704 -0.464502 0.634270 1.241438 -0.805241 1.279556 -0.626192 -1.371330 0.173041 0.124215 -0.339922 -0.739350 -1.167499 -0.637083 0.540189 -1.711272 0.039851 0.850215 -0.509942 0.669314 -0.046304 0.176855 -0.103360 -0.255328 -1.441766 0.071780 0.334902 0.318754 0.113523 0.384945 0.925076 -0.098834 1.298625 0.340849 -0.179602 1.116631 -0.433706 1.803371 0.091121 -0.863578 -0.179722 -0.102446 -0.147510 0.907832 0.927799 1.265488 0.559924 0.938337 -0.547627 0.103051 0.528370 0.527477 -0.749446 1.086512 1.364894 0.247258 0.334071 -0.334835 -0.683588 -0.788994 -0.698962 0.198455 -0.149764 -1.062604 -0.648128 -0.824249 0.304362 -0.934244 1.349717 0.545784 -0.117635 -0.191890 0.154401 0.479338 -0.339476 0.683628 -0.076096 -0.823033 0.122647 0.974477 -0.442098 0.037060 -1.734779 -0.429650 -0.824238 -0.533221 -0.721762 1.149102 0.742052 -1.196962 -0.881840 0.087618 0.658603 0.345704 0.623968 1.044111 1.040844 -0.459363 -0.131387 0.238827 0.408808 0.484520 -0.561072 0.760750 -1.363261 0.663235 -1.027305 0.174142 -2.225216 -0.256949 -0.150965 -1.167852 -0.314823 -0.788051 0.609971 1.015360 0.825367 1.086881 0.291610 0.713701 0.694987 0.440866 -0.192001 -0.472078 -0.077320 -1.757860 -0.040972 0.851636 1.083979 -1.461043 -0.905095 0.163312 -0.121796 -1.575307 -0.325298 0.885042 -0.249890 -0.444313 0.732356 0.672229 0.340836 -0.041604 0.380231 -0.540897 0.843031 0.243531 1.002571 0.181749 -0.118877 1.096624 0.108928 0.431776 1.501474 0.388688 -0.419017 0.832570 -0.380240 1.506334 -0.409037 -0.067230 -0.305077 -0.007153 0.714292 -0.619983 -1.534218 -0.350633 0.293079 -0.304289 0.219823 -0.038390 -1.002156 -0.238339 -0.135195 -1.302974 -0.206318 0.320519 1.052653 0.429243 0.645020 -0.091944 -0.538686 
on -1.392688 0.096311 -0.644748 -0.208715 -0.379109 -0.581703 -0.518814 -1.167407 0.479044 0.389036 0.300640 -0.590545 -0.503366 -0.051267 -2.406391 0.391109 0.304296 1.377552 0.999018 0.179701 -0.583843 -0.831969 -0.340116 -0.915770 1.820723 -0.399854 0.492016 0.075467 1.213752 -0.292924 1.187765 0.129345 -0.294646 -1.444258 -0.243720 -0.547691 0.009797 1.386001 0.130954 0.762173 -1.520953 0.244175 -0.250773 -0.573838 0.199522 -0.447733 0.551141 0.153443 0.377698 0.323539 0.440125 -1.170440 0.361236 1.452509 0.298031 -1.584012 -0.491167 -0.952937 0.498686 -0.861504 -0.114607 0.367033 -0.708202 1.143282 1.039150 0.505337 1.071492 0.222649 -0.973840 -0.031062 -0.813103 1.277957 -0.176042 -0.241923 1.710858 0.815930 1.683907 -0.731160 0.760102 -0.487165 -0.399859 -0.254849 -0.911066 0.763998 1.023477 0.707645 1.198819 0.341243 -0.978111 0.910502 0.206033 1.212816 -0.333789 -0.015122 -0.983527 -0.477266 -0.190990 -0.309750 0.547202 1.132861 -0.986244 -1.333050 0.471223 -0.244794 -0.824732 -0.635404 -0.156298 0.312454 -0.513379 1.220380 0.151859 -0.635961 0.396033 0.022396 0.405792 0.668314 0.318705 0.361839 0.429735 0.305444 0.333647 -0.664129 0.367422 -0.931389 0.351588 0.169516 1.094114 -0.138712 0.907463 1.894600 -0.483435 0.472846 -0.461210 0.967051 -0.130857 1.715329 0.234713 -0.354007 -0.705606 -0.161506 0.997355 -1.586323 0.021715 1.521814 -0.796222 1.762388 0.925970 0.183042 -0.212840 -0.374637 -1.379534 -0.324367 0.230146 -0.979970 -0.463678 0.221609 1.438803 -0.334091 -0.974982 -0.035710 0.741105 0.337716 -0.092356 -0.138927 -0.421347 0.275539 -0.179127 1.288485 -0.410120 0.530758 -0.071042 0.026412 0.309971 0.746181 -0.052432 1.689507 0.813824 -0.919340 -1.554681 0.929651 0.152618 -1.196705 0.564992 1.312419 -0.581598 0.819532 0.665406 0.504895 -0.386754 0.098663 -0.653561 1.090551 0.228326 -0.893842 0.199423 0.217454 -0.554003 0.354686 -0.249965 0.170050 
model 0.423693 -0.623375 -0.580302 -1.176147 -0.789480 0.530928 -0.128987 0.415706 -1.602600 1.020257 -0.680950 0.702500 -0.746310 1.145900 0.494470 1.413568 -0.860159 -0.113111 -0.307702 0.169718 1.175139 -0.608548 -0.207912 0.113453 0.179197 -1.135086 -0.365161 -0.968690 0.986642 0.459355 -0.087032 0.822488 0.209089 -0.601386 -0.145788 0.592803 0.236962 -0.198814 0.480367 0.307347 -2.016608 -1.473670 0.512182 1.032273 -1.022189 0.618240 -1.216136 0.588636 1.586036 -0.383955 -1.349531 -1.329500 -0.596511 -0.622042 1.481836 0.805700 -2.469594 1.527204 0.525817 -0.712952 -1.947711 -0.285895 0.511479 1.293297 -1.462105 0.390264 -1.686308 -1.551115 -0.383159 0.027178 0.547617 -0.591984 0.359250 1.520647 1.345528 1.224608 -1.214937 1.076421 -0.583755 -0.558372 0.363929 0.527609 0.758570 1.101163 -0.409939 0.079992 -0.379853 -1.123821 0.669834 -1.207657 -0.385295 0.115940 -0.276860 0.387282 0.756005 -1.469257 1.713673 1.053040 -0.186444 -0.613026 0.632845 0.392163 -1.190577 -1.006706 0.182161 -1.083323 0.249964 -0.271366 1.113498 -0.922648 -1.481487 0.496338 1.334463 -0.732274 1.376941 1.132033 0.292965 -1.188933 0.183725 1.784678 0.849393 0.266949 -0.682089 -1.441560 -0.104607 0.812178 1.047164 -0.202549 0.881589 -0.184464 0.123528 -0.076872 1.894086 0.159678 -0.085978 -0.270506 0.181525 -0.617176 0.519232 0.306647 0.787654 0.156250 0.104247 0.772715 0.026551 0.183582 -0.384790 0.835150 0.330474 -1.316247 -0.603842 -0.455054 0.191092 -2.049098 0.019031 -0.534571 -0.088109 -0.831502 -0.453185 0.809937 0.006328 0.387642 0.216514 -0.801710 -0.263294 -1.085438 1.013010 -0.994940 -0.368766 0.965733 0.137674 1.317489 0.221521 -0.547317 -0.084999 0.532740 -1.511985 1.022010 1.519841 1.819648 0.643715 1.092771 -0.418357 0.019474 0.826369 -0.759215 -0.615790 0.615235 2.289668 0.027567 -0.008729 0.576180 1.425167 1.233836 -0.023304 0.028658 -0.279915 0.548035 0.537962 -0.222310 
models 1.729545 0.033357 0.095773 -0.765414 -0.006957 -1.458513 0.554315 1.265543 1.811348 0.185762 -1.510004 0.103917 -0.465588 1.437656 1.016547 0.478329 0.391103 0.176087 -0.178719 -0.025244 0.004033 -0.468558 -0.610687 -0.520169 -0.788348 0.537290 0.230771 0.852065 1.056173 -0.370158 -0.616697 0.601406 0.149260 0.077809 -0.238519 -0.217768 0.357763 0.307848 -0.623726 1.510829 -0.220394 -1.116645 2.068588 0.292169 -0.742977 0.892066 0.725671 -1.152415 0.180325 -0.048340 -0.149562 0.149233 -0.898776 -1.564556 0.891064 -0.174642 -1.121575 -1.075920 -0.167303 -1.236298 -0.041724 0.286647 -0.732458 -0.579479 0.490669 0.352337 -0.148072 -1.279165 0.704482 -1.331866 -0.193328 -0.594822 0.830688 0.131061 0.851931 -0.705797 0.220142 -0.673792 -0.184667 0.947137 1.125102 0.467086 2.241550 0.302131 -1.590204 -0.714919 -0.131601 0.128620 0.041521 0.595626 -0.149700 -1.227679 -0.261262 0.392399 1.312232 -0.756620 0.991193 -0.378167 0.929406 -2.118054 1.076423 -0.481295 -0.853045 0.177795 0.242858 0.388857 0.323728 0.428434 0.401550 -1.474841 -0.246983 0.535500 -1.027626 -1.545375 0.923609 -1.446066 0.376085 0.233381 1.035126 0.711557 -0.172424 1.681716 -0.995122 -0.913186 0.381405 0.272730 1.421031 -0.223154 0.890925 -0.025420 0.592330 -0.016512 1.932825 -0.090060 -0.622158 -0.765034 0.444581 -1.288864 1.135536 -0.989615 -0.329229 0.555487 1.543765 -0.098667 -1.046012 -0.819175 -1.151834 -0.722783 -1.059916 0.433300 -1.022790 -0.668265 -0.951475 -1.523386 -2.209554 -0.126656 1.639962 -0.632582 -0.568057 0.326246 -0.628609 0.217346 0.603103 -0.192933 -0.619480 -1.133385 -0.620344 -0.401179 1.092969 1.456506 0.375199 -1.866481 0.344606 -1.074235 -0.514596 -1.306717 0.254126 0.503804 0.248087 -0.798302 1.042433 0.301443 1.568482 0.341625 0.289171 -0.395585 -1.274507 -1.204856 0.510005 -0.012383 -0.690126 -0.342491 1.926652 -0.609592 0.981932 -0.222452 -1.114411 1.477776 -1.310085 0.650055 
from 0.626617 1.051367 -0.697564 0.402788 1.927326 1.049044 -0.110381 -0.734014 -0.839902 0.532121 1.274223 1.332721 0.134510 0.902088 -0.246078 0.211910 -0.740736 -0.395815 0.227399 -1.834188 -0.487229 1.323778 -1.510241 -0.064154 -0.409271 0.359341 0.612053 -1.286624 -0.208782 -0.289567 -0.391199 -0.229486 -0.537545 -0.217046 0.094045 -1.048271 -0.893955 1.587541 1.846798 -0.337539 -0.655745 -0.894315 2.182157 -0.186617 -0.840489 -0.412152 -0.438340 0.489363 0.176323 -0.761577 0.393253 1.479388 -0.518233 1.072343 1.997447 1.776411 0.039277 -1.073363 -0.770882 0.511099 1.023648 0.848139 -0.364167 1.695763 0.153932 0.448922 0.413247 -0.452670 0.275715 1.705307 1.994019 -0.197686 -1.731714 -0.144506 -0.707974 1.347151 -1.905860 -0.353189 1.457173 -0.193096 0.596937 -0.713305 1.507917 -1.902304 -0.804919 0.974882 1.041659 0.171937 -0.837854 -0.170697 -0.091379 0.657167 -0.664770 0.394596 -0.549226 -1.483409 0.547982 -1.480725 0.568416 -0.091628 2.403495 -0.639227 -0.139782 0.082500 -0.156833 0.214865 0.513036 1.003680 -0.590761 1.646593 1.504733 -0.984407 -1.030810 0.813078 -0.415667 1.241683 1.459847 -0.315813 -0.147457 0.185809 0.222781 0.079614 0.408538 -0.913592 0.510419 0.141112 0.762045 -1.035940 -0.131727 0.852708 0.612266 0.254387 0.145638 0.951995 -0.436533 0.364677 -0.389857 -1.699163 0.573703 -0.563500 -1.048474 0.072002 -1.161583 -0.282960 -0.399777 -1.255151 -0.360833 -1.003095 -0.882267 -1.100335 0.643490 -1.064981 -0.849645 -0.444691 0.003410 2.027107 0.019509 1.103054 1.479774 -0.161550 -0.004473 -0.986062 -0.792236 -0.462353 0.221107 0.287920 0.965737 0.393516 0.264941 1.035456 0.934554 -0.537787 0.801375 1.652493 -0.585650 0.285511 -0.747829 -1.194819 -1.154762 -0.313509 -0.909927 -0.355683 -0.494713 -1.109867 -0.558928 1.971906 0.440019 0.342500 0.504912 1.400012 -0.231681 -0.413600 -0.982814 1.370555 1.272742 0.229250 -0.031402 2.103637 -1.836655 -1.355061 
by -0.910818 -0.169766 1.350914 -1.365000 1.533872 0.762394 0.522453 -0.254775 0.380383 0.208165 0.458627 1.124821 -0.798361 0.714874 0.049597 0.149398 0.919410 1.437704 -0.278633 -1.423457 -0.973178 -0.844081 1.013242 1.082485 -0.996561 -2.074727 0.471087 0.339492 0.083847 -0.190945 0.261691 -2.722758 0.365396 2.534204 -0.952338 -0.862344 0.485547 -0.199204 1.224947 0.771333 -1.419964 -1.745737 -0.125870 -0.703053 0.731749 0.474223 -1.255599 0.172849 0.449869 -0.144158 0.307711 0.224469 -1.967687 -0.109165 -0.027075 0.037454 0.538409 0.440006 -1.895444 -0.324008 0.771537 0.413954 0.368808 0.664296 0.310295 -1.777032 -0.450207 -0.880846 0.385439 1.371266 0.530738 0.911402 -0.915252 0.480973 0.818841 -1.557224 1.588016 0.301924 0.279614 0.296593 0.282975 0.196489 -1.051499 0.556245 0.680827 0.095307 0.085098 -0.005928 2.105288 -0.590364 -0.747972 -0.547610 -0.321625 -0.294032 1.272908 0.110153 -0.111359 -0.173890 1.498012 0.688173 0.005769 -1.074098 2.122472 -0.442696 0.562284 0.283473 -0.004380 -0.945913 -0.776069 1.757300 -1.237097 -0.377528 0.901629 0.732271 1.264239 0.169006 2.063531 -0.768265 0.984530 -2.111431 0.874837 0.710217 0.840458 -1.062819 -0.259196 0.522374 1.429640 -0.904655 1.134117 1.673816 -1.989839 -0.970905 -0.452691 -0.231236 0.487810 -0.174570 0.428615 1.326801 -0.341074 -0.593400 0.123811 -1.003914 -1.114524 1.556706 1.037498 -0.459110 1.356330 -0.113766 -1.801787 -0.403051 -1.429231 -0.175015 0.482039 -1.291581 1.268701 -0.953523 -0.503488 -0.991741 1.228090 0.237225 0.538892 -1.162749 -0.400259 -1.041085 0.781486 1.111349 0.638458 -0.038074 1.246890 -0.614621 -0.623020 -0.271703 -1.584486 -0.186120 1.458983 -0.756414 1.291073 -0.892643 1.429020 -0.733401 0.378538 -0.803101 0.935678 -0.887567 0.876368 -0.052467 0.256036 -0.071285 -0.970796 1.049408 -0.366358 -0.696972 0.976308 1.138920 0.291845 -1.333491 -1.876397 -0.037958 1.082482 -1.949538 
an -0.790990 0.687326 -1.321120 -1.185943 -0.431613 -0.027336 0.741091 -0.887279 -0.640291 1.292531 -1.990993 0.089018 1.602290 0.309877 1.436206 -0.124362 -0.583812 -0.676780 0.737501 -0.963908 -0.745156 0.641621 -0.667973 0.526166 -1.790412 -0.539164 -1.303821 -0.870087 1.030447 -0.062493 -0.474349 0.636591 0.265912 1.585625 0.773783 1.071895 1.212482 -0.135353 -0.134356 0.542628 -0.202580 1.802036 0.146899 -1.756523 1.239777 0.207319 0.121987 -1.754843 -0.208810 0.836294 0.378517 -0.619816 0.659142 -1.045030 -1.024211 1.081231 1.702204 -1.523676 0.628811 -1.944607 1.115586 0.463321 -1.192138 0.376022 -1.171103 -0.658832 0.878228 -0.558655 0.208538 -0.334845 -0.765729 0.930530 0.586223 -1.758943 -0.578964 -0.553419 -0.550157 -0.302282 -0.836412 -0.415374 2.274071 0.275747 1.540293 -0.427446 1.029282 -0.368588 0.657455 0.059786 0.858231 0.657894 0.719278 -0.433942 1.121946 1.731802 0.129868 0.399936 -0.200031 1.129646 0.223606 -0.511598 0.846756 -0.545963 -0.039083 -1.317221 -1.487683 0.010734 0.586122 1.757646 0.559800 1.680329 1.119569 0.946418 1.024179 -0.388677 -0.452610 -0.272740 -0.244310 -0.144099 -1.489289 0.099840 -2.308364 0.931551 -0.237822 0.847690 -0.529924 0.087559 0.043459 0.298791 0.557804 0.027511 1.101530 0.573955 0.035465 0.972870 -1.275103 -0.478201 -0.773850 1.997079 -0.902616 -3.315462 -1.446992 -0.241167 0.718734 -0.102992 -1.375250 1.079693 0.485069 -0.313847 0.602913 0.040528 1.598265 0.008531 1.445794 -1.325907 -0.862144 -0.839281 0.326926 0.187844 1.076117 -1.443948 1.731250 1.311159 -0.379999 1.075107 1.114540 0.732697 1.033004 1.268130 -0.388615 0.013739 0.430675 -1.537351 -0.069536 -0.658814 2.036541 -0.364791 -1.003811 -1.261950 0.094608 0.245662 -1.025320 -0.604012 0.024449 1.328493 -0.233878 -1.082693 0.403305 -0.324612 -1.139107 -1.216564 -1.699645 1.012702 0.584268 -0.355403 -0.083277 -1.545089 -0.445938 -0.356186 0.248018 0.420024 
neural 0.291761 -0.493421 0.950063 -1.222713 0.652112 1.631287 -1.072861 -0.078200 -0.763416 -0.704677 1.470936 -0.387486 0.355534 -2.033225 2.461944 0.870294 0.279251 -0.469201 -2.318030 0.155966 -0.865416 -2.320666 -1.123274 0.056179 1.063896 0.374631 0.148682 -0.018349 -0.329200 -0.427185 -0.407920 0.808204 -1.398222 1.716466 0.238751 -0.958623 0.507727 0.915361 -0.228623 0.400955 1.307859 -0.537049 -0.002074 -0.948716 -0.556462 0.348669 -0.833103 -0.586874 -0.867032 -0.405578 0.436401 -0.850002 -0.612128 0.280971 0.226149 0.442518 2.337560 -0.444032 -0.552756 0.144631 -0.145029 1.786893 -1.725179 1.450251 -0.410128 -0.690435 0.557609 0.698062 0.505456 -0.139705 1.101174 1.315777 -1.192260 -0.272210 -1.043558 1.179075 -0.664791 -0.812980 1.125946 0.393057 -0.689951 -1.304767 -1.382698 -0.231086 -0.522199 1.118543 0.500616 0.100507 0.659553 0.083191 -0.165757 -0.327248 -0.266748 -0.377831 0.915888 -1.187155 0.807997 -1.351703 -1.576830 -0.325365 -0.393747 -0.936897 0.808387 -0.195054 0.130866 0.356828 -0.248845 0.386873 -0.152621 0.414263 -0.714144 0.429363 2.469216 -0.516766 -0.382087 1.527128 -0.690277 -0.505117 -0.611669 0.942113 1.530840 0.269056 0.099653 0.288308 -0.674372 0.019771 0.035177 -0.092607 -1.354352 -1.614185 -1.351189 -0.636599 0.643625 -0.649859 1.161403 -0.886417 -0.926827 -0.886706 0.607482 -0.025713 1.167440 1.064091 -0.611446 0.895200 -0.185416 0.433772 0.332397 0.051612 1.487681 -0.572593 -0.397672 -1.127981 0.661928 0.037596 -1.920734 -1.159648 0.201771 0.866267 0.557741 0.514117 0.378318 0.919782 -0.058454 -0.164421 0.017981 0.707990 0.003595 0.689992 1.459080 -1.257773 -2.404340 0.228975 0.675532 0.123366 0.996444 0.273512 0.234163 -1.159757 0.345447 0.884711 0.512318 -0.309254 -0.107318 0.154054 -0.339918 -0.085012 0.475915 0.387764 0.298240 -1.115895 -2.568990 0.466299 -0.576594 -0.908972 -2.315680 1.401175 1.547159 -0.576656 -0.441348 1.115173 
networks 1.487760 -0.599230 0.195398 -0.099702 -0.865641 -1.758257 -0.593102 -0.644356 0.119646 -2.096350 -0.312469 -0.853272 0.929797 -1.550385 -0.099579 -0.044092 1.384596 0.849423 0.578676 -0.520983 0.442770 -0.218832 -0.103090 -1.283900 -1.685789 1.767026 0.597131 0.180430 0.142232 -0.079763 -0.219689 -0.243653 -0.618247 -1.866694 0.789427 -1.473763 -0.034521 -0.720072 2.595024 0.081386 -0.461952 2.117239 0.428736 -0.288686 -0.092878 1.359498 -0.368097 0.824318 1.417213 0.427245 -0.709034 0.506206 0.894759 -2.342445 -1.611026 0.093711 0.209351 -1.687801 0.173910 1.545334 0.293564 1.415536 0.577605 0.472287 -2.768835 0.376537 0.011085 -0.113390 -0.652198 0.543366 1.171689 -0.406573 0.088116 -1.041777 -2.046668 -1.490080 -0.795874 -0.839355 -1.013492 0.616794 -0.078348 -0.153682 0.837858 0.980194 0.989596 0.062575 -0.013500 -0.055482 -0.887145 -0.869454 0.311797 -1.270750 0.140119 0.300549 -0.923096 2.168364 -0.708345 0.790829 -0.852592 0.741824 0.295438 1.248997 0.577071 0.127274 0.385292 0.311746 -0.140444 0.497323 0.590184 0.525653 -0.706776 -0.310708 -1.057457 0.011249 0.760124 1.331731 0.712449 -0.161390 0.261786 0.682620 1.031360 3.037732 -3.419248 -0.423701 -0.694358 1.264951 1.634383 -0.618907 -0.806655 0.380874 1.078299 -0.948378 -0.070552 0.827086 -1.830093 0.185083 0.828178 -0.835960 -2.016589 -0.433449 0.399689 -0.221653 1.484821 -0.920921 -0.265542 0.928379 0.343149 0.560616 -0.375547 0.307240 -0.693941 -0.173481 0.934426 0.299971 -1.149998 -2.021701 -0.143266 0.516482 -1.865576 1.083429 -0.187431 2.390072 1.143152 -0.199019 0.483807 -0.246241 2.038077 0.686155 -1.873185 -0.777352 -0.041800 -1.533108 -0.112709 0.434855 0.039970 1.041637 0.254332 -0.437479 -0.983332 -0.155282 0.621349 0.279864 1.323114 -0.576905 -2.103095 1.691080 -1.364053 0.130065 -0.662300 0.234474 0.067799 1.060475 -0.196903 0.148170 0.061522 -1.117441 -0.467651 -1.099955 0.598110 0.276231 
via -0.454748 0.682222 -0.326312 -0.941407 1.690735 -1.123471 0.220494 0.715623 0.380749 2.581692 1.388372 0.601381 -0.720941 -0.658246 -2.168482 -1.746074 0.731592 -0.078648 0.519220 -0.623429 -0.073883 -0.236346 -0.365388 2.345954 -0.102531 -1.142976 0.820529 -1.116908 -0.147033 1.182872 0.988958 -2.431274 -0.053719 2.651091 -0.016253 0.275229 0.110270 -1.013400 1.613843 -2.316660 0.566543 -1.181786 -1.776237 0.481771 -0.614381 1.007694 0.230708 -0.386845 0.498916 -0.531708 -0.372025 0.369677 -1.272549 0.055601 -0.066187 -0.867179 -0.036293 0.076419 0.254503 -1.559760 0.895102 0.580972 -0.113070 -0.501692 0.829697 0.930621 0.946529 -0.237847 -0.759968 0.244107 -0.254008 -0.607406 -1.175279 1.015532 1.702486 -2.137731 1.875460 0.805526 -0.558384 -0.089406 0.024739 0.564505 0.285003 -0.508123 0.230198 2.168292 0.165737 -0.039405 0.258033 -2.057556 0.260240 -1.593037 0.122295 -0.035616 0.151315 1.253214 -0.236904 -0.012023 -0.903477 -0.122636 0.530832 0.911016 -0.650942 -0.240959 -0.696908 0.987411 0.107380 -0.754191 -1.629820 0.536237 -0.548546 -0.124054 -0.825810 0.423216 0.296703 1.093240 1.356806 -1.113014 1.135264 -0.840888 -1.505829 -1.302141 2.209018 -1.108905 0.173878 0.661421 0.102079 -1.612013 1.092601 0.459302 -0.752615 -0.205617 -0.555212 1.707062 0.665532 0.218736 -1.982726 1.274914 -0.762729 0.361318 -0.132542 0.299384 0.910211 1.116086 0.350626 0.520662 -0.714159 -0.299860 -0.129908 2.091989 0.190753 -0.112945 -0.697835 0.698417 0.516167 -1.002141 0.206160 -1.696133 -0.830914 -1.910321 -0.172223 0.077377 -1.770741 0.908728 -0.829072 -0.258411 1.557546 -0.662678 0.411790 1.031588 0.005163 1.984542 1.529043 0.788993 0.987942 -0.939610 2.309417 0.185979 -1.615137 -2.511591 0.199423 1.186695 1.824493 -1.345763 -0.200251 0.013586 -1.041959 1.336999 -0.200435 -0.200684 -0.691308 -1.438863 -0.893959 -0.675608 1.542541 0.331494 -0.507636 1.126703 0.741803 -1.348057 
sparse 1.108321 0.964120 0.359101 0.148381 0.105202 0.689990 -0.715462 -1.070507 -1.439336 -0.003795 0.857210 -0.029860 0.980234 -1.440153 0.755827 0.886237 0.581444 -0.361668 -0.723602 0.605730 -0.335720 -0.113868 -0.175289 -0.294414 -0.040191 1.320855 0.598541 1.855091 0.014701 0.071997 -0.326384 -0.041123 -1.302530 -0.903129 -0.487994 0.201759 1.200639 -0.078457 -1.035514 -0.439195 0.818752 -0.161168 0.337369 0.956995 -0.907370 0.949258 1.884967 -0.383748 0.637362 0.876198 1.399060 -1.085322 -1.166622 0.682163 0.678171 0.122597 -1.104643 0.157746 1.023829 -0.550427 0.603974 1.625296 0.465085 0.234070 -0.280108 0.877586 -0.290084 0.195697 1.479121 -1.093468 0.242045 0.195497 -0.069317 -0.314754 0.991436 0.180726 -0.725304 0.601146 0.973357 -1.014852 0.930598 -1.465593 -0.150618 -0.254764 0.083946 0.430557 1.156226 0.582588 0.338043 -1.757402 0.469143 0.585348 -0.117855 0.304310 -0.221351 1.844763 0.195997 -1.592237 -0.892317 1.464850 0.413949 -1.168522 -0.398984 -0.677762 0.682172 -0.842665 0.186618 1.010804 1.350656 -0.117660 -0.466737 -0.256065 -0.341850 -0.032765 -0.769386 1.952181 0.411369 -0.285679 -0.118016 1.754216 -0.442811 -1.696925 -0.680314 1.044252 -1.635002 1.066079 -0.599030 -0.292508 -1.631831 0.273921 -0.665959 0.717876 0.019018 -0.155068 0.102240 -1.049441 1.231984 -1.191610 -0.665589 -0.820455 0.078524 0.821260 -0.635428 0.727946 0.648059 2.907619 -0.995811 0.597888 -0.029165 1.308339 0.232284 2.054759 -1.825403 1.417836 0.405754 0.300023 0.250092 1.268704 0.666089 -0.766892 1.324614 1.861144 2.025437 0.428088 1.328825 -0.743386 1.157351 0.301539 -0.007296 -1.032483 -0.686639 -0.262384 1.557074 -0.101303 -0.364154 -0.109480 1.039469 -0.296377 0.572131 0.139073 1.588885 -2.538906 -1.349875 1.141150 0.583812 -0.013295 0.023418 -1.170964 -0.236298 1.044761 0.370659 -2.421053 0.304788 0.320596 0.287909 -1.072945 0.317559 0.329924 0.796325 -0.394336 
data 2.460797 0.634550 -0.266142 -0.210812 -0.682337 0.848682 0.279008 -0.817825 1.618161 -1.351332 -1.926691 -0.129193 2.021902 -0.522527 1.584716 0.375691 0.931650 0.040312 0.561945 0.104156 -0.110414 -0.676376 0.252094 -0.286242 0.679250 -0.450319 1.207471 -0.461614 -0.135204 -1.259010 -0.618830 0.823257 -0.489412 -0.164844 -1.342192 0.425439 0.299108 1.469529 0.430095 -0.647820 2.324680 0.582491 0.244999 -0.412979 -0.073648 1.397221 -1.087781 0.263523 -0.582420 -1.737649 -0.754714 0.942703 0.377512 -0.907041 -0.703140 0.465273 0.607215 0.807694 0.373839 -1.971155 -0.095520 0.033460 1.723120 -1.643639 -0.725145 -0.856616 -0.499533 -0.084018 0.035840 0.742589 1.803198 -0.255359 0.552490 1.927157 1.019593 1.154275 -0.452863 -0.636410 -1.640379 1.172703 -0.794962 -1.184660 -0.770305 2.010870 -1.773946 -1.418856 -0.547037 -0.851785 -0.717151 -1.114267 0.936121 0.172646 1.245454 1.052264 0.143027 -0.989761 0.420379 0.100307 -0.124055 0.167569 2.197207 1.348629 2.235932 1.289859 0.849630 0.314185 0.374630 0.407607 -0.201883 1.570342 0.859952 0.702299 -0.496572 -1.736783 -0.529898 -0.062416 -0.704036 0.907994 -0.578003 0.180418 0.486720 0.683374 0.963283 -1.208808 1.028252 -1.305979 0.674711 0.940418 1.707643 0.049766 -0.795590 -0.612500 -0.547694 -1.220509 -1.110654 -0.327155 0.987212 1.061290 0.840184 0.000696 0.223879 1.460616 1.220734 0.686062 2.744678 0.582915 0.874700 -1.279893 1.384517 1.369259 1.515382 0.332454 -0.486163 0.888598 1.113712 -1.382196 -1.349157 -0.052302 -0.106856 -0.194492 -0.813510 1.433947 -1.511484 -1.039595 0.000673 1.384967 -1.098081 1.068882 -0.557277 0.964904 1.263831 -0.970751 1.149978 -0.857307 -0.739993 -0.919936 -2.059194 -1.429253 -0.021935 1.697981 1.001967 -2.529617 0.440761 0.757864 -0.650317 -0.598329 -0.846905 0.565448 -0.463561 -0.394790 0.032430 -0.130508 0.260590 0.343148 1.144681 -0.731306 1.428299 -0.405758 0.668136 0.421070 
analysis 0.595241 1.787851 -0.570470 2.371573 0.860655 0.318648 -0.521750 0.727036 1.425575 -0.890271 -2.014980 -2.049372 1.779934 0.755417 -0.178365 2.054865 0.839815 -1.400559 -0.656673 -1.976473 0.885471 -0.918435 -0.275783 -0.239408 0.104698 0.114114 0.049022 -0.347548 1.104613 0.436101 0.460712 0.924172 0.453570 -1.412884 2.020801 0.122068 -1.120309 0.838074 -1.643627 0.279496 0.371564 -1.602603 0.301118 0.433180 -0.954000 0.595641 0.919716 0.331647 1.088577 1.099975 -1.058299 -0.885756 0.479323 -0.340856 0.551848 0.472055 -1.443424 0.453361 0.997907 1.607602 0.094406 -0.033206 -0.305468 -0.787126 0.433904 0.393141 0.121291 -0.267422 1.047655 -0.544653 -0.317565 0.541022 -0.126733 -0.073472 -0.391233 1.471337 -1.612242 -0.953604 0.400950 1.531524 -0.452003 0.117214 0.062216 0.108093 -0.021639 0.056975 -0.136379 -0.441347 -0.003212 -1.241017 0.352385 0.332556 0.798739 0.898310 1.585712 -0.702017 1.043307 0.586352 -0.893313 -0.536499 -0.235659 0.411992 -0.644782 1.392800 1.208450 -0.544122 -1.013254 1.076559 -1.514459 0.064160 -1.161745 0.214709 0.034993 -1.948389 -1.034229 0.062464 1.479274 -1.386122 -0.052267 1.073500 0.021794 -0.256721 -0.211246 -2.188803 -0.186691 0.242340 1.525023 -0.380284 -0.288251 0.465724 -1.401972 1.953747 0.237741 -0.940761 0.222020 -0.040787 -0.372290 -0.210632 -0.098837 0.591915 -0.151753 -0.761475 -0.570290 0.459758 -0.740139 -1.086006 -1.313238 0.261295 -0.653962 -0.680400 -1.030827 0.747618 -0.099633 0.422398 -0.411499 -0.164609 0.487649 -0.798249 0.016819 0.594310 1.015334 0.060058 0.753358 -0.762467 0.423072 -1.092513 0.031412 1.033459 -0.851353 -1.028633 -0.968938 -0.415760 -0.752171 1.494563 -1.843733 1.603379 0.166181 1.198134 0.178630 0.102267 -1.066667 0.164987 0.158607 0.169293 -0.213170 -0.923418 0.125713 -0.497822 -0.223456 -0.372880 -0.694826 -0.007262 0.316525 -1.125019 -0.322532 0.108061 -0.276112 -0.562918 -0.715322 -0.931757 
neural_networks 0.897937 0.171839 0.395343 -0.430354 -1.120886 -0.529908 -1.413565 0.966386 0.269671 -1.439451 0.106267 -2.205294 -0.841850 -0.952074 2.595239 0.441437 -0.144686 0.683908 -0.343010 -1.008868 -0.048163 0.614278 -1.644817 -0.271443 -0.053569 1.034471 0.462739 0.572483 -1.242863 0.963011 -1.031156 -0.280146 -0.123284 -1.271040 0.867750 1.565874 -0.955584 -1.403723 -0.006483 1.094280 0.795034 0.038221 0.552497 -0.942527 0.543744 0.455781 -0.049171 -0.356308 0.012008 1.446317 0.603080 -0.463502 0.693666 -0.938193 -0.134903 1.951929 0.918129 -0.680701 -0.827756 1.727052 1.079024 0.330899 0.508286 0.379373 -1.526125 1.112478 -0.407127 0.395031 -0.488314 0.212866 1.136545 -0.601961 1.088723 -0.940808 -0.582496 -0.481829 0.440672 -0.593058 -0.373665 0.543429 -2.192783 -2.240721 -0.687574 -0.278194 -0.999339 -0.383983 1.050762 -0.533910 0.181465 1.181087 0.626182 -0.521027 0.634301 2.028931 -0.859524 -0.126659 0.989564 0.727189 -0.910212 0.334567 1.413635 1.364539 0.296416 -0.351659 -1.421484 0.915973 -0.532601 0.816477 0.589275 -0.083856 0.444549 0.209936 -2.020935 -1.415573 -0.422972 0.157592 0.516501 -0.250478 0.709150 0.432544 0.898604 2.935436 -1.588043 0.449223 -0.412199 0.420941 2.621817 1.316197 -0.304089 0.852159 0.131638 0.641159 -0.054770 -0.725922 -0.299280 -0.219591 1.067742 -0.848655 -0.708598 -1.422068 -0.061047 -1.453846 -0.918240 0.022593 0.357119 1.153256 0.957074 -1.240898 0.067916 0.827518 1.112899 1.374169 0.500469 -0.176968 -0.863858 -2.422392 0.964895 -0.042613 -1.833519 1.647373 1.545962 0.023301 1.503425 0.890765 1.226606 -0.288794 0.571261 0.008057 0.044523 -0.570181 -2.167340 -0.158214 1.017996 -1.391528 -0.901346 0.945443 1.374022 -0.812452 0.967138 0.934405 -0.192009 2.003026 0.325261 0.920253 0.008752 -0.629407 0.557789 0.784331 0.172465 0.274795 -2.087193 0.557202 -0.907617 -0.591673 0.948228 0.730332 0.738762 -2.012710 -0.001061 0.962333 
classification 0.219723 -0.183196 -0.464933 1.840533 -0.555875 0.958832 -0.795729 -1.021233 -0.672786 -1.448367 0.429664 -0.376288 0.820752 -0.456900 0.665978 -1.421971 -0.050164 -0.245600 0.665033 0.993576 1.483440 0.730524 0.750582 -0.241181 0.351151 -1.202440 -0.917374 0.557646 -1.573248 1.225660 -0.535465 0.248441 -0.238946 -1.304852 1.347288 0.776353 1.019935 -1.044510 -0.669837 -0.238425 1.157990 -0.332380 0.408263 2.740360 0.784485 0.374675 -0.385570 -0.136083 -0.646939 0.153268 0.819949 -1.330110 -1.825077 -0.132371 0.551787 -1.503528 0.246037 0.086768 -0.809151 -0.759911 0.560992 -1.023531 0.421522 0.869191 -0.963316 1.305342 -1.396622 0.436933 -0.472553 0.299470 -1.472144 0.147865 -0.031619 -0.550217 -0.574389 -0.972725 0.319746 1.601391 -0.698253 0.877219 1.335708 -0.998131 2.366438 -0.909848 -1.495735 -0.728378 1.092481 -1.981727 -0.599498 -0.947909 0.744398 0.201554 1.123102 1.575288 -1.182449 0.135480 0.279310 0.284288 0.451519 -0.569686 0.449480 1.103883 -1.450658 0.694367 0.317692 -0.112788 -0.930093 -0.099707 -1.305587 -0.474325 -0.206071 -0.237333 -1.769389 -0.081036 -0.298689 1.068392 1.106674 -1.606460 0.465333 0.382752 -0.250642 -1.146827 -1.147730 1.553920 0.141094 -1.438660 -0.424243 0.896412 -0.352189 -0.650086 -1.878842 0.274955 -0.058941 0.120680 -0.195518 0.326028 2.180634 0.713000 -0.306245 0.604460 0.008916 -0.388674 1.825244 -0.170503 -1.136811 -0.173765 0.531250 1.954761 -0.725647 0.320787 -0.443256 0.449120 -0.318323 -0.032698 1.418301 0.520710 0.577865 -0.850357 -0.743119 -0.667803 -0.282194 0.797621 -0.992599 -0.297263 0.457511 0.061271 0.360418 1.343769 -1.043282 0.709096 0.936773 0.492664 0.401924 -0.221283 -1.034246 -0.124319 -1.061335 0.577765 1.404384 0.163164 0.514702 0.398422 -0.140912 0.620012 -0.505449 -1.139977 -0.952238 0.016697 -0.227146 0.580427 0.229740 0.869602 -0.812174 -0.962281 -1.555806 -0.231998 0.057095 0.532548 -0.511279 -0.965788 
estimation 0.683949 1.645061 -0.029078 -0.672193 -1.674391 -0.160330 0.592074 -0.479541 -1.399952 -2.007195 -0.615821 -0.382891 -1.086009 -0.445400 -0.828775 -1.243442 1.307481 -2.299693 0.332432 1.955577 -0.292947 0.306383 0.753284 -0.172978 -0.980185 -0.268393 -0.471301 -0.732834 0.703865 -2.077646 0.430234 -2.136711 0.230885 0.999529 0.392195 2.168329 -2.083513 -0.056592 -0.747664 -0.498780 3.065669 -1.217254 -0.784000 1.987164 1.271711 -0.891533 0.362244 0.175227 -0.379881 -0.479315 0.600286 -1.431333 0.270454 0.734714 -0.993425 0.186722 -0.886820 -0.012840 0.643289 -1.287382 -0.425180 -1.161693 0.706363 -0.945479 0.116961 1.412835 0.715317 0.622973 -0.160221 0.606114 0.046688 3.579392 -0.719756 0.082001 1.393831 -0.622117 -1.418024 0.909303 -0.249110 0.128125 -0.498697 -1.720595 1.199408 -0.697129 -0.236286 -1.516031 -0.360998 -0.553085 -1.459612 -1.277290 0.478758 -0.525187 1.231811 -1.325025 0.343876 -0.302991 0.795698 0.466002 -0.099476 -0.901350 -1.434397 -0.154138 1.359774 -0.584110 -1.311807 1.684016 -0.780573 -1.317936 -1.785884 -0.033259 0.183032 -0.481842 -0.799978 -0.347350 0.961285 -0.468608 0.651757 -0.497418 -1.067405 -1.468247 0.544531 1.707186 -2.096043 0.867334 1.031729 0.742275 0.801981 -0.835508 -0.508172 -0.903164 1.943807 -1.257112 0.861623 -1.779197 0.242878 0.428058 0.991795 0.576022 1.473407 -0.648214 -0.463169 -1.614890 0.357304 0.194713 -0.865867 -1.404007 -0.954713 0.349539 1.199170 0.391713 -0.234967 0.821348 0.402286 -0.789950 -0.839637 -0.101286 0.062085 0.191198 -0.204834 -0.649068 0.915622 -0.207167 -0.150643 1.263811 0.371872 0.668806 -1.750662 2.631000 -0.400017 1.394786 0.633335 0.189004 0.472730 -0.313248 -2.420941 2.130393 -1.125058 1.070046 -0.930275 2.206295 1.316532 -0.626651 0.512851 2.687638 0.124420 -0.157475 -0.516216 0.213068 -0.179119 1.225279 -1.883054 0.134928 1.546234 1.802930 0.340529 0.501702 0.191386 -1.052624 0.656749 1.284607 
bayesian 0.292581 -0.307996 -0.985445 0.232114 -0.114214 -1.449445 0.143152 0.639825 0.379490 0.138704 -0.161033 -0.790951 1.279280 0.495855 -0.546040 -1.194351 -0.308960 -0.414898 2.770944 -0.412545 1.409057 -1.883367 -0.553619 1.399985 -0.077666 1.022469 -0.284188 0.312984 0.338006 -0.035228 2.442796 -0.160720 -1.700448 -0.029016 -1.062836 -0.586693 -0.888504 -0.849275 -1.846221 0.111144 -0.438683 0.278525 -0.469790 0.145883 -1.696688 1.281244 -0.399181 0.410842 -1.034865 -1.561017 -1.725051 1.207339 -1.613261 -1.075702 0.061307 -0.115497 0.023292 0.445945 0.180075 -1.545112 0.966010 -0.280908 0.291019 0.965498 -1.266305 1.096478 0.082853 1.007710 0.924862 -0.950626 -0.708622 1.780792 0.834948 -0.409069 -1.061460 0.369368 1.388255 -0.091345 0.275810 0.277089 -1.745006 -0.268083 1.606919 1.286430 1.494048 -0.601983 1.507952 -0.370587 0.687729 -1.416989 -1.152887 -0.537409 0.962030 -1.043289 1.682834 -0.093266 0.418098 1.448409 1.175601 1.064804 0.993928 0.033910 -0.526028 1.449865 -0.603520 -0.387536 -1.044175 1.055810 -0.114010 0.175830 -0.392357 0.264997 -1.267221 0.409876 -0.797822 0.025414 0.621176 -0.165763 0.936612 0.459986 0.485171 -0.287647 -0.001909 -0.356282 1.414895 0.587481 0.222078 0.125330 -0.861158 0.300667 -1.731414 0.355740 1.524346 -0.502065 0.731825 -0.117747 0.510456 0.292696 1.183796 0.021414 -0.345922 1.578920 0.550088 0.513685 -0.102426 0.397003 -1.446952 1.009411 0.122139 -1.204933 0.660229 -0.303211 1.579963 0.209570 0.160984 0.231338 -0.607801 -0.265484 1.251076 -0.973434 -0.048320 0.092967 0.829573 0.862334 1.618687 0.849825 0.696168 0.347029 1.297423 -0.530198 -0.190747 -1.095848 0.292018 0.467739 -0.044038 0.266559 -1.435815 0.148247 -0.113929 0.265698 0.114980 -1.229718 -0.589167 0.108647 0.282373 0.628572 -0.052819 -0.447477 -0.321781 -0.929070 -0.079089 -1.241502 1.109150 -1.142228 1.291657 0.163888 -0.026526 0.339511 -0.642136 -0.571912 
efficient -0.021849 0.111412 0.680480 0.809114 -1.338833 0.169169 -0.610865 -0.501939 2.874314 1.063510 -1.720679 -1.708794 -1.177092 0.563293 -0.951873 0.491999 0.808551 -0.960235 0.948037 1.891579 -0.804888 -0.138631 -0.475656 -0.044528 0.241885 0.681316 0.194519 0.281718 -0.610087 0.819079 1.686389 0.370696 -0.982288 -0.866974 1.186440 -0.835148 0.517016 0.688450 0.919567 -0.297847 0.056144 -0.495547 1.284843 0.670959 -1.158679 -0.494424 -0.476192 1.538839 0.283385 -0.249151 2.103089 -0.643626 0.032482 -1.538274 1.600778 -1.761257 -2.319912 1.389220 -0.572367 1.100383 0.849957 1.357268 0.104168 -1.104231 -0.191110 -1.676189 -0.528912 0.606207 -0.482161 -0.909139 0.713663 2.179774 -1.007975 -0.382445 0.158082 0.454829 -1.244104 -0.676764 -0.142261 -0.017415 0.852838 0.831575 0.075889 0.526645 -0.427035 0.388458 0.381258 0.340444 0.006038 -1.068414 -0.584192 0.734719 1.388062 0.520373 2.368590 1.607748 -0.186535 0.180854 0.796521 0.704385 0.114919 0.262220 -1.351667 -0.337537 1.113629 -0.167344 0.346613 0.400624 -0.365572 0.031214 -0.898445 -1.911541 0.060342 -1.540837 0.985966 1.759343 -1.923245 -3.373040 -0.180107 0.926473 0.401188 -1.180006 -0.757771 -0.882889 0.111340 1.506063 -0.531235 -0.429966 0.945527 -0.658644 -0.889188 2.464676 -1.299227 -1.013818 -0.770509 0.791512 -0.223417 0.313205 -0.392985 -0.571324 0.904399 1.568966 -2.585500 0.649633 -0.716531 -1.251915 -0.831475 0.763963 1.021653 1.160205 -0.938487 1.604610 -0.968145 1.148946 0.081850 -0.486267 -0.676100 -0.448401 0.477201 -0.214963 1.442028 0.892668 -1.234019 0.786557 -0.199840 1.316887 -0.626874 0.702718 0.897101 -1.155516 1.015290 -0.430860 0.681979 0.768035 -2.343319 -1.885643 -1.004186 -1.575688 -0.294995 -0.036534 -0.621211 -0.499275 -0.175534 -1.114002 -0.075328 0.060140 -0.932745 -1.097975 -1.628531 -0.927235 -0.424233 0.623724 0.461946 0.277407 -0.662445 0.595368 0.275941 0.373458 1.165487 0.180993 
algorithms -0.474135 -0.015856 -0.895209 1.331196 -0.503162 0.684314 0.025984 0.305393 -0.715281 0.028200 -1.470060 2.281454 1.759395 -1.147365 -0.271796 0.255314 0.755386 1.798414 -1.009717 0.417767 0.597669 -0.306983 0.768821 -1.479951 -0.062987 -1.671074 0.721189 0.109029 0.531923 -0.293902 -0.419123 0.791166 -1.430202 0.310450 1.835951 0.376411 0.481806 1.427747 -0.177341 -0.097454 -1.360602 2.372239 -0.683169 -1.054890 1.568000 -0.972359 1.073883 0.668919 0.167360 -0.993919 0.624967 -0.529319 1.066107 -0.829289 -1.076197 -1.285802 -0.752333 -0.363358 -0.577932 -1.751390 -1.228493 1.196212 1.011039 -1.494436 1.047830 -0.605447 0.001720 0.131101 -1.027550 1.340135 0.125440 -1.067866 -0.415821 -1.206911 -0.610655 -1.991083 0.080788 -1.893805 0.043233 0.050220 0.108180 0.509109 1.239950 -2.037456 -0.900698 -2.729573 0.153798 -0.599490 0.033889 -0.452292 -0.830914 0.566889 -0.283794 0.315761 -1.623114 1.806351 -0.225212 -0.227400 -0.197118 0.503887 2.170435 0.989727 0.646821 0.140847 -1.756053 -0.566217 0.258572 -0.693748 -0.963294 0.641496 0.793652 -1.262292 -0.490824 1.294487 -2.338472 0.656604 -0.134860 0.066814 -1.117251 2.172443 -0.940442 0.484417 0.392320 -0.585825 1.313668 -1.331358 -0.436319 0.152451 -0.923482 1.136501 -0.484284 -1.377954 -0.392983 0.291439 -0.335828 -0.790573 -0.264050 -0.509591 0.236148 1.579247 -0.437821 -0.353024 2.611253 0.931538 0.249327 -0.283331 -0.075667 0.055962 -0.820047 1.434588 -0.742630 0.944194 -0.700575 0.171986 0.838527 0.433320 0.839524 -0.266255 0.006464 0.468718 -0.298591 -1.483722 -0.518630 -1.059197 0.329974 -0.864315 1.406096 -0.146638 1.285989 -2.141522 -0.999668 -0.154208 1.173376 -0.956800 0.357662 -1.686738 0.964158 0.776859 1.301841 1.149994 -0.828826 0.518960 0.680565 1.802123 0.014121 -0.861303 -2.043211 -0.003328 0.805504 -0.489338 0.351250 0.197031 1.680061 -0.109883 0.218619 0.172509 -0.094955 1.303964 -0.864998 1.611591 
visual -1.096092 -0.037055 1.459079 -1.267292 0.420800 -1.288680 -0.866437 1.592099 -0.545795 0.690877 0.625107 0.309909 -0.222098 -1.237022 -0.068102 -1.217194 -1.242876 -0.896983 -0.172254 0.534518 1.320077 -0.801020 -1.015073 0.451734 0.835587 1.970245 -0.550685 -1.654188 1.553879 -0.072513 -1.553266 -0.457296 0.834112 -1.266313 -2.379339 0.135319 -0.050980 -0.038479 0.500943 0.064756 -0.705511 0.524205 -0.619337 -1.043835 0.265575 1.382641 1.468903 -0.800891 -0.238652 -2.297235 0.301514 0.276323 0.639277 -1.250526 1.845349 0.412672 0.943973 -1.251672 -0.664021 -1.456350 1.627007 -1.401942 -0.917277 -0.328135 -1.105530 0.989994 -0.248634 0.841363 1.190053 0.569198 -0.359600 1.566667 -1.887192 -0.383603 0.104179 0.637400 1.663973 0.403678 -2.019208 -0.548151 1.596725 0.321218 -1.066279 0.424543 1.197220 1.785383 -0.311402 -2.004990 1.953424 -0.692032 2.381198 -0.980060 0.100516 -1.270165 -0.166303 -0.129350 1.160929 -1.602210 -1.597445 -1.397007 0.077106 1.084318 0.352202 0.525253 -0.716475 -0.047392 1.572309 -0.258455 -0.298954 -0.424639 -0.808167 0.055174 -0.340062 -0.303203 0.798648 -0.117984 1.259330 0.271975 1.241962 0.501504 1.983998 -0.111702 1.676196 1.805402 -0.083326 -0.287426 0.496277 0.889284 -0.251900 -1.495475 -0.590572 -0.805725 -0.727209 0.572778 0.546908 0.348947 0.934602 -0.417603 -0.953490 -0.058351 0.062250 -1.527333 -0.083890 -0.458835 1.303944 0.770392 -1.831035 -0.046250 -0.026538 0.526753 -0.194078 -1.007344 -0.384598 -0.225881 -0.719155 0.063020 0.824297 -1.555370 -0.768659 1.058105 -0.313848 3.116564 -0.026730 0.446809 -0.018227 0.666532 0.887948 -0.738686 0.662129 0.071974 -1.749027 0.887615 0.239924 -0.571279 -0.486547 1.433486 -2.343031 -0.741979 -2.082898 -0.542498 0.551310 0.608720 -1.465461 0.757583 0.170671 -0.426215 0.327843 -0.519943 1.388554 -0.342991 0.372908 1.876872 0.733600 1.155794 -2.467931 -1.188544 -1.902391 -0.054584 -1.551824 0.076917 
algorithm -1.389391 0.656126 1.062863 0.777819 -0.904034 1.688866 -0.488920 0.139925 -1.365768 -1.069544 -2.911265 1.661837 0.583084 -0.195602 0.373602 0.400956 1.251047 2.706189 0.871864 0.462946 3.740361 -0.020974 -0.326127 -0.194429 -0.311063 -2.260119 0.198615 -0.447453 1.285704 0.085891 -1.097269 0.951584 1.317545 0.117522 0.424830 -0.612506 -0.190314 -0.228163 -0.700969 -1.724389 -0.240739 -0.639637 0.247658 -1.712695 -0.067740 -1.074002 0.355343 2.131777 0.258007 -0.498095 1.693270 0.000054 1.684704 1.850933 -0.663042 -0.326488 0.990288 1.447582 -0.522310 -1.883418 -0.322829 -0.792711 0.338398 0.601742 -0.177805 -0.453567 -1.723683 -1.389277 -1.463376 0.581294 -0.315971 -0.456932 -1.544419 2.698566 -0.308535 -1.158221 1.025587 0.054846 -0.402955 0.425044 -0.378271 -0.529597 1.332875 0.198545 -1.825470 -2.546084 -0.917346 0.702099 -0.996215 1.901050 -0.527927 -1.231379 -0.319515 -1.125087 0.697608 -0.548837 1.650678 -0.182860 -1.385737 0.349318 -2.731465 0.085582 -0.164946 0.603550 -1.672590 -0.139077 1.786834 1.559556 -0.099491 0.899820 0.698363 0.373170 1.019782 0.786408 -0.022439 0.045984 -1.665847 0.937329 -0.627907 1.836307 -0.000416 0.702693 -1.898862 -1.000574 0.812384 0.721368 -0.548329 1.788643 1.932505 -0.470739 -1.346997 0.564327 1.509241 -0.992802 -0.037624 0.874730 -0.855698 -2.287459 2.189437 0.972107 -1.103425 0.082487 0.353226 0.638537 -1.158789 -0.604438 -1.640130 0.321825 -0.202627 0.415985 -2.387412 0.912195 -0.611427 0.356205 0.149302 0.672639 0.258334 0.361285 0.334892 -0.200838 -0.029393 -1.643286 0.428153 -0.284193 0.586740 -1.174679 0.669688 -0.564783 0.853501 -0.313148 0.933138 -0.456707 -0.024261 1.064897 -3.049804 -0.063769 0.724962 2.174551 -1.586101 -0.319972 -0.955637 0.147100 0.030858 -0.002389 -0.119561 0.491729 -1.395579 2.358855 -1.445693 -0.619204 -0.399336 0.312294 -0.221243 -0.836961 -0.584458 1.023868 -0.169031 2.278447 -0.493031 1.368469 
optimization 0.014065 -1.538002 1.491203 1.436001 -1.872000 -0.196611 0.906272 0.785186 0.293699 -1.475895 0.851326 -0.087062 0.712108 1.707688 -0.664303 0.672493 -0.853432 -1.416304 -0.903425 2.694501 0.710553 -0.239126 -0.383412 -1.331234 -0.403103 0.717529 -0.993132 -0.475527 1.691122 0.123801 -1.110394 -0.166692 -0.668589 -0.003729 0.763208 1.530483 -1.562918 0.624873 -0.986062 0.766486 0.603250 -1.280402 -0.173751 0.907595 -0.722997 2.136440 -0.157312 -0.431527 -0.533614 1.260181 -0.356843 -0.600225 0.242255 -0.534908 -1.020365 -0.779177 0.151577 -1.832783 -2.181734 -2.165567 -0.751197 -2.507012 0.309777 -1.042915 -0.993677 0.204291 0.753194 1.287472 -0.089470 -0.578973 -1.264223 1.390835 -0.424075 1.734678 -0.870402 -0.717498 -0.106906 0.878603 -0.819784 -1.507019 1.549097 1.440666 -0.122928 -1.606549 -0.119613 -0.418106 -0.696328 -0.513314 -0.816244 0.070477 -0.189839 -0.186714 0.778266 0.644159 0.717218 -2.094140 0.144590 0.328419 0.175107 -0.996391 -0.278217 -0.077433 1.606862 -0.141241 -0.394740 1.282402 0.737280 0.848483 1.196279 0.663921 -0.867645 -0.625349 -0.197342 -0.619965 -1.337529 -0.056342 0.947715 0.149515 -0.294927 1.196621 -0.870956 1.581907 0.677028 -0.477229 -0.676179 -0.367811 1.627090 -0.429934 0.174660 -0.587353 0.447551 0.751578 -0.660681 -1.428977 0.573117 -0.497342 -2.388507 -1.599057 -0.345697 1.557098 -1.374758 -1.843514 1.463245 -2.034526 -0.458568 0.574531 1.689242 0.321477 0.928425 0.137143 0.700810 -0.316734 -0.084913 -0.374870 -1.237140 -0.910847 0.144210 -0.398439 -1.243563 0.115249 0.495573 -0.264948 0.397226 -0.246424 0.672183 0.345972 -0.188543 1.729066 -1.118447 -1.181163 -0.826736 0.306540 1.223768 1.736343 0.433062 -1.030956 1.818987 0.580801 -1.406702 -0.137508 -1.152169 -0.210329 0.506638 0.509983 0.306467 -0.968755 0.670392 -0.099655 0.624914 -0.699985 -1.308879 0.215428 0.914717 0.024087 -0.665011 -0.881151 0.306013 -1.302706 0.031501 -0.056563 
neural_network 1.199052 -0.720389 1.682770 1.197306 0.031590 0.465820 -2.081346 -0.047907 -0.657333 0.111159 1.389019 0.433298 -0.504314 -1.126339 3.068772 -0.981910 -0.029253 -0.283203 -0.171213 -1.085616 0.876158 -0.361085 -0.161551 -0.654303 -0.662582 -0.778631 1.635287 -0.008406 -0.494491 1.201795 -0.552316 -1.123965 -1.688867 -1.074039 -0.803427 0.246747 -1.443804 -1.410632 -0.744628 0.039081 0.100088 -0.516096 -1.118987 -0.454772 1.940133 -0.700848 -0.350515 1.703811 -1.009690 1.202202 -0.380014 -1.617918 -0.721940 0.857222 -0.330239 2.145875 0.309349 -0.424410 -0.687748 -0.073046 1.346150 -1.149783 0.516024 1.431819 -0.968802 0.036214 1.185987 0.031235 -1.274097 -0.475322 -1.070314 -0.094465 -1.620277 -0.621819 -0.073960 -0.049747 -0.997913 -0.601074 -0.050732 0.045500 -0.449904 -1.968562 -1.826004 -0.397924 1.400573 -1.091944 0.429973 0.671497 -0.585612 1.121745 -0.239471 0.916414 1.055385 -0.198132 -0.947999 -2.354771 1.479982 0.368589 -0.676066 -0.194449 -0.829816 1.163948 2.487878 -0.448076 1.211011 -0.102447 0.694911 2.062050 0.240872 0.119849 1.356669 -0.915504 0.764953 -0.782133 2.552725 0.530186 -1.585702 -1.254921 1.902146 1.685743 1.468666 0.712429 -0.867675 -0.021159 -0.464867 0.741186 1.147632 1.693946 -1.926863 1.121119 0.248961 0.253013 -0.262372 0.821119 -0.100318 -0.289269 -0.671046 -0.632502 1.129586 -0.469822 0.507696 -0.846016 -1.736558 1.435564 0.251816 1.110525 0.625385 -2.560228 2.276452 -0.649524 -0.499842 0.223949 0.164974 0.556689 -0.089501 -1.461368 0.607151 -0.240115 -0.406260 0.339520 2.770641 -0.001663 -0.055254 -0.616983 -1.198272 -0.549410 -0.428528 -0.569746 -0.498472 -1.418019 -1.109669 0.434748 0.691646 -0.723809 0.784350 -1.709128 1.004407 0.235674 -0.080594 1.386926 -0.065415 -1.582232 -0.988288 0.583581 -0.335746 1.695012 0.301294 -0.760443 1.422336 -0.179724 0.150971 1.211941 -0.363546 -2.594985 -0.539862 0.553553 -0.369020 0.365621 -0.417152 -0.263754 
inference -1.418782 -1.372981 0.962311 -0.041871 -1.896627 -1.212520 -0.860160 -0.358569 -0.360269 0.292783 -1.761106 1.092958 2.088493 1.570567 -0.306424 0.029470 0.270221 -1.734154 -1.643360 -1.048032 0.416714 -0.429683 0.147310 0.468804 0.453168 -2.175175 0.076758 -0.477265 -0.091654 0.152193 0.727878 -0.252230 2.005743 -0.307531 0.939650 2.083468 -0.919153 -0.174880 -0.935518 -0.877397 -0.826792 0.039426 -3.064346 -0.352059 0.993419 -0.645135 1.152750 -0.414705 -0.753670 0.115378 -0.509687 -0.043794 0.024734 -1.043285 -1.044367 -1.759250 0.485435 -0.148451 0.856177 -1.442170 1.681403 -0.281077 0.443364 -0.803135 -0.003800 0.938596 0.448098 0.845997 1.386152 -0.946156 0.403663 0.406722 -0.201251 -0.281468 1.380729 -0.541877 -0.357889 0.673522 0.729401 -1.020745 -1.378039 -0.761192 2.100920 -2.041836 -0.485762 -1.562584 -0.004921 0.472521 -0.972555 -0.638089 0.263008 0.346705 -0.298172 -0.742206 1.368841 0.304284 1.447143 -1.208686 1.264264 -0.369666 0.598038 0.171315 2.330308 -0.498590 0.761483 -0.115362 -1.780606 -0.959348 -0.799508 0.029779 -0.295051 -2.211397 -2.502830 -1.081288 1.978508 0.611672 0.587865 0.416974 -1.737197 -1.471034 1.302461 -0.825553 -1.476689 1.725671 -0.159871 0.807205 -0.772273 0.872028 1.055925 -1.027388 -1.122025 -0.280469 1.242943 1.537774 -0.162604 -1.231260 -0.947597 -0.194970 -2.408993 0.140394 -2.350061 -1.091190 1.786218 -0.477270 -0.724486 1.575940 0.150137 0.116931 -0.679018 -0.387029 0.956451 2.320102 0.206710 1.495507 0.074110 -0.761986 1.339419 1.819834 -1.767195 -0.653641 -1.701775 -0.911206 1.076840 -0.381947 -0.069435 -0.222269 0.153529 0.319378 -0.327383 1.542574 0.420212 -0.713204 0.091146 -1.027986 -0.404158 0.175236 -0.196323 0.190596 1.800761 2.490183 -0.173406 -1.204793 0.772289 0.809153 -0.036309 -1.344441 -2.314178 0.900366 0.823278 0.959748 0.964060 -0.453460 0.235226 -1.219574 0.587283 0.093076 2.015410 -1.019251 -0.464662 1.950401 
reinforcement_learning -0.416606 -2.004825 0.695321 0.221650 -2.370142 -0.279301 -0.015972 -0.372057 -0.576798 -1.046586 -0.927939 -0.723927 -0.676475 -0.338316 0.164591 0.189633 -0.020421 -0.349790 -0.252159 0.267599 0.377637 -0.127744 1.179880 0.357644 -1.379256 0.333819 0.365284 1.140167 -0.644029 0.246018 0.326491 -1.409219 0.086658 -1.107583 0.933013 -0.338982 -1.643317 -1.922712 -0.565259 -1.525179 1.339153 -0.960877 -1.531015 1.571364 1.534763 0.409726 -1.949380 0.640002 -0.196160 0.255334 -0.732312 -0.545846 -0.361636 -0.331349 0.398122 -0.191860 0.838441 -2.060536 -0.387805 0.235392 0.983113 -0.089632 -0.539005 -0.768152 -2.083658 1.380900 -0.606975 -1.231994 0.462049 -0.743661 -0.200341 2.075953 -0.706857 -0.425890 -1.420193 -1.851903 0.108287 0.471670 -0.219434 0.148962 1.175206 -0.117685 -1.091435 -2.028354 -1.742737 -0.125124 0.906825 2.102540 -2.265103 0.221177 0.505271 -0.420086 1.125339 0.499923 0.220905 0.001896 -0.242490 0.000037 -0.950704 -0.322413 -0.748627 -1.501701 -0.042701 -0.706605 -0.162792 0.802889 -0.645545 1.764304 0.147309 0.826279 0.154264 0.246628 -2.654365 1.314562 1.029899 1.205418 1.038762 -0.538306 0.355384 0.314939 1.112524 1.837055 -1.058318 0.612428 -0.523075 0.002861 1.249775 2.449979 -1.060148 0.891538 -0.042219 -1.903804 0.478260 -0.574786 0.763366 -1.634558 0.489345 -0.162343 2.267679 -0.141249 0.404517 0.658838 1.397518 1.117114 -0.088192 1.245895 2.403668 -0.850427 -0.481553 -0.641506 -0.196515 1.297193 -0.565424 -0.030781 -0.379990 1.588967 0.550214 1.648722 0.658039 0.150273 0.259625 1.650740 -0.617371 0.653637 -0.345271 -1.129977 -1.099844 -0.507140 1.446418 0.216156 -0.546545 -0.180778 0.077548 -0.446559 -1.125971 1.415742 -0.809705 1.148797 0.120991 2.578912 0.175873 -2.357919 -0.105552 0.778247 -0.002634 -1.291259 -0.461337 0.052229 2.579143 -1.028101 -0.998065 0.126438 0.733783 0.713696 -1.008758 -0.036208 0.543147 -0.055060 1.748328 -0.767250 
approach -0.880204 0.655224 -0.283428 0.597429 0.735002 -2.311920 0.192836 -1.600762 -0.351849 -0.774042 -0.258948 2.667068 -0.310172 0.094474 0.780809 0.516597 -1.264065 -0.086780 0.455995 -1.140448 1.710108 0.608221 1.162186 0.685961 0.450938 -0.514403 2.235239 -0.711880 1.349395 -0.549172 -1.873405 -0.708080 1.229159 -1.164253 0.350225 -1.282341 0.123455 0.589279 -2.086165 -0.654762 -2.623013 -1.220888 1.146766 -1.742181 -1.663091 -1.370237 0.239101 0.712026 -0.798072 0.132165 0.854771 1.932684 0.015777 1.097291 -1.041990 -0.345323 -0.629319 0.378041 -0.820868 1.689834 -0.124226 -1.822791 0.954273 -1.267884 1.605497 -2.609826 -0.808033 -1.030774 0.969025 -0.247472 -1.072580 -0.812199 0.651739 2.168050 0.873573 -0.740130 -0.516962 0.254410 0.679801 1.169111 0.218400 -1.750445 0.065501 -2.134265 -2.528527 -0.732129 0.893565 -1.626962 -1.456444 -0.842999 -1.400584 -1.146407 -0.047447 -0.098594 0.806115 0.153466 1.919986 1.556145 0.162170 -0.585599 -0.647635 -2.613852 -0.478911 1.244874 -0.928037 0.201642 1.309126 1.404754 -0.397060 1.307925 -0.372637 -0.960254 0.120709 0.618764 -0.802630 -0.045862 1.256502 -0.823613 1.150004 2.113838 -0.166449 0.350657 -1.897030 0.327251 0.924228 -0.043312 0.156441 -1.168165 0.987130 0.968942 -0.387242 -2.105860 2.031419 1.707159 1.298078 -0.918916 2.945109 -0.539104 3.589656 0.316392 2.032625 0.696255 -0.351057 0.392203 -0.007150 -0.524796 -0.517710 0.455426 -0.542109 1.470446 0.061199 1.421448 1.648445 -0.248520 0.998501 0.950219 -0.171146 -0.085814 0.816220 1.200228 -1.473020 -0.885761 -3.323285 -2.097090 0.557996 1.917771 2.106798 1.085817 0.129054 2.732138 0.206508 0.098390 0.055581 1.421673 2.211263 -1.531983 -2.069123 0.081905 1.771314 -1.219698 -1.253052 0.352924 -0.046534 0.164467 1.147378 1.292828 -1.727821 0.035684 -0.221621 0.715962 0.229456 1.464364 -0.961457 0.138205 1.041021 -1.225970 -1.262705 2.504336 1.585195 -1.917444 
fast -0.782833 -1.820897 -0.249244 1.617731 -1.155854 0.808128 0.854073 -1.039874 1.187962 0.787790 -0.201236 1.859455 -0.337027 0.991788 -0.955104 0.633942 0.725630 -1.060835 -0.097759 0.013527 0.357217 -1.403716 -1.681245 0.450351 -1.917534 0.147479 -1.596635 0.036795 -0.324453 0.305991 0.546795 1.989900 -0.558432 1.863227 1.100914 -1.169424 0.552347 -0.871309 -1.273894 -0.819012 1.705606 1.886154 -0.192659 -0.343307 0.787200 -0.753075 -1.023460 1.352898 -0.510847 -0.405758 0.014039 2.249532 -0.043106 0.675023 0.587858 -1.542722 -1.486462 0.897679 -0.213474 0.199919 -1.368519 0.264306 -1.695694 -0.861263 -1.048622 -0.042013 0.799992 0.697853 -0.313174 1.476990 0.491502 1.400536 -1.566563 0.503460 -1.003140 0.002054 -0.194139 -0.090799 0.376181 0.615201 2.111624 1.618391 -0.440228 1.798979 1.418895 1.494225 1.146156 -0.715693 -1.618919 -1.268902 -0.864711 0.516120 1.969047 0.939362 1.194673 1.118293 1.082242 0.434888 0.927039 -0.145387 -0.124742 1.667611 -0.697168 -0.278747 -0.066067 -1.202325 -1.144057 0.420603 -1.297149 0.525503 0.850511 1.067115 0.462291 -2.191828 -0.222188 -0.242559 0.660670 -0.077514 0.445207 -0.934213 0.626294 0.012210 -1.282836 -0.356342 -1.318798 0.366797 -0.337968 -0.025577 -0.143882 -1.337966 0.746443 -0.987331 -1.727585 -2.579397 0.104168 -0.054246 0.186631 0.729238 -0.088942 -0.879408 -1.609831 2.208852 0.527562 0.149440 1.155952 -0.812883 -0.147029 -1.266613 0.713523 0.792569 0.570301 -0.580284 -1.328793 -0.269185 1.131292 -0.259248 -0.874689 0.569790 -0.182815 -0.953938 1.741816 0.345839 -0.073750 0.045368 0.230887 0.039344 -0.415534 1.120815 -0.106879 0.380215 -0.082206 -1.285084 -0.781352 -0.282820 -1.829047 -0.353302 0.113999 -0.832555 -1.831001 -1.327197 -2.579696 -2.091347 -0.123756 0.747937 -2.143111 -2.113559 -1.097798 -1.171241 -1.641728 -0.900066 -1.036929 -1.040851 0.872012 -0.870948 -0.310258 -1.462182 -0.779592 0.643680 0.368651 1.145720 
adaptive -1.604938 0.620770 0.708780 0.527411 -0.311418 -0.407025 -0.036727 0.539489 1.043547 0.861954 0.674417 0.151903 -0.470461 1.222986 0.048165 -0.106241 -0.135112 -0.689300 -0.368712 1.146068 -0.575801 0.246464 -0.981065 -1.337435 -2.001964 0.903224 1.495249 -2.952968 -0.269043 -0.266971 -0.025693 0.179942 -2.037896 -0.460285 -0.281814 1.143213 -0.069348 -0.424119 -0.023289 0.323349 0.270684 -1.358721 1.496339 -1.057557 1.686195 0.081775 -0.432237 1.845204 -0.602010 -1.824957 1.500990 -0.848184 -0.902111 -0.661759 -1.022427 -1.343759 -0.296540 -0.227265 -0.570186 -0.101971 -1.746942 -0.371514 -0.381209 1.110777 -0.177538 2.350161 2.292740 -1.131586 0.472797 -2.054414 0.932790 0.557488 0.410030 -1.533178 0.726944 0.541514 0.019478 0.003033 -1.287790 1.218701 -0.202000 0.726228 1.500594 0.436436 -0.013891 0.967686 -0.384861 1.142754 0.593837 0.770280 0.486008 -1.103080 1.593403 -1.278958 0.663111 1.304084 -1.903513 0.407969 -0.519982 -0.108576 -0.647781 -0.221624 -1.833602 -1.217822 0.257922 0.045722 -0.923313 -0.714153 0.306412 -0.478655 0.207444 0.358329 -0.721524 0.631750 -1.190474 0.138846 -0.933998 -1.783156 0.696620 1.530292 -0.997886 -0.802315 -0.456550 -1.086923 0.937345 0.561686 -1.517309 0.472699 0.816653 -0.182974 1.002271 1.081888 0.954271 -2.239086 -0.171743 0.186597 0.506308 1.148401 0.474356 -0.507647 -0.193422 -0.482612 -0.451047 1.541790 3.229364 0.309895 -0.657393 -1.358333 0.959116 0.583156 0.297965 -0.292209 -2.418077 0.522528 0.584240 0.206691 0.534820 -1.223105 -0.541069 -1.112882 1.701403 -1.320339 -0.431867 -0.916119 -0.071514 1.361054 2.220768 0.510580 1.282549 -1.178242 -0.108097 0.755693 -0.982682 0.365369 -1.047534 -0.445486 -0.378945 0.912844 0.410818 1.204942 0.639311 -0.502469 -0.562253 -0.207470 -1.697280 1.247765 -1.878731 -0.375787 0.798293 -1.256044 0.347748 -0.135413 0.673525 0.029385 -1.869055 -0.229929 0.842045 -1.276674 1.508119 -0.194819 
clustering -0.965172 -1.999238 0.330492 1.973271 1.184987 -1.006658 0.286791 -0.892106 -0.229414 -0.319627 -1.854066 0.784802 1.887981 -0.261332 -0.526686 -0.041187 0.897787 -0.400913 -1.200664 0.152024 -1.672358 0.852078 -0.083940 -0.762955 -0.709067 0.603682 -0.032497 0.298056 0.638716 -0.690657 -0.702807 0.707858 0.521380 0.010557 1.299245 1.470026 -1.010735 0.086661 -0.700742 1.402423 2.145298 0.555331 0.026622 0.720053 0.352270 -0.369194 -0.712404 -1.531206 -1.737560 -1.145604 -2.886042 -0.583737 -0.908638 0.440475 0.910020 -0.128377 0.016937 -0.913068 -0.736697 -0.727117 -0.960530 0.805827 0.405809 0.592928 -0.929105 1.642220 -0.920925 -0.932732 -0.099644 0.271353 0.362104 0.790826 -0.268683 -1.144335 -0.677983 0.145604 -0.233748 0.796189 -0.516529 1.997353 0.016007 -1.070926 2.713070 -0.120606 -0.482293 -1.088011 0.776931 -0.767710 -0.473885 1.216688 -1.227061 0.063089 2.492452 0.791946 0.439542 0.461562 0.400099 -0.310391 0.780529 0.195086 1.122176 0.955661 -0.134709 -0.674685 -0.174282 0.042680 -0.993908 -0.412024 -0.093662 1.399501 -1.122459 -1.379040 -0.773826 -0.198065 -0.641982 -0.504242 0.089107 -1.377204 -0.384963 -1.172312 -0.281496 -0.806279 -0.242408 0.537976 1.857843 -0.203338 -0.029643 -1.450122 -0.883664 -1.048386 0.635674 1.113408 1.456246 -0.829432 0.205353 -0.766883 -1.526541 0.054023 0.071849 0.656736 -1.857822 -0.014648 0.190370 -1.238062 1.175556 0.959681 -0.842387 -1.079643 -0.690481 0.471477 1.689453 0.077532 1.590499 0.825601 1.824651 1.494629 -0.303034 -0.177887 -2.096881 -0.075887 1.094702 0.255930 0.191729 0.237127 0.745347 -2.208922 0.683089 0.875483 -2.741471 0.243592 -1.022408 -0.772308 -0.119015 0.515664 -0.826908 0.389754 0.412699 1.722452 -0.182645 1.797908 1.176497 0.710166 -1.738267 -0.928584 0.570952 -1.392664 0.024312 -0.958338 0.155514 -0.625225 -1.784686 -0.318553 0.844340 -0.542864 -0.307462 -0.692562 2.793375 -2.043634 1.448858 2.140847 
optimal -0.534595 0.837340 0.009959 0.218927 -0.220698 -2.568444 0.281582 0.045107 -0.646968 0.730213 -0.257303 0.732631 -2.851893 -0.610409 0.613125 -1.111301 -1.036540 -0.939641 -0.815858 -0.015151 -0.092391 0.625763 0.890176 -1.044535 0.500601 0.448787 0.612838 -0.463066 -0.573568 -1.778604 -1.018853 1.724376 -0.661698 0.622711 -0.039870 0.582445 -1.449668 -0.110678 1.179837 -1.554807 -0.116134 1.476593 -0.437106 1.765055 -0.551185 1.228200 -0.285867 2.088032 0.117285 0.853658 -1.586021 -2.048752 0.696182 0.934235 -1.020133 1.091015 -0.865308 2.534568 1.032736 1.926572 0.709056 1.892888 -2.211042 -0.794178 1.393709 -1.055179 0.885928 -0.576587 0.288897 -1.647510 -0.204368 1.728155 -0.455484 -1.795217 0.519008 0.744796 0.071773 -0.931716 0.412143 -1.110100 1.417905 0.509369 0.924503 0.355230 0.867219 0.785597 0.339403 1.431397 0.505636 0.804507 -0.890827 2.208953 1.124396 0.805844 -0.024290 1.723968 -0.216510 -2.006932 0.265502 -1.263268 1.307178 -0.072104 0.066646 0.356381 0.624965 0.058905 0.325904 -0.124212 -0.164428 -0.314510 -1.122304 -0.097127 -0.305742 -0.179404 -0.220482 -1.642354 0.006137 -0.445488 -0.520835 2.065554 -0.155584 -0.595289 -0.616036 -1.821656 -1.384253 1.031645 -0.512115 -1.849780 0.463185 0.344346 -1.054634 2.553295 0.436644 -0.081562 0.667162 -0.188579 -0.140890 -0.352140 -1.315380 0.082076 -0.115645 1.697779 -0.593436 -0.512132 1.012246 -0.001199 -1.555484 -0.290069 -0.947471 0.357389 -0.447096 0.179373 -0.421833 0.775566 1.056037 1.831772 -0.315524 -0.452331 -1.776673 -1.342059 0.781442 -1.792979 -0.390837 0.525434 -0.674163 2.418918 -0.538724 0.842356 -0.559096 -0.074206 2.147219 0.528866 1.259563 0.158080 0.914245 -0.131202 -1.914319 0.373915 0.413922 1.473360 0.340749 -2.688860 0.228251 -0.734842 -1.323031 0.260183 -0.248934 -0.514936 1.442535 1.253396 2.012615 1.103784 0.854226 -0.537871 -1.164312 0.834783 1.024649 -0.754666 -0.427086 1.665990 
kernel -0.822421 -2.857124 1.151249 1.161198 -1.599096 1.315729 -1.982305 -0.267422 -1.525431 -0.291058 0.912662 1.237609 1.644565 -0.062882 1.349008 1.890502 -0.195155 -0.313915 -1.824731 0.017261 -0.659165 0.341780 -0.259122 -2.052251 -0.487477 -0.595848 0.500021 1.328455 0.009218 0.127906 -1.013418 1.070671 0.788183 0.804426 2.173240 0.446915 -1.143380 0.080018 0.061665 1.219169 0.366482 0.357568 0.322459 0.715219 -0.698088 -0.074873 -0.138859 1.224794 -0.561626 0.293817 0.800304 -0.302851 -1.158268 0.521107 0.211503 -0.461400 -0.741979 0.504959 -1.099009 -1.892080 -0.138837 0.314540 -0.199962 0.688275 0.600350 2.046294 0.811204 0.402681 -0.891514 -0.335091 -0.484252 0.234663 -0.266818 2.006882 1.117348 -0.521369 1.212350 1.531348 1.727304 1.095073 -0.088991 -1.418904 -0.845254 0.857544 -2.009439 -0.442487 -0.416051 0.591064 0.269559 0.684468 0.729629 -0.232174 2.608526 -0.024845 -0.004732 -0.507285 0.464692 -0.835696 -1.555097 -0.810431 -0.029428 0.131836 0.024148 -0.797828 -1.141701 -0.602021 1.016016 -0.048707 0.291740 0.595291 0.603423 -0.952402 0.394806 0.123097 0.778020 -0.367354 1.361649 -0.727652 0.638086 2.589883 -0.803089 0.511376 -1.099901 2.368803 0.458990 1.257433 0.794624 -0.188961 0.492326 -0.025039 1.133500 -0.145957 0.034870 0.650348 0.736992 -1.785106 -0.223282 -0.587657 -0.864309 -1.984958 -2.633891 0.405457 1.714132 0.486380 -0.445024 -0.197339 -2.033267 -1.394290 -1.478671 0.044444 -0.713809 -0.753306 -1.987575 0.325647 1.679134 -1.157636 -0.395735 -0.120628 0.065824 0.825239 -0.550913 1.151687 1.215299 0.571275 -0.607387 -0.772138 0.879446 -0.017107 -0.835849 0.627678 1.091908 1.273885 0.852868 0.720104 1.291414 0.749774 -1.194581 1.551668 -0.729579 -1.388774 -0.325388 -1.914985 -1.420655 1.455243 -1.284235 0.482370 0.861642 -0.449303 0.735870 -2.994565 -0.178312 0.676127 -0.086164 -0.201674 -0.672743 -0.090069 0.372732 0.662575 -0.255964 -1.605593 
regression -0.585469 0.625395 -1.762661 0.414251 -2.512048 -2.911700 0.350490 0.128137 1.453680 -0.567337 1.302340 -0.479901 0.092023 -0.414612 -0.125957 0.377923 0.022407 0.576104 1.224060 1.285092 0.816791 0.058090 0.052222 1.390405 0.115049 -0.285596 -0.243520 0.476835 -0.488244 0.183005 0.000200 -0.740668 0.230465 1.433185 -0.524371 -1.456386 0.232436 -0.281842 0.416223 -1.391723 1.169088 1.676676 -0.221749 -0.216823 -0.566019 -0.896735 -0.536921 0.425483 -0.832764 -0.050881 0.942698 -1.950650 1.431348 0.672763 0.581879 0.287113 -2.128999 0.765628 1.068218 1.374235 -0.321435 1.991265 -1.143294 -0.310535 -0.383701 0.873597 -2.561609 -0.214813 -1.090475 1.278858 1.621520 1.842955 0.772419 0.068999 -0.493515 -0.977728 0.281211 -0.094535 -1.078377 0.276626 -0.019642 0.854822 1.920870 0.180274 -1.910864 -1.359839 2.093407 -1.170541 -0.274291 -0.790964 1.200884 -0.926039 1.271066 2.596528 0.923316 -1.974072 0.376831 1.853926 0.360426 0.145362 1.461871 0.425744 -1.131926 1.357969 -0.817627 1.128415 -0.100525 0.690367 -0.090706 -1.029886 0.915740 -1.463850 -2.992543 -1.552561 -0.743030 -2.120365 0.648973 -0.022512 -0.714165 -0.119516 -0.448804 -0.548109 -2.519535 0.550705 0.204903 -0.313405 1.143685 0.117560 0.511139 0.063841 -1.424382 1.106484 0.399275 -0.632832 -0.044530 -0.250623 0.507021 -0.890004 -0.804158 0.126645 0.563863 1.386254 0.250905 -1.993876 -0.872004 0.386357 -0.026476 0.040986 0.477406 0.402532 0.750860 1.962816 0.203762 1.315125 1.921210 1.293064 0.377519 0.697575 -0.553230 0.108234 0.909304 -1.129411 0.929919 1.601761 -0.921736 -0.599363 -0.921695 1.542587 -1.817245 0.333470 3.026972 0.057973 0.732795 -2.223453 -1.552350 0.870678 0.584916 0.358338 -0.553767 1.233581 -0.183065 -0.584597 -0.225669 0.260768 -1.138938 -1.743138 -0.116053 -0.348933 -0.089298 -1.662847 0.300000 -0.635957 0.198641 1.514102 0.809799 -0.172039 1.022055 0.543870 0.632625 -0.039349 
linear 0.791516 0.683607 -0.981872 1.169927 1.272701 1.708761 0.783654 0.570783 -0.320802 -2.437622 -1.839485 0.661441 -0.149881 1.285548 -0.131624 -0.842162 0.183411 0.714394 -2.919658 0.118529 0.490810 1.309092 -0.262367 2.003518 -1.704249 -1.279056 -0.310683 1.871143 -0.839754 -0.667835 0.862354 -2.279182 0.370507 -0.196705 1.300592 -2.366526 1.048635 -0.599406 -0.344869 0.956751 1.562683 1.604247 -1.723503 0.540630 -1.755651 -0.353720 -0.651380 2.081298 -0.955614 1.505790 0.043465 1.176629 0.617945 0.781271 -0.915687 0.340971 0.971148 -1.282250 -1.042034 0.667286 0.548827 -0.405976 -0.490822 0.524663 0.485339 0.372747 1.259815 0.872599 -1.360768 -0.369566 -1.066636 0.442961 1.058574 0.107824 -1.939731 0.181219 -1.340978 -1.450105 -1.490731 2.097685 1.078390 0.034441 -0.002567 -1.868787 -0.105115 2.375557 0.885689 0.779585 2.207439 0.843073 -2.068336 -1.124468 -0.676921 0.307726 1.173692 -0.222409 1.623508 -0.663520 0.745712 0.477865 -0.702295 -0.433903 0.688849 0.066362 -0.740077 -0.192762 -0.134025 0.806849 1.005727 0.126877 -1.890069 0.637956 -0.573823 1.136448 -0.102800 0.853009 1.391928 0.257553 0.603924 0.624625 -1.357720 0.101104 0.226190 -0.567647 0.313522 1.001308 -0.232552 0.038770 -1.987174 -0.690017 -0.217174 1.867866 0.912159 -2.011307 -1.348688 0.116326 0.428753 2.168162 2.849596 0.497162 1.173778 0.184585 2.877375 -1.182287 1.106806 0.645424 0.494561 0.525193 1.519228 -0.061014 -2.900898 1.063270 0.874564 0.127339 0.206578 -1.266046 1.643597 0.091962 1.364110 -1.018785 0.308914 -0.962477 2.169692 -1.146104 -0.301958 0.381311 -1.444718 1.746664 0.628486 0.618169 0.442364 1.477972 -0.277116 -0.839584 -0.047426 2.160851 0.389295 -0.669155 -0.197867 -1.047514 0.129126 -0.951426 1.441788 -0.061358 -0.168604 -0.774340 -0.086886 0.241268 0.010518 -0.750715 -0.904491 0.537694 -0.503101 -1.556830 0.596415 0.956270 -0.519474 -0.453965 -2.060033 0.279661 
feature 0.765696 -2.538875 2.083306 -0.963168 0.135424 -3.263343 -0.411031 0.436799 -1.147080 -0.525555 -1.209021 1.683913 -1.885154 0.670270 -0.018263 1.316108 -1.187414 0.917585 -0.204873 -2.012237 -0.565622 0.882412 0.960055 0.916613 1.104172 0.076246 -0.373353 -0.035171 -0.418641 -0.545828 -0.158248 0.762645 -0.386209 0.364164 1.187804 1.288922 0.597430 -0.340514 0.535322 1.267726 1.677231 -0.860918 1.636480 0.463527 -0.792413 -0.583958 -1.321956 -1.534081 0.394540 -1.155624 2.112972 -1.389773 -0.198978 -1.233478 0.574478 0.697990 -2.205319 1.878418 -1.825367 -0.217606 -2.339625 0.101637 0.324208 -0.127337 -1.085305 -1.554444 -1.800122 0.850012 -3.843644 1.020266 -2.290254 0.110484 -0.741550 -1.289779 -0.007408 0.716211 2.375691 0.823384 -1.322401 -1.739616 0.323624 -1.643611 2.394046 -0.928436 -1.159195 -1.208105 0.787081 -0.307366 -1.164402 0.179540 -0.447740 1.464001 1.600387 -0.329725 -2.169640 -0.511173 -0.316679 -0.856580 -1.007479 -1.978067 -0.400187 1.364269 0.242593 -1.104071 -0.606197 0.411629 0.531895 0.371010 -0.725739 0.300840 0.394268 -1.154940 0.375693 1.893549 1.139175 1.443767 -0.892776 -1.319610 -0.102052 -0.508607 -0.341742 0.547897 1.524961 0.755371 0.348618 -1.078187 -2.629112 -0.809197 1.174023 -0.092860 1.621337 0.698166 1.431820 2.837143 1.498399 -1.464008 1.705515 -0.808550 1.380428 0.775276 -2.732157 2.143521 1.294176 -0.033403 1.046811 0.255476 1.577174 0.198874 0.980118 1.667784 -0.534433 -1.022270 -1.988558 -1.763766 -0.732827 0.575581 0.505519 0.886219 -0.335894 0.195756 1.240274 -0.498493 1.189220 -1.127015 1.400991 1.532958 1.137360 -0.166701 0.617588 -0.509380 0.614786 -2.475860 0.280280 -0.291886 0.340359 0.566161 0.507540 -0.858426 -0.348117 2.374173 1.734166 -1.187646 1.071467 -0.335446 -0.978737 -0.250363 -1.555413 -0.986274 -0.822023 2.084511 -1.460394 2.306611 -0.448560 1.135394 1.725214 -0.666445 0.835262 -1.211614 -1.399705 0.636161 
application -0.440475 1.707858 0.242260 1.691520 -2.124782 0.250493 -1.179325 -2.893715 2.378377 1.006441 -0.468459 1.220254 1.487319 0.554883 0.932162 -2.269755 -1.756114 -2.485402 1.292545 0.607854 0.524875 -3.998365 -3.588300 0.835220 2.449801 -1.268812 -1.630660 -0.991153 -0.160622 0.054369 -0.937472 -1.275703 -0.771240 -2.106895 0.342044 0.825969 1.772686 0.012820 -0.745399 0.813768 -0.878009 -2.750539 0.761037 -0.127578 1.804263 -0.616016 0.510871 -0.493765 0.006411 -0.054730 0.396317 1.654665 -0.248333 -0.319642 0.736612 -0.388147 -0.729456 1.164740 0.158778 2.010654 -0.553827 -1.096599 0.673184 0.192963 -0.681588 -1.758793 1.081355 -0.829588 1.349693 -0.084921 0.839177 1.293554 -0.938881 1.468004 -0.367864 1.002866 1.655186 -1.048178 1.645667 0.660690 -1.154750 -0.475991 1.125144 -1.169016 -1.372567 0.587896 -0.744888 -1.821578 1.973801 0.252631 0.395839 2.299374 -0.699991 -1.326457 1.042255 -1.053476 -1.751900 0.708986 -2.709219 -0.130514 1.367722 -1.694751 -2.720429 0.877599 -1.025883 -0.164448 0.453664 0.394925 2.359831 1.015632 -0.424458 -0.898245 -0.978095 -0.585646 -2.194376 1.628594 -0.418113 -3.736249 -1.013762 1.747160 -2.210071 -3.091826 -0.059950 -2.500957 1.087554 -0.783508 0.246351 -2.852438 2.897829 1.561364 0.060084 -0.157023 1.000977 1.879918 -0.531110 1.729573 0.381731 -1.544450 3.731538 -0.057119 1.772696 0.551405 -1.394764 0.319912 -0.913381 -2.064203 -1.379445 1.546001 0.944102 1.289791 1.959442 2.744353 -0.494972 -2.186411 1.947559 2.739980 -0.641894 1.321644 -1.431395 -0.705386 1.578795 -2.979267 -0.695112 -1.120726 0.723727 -0.587399 1.035884 0.207611 0.161327 1.166401 0.188816 1.655680 0.288846 1.273255 -0.669172 -0.791279 -0.579803 1.390751 0.396216 1.114135 -0.177247 1.661945 -1.601355 -1.252368 2.541418 1.360378 0.408163 0.252744 0.320576 -2.282907 -0.873114 1.070216 -1.005783 1.391648 -0.819782 0.495435 -0.349685 -0.904525 0.998046 1.564832 
modeling 0.662829 -1.420360 0.552993 -1.680528 -1.076742 0.080068 1.096533 1.174549 0.453517 0.906560 1.546220 -0.558664 0.524077 1.940277 1.979440 -0.086472 0.503833 -0.998506 0.232824 -0.196023 0.372512 -0.136728 -0.285568 -1.324259 -0.009993 -0.313367 -0.338352 -1.168814 1.269722 0.529145 -0.361248 0.824140 -1.030092 -0.372007 -0.060199 1.553239 -0.012608 1.551068 1.005387 1.614995 -1.051576 -2.350062 0.443422 -0.126037 -0.522415 0.348858 0.078111 -1.032210 -0.724823 -0.619827 0.755429 -1.319242 2.059892 -0.518888 -1.476608 0.272888 -0.792980 -0.448135 -0.209197 -0.092893 0.005889 0.825963 0.647170 1.565761 -0.998028 1.602465 0.082256 -0.748517 -0.897617 -0.157113 1.506112 -1.517290 -0.153042 0.832113 2.009665 0.041894 -3.138610 0.061486 -0.669670 -0.295069 -0.127286 0.008978 1.187790 0.101261 -0.263317 -1.523821 -0.097660 0.066027 -2.214822 0.599773 0.074955 -0.350604 0.470424 -0.930880 -0.299168 -1.370736 1.331189 -1.228084 2.348438 -1.817110 -1.384078 -1.959558 -0.136094 -2.359732 1.275030 -0.902658 0.028658 -0.134749 -1.312234 -0.691353 0.129043 0.424829 -1.550199 -0.455758 0.156822 -0.374475 1.091259 -0.307028 1.384093 1.022745 -0.213495 0.223999 -0.513981 0.288938 1.181012 -0.625886 0.661085 0.370041 -0.735802 -1.318521 0.285843 0.297703 3.028564 0.246707 -2.528841 -1.257403 -0.180306 -2.095773 -1.304813 -1.537014 -1.106732 0.286507 2.471637 0.414854 -2.451161 -1.816337 -0.077718 1.079720 -0.885412 -1.076213 -1.281743 -0.304813 -1.820650 -0.793437 1.087662 2.026846 1.191678 -1.632820 -0.185399 2.729862 1.914758 -1.274023 1.357764 -0.634174 -0.896175 -1.713604 0.017635 0.453414 0.963737 -0.006194 -1.897195 -0.468762 0.398356 1.055921 -0.453111 0.969745 -1.382072 1.153807 -0.412054 0.842749 -0.954795 1.332304 -0.198881 -0.240507 0.038803 -0.581401 1.616503 -1.280146 0.275468 0.027477 0.019509 -0.461312 2.326581 1.054179 -1.167243 0.223375 1.518755 0.323110 0.017059 -1.283042 
information 0.638693 2.059311 -2.017865 1.344523 0.984914 1.286003 -0.836777 0.187820 1.379157 -1.012037 0.418667 -0.721180 -0.546207 0.220886 0.317664 -1.030500 0.534127 -0.661729 -0.961014 0.994574 -0.598677 -2.077244 1.623850 -3.362596 -0.588108 -0.247609 0.582502 -0.148148 2.057375 -0.963915 -2.804035 0.030325 0.412246 -2.433220 1.779913 1.181855 0.453259 -0.653637 0.976627 0.508877 0.189414 -0.292173 -0.768941 2.411151 -0.162128 -1.231384 -0.501425 -0.977155 -0.703529 -1.294899 -0.565300 -1.344166 0.421665 1.033767 1.056405 -0.421645 -0.205680 0.807772 1.084887 -1.293229 1.547407 -0.581394 -0.609754 0.891942 -1.154666 0.861710 -0.925537 1.721716 -0.852359 -0.430433 -0.421391 0.760223 3.608455 -0.932587 -0.516794 -1.318555 -1.760341 -0.899821 -0.691968 -0.229624 -0.604617 0.522661 0.577537 1.138411 -0.616318 -1.224016 -0.315131 0.740643 -0.703005 1.718507 -1.648213 0.497534 -0.643873 0.168159 0.423206 -0.494965 1.800613 -0.765712 -0.939523 -1.103757 1.611806 -1.480704 -0.360123 -0.576125 -0.083135 0.548567 2.029068 -1.272653 -0.413626 0.755919 1.318807 1.674593 1.121951 0.637512 1.606678 1.735884 0.610636 0.137322 -1.670844 -0.320592 -0.320836 2.746934 -1.986957 -2.282002 0.260548 -2.094162 0.281401 -0.060553 1.126633 1.253300 0.815141 -0.801978 -0.461443 -0.251911 -1.099520 -1.289079 -1.129168 -0.853960 -1.782086 -2.856642 1.954487 -3.235720 0.832725 1.646060 1.280057 1.473099 -1.960858 0.515164 1.471164 -0.323139 0.961800 -1.894068 -0.562879 1.257052 0.662282 0.498606 -0.421490 -1.283617 0.220128 0.724019 0.909549 -1.110169 0.126494 -0.342012 -0.877238 0.135740 0.146736 -0.918298 -1.764089 -1.559878 -0.920025 -0.616910 0.243333 0.500434 0.999631 -1.330488 0.551448 -0.066879 1.406003 -1.026135 0.459661 -0.292094 -1.853625 -0.716891 0.192084 1.075156 -0.096925 1.463497 -1.266627 0.385203 0.954272 -0.871241 0.407242 -0.687533 1.494366 0.637687 -1.581548 -0.580311 -1.219463 -0.035989 
network 2.407852 -0.136563 0.956895 -0.337945 -1.959194 -1.313298 -2.519946 0.919695 -0.168076 -1.445242 1.315178 -1.316098 0.257714 -1.277815 2.201648 0.450815 -1.261646 -0.053952 1.329708 -0.397752 0.152333 -1.451221 -0.527760 -0.377170 0.611529 0.536330 -1.086714 -0.460720 0.293280 -0.402333 0.081032 -0.900857 -0.323039 -2.819834 0.338853 1.114171 -0.612225 -0.078851 0.287918 -2.080179 -1.971326 -0.221547 -0.861691 -0.576888 0.281524 1.994567 -0.755595 -0.619704 -1.139277 0.401785 -0.120133 0.721394 1.464188 0.389905 0.215244 1.333420 0.782694 -0.499422 1.535942 0.921475 0.981980 -0.256954 1.922800 0.491409 -2.176132 2.071411 0.052914 -0.039081 2.786278 0.693373 0.320860 -1.484543 0.143249 -0.130780 -0.902046 1.414922 -1.043077 0.054526 0.796458 -0.209676 -0.075351 -1.791461 -1.713466 0.075437 1.229890 0.408088 0.465863 0.585156 0.549465 0.414964 -0.383376 -1.115988 -0.955081 0.063848 0.355497 2.051085 1.917906 -1.507985 -0.202038 -0.280468 -1.443624 1.095863 0.754951 -0.234181 0.363380 -0.659580 0.732075 0.451975 0.075737 0.148736 -0.973492 0.752704 -0.576026 -0.848525 1.643418 0.903770 -1.887733 -0.605311 0.769747 1.721749 1.854835 1.360728 -1.476413 0.607233 -1.302459 0.562643 1.568302 2.275305 0.696106 -0.541986 0.824459 -0.740765 -1.177927 -1.297162 0.766210 -1.486162 0.448403 0.555777 1.521377 1.351720 -0.659136 -0.175144 -0.351700 -0.042084 1.541782 1.137881 -0.338182 -0.296324 1.444746 1.773858 -0.329092 -0.438552 1.132791 -1.325749 -0.589367 -0.432270 -1.620609 0.576561 -2.560917 2.072770 1.341627 1.045722 1.346853 -0.445605 -0.561390 -0.207065 1.450690 -0.917447 -0.750012 -0.375285 -2.687301 0.587722 -0.308600 0.990718 -0.652189 -0.027537 -0.873930 1.018888 0.473832 -0.114701 -1.352603 0.408262 -0.369566 1.639796 -2.798914 0.659210 1.026790 -0.759785 1.584917 2.858794 0.865773 1.152314 -0.613798 0.995393 0.843430 1.530738 1.814182 1.394072 0.153791 0.952376 
stochastic -0.860550 -0.906235 0.498867 1.780209 -0.845679 -0.240416 0.930200 -1.456614 0.620328 0.555656 -0.225767 0.257840 0.106198 0.454097 -1.044321 -1.413338 1.628856 -0.580186 -0.597339 -0.480215 0.404296 -1.310292 -1.105764 -0.026609 -3.335878 -0.151928 -0.413311 0.709681 -1.107455 0.236707 0.945039 0.317727 0.157833 -0.921763 -0.348724 -1.021338 -1.258109 -0.661278 -0.015249 0.901298 1.922597 1.462764 -0.996588 -0.515143 -1.118855 -0.889868 0.421947 -0.910988 -0.659157 -0.079548 1.031290 -1.444600 -1.746226 1.899010 1.510025 0.682063 -0.007602 0.272368 -0.372242 -2.682955 -0.860064 0.926697 -0.273224 -0.710012 -0.451023 1.224691 0.441652 0.959764 0.007493 0.195731 -0.082101 0.133511 0.741564 -1.444514 0.347043 -1.137175 -1.177193 -1.271185 0.166946 2.310897 -0.737724 -0.578465 -0.765218 0.917626 0.411034 -0.218483 2.133099 0.012835 -0.418323 -1.287373 -0.605476 -0.073931 0.645835 0.286786 1.621304 0.343102 1.761930 0.849939 -1.697169 -2.479466 -0.892408 1.310643 -0.891284 -0.941691 -0.395290 -0.764822 -1.692549 0.305334 0.245668 -0.435001 -1.081917 -0.176484 -1.869392 -0.149047 -0.656863 0.411647 -0.480303 -0.267825 -0.402046 -0.343450 1.915663 -0.738021 -0.619569 1.339676 1.132986 -0.140310 -0.658699 1.198819 1.257212 -0.072228 0.257878 2.080359 2.536075 -1.215312 0.106526 -1.058814 0.590117 1.810209 -1.536489 -0.657797 -0.401606 0.455008 1.207505 0.168052 0.929483 -0.745569 0.776031 -1.053315 -0.644154 2.057823 1.639627 -0.889550 1.014220 -0.143486 0.217020 1.424048 -0.393002 -1.386650 0.517465 -1.472887 -0.808826 0.615845 -0.455175 1.483877 0.046126 0.410580 -0.490850 -0.004123 -0.345383 -1.821510 0.006870 1.015510 -1.586175 -1.156260 1.065679 0.808085 -0.545162 1.431119 -0.930168 0.692845 -0.795706 -0.596187 -0.905909 -1.013720 0.839380 -0.588173 0.054556 -0.906860 -0.287312 1.703420 0.546565 -0.372952 -0.967536 -2.149444 -0.271344 1.469703 0.267464 -1.378945 0.943089 0.606044 
selection 0.682340 -0.871318 0.190916 0.715170 -0.292799 1.440738 0.193096 0.836912 1.457416 -2.132767 -1.211615 -2.256190 3.679333 0.697504 -0.906942 0.607399 2.183159 0.456614 -0.940289 1.937415 2.157171 0.085832 1.140276 0.557153 1.098520 -0.293834 0.958657 0.265594 0.859532 -0.045107 1.789045 -1.416334 -0.791404 0.433823 1.451928 0.561024 1.719422 0.818902 0.481707 -0.202966 0.591794 1.065759 0.439475 -2.385799 1.030471 0.939459 -0.175207 1.130334 -0.509932 0.188184 0.702924 -0.459790 -1.946522 0.395835 -0.278555 -0.265636 1.722485 -1.967713 -1.841583 -0.207240 0.401065 -0.557047 -0.260473 -0.968537 -0.379957 0.272951 -0.724581 0.472180 0.195615 0.225371 -0.421125 2.904756 0.402231 -0.739754 -3.347440 0.437654 -1.348035 1.869154 0.053422 1.204824 -0.956135 0.107269 0.887452 -0.228778 -0.335612 0.287140 0.832965 0.088713 1.497463 -0.520921 1.658945 2.075045 2.998535 -0.622008 0.297334 -0.251277 -1.372343 0.961650 -1.014107 -1.009113 2.320771 0.178493 -0.565458 -1.186087 0.162994 -0.530169 1.041117 -0.917818 0.750749 0.212146 1.504532 -0.292505 -0.792437 1.001046 -0.593687 -0.382372 -0.995880 0.048212 -0.672481 0.206138 -0.032978 0.657292 -0.707953 0.801159 -0.310861 0.227534 -1.814777 2.470737 0.624395 1.112819 -0.552159 0.124556 -0.397959 -1.427124 -0.638382 -0.008875 -1.692698 2.132857 -1.539664 -2.958473 -0.750700 -0.412675 -0.480987 1.021284 1.397266 -0.107488 0.288643 0.807437 2.080418 0.879677 -0.663680 1.214114 -0.981302 -0.004612 -0.516102 0.127191 0.377040 -0.702281 0.036620 0.849032 1.806473 -0.978397 1.106042 2.181818 -2.492982 -2.618756 0.309386 2.337953 0.136741 1.034814 0.507819 -0.290817 -1.452657 0.152961 -0.648911 1.505867 -0.454420 -0.849344 0.477611 0.177296 0.390868 -2.724334 -1.142854 0.608436 -1.846039 0.862641 0.191186 -1.844099 0.256105 -0.753989 0.329287 -2.181894 0.271529 0.405380 -1.299535 0.463799 0.707301 0.076919 0.085520 -0.721442 
recognition 1.741858 -1.012409 0.829087 -1.061020 -0.141469 0.442118 1.088847 -0.832299 2.214342 -0.377463 -0.470355 1.139544 -0.673814 -0.289581 2.290520 -0.875115 0.145369 -0.467862 -2.708711 -1.161726 2.062909 -0.320682 0.042099 -1.125044 -0.823107 0.502510 0.980436 -2.714226 2.158894 0.958528 -0.567211 -1.748627 -2.354368 0.982710 0.774396 -0.598848 2.310079 0.100166 0.112501 1.912233 0.967927 3.215627 -0.016629 1.481146 0.034961 0.931257 -0.179551 0.783440 -0.100011 -0.879220 -0.558048 0.311514 0.613962 0.242095 0.221426 0.161864 -0.495409 -1.096279 1.120790 2.903999 0.004650 0.683344 -0.010765 -1.400236 -1.272546 -0.240106 -2.137270 -0.768721 0.367262 -0.711207 -0.960153 1.062065 2.066478 1.634776 -0.268550 -0.788445 -0.442902 1.722200 -1.687116 0.686480 -1.205662 -0.497421 0.560353 1.681978 0.614935 -0.561657 -0.368185 0.005360 -0.727040 0.776930 -1.032972 1.421435 0.305503 1.855787 -1.594644 1.178248 -0.165728 0.765202 0.982012 -1.872478 0.373090 0.053090 0.659469 0.047443 -0.268122 1.442873 -1.592586 1.194632 -1.100365 -0.246019 0.970715 1.706745 -0.693811 -1.379154 0.373582 -2.194638 -0.163932 1.695130 -1.240420 -1.219010 -0.781304 -0.927073 -1.511211 -1.011169 -0.797166 0.263969 -0.324885 0.590733 -1.583197 0.048454 -0.287265 1.844659 0.611353 0.113116 0.071726 2.566380 0.513935 0.874734 -0.901619 0.553844 -0.633844 -0.871605 -0.108682 1.530121 1.318563 -0.457533 0.319393 0.875102 0.235906 -0.502683 1.951040 0.435341 0.830551 -0.688276 1.680393 2.659246 -0.329543 -0.261986 -1.157901 1.121926 1.562076 0.907737 -0.506388 -0.389561 0.502093 1.588627 -1.232046 2.024701 -2.276707 -1.841302 -0.647430 -1.287218 -0.398106 1.354938 -2.509695 -1.382533 -0.130194 -0.652821 1.076206 0.893928 0.279878 0.196108 0.043170 1.376664 -0.817755 -0.703843 -1.891301 1.666095 -0.059241 0.163186 -0.179121 -0.563720 -1.273057 -0.212401 -3.722018 1.040242 1.177353 0.897909 -0.431606 -1.776498 
prediction 1.174532 0.659539 -1.482070 1.576350 -0.009765 1.776565 -0.833754 -0.329993 -0.662318 -2.946617 -0.682823 -0.704624 1.472345 -0.417693 0.620501 0.241203 -0.415063 -1.421501 -0.284822 0.239302 -1.551059 0.377313 -0.601262 0.883059 1.472173 0.955657 -1.222727 -1.764068 -0.522664 -0.432747 0.148538 0.211538 0.619844 -1.644730 1.772843 2.180257 0.540698 -0.529209 0.127303 0.054511 1.635056 -0.828578 -0.201492 -0.205047 -0.873905 -1.320759 1.384641 -1.993655 -2.353979 -1.793656 -1.384653 -1.054986 0.727196 -1.124669 0.096911 0.747064 -0.893668 0.115481 2.085072 -1.528967 0.461793 -1.080081 0.587769 0.579460 -0.701334 -0.536181 -0.463216 0.283768 -1.001341 1.240440 -1.845871 2.108118 1.267023 -1.964079 0.154014 0.296117 1.528500 1.410120 0.234507 -0.678782 -1.091307 -0.695584 0.418106 -0.857018 1.422838 0.514091 2.289150 -1.816916 0.476983 0.128434 -1.561564 0.236711 1.315881 1.832163 -0.467401 0.827055 1.523709 -0.313232 1.768873 0.307584 0.023697 -0.597090 0.633514 -0.016503 -0.618087 0.764152 0.109490 -1.301418 -0.984509 -0.829846 0.523197 -0.576677 -2.038629 -1.617601 0.373031 0.918306 -0.068336 -1.551984 0.757259 0.166366 -0.516128 -0.017020 -1.294713 0.979460 1.529721 -0.102339 -1.115224 1.070156 -0.528315 0.396161 0.237257 0.045005 0.801851 -2.380098 -0.171072 -0.626832 0.388337 -0.885114 1.441273 1.850113 -2.441050 0.331646 0.199959 -0.084892 -1.646576 -1.071847 0.681262 0.399001 -0.686141 -1.240027 -0.090782 0.523070 1.140014 -0.586185 -0.217965 -1.136588 0.129600 -0.444847 0.275548 -1.921653 0.621448 -0.558349 -0.541761 -0.259952 -0.894923 0.990269 -0.015277 0.214462 -0.030308 -0.497478 0.752406 -1.439292 0.136490 -0.645577 -1.010994 -0.128430 0.452567 0.589195 -0.303058 0.914130 -0.776805 0.749520 0.219725 -0.148577 0.533040 0.041074 -0.378733 0.734130 -0.523197 0.095828 0.043575 -0.243186 0.773228 -0.266353 1.251323 0.700904 1.534734 -0.313551 0.971744 -0.295343 
